{"learner":{"attributes":{"scikit_learn":"{\"_estimator_type\": \"classifier\"}"},"feature_names":[],"feature_types":[],"gradient_booster":{"model":{"cats":{"enc":[],"feature_segments":[],"sorted_idx":[]},"gbtree_model_param":{"num_parallel_tree":"1","num_trees":"200"},"iteration_indptr":[0,1,2,3,4,5,6,7,8,9,10,11,12,13,14,15,16,17,18,19,20,21,22,23,24,25,26,27,28,29,30,31,32,33,34,35,36,37,38,39,40,41,42,43,44,45,46,47,48,49,50,51,52,53,54,55,56,57,58,59,60,61,62,63,64,65,66,67,68,69,70,71,72,73,74,75,76,77,78,79,80,81,82,83,84,85,86,87,88,89,90,91,92,93,94,95,96,97,98,99,100,101,102,103,104,105,106,107,108,109,110,111,112,113,114,115,116,117,118,119,120,121,122,123,124,125,126,127,128,129,130,131,132,133,134,135,136,137,138,139,140,141,142,143,144,145,146,147,148,149,150,151,152,153,154,155,156,157,158,159,160,161,162,163,164,165,166,167,168,169,170,171,172,173,174,175,176,177,178,179,180,181,182,183,184,185,186,187,188,189,190,191,192,193,194,195,196,197,198,199,200],"tree_info":[0,0,0,0,0,0,0,0,0,0,0,0,0,0,0,0,0,0,0,0,0,0,0,0,0,0,0,0,0,0,0,0,0,0,0,0,0,0,0,0,0,0,0,0,0,0,0,0,0,0,0,0,0,0,0,0,0,0,0,0,0,0,0,0,0,0,0,0,0,0,0,0,0,0,0,0,0,0,0,0,0,0,0,0,0,0,0,0,0,0,0,0,0,0,0,0,0,0,0,0,0,0,0,0,0,0,0,0,0,0,0,0,0,0,0,0,0,0,0,0,0,0,0,0,0,0,0,0,0,0,0,0,0,0,0,0,0,0,0,0,0,0,0,0,0,0,0,0,0,0,0,0,0,0,0,0,0,0,0,0,0,0,0,0,0,0,0,0,0,0,0,0,0,0,0,0,0,0,0,0,0,0,0,0,0,0,0,0,0,0,0,0,0,0,0,0,0,0,0,0],"trees":[{"base_weights":[4.5821927E-3,-1.4108773E0,1.6258948E0,-1.66077E0,-4.4160458E-1,6.8188995E-1,1.7938646E0,-1.7477593E0,-9.9356353E-1,-6.3476515E-1,7.5534874E-1,1.5119351E0,-1.0018156E-2,1.481277E0,1.8626297E0,-5.7624733E-1,-1.7681506E0,9.7624403E-1,-1.2505654E0,-1.050566E0,4.382728E-2,1.0106064E0,-2.2097945E-1,1.7166232E0,9.807844E-1,9.2319196E-1,-5.533421E-1,1.687808E0,6.916591E-1,1.7749262E0,1.9162039E0,-1.337839E0,1.152815E0,-1.7868612E0,-1.2667212E0,1.4587685E0,3.6509418E-1,-5.386592E-1,-1.4137143E0,1.4458397E-1,-1.2320971E0,1.3728865E0,-2.3043017E-1,3.6368716E-1,1.3162367E0,-5.1383305E-1,1.1026334E0,1.8295745E0,1.5578711E0,4.3380547E-1,1.298131E0,-2.0320097E-1,1.12368E0,-8.0141747E-1,3.314184E-1,1.8581328E0,1.4403306E0,1.6286637E0,3.5581753E-1,1.8554502E0,1.3584949E0,1.9563776E0,1.862626E0,3.775933E-3,-8.358681E-2,6.514331E-2,-9.7260274E-2,-9.206683E-2,-8.5236184E-2,-7.2322436E-2,-2.665603E-2,8.0043264E-2,3.0279353E-2,-9.873418E-2,2.8345296E-2,9.668745E-3,-5.487297E-2,-7.61051E-2,-4.8111163E-2,-5.1430203E-2,3.4308627E-2,-7.883943E-2,-4.728198E-2,9.4896436E-2,5.4706015E-2,6.417385E-2,-1.9644244E-2,5.2955944E-2,-4.5774337E-2,9.54837E-2,5.3908195E-2,-7.336524E-2,1.0594752E-2,-9.493671E-2,6.907689E-2,9.163075E-2,-8.095238E-2,6.6687785E-2,8.851592E-2,-1.9985272E-2,6.454981E-2,6.622388E-2,-9.466667E-2,2.7914871E-3,-9.907407E-2,4.0196817E-2,7.214615E-2,-1.7870812E-2,-6.516005E-2,-1.4942664E-2,3.9791413E-2,9.424113E-2,8.614274E-2,8.092658E-2,5.542664E-2,8.269935E-2,-9.148937E-2,-3.516059E-4,4.059826E-2,9.434736E-2,7.4883044E-2,7.704488E-2,4.023203E-2,9.840557E-2,9.454025E-2,8.893155E-2,9.573008E-2],"categories":[],"categories_nodes":[],"categories_segments":[],"categories_sizes":[],"default_left":[0,0,0,0,0,0,0,0,0,0,0,0,0,0,0,0,0,0,0,0,0,0,0,0,0,0,0,0,0,0,0,0,0,0,0,0,0,0,0,0,0,0,0,0,0,0,0,0,0,0,0,0,0,0,0,0,0,0,0,0,0,0,0,0,0,0,0,0,0,0,0,0,0,0,0,0,0,0,0,0,0,0,0,0,0,0,0,0,0,0,0,0,0,0,0,0,0,0,0,0,0,0,0,0,0,0,0,0,0,0,0,0,0,0,0,0,0,0,0,0,0,0,0,0,0,0,0],"id":0,"left_children":[1,3,5,7,9,11,13,15,17,19,21,23,25,27,29,31,33,35,37,39,41,43,45,47,49,51,53,55,57,59,61,63,65,67,69,71,73,75,77,79,81,83,85,87,89,91,93,95,97,99,101,103,105,107,109,111,113,115,117,119,121,123,125,-1,-1,-1,-1,-1,-1,-1,-1,-1,-1,-1,-1,-1,-1,-1,-1,-1,-1,-1,-1,-1,-1,-1,-1,-1,-1,-1,-1,-1,-1,-1,-1,-1,-1,-1,-1,-1,-1,-1,-1,-1,-1,-1,-1,-1,-1,-1,-1,-1,-1,-1,-1,-1,-1,-1,-1,-1,-1,-1,-1,-1,-1,-1,-1],"loss_changes":[9.117469E5,5.137572E4,2.9361812E4,9.7858125E3,1.0052767E4,1.6065984E4,3.3764375E3,3.5627812E3,9.849055E3,1.0563277E4,1.5059451E3,1.3809727E3,7.73664E3,4.622551E3,6.0209375E2,3.3643743E3,1.373375E3,6.616985E2,1.9979023E3,5.0364844E3,5.1852876E3,9.4655225E2,4.8628E2,1.6173242E2,6.1391284E2,1.2681968E3,2.1169639E3,9.446094E2,1.8497583E3,1.6364688E3,1.685E2,8.369768E2,3.657827E2,6.2934375E2,6.9513477E2,1.5112451E2,4.6958658E2,1.313282E3,6.835957E2,1.9461581E3,1.9883633E3,3.5408203E2,2.900729E3,1.3693315E3,4.574707E2,7.107606E2,1.9292139E2,5.9140625E1,1.7963477E2,9.302254E2,1.9083423E2,3.9128574E2,4.853872E2,1.677665E3,6.1859717E2,4.480078E1,5.401699E2,1.3887549E2,7.1664594E2,4.5870312E2,7.992324E2,3.14375E1,1.4630469E2,0E0,0E0,0E0,0E0,0E0,0E0,0E0,0E0,0E0,0E0,0E0,0E0,0E0,0E0,0E0,0E0,0E0,0E0,0E0,0E0,0E0,0E0,0E0,0E0,0E0,0E0,0E0,0E0,0E0,0E0,0E0,0E0,0E0,0E0,0E0,0E0,0E0,0E0,0E0,0E0,0E0,0E0,0E0,0E0,0E0,0E0,0E0,0E0,0E0,0E0,0E0,0E0,0E0,0E0,0E0,0E0,0E0,0E0,0E0,0E0,0E0,0E0,0E0,0E0],"parents":[2147483647,0,0,1,1,2,2,3,3,4,4,5,5,6,6,7,7,8,8,9,9,10,10,11,11,12,12,13,13,14,14,15,15,16,16,17,17,18,18,19,19,20,20,21,21,22,22,23,23,24,24,25,25,26,26,27,27,28,28,29,29,30,30,31,31,32,32,33,33,34,34,35,35,36,36,37,37,38,38,39,39,40,40,41,41,42,42,43,43,44,44,45,45,46,46,47,47,48,48,49,49,50,50,51,51,52,52,53,53,54,54,55,55,56,56,57,57,58,58,59,59,60,60,61,61,62,62],"right_children":[2,4,6,8,10,12,14,16,18,20,22,24,26,28,30,32,34,36,38,40,42,44,46,48,50,52,54,56,58,60,62,64,66,68,70,72,74,76,78,80,82,84,86,88,90,92,94,96,98,100,102,104,106,108,110,112,114,116,118,120,122,124,126,-1,-1,-1,-1,-1,-1,-1,-1,-1,-1,-1,-1,-1,-1,-1,-1,-1,-1,-1,-1,-1,-1,-1,-1,-1,-1,-1,-1,-1,-1,-1,-1,-1,-1,-1,-1,-1,-1,-1,-1,-1,-1,-1,-1,-1,-1,-1,-1,-1,-1,-1,-1,-1,-1,-1,-1,-1,-1,-1,-1,-1,-1,-1,-1],"split_conditions":[1.0368727E0,2.7793046E-2,1.0579435E0,1.0205952E0,6.342846E-2,8.267641E-3,1.0766345E0,-1.19412124E-1,-3.1496063E-2,1.0057819E0,9.589041E-2,-1.754386E-2,5.509642E-3,2.9593943E-2,1.1072218E0,9.7244734E-1,5.9535E0,-2.1306819E-3,9.80873E-4,-1.2712139E-1,-6.842934E-2,9.43995E-1,2.37328E1,-4.6268657E-2,1.0450939E0,1.7528005E-2,3.5891213E-2,2.6785715E-2,1.2552301E-2,4.729289E-2,1.4851485E-1,-1.8123367E-1,4.524887E-3,1.4211214E-2,2.40241E-2,-4.2896174E-2,1.3659405E-2,2.8279312E-3,1.0328312E0,9.377729E-1,1.1907343E1,-2.2568094E-2,-3.4383953E-2,-6.392891E-2,-8.5413925E-2,9.966887E-1,1.324042E1,9.824349E-2,1.0487804E0,2.6983116E-2,6.636838E-2,5.6626506E-2,1.0487804E0,2.5641026E-2,1.2797356E1,1.6129032E-2,1.010101E-2,1.4665347E1,3.5353404E-2,1.4851485E-1,1.3887554E-1,7.346414E-2,1.1544338E0,3.775933E-3,-8.358681E-2,6.514331E-2,-9.7260274E-2,-9.206683E-2,-8.5236184E-2,-7.2322436E-2,-2.665603E-2,8.0043264E-2,3.0279353E-2,-9.873418E-2,2.8345296E-2,9.668745E-3,-5.487297E-2,-7.61051E-2,-4.8111163E-2,-5.1430203E-2,3.4308627E-2,-7.883943E-2,-4.728198E-2,9.4896436E-2,5.4706015E-2,6.417385E-2,-1.9644244E-2,5.2955944E-2,-4.5774337E-2,9.54837E-2,5.3908195E-2,-7.336524E-2,1.0594752E-2,-9.493671E-2,6.907689E-2,9.163075E-2,-8.095238E-2,6.6687785E-2,8.851592E-2,-1.9985272E-2,6.454981E-2,6.622388E-2,-9.466667E-2,2.7914871E-3,-9.907407E-2,4.0196817E-2,7.214615E-2,-1.7870812E-2,-6.516005E-2,-1.4942664E-2,3.9791413E-2,9.424113E-2,8.614274E-2,8.092658E-2,5.542664E-2,8.269935E-2,-9.148937E-2,-3.516059E-4,4.059826E-2,9.434736E-2,7.4883044E-2,7.704488E-2,4.023203E-2,9.840557E-2,9.454025E-2,8.893155E-2,9.573008E-2],"split_indices":[2,3,2,2,3,1,2,1,1,2,1,1,0,0,2,2,5,0,1,1,1,2,5,1,2,3,3,1,1,0,1,1,0,3,3,1,3,0,2,2,6,0,0,0,0,2,6,0,2,3,0,1,2,0,6,0,0,6,3,1,1,0,2,0,0,0,0,0,0,0,0,0,0,0,0,0,0,0,0,0,0,0,0,0,0,0,0,0,0,0,0,0,0,0,0,0,0,0,0,0,0,0,0,0,0,0,0,0,0,0,0,0,0,0,0,0,0,0,0,0,0,0,0,0,0,0,0],"split_type":[0,0,0,0,0,0,0,0,0,0,0,0,0,0,0,0,0,0,0,0,0,0,0,0,0,0,0,0,0,0,0,0,0,0,0,0,0,0,0,0,0,0,0,0,0,0,0,0,0,0,0,0,0,0,0,0,0,0,0,0,0,0,0,0,0,0,0,0,0,0,0,0,0,0,0,0,0,0,0,0,0,0,0,0,0,0,0,0,0,0,0,0,0,0,0,0,0,0,0,0,0,0,0,0,0,0,0,0,0,0,0,0,0,0,0,0,0,0,0,0,0,0,0,0,0,0,0],"sum_hessian":[3.9729022E5,2.121107E5,1.8517953E5,1.6863373E5,4.3476965E4,2.7973145E4,1.5720639E5,1.49182E5,1.9451736E4,3.7436113E4,6.040853E3,1.271657E4,1.5256573E4,2.8351316E4,1.2885507E5,2.5527144E3,1.4662928E5,2.2446523E3,1.7207084E4,2.3212396E4,1.4223715E4,4.7888022E3,1.2520508E3,9.177594E3,3.5389773E3,5.6137427E3,9.642831E3,2.247235E4,5.878966E3,4.8876297E4,7.997877E4,1.772303E3,7.804114E2,1.4135222E5,5.277075E3,1.2535463E3,9.911061E2,3.2089622E3,1.3998121E4,3.060847E3,2.015155E4,2.4323713E3,1.1791344E4,1.5372144E3,3.251588E3,1.025719E3,2.2633182E2,5.356178E3,3.8214153E3,1.3002432E3,2.2387341E3,8.4821893E2,4.7655234E3,7.5312583E3,2.1115728E3,1.3307223E4,9.165127E3,1.5501545E3,4.3288115E3,4.0953742E4,7.9225537E3,4.5686527E4,3.4292242E4,3.3883182E2,1.4334712E3,7.449114E2,3.55E1,8.497411E4,5.63781E4,4.237856E3,1.039219E3,1.0738251E3,1.7972122E2,7.8E1,9.131061E2,1.3894379E3,1.8195243E3,1.1286294E4,2.7118274E3,9.6644244E2,2.0944045E3,9.144075E3,1.1007475E4,8.415485E2,1.5908228E3,1.1420198E3,1.0649324E4,9.9593787E2,5.412765E2,9.289644E2,2.3226235E3,4.428606E2,5.8285834E2,1.875E1,2.0758182E2,5.351928E3,4.25E0,1.863181E3,1.9582341E3,6.5949774E2,6.407455E2,2.2209841E3,1.775E1,7.4121893E2,1.07E2,2.3826523E3,2.3828713E3,3.996597E3,3.5346614E3,8.9596893E2,1.2156038E3,1.1103602E4,2.2036213E3,5.960176E3,3.2049507E3,1.5394045E3,1.075E1,2.4115173E3,1.917294E3,3.763627E4,3.317475E3,5.9584546E3,1.9640992E3,3.8727504E4,6.959025E3,1.3121894E4,2.117035E4],"tree_param":{"num_deleted":"0","num_feature":"26","num_nodes":"127","size_leaf_vector":"1"}},{"base_weights":[2.9804413E-3,-1.3363035E0,1.5829909E0,-1.5833226E0,1.3224269E0,6.2460715E-1,1.7207944E0,-1.6999156E0,-1.1769638E0,2.1544704E-1,1.5512731E0,-3.1917003E-1,1.1105131E0,1.0095592E0,1.770405E0,-1.7054764E0,1.1991645E0,-1.4485365E0,-9.012948E-1,1.750966E0,4.6736848E-2,1.1114839E0,1.7345351E0,-1.510572E0,-6.887122E-2,4.3833363E-1,1.3478913E0,4.6628326E-1,1.3749322E0,1.679373E0,1.8530648E0,-1.7800082E0,-1.5792227E0,1.7972693E0,-9.846545E-2,-1.1700382E0,-1.5506294E0,-1.1922481E0,-6.0696894E-1,-8.93844E-2,1.8446873E0,-2.914572E-1,5.989561E-1,1.2793132E0,4.414753E-1,-9.6495636E-2,1.7387453E0,-9.709284E-2,-5.248413E-1,-6.1294156E-1,2.5133577E-1,1.5094868E0,-3.652578E-1,1.6365075E0,6.242501E-1,1.1630881E0,9.519636E-2,1.3832712E0,-9.7064786E-2,1.4956802E0,1.7366023E0,1.8230691E0,1.8804734E0,-4.5920312E-2,-8.9319706E-2,-8.131947E-2,-6.607366E-2,-8.664636E-2,9.4993494E-2,-6.9981374E-2,-2.6525274E-2,-8.373331E-2,-6.714791E-2,-6.960628E-2,-4.383456E-2,1.5260412E-3,-3.9664946E-2,-7.275135E-2,9.385297E-2,6.711911E-2,-2.5443202E-2,3.473098E-2,-9.934693E-2,8.838043E-2,5.6221873E-2,-1.0208776E-1,4.6441894E-2,9.282434E-2,8.061832E-2,-7.082661E-2,2.9965037E-2,-7.918372E-2,-1.0558941E-2,5.9095442E-2,-3.3595269E-3,4.1884523E-2,8.7877795E-2,-7.2468355E-2,2.1150466E-2,6.924875E-2,8.91675E-2,-1.2866308E-2,5.8690656E-2,-5.099624E-3,6.71317E-2,-1.9419348E-2,2.6983181E-2,-9.745114E-2,6.956314E-2,7.782751E-2,3.3795316E-2,9.033988E-2,8.478602E-2,9.1380656E-2,8.168714E-2,9.201203E-2,9.4334744E-2],"categories":[],"categories_nodes":[],"categories_segments":[],"categories_sizes":[],"default_left":[0,0,0,0,0,0,0,0,0,0,0,0,0,0,0,0,0,0,0,0,0,0,0,0,0,0,0,0,0,0,0,0,0,0,0,0,0,0,0,0,0,0,0,0,0,0,0,0,0,0,0,0,0,0,0,0,0,0,0,0,0,0,0,0,0,0,0,0,0,0,0,0,0,0,0,0,0,0,0,0,0,0,0,0,0,0,0,0,0,0,0,0,0,0,0,0,0,0,0,0,0,0,0,0,0,0,0,0,0,0,0,0,0,0,0,0,0],"id":1,"left_children":[1,3,5,7,9,11,13,15,17,19,21,23,25,27,29,31,33,35,37,39,41,43,45,47,49,51,53,55,57,59,61,63,65,67,-1,69,71,73,75,-1,77,79,81,83,85,-1,87,-1,89,91,93,95,97,99,101,103,105,107,-1,109,111,113,115,-1,-1,-1,-1,-1,-1,-1,-1,-1,-1,-1,-1,-1,-1,-1,-1,-1,-1,-1,-1,-1,-1,-1,-1,-1,-1,-1,-1,-1,-1,-1,-1,-1,-1,-1,-1,-1,-1,-1,-1,-1,-1,-1,-1,-1,-1,-1,-1,-1,-1,-1,-1,-1,-1],"loss_changes":[8.3954675E5,1.410281E5,2.4037375E4,9.306781E3,4.6241445E3,1.04941875E4,5.6132188E3,2.46325E3,3.2783516E3,8.103775E2,1.217293E3,2.3193477E3,2.4097285E3,2.0594795E3,1.1162188E3,1.431E3,5.585384E2,6.2559375E2,1.8612188E3,1.06001526E2,5.26795E2,5.0008496E2,1.680664E2,5.7304346E2,1.1201285E3,3.3953125E3,2.3304414E3,1.0793835E3,1.7427246E2,7.4171875E2,6.06875E1,5.2553125E2,6.856094E2,9.271277E1,0E0,8.6898047E2,4.1360156E2,6.8835254E2,1.284165E3,0E0,3.500952E1,6.221094E2,2.664035E2,2.6723242E2,1.0830945E3,0E0,1.556914E2,0E0,4.141889E2,9.286796E2,1.1998441E3,2.8028516E2,1.9269553E3,2.9226562E2,1.5431116E3,3.2963245E2,5.8594604E2,1.6754688E2,0E0,8.385586E2,1.5184375E2,2.9046875E1,6.71875E0,0E0,0E0,0E0,0E0,0E0,0E0,0E0,0E0,0E0,0E0,0E0,0E0,0E0,0E0,0E0,0E0,0E0,0E0,0E0,0E0,0E0,0E0,0E0,0E0,0E0,0E0,0E0,0E0,0E0,0E0,0E0,0E0,0E0,0E0,0E0,0E0,0E0,0E0,0E0,0E0,0E0,0E0,0E0,0E0,0E0,0E0,0E0,0E0,0E0,0E0,0E0,0E0,0E0,0E0],"parents":[2147483647,0,0,1,1,2,2,3,3,4,4,5,5,6,6,7,7,8,8,9,9,10,10,11,11,12,12,13,13,14,14,15,15,16,16,17,17,18,18,19,19,20,20,21,21,22,22,23,23,24,24,25,25,26,26,27,27,28,28,29,29,30,30,31,31,32,32,33,33,35,35,36,36,37,37,38,38,40,40,41,41,42,42,43,43,44,44,46,46,48,48,49,49,50,50,51,51,52,52,53,53,54,54,55,55,56,56,57,57,59,59,60,60,61,61,62,62],"right_children":[2,4,6,8,10,12,14,16,18,20,22,24,26,28,30,32,34,36,38,40,42,44,46,48,50,52,54,56,58,60,62,64,66,68,-1,70,72,74,76,-1,78,80,82,84,86,-1,88,-1,90,92,94,96,98,100,102,104,106,108,-1,110,112,114,116,-1,-1,-1,-1,-1,-1,-1,-1,-1,-1,-1,-1,-1,-1,-1,-1,-1,-1,-1,-1,-1,-1,-1,-1,-1,-1,-1,-1,-1,-1,-1,-1,-1,-1,-1,-1,-1,-1,-1,-1,-1,-1,-1,-1,-1,-1,-1,-1,-1,-1,-1,-1,-1,-1],"split_conditions":[7.745505E-2,1.0609233E0,1.0337471E0,4.6979867E-2,1.0766345E0,9.528796E-2,9.090909E-2,9.824349E-2,1.0024154E0,1.0416667E-2,1.1072218E0,9.504132E-1,9.7349286E-1,1.0678587E0,1.3554987E-1,3.0567685E-2,1.724138E-2,-7.863248E-2,5.91716E-2,1.02572155E1,1.3211649E1,1.7317073E-1,2.189781E-2,-3.9631337E-2,2.5511673E-2,-1.515025E-1,-4.3436293E-3,-2.6737968E-3,8.9E1,1.0642147E0,1.7879377E-1,8.377689E0,1.0225189E0,3.6416296E-2,-9.846545E-2,3.2058E0,2.7243722E-2,4.2512E-2,-2.0618556E-2,-8.93844E-2,7.93E-4,9.122807E-3,2.0593135E-1,1.655629E-2,1.0883335E0,-9.6495636E-2,5.9203445E-3,-9.709284E-2,5.1552773E-2,9.9945235E-1,-7.493703E-2,1.260355E-1,4.6651166E-2,1.13649026E-1,3.1E1,8.169291E-2,8.496732E-2,-1.5151516E-2,-9.7064786E-2,9.979633E-2,3.5123967E-2,1.5536426E1,1.0965677E0,-4.5920312E-2,-8.9319706E-2,-8.131947E-2,-6.607366E-2,-8.664636E-2,9.4993494E-2,-6.9981374E-2,-2.6525274E-2,-8.373331E-2,-6.714791E-2,-6.960628E-2,-4.383456E-2,1.5260412E-3,-3.9664946E-2,-7.275135E-2,9.385297E-2,6.711911E-2,-2.5443202E-2,3.473098E-2,-9.934693E-2,8.838043E-2,5.6221873E-2,-1.0208776E-1,4.6441894E-2,9.282434E-2,8.061832E-2,-7.082661E-2,2.9965037E-2,-7.918372E-2,-1.0558941E-2,5.9095442E-2,-3.3595269E-3,4.1884523E-2,8.7877795E-2,-7.2468355E-2,2.1150466E-2,6.924875E-2,8.91675E-2,-1.2866308E-2,5.8690656E-2,-5.099624E-3,6.71317E-2,-1.9419348E-2,2.6983181E-2,-9.745114E-2,6.956314E-2,7.782751E-2,3.3795316E-2,9.033988E-2,8.478602E-2,9.1380656E-2,8.168714E-2,9.201203E-2,9.4334744E-2],"split_indices":[7,2,2,7,2,7,7,0,2,7,2,2,2,2,7,7,7,1,7,6,6,1,0,0,3,1,1,1,24,2,7,6,2,9,0,5,3,5,1,0,5,1,9,7,2,0,7,0,3,2,1,7,3,7,24,7,7,0,0,1,1,6,2,0,0,0,0,0,0,0,0,0,0,0,0,0,0,0,0,0,0,0,0,0,0,0,0,0,0,0,0,0,0,0,0,0,0,0,0,0,0,0,0,0,0,0,0,0,0,0,0,0,0,0,0,0,0],"split_type":[0,0,0,0,0,0,0,0,0,0,0,0,0,0,0,0,0,0,0,0,0,0,0,0,0,0,0,0,0,0,0,0,0,0,0,0,0,0,0,0,0,0,0,0,0,0,0,0,0,0,0,0,0,0,0,0,0,0,0,0,0,0,0,0,0,0,0,0,0,0,0,0,0,0,0,0,0,0,0,0,0,0,0,0,0,0,0,0,0,0,0,0,0,0,0,0,0,0,0,0,0,0,0,0,0,0,0,0,0,0,0,0,0,0,0,0,0],"sum_hessian":[3.9674372E5,2.1472978E5,1.8201392E5,1.9647588E5,1.825391E4,2.288197E4,1.5913195E5,1.5266875E5,4.380712E4,3.1274897E3,1.5126421E4,7.7770054E3,1.5104966E4,1.0377529E4,1.4875442E5,1.5237689E5,2.918632E2,2.206537E4,2.1741752E4,3.086775E2,2.8188123E3,4.4513076E3,1.0675113E4,1.3493196E3,6.427686E3,3.9428677E3,1.1162098E4,4.1737803E3,6.2037495E3,7.080221E4,7.795222E4,9.580621E4,5.6570684E4,2.4588152E2,4.5981674E1,5.9223354E3,1.6143033E4,1.0931983E4,1.080977E4,7.498043E0,3.0117944E2,1.7484724E3,1.0703398E3,3.558928E3,8.923796E2,1.1726062E1,1.0663388E4,9.37964E2,4.1135553E2,2.3810613E3,4.0466248E3,1.6896962E3,2.2531714E3,7.978644E3,3.1834536E3,1.4496256E3,2.7241545E3,6.18877E3,1.4979578E1,1.6824975E4,5.3977234E4,3.7251766E4,4.0700453E4,7.0592377E2,9.510029E4,4.7815402E4,8.755279E3,6.49561E0,2.393859E2,4.3570034E3,1.565332E3,1.0102188E4,6.040844E3,6.69064E3,4.2413433E3,2.4451218E3,8.364647E3,2.499073E0,2.9868036E2,2.047296E2,1.5437428E3,1.0328612E3,3.7478634E1,8.5448364E2,2.7044443E3,1.4588268E2,7.4649695E2,5.5132515E3,5.150136E3,2.2924997E2,1.8210555E2,6.9613324E2,1.6849281E3,1.0312174E3,3.0154072E3,4.5685712E2,1.2328391E3,9.482281E2,1.3049434E3,2.9448032E3,5.033841E3,1.2226626E3,1.960791E3,1.8022092E2,1.2694047E3,1.304728E3,1.4194265E3,1.422559E1,6.1745444E3,1.5661195E4,1.1637787E3,1.985039E4,3.4126844E4,3.6370188E4,8.8157965E2,5.4905967E3,3.5209855E4],"tree_param":{"num_deleted":"0","num_feature":"26","num_nodes":"117","size_leaf_vector":"1"}},{"base_weights":[3.046549E-4,-1.290222E0,1.4987725E0,-1.5101265E0,1.2421659E0,5.074208E-1,1.6309766E0,-1.6054902E0,-1.0623307E0,1.9650918E-1,1.4661022E0,-4.0840223E-1,1.0862253E0,9.4759274E-1,1.6872032E0,-1.611109E0,1.0975637E0,-1.3996264E0,-7.918847E-1,1.6895217E0,-1.3521286E-2,1.0419449E0,1.6495478E0,-1.6032075E0,-1.8749192E-1,1.238626E0,-4.3461227E-1,4.3478867E-1,1.3898331E0,1.497726E0,1.7281277E0,-1.7025839E0,-1.5045115E0,1.7351902E0,-9.458855E-2,-1.0076916E0,-1.546898E0,4.8975397E-2,-8.710494E-1,-8.574202E-2,1.7674217E0,1.2641222E0,-1.430061E-1,1.2119863E0,3.8025448E-1,-9.281203E-2,1.654614E0,-4.065549E-1,-1.7655978E0,4.642782E-1,-6.66957E-1,8.426472E-1,1.5990314E0,6.595291E-1,-1.0527596E0,-2.2336814E-1,7.0624316E-1,-1.0279311E-1,1.4061544E0,1.2165852E0,1.6042749E0,1.6691829E0,1.7834198E0,-8.5486546E-2,-3.0440906E-2,-7.790353E-2,-6.325247E-2,-8.374905E-2,9.069276E-2,-6.954804E-2,-2.979647E-2,-3.3497375E-2,-8.008633E-2,-6.742331E-2,2.6417946E-2,-5.9715595E-2,-3.7461307E-2,-7.1279965E-2,8.957122E-2,-1.0108322E-1,7.469175E-2,4.0405422E-2,-1.5979894E-2,8.580642E-2,5.164208E-2,-6.265278E-2,3.9126102E-2,8.865245E-2,7.608255E-2,-9.431591E-2,4.6636518E-2,-4.1954312E-3,-9.3242034E-2,-1.9294156E-2,4.1806616E-2,2.702165E-2,-3.951214E-2,-2.3580682E-2,5.9254117E-2,6.1669465E-2,8.5257344E-2,-1.3947526E-2,7.468014E-2,5.997302E-2,-7.119594E-2,-4.0165003E-2,3.2520927E-2,5.6610543E-2,1.5023189E-2,6.0423948E-2,7.718011E-2,6.2740736E-2,-5.3341508E-2,8.303766E-2,7.277975E-2,8.541829E-2,7.9938576E-2,8.739974E-2,8.990291E-2],"categories":[],"categories_nodes":[],"categories_segments":[],"categories_sizes":[],"default_left":[0,0,0,0,0,0,0,0,0,0,0,0,0,0,0,0,0,0,0,0,0,0,0,0,0,0,0,0,0,0,0,0,0,0,0,0,0,0,0,0,0,0,0,0,0,0,0,0,0,0,0,0,0,0,0,0,0,0,0,0,0,0,0,0,0,0,0,0,0,0,0,0,0,0,0,0,0,0,0,0,0,0,0,0,0,0,0,0,0,0,0,0,0,0,0,0,0,0,0,0,0,0,0,0,0,0,0,0,0,0,0,0,0,0,0,0,0,0,0],"id":2,"left_children":[1,3,5,7,9,11,13,15,17,19,21,23,25,27,29,31,33,35,37,39,41,43,45,47,49,51,53,55,57,59,61,63,65,67,-1,69,71,73,75,-1,77,79,81,83,85,-1,87,89,91,93,95,97,99,101,103,105,107,-1,109,111,113,115,117,-1,-1,-1,-1,-1,-1,-1,-1,-1,-1,-1,-1,-1,-1,-1,-1,-1,-1,-1,-1,-1,-1,-1,-1,-1,-1,-1,-1,-1,-1,-1,-1,-1,-1,-1,-1,-1,-1,-1,-1,-1,-1,-1,-1,-1,-1,-1,-1,-1,-1,-1,-1,-1,-1,-1,-1],"loss_changes":[7.6183694E5,1.1787409E5,2.3890438E4,8.314969E3,3.9598867E3,1.1371209E4,6.1786562E3,2.4403125E3,3.1182773E3,9.358047E2,1.0820996E3,2.192486E3,3.0470547E3,2.7729023E3,1.1498125E3,1.5597812E3,6.392449E2,8.767246E2,1.2635488E3,1.0063489E2,4.3315283E2,4.7301514E2,1.7573828E2,2.5116968E2,2.191731E3,1.7036816E3,8.109028E2,1.0121848E3,3.7216797E2,7.89E2,3.953125E2,6.729531E2,9.4715625E2,7.694806E1,0E0,6.554927E2,5.306328E2,1.095482E3,6.822832E2,0E0,3.0167603E1,1.848746E2,3.995357E2,3.0054102E2,5.6719165E2,0E0,1.501836E2,3.1128665E2,1.9027783E2,9.401296E2,6.019061E2,2.5634993E3,2.4053125E2,3.3941107E2,6.4191034E2,8.3909985E2,6.9290393E2,0E0,1.7571289E2,6.351699E2,1.5834766E2,1.605E2,2.9546875E1,0E0,0E0,0E0,0E0,0E0,0E0,0E0,0E0,0E0,0E0,0E0,0E0,0E0,0E0,0E0,0E0,0E0,0E0,0E0,0E0,0E0,0E0,0E0,0E0,0E0,0E0,0E0,0E0,0E0,0E0,0E0,0E0,0E0,0E0,0E0,0E0,0E0,0E0,0E0,0E0,0E0,0E0,0E0,0E0,0E0,0E0,0E0,0E0,0E0,0E0,0E0,0E0,0E0,0E0,0E0,0E0],"parents":[2147483647,0,0,1,1,2,2,3,3,4,4,5,5,6,6,7,7,8,8,9,9,10,10,11,11,12,12,13,13,14,14,15,15,16,16,17,17,18,18,19,19,20,20,21,21,22,22,23,23,24,24,25,25,26,26,27,27,28,28,29,29,30,30,31,31,32,32,33,33,35,35,36,36,37,37,38,38,40,40,41,41,42,42,43,43,44,44,46,46,47,47,48,48,49,49,50,50,51,51,52,52,53,53,54,54,55,55,56,56,58,58,59,59,60,60,61,61,62,62],"right_children":[2,4,6,8,10,12,14,16,18,20,22,24,26,28,30,32,34,36,38,40,42,44,46,48,50,52,54,56,58,60,62,64,66,68,-1,70,72,74,76,-1,78,80,82,84,86,-1,88,90,92,94,96,98,100,102,104,106,108,-1,110,112,114,116,118,-1,-1,-1,-1,-1,-1,-1,-1,-1,-1,-1,-1,-1,-1,-1,-1,-1,-1,-1,-1,-1,-1,-1,-1,-1,-1,-1,-1,-1,-1,-1,-1,-1,-1,-1,-1,-1,-1,-1,-1,-1,-1,-1,-1,-1,-1,-1,-1,-1,-1,-1,-1,-1,-1,-1,-1],"split_conditions":[7.615894E-2,1.0609233E0,1.0294219E0,5.0724637E-2,1.0766345E0,9.774436E-2,9.090909E-2,9.824349E-2,9.966887E-1,1.0416667E-2,1.1072218E0,9.43995E-1,5.376344E-2,1.072133E0,1.06153846E-1,2.8625954E-2,1.724138E-2,2.0590255E-3,-5.3846154E-2,1.0237528E1,9.122807E-3,1.7317073E-1,2.189781E-2,-1.8123367E-1,-4.209329E-2,1.260355E-1,-4.4585988E-2,8.169291E-2,1.369863E-2,1.0642147E0,1.5045236E-1,7.7688E0,1.0201316E0,3.9807823E-2,-9.458855E-2,9.599397E-1,-1.371795E-1,5.9772726E-2,1.1345157E1,-8.574202E-2,8.32E-2,4.091456E-2,1.051E-3,8.305647E-3,1.0883335E0,-9.281203E-2,5.9203445E-3,2.5799794E-2,4.77E-4,9.7631705E-1,-9.415262E-3,9.6377826E-1,9.5519376E-1,9.863029E-1,-6.392891E-2,1.3359963E1,1.6091954E-2,-1.0279311E-1,1.0965677E0,9.5974654E-2,5.22696E-2,3.7142858E-2,1.1072218E0,-8.5486546E-2,-3.0440906E-2,-7.790353E-2,-6.325247E-2,-8.374905E-2,9.069276E-2,-6.954804E-2,-2.979647E-2,-3.3497375E-2,-8.008633E-2,-6.742331E-2,2.6417946E-2,-5.9715595E-2,-3.7461307E-2,-7.1279965E-2,8.957122E-2,-1.0108322E-1,7.469175E-2,4.0405422E-2,-1.5979894E-2,8.580642E-2,5.164208E-2,-6.265278E-2,3.9126102E-2,8.865245E-2,7.608255E-2,-9.431591E-2,4.6636518E-2,-4.1954312E-3,-9.3242034E-2,-1.9294156E-2,4.1806616E-2,2.702165E-2,-3.951214E-2,-2.3580682E-2,5.9254117E-2,6.1669465E-2,8.5257344E-2,-1.3947526E-2,7.468014E-2,5.997302E-2,-7.119594E-2,-4.0165003E-2,3.2520927E-2,5.6610543E-2,1.5023189E-2,6.0423948E-2,7.718011E-2,6.2740736E-2,-5.3341508E-2,8.303766E-2,7.277975E-2,8.541829E-2,7.9938576E-2,8.739974E-2,8.990291E-2],"split_indices":[7,2,2,7,2,7,7,0,2,7,2,2,4,2,7,7,7,4,1,6,1,1,0,1,1,7,1,7,4,2,7,5,2,1,0,2,1,7,6,0,0,0,5,7,2,0,7,4,5,2,4,2,2,2,0,6,1,0,2,4,4,4,2,0,0,0,0,0,0,0,0,0,0,0,0,0,0,0,0,0,0,0,0,0,0,0,0,0,0,0,0,0,0,0,0,0,0,0,0,0,0,0,0,0,0,0,0,0,0,0,0,0,0,0,0,0,0,0,0],"split_type":[0,0,0,0,0,0,0,0,0,0,0,0,0,0,0,0,0,0,0,0,0,0,0,0,0,0,0,0,0,0,0,0,0,0,0,0,0,0,0,0,0,0,0,0,0,0,0,0,0,0,0,0,0,0,0,0,0,0,0,0,0,0,0,0,0,0,0,0,0,0,0,0,0,0,0,0,0,0,0,0,0,0,0,0,0,0,0,0,0,0,0,0,0,0,0,0,0,0,0,0,0,0,0,0,0,0,0,0,0,0,0,0,0,0,0,0,0,0,0],"sum_hessian":[3.939539E5,2.1166319E5,1.8229072E5,1.9475197E5,1.691123E4,2.1449936E4,1.6084078E5,1.6055677E5,3.4195203E4,2.9832063E3,1.3928023E4,8.306746E3,1.314319E4,1.2228801E4,1.4861198E5,1.6022411E5,3.3264954E2,1.5215059E4,1.8980145E4,3.670399E2,2.6161663E3,4.2071235E3,9.720899E3,1.2952203E3,7.0115254E3,1.1946261E4,1.1969297E3,5.6635537E3,6.5652466E3,2.6403514E4,1.2220847E5,8.622049E4,7.400362E4,2.7451492E2,5.8134617E1,4.157781E3,1.1057278E4,1.6332028E3,1.7346941E4,7.7407894E0,3.592991E2,2.3993489E2,2.3762314E3,3.3463472E3,8.607766E2,1.3499839E1,9.707399E3,1.5518294E2,1.1400375E3,2.971793E3,4.0397324E3,5.693801E3,6.25246E3,4.3207523E2,7.648545E2,1.6538582E3,4.0096956E3,3.0362137E1,6.5348843E3,7.259903E3,1.9143611E4,5.9165484E4,6.3042984E4,8.566021E4,5.602865E2,6.0472547E4,1.3531071E4,5.7321105E0,2.687828E2,2.1521638E3,2.005617E3,6.514197E2,1.0405858E4,4.1669388E2,1.2165089E3,4.745579E3,1.2601362E4,2.245102E0,3.57054E2,1.5168304E1,2.2476659E2,3.71543E2,2.0046885E3,8.7509875E2,2.4712483E3,1.6968732E2,6.910893E2,5.127668E3,4.579732E3,7.353091E1,8.165202E1,6.3631668E1,1.0764058E3,9.042926E2,2.0675005E3,3.7396356E2,3.6657688E3,1.1768173E3,4.5169834E3,1.4092435E3,4.843217E3,2.0362587E2,2.2844936E2,1.0789689E2,6.569576E2,9.94133E2,6.597251E2,1.9553126E3,2.054383E3,2.6842397E3,3.8506448E3,7.1408003E3,1.1910243E2,1.3866171E4,5.2774395E3,3.7997285E4,2.11682E4,1.8468648E4,4.4574336E4],"tree_param":{"num_deleted":"0","num_feature":"26","num_nodes":"119","size_leaf_vector":"1"}},{"base_weights":[2.5589296E-3,-1.2125287E0,1.4614419E0,-1.3889164E0,1.2003907E0,6.879931E-1,1.573986E0,-1.5187958E0,-6.7722684E-1,2.803972E-1,1.501939E0,-2.1303684E-1,1.0616179E0,1.4486825E0,1.6859673E0,-1.5835897E0,-1.2723215E0,-9.5066607E-1,-4.741815E-3,-7.369264E-1,6.0021687E-1,1.7004346E0,1.2171284E0,-1.0243837E0,6.024846E-2,6.6761655E-1,1.2131755E0,5.5781245E-1,1.5045846E0,1.6457658E0,1.7228451E0,-1.6123363E0,-1.3863719E0,-1.3136822E0,-2.8605098E-1,-1.3057234E0,-7.324024E-1,-3.6907256E-1,5.0668424E-1,-1.0174181E0,1.0734898E0,2.7423698E-1,1.2583891E0,-7.738518E-2,1.7029262E0,8.503263E-1,1.3732268E0,-1.6836622E0,-4.649793E-1,1.9741693E-1,-1.3732678E0,-9.7646795E-2,7.1977335E-1,1.3574556E0,1.0764295E0,1.0614126E0,-1.7531122E-1,1.5547007E0,1.3438878E0,1.3501984E0,1.6565688E0,1.7289464E0,1.6070313E0,-3.908774E-2,-8.082579E-2,-7.04821E-2,-9.777136E-3,-7.047395E-2,-5.8027517E-2,3.3319112E-2,-3.0321373E-2,-3.844917E-2,-7.404367E-2,-4.412888E-2,-1.45451175E-2,-3.6048777E-2,2.4458845E-3,2.7452894E-3,4.5866672E-2,-6.747639E-2,1.812887E-2,7.8353696E-2,-9.2221275E-2,4.9037702E-2,4.4630687E-3,6.586357E-2,-1.0106726E-1,8.520738E-2,-7.617908E-2,2.0204147E-3,5.0248004E-2,-1.0574714E-1,6.965532E-2,3.9148476E-2,-9.165626E-2,2.5917321E-2,-6.814616E-2,5.331427E-2,5.4191956E-3,2.0435048E-2,-9.456048E-2,2.672342E-2,5.5700894E-2,2.6871664E-2,7.056274E-2,2.5969783E-2,5.9625097E-2,5.6894362E-2,-4.4148427E-2,-6.2046833E-2,3.7588775E-3,7.108261E-2,7.963123E-2,-1.6560884E-2,6.9693774E-2,8.350967E-2,1.7823067E-3,8.365764E-2,7.896863E-2,8.675548E-2,8.526148E-2,-7.664951E-2,8.0549695E-2],"categories":[],"categories_nodes":[],"categories_segments":[],"categories_sizes":[],"default_left":[0,0,0,0,0,0,0,0,0,0,0,0,0,0,0,0,0,0,0,0,0,0,0,0,0,0,0,0,0,0,0,0,0,0,0,0,0,0,0,0,0,0,0,0,0,0,0,0,0,0,0,0,0,0,0,0,0,0,0,0,0,0,0,0,0,0,0,0,0,0,0,0,0,0,0,0,0,0,0,0,0,0,0,0,0,0,0,0,0,0,0,0,0,0,0,0,0,0,0,0,0,0,0,0,0,0,0,0,0,0,0,0,0,0,0,0,0,0,0,0,0,0,0],"id":3,"left_children":[1,3,5,7,9,11,13,15,17,19,21,23,25,27,29,31,33,35,37,39,41,43,45,47,49,51,53,55,57,59,61,63,65,67,69,71,73,75,77,79,81,83,85,-1,87,89,91,93,95,97,99,-1,101,103,105,107,109,111,113,115,117,119,121,-1,-1,-1,-1,-1,-1,-1,-1,-1,-1,-1,-1,-1,-1,-1,-1,-1,-1,-1,-1,-1,-1,-1,-1,-1,-1,-1,-1,-1,-1,-1,-1,-1,-1,-1,-1,-1,-1,-1,-1,-1,-1,-1,-1,-1,-1,-1,-1,-1,-1,-1,-1,-1,-1,-1,-1,-1,-1,-1,-1],"loss_changes":[6.931582E5,9.080022E4,1.5466031E4,1.8375344E4,4.0314844E3,7.599241E3,2.1740938E3,2.6829062E3,5.6421943E3,1.1681395E3,6.1671875E2,1.4673074E3,9.5200586E2,3.6451406E3,1.1859375E2,7.5246875E2,1.4274492E3,1.6895273E3,1.6530518E3,4.3722498E2,5.856112E2,5.481836E1,2.5642578E2,6.1414355E2,9.73789E2,6.0757104E2,2.2587305E2,1.5967148E3,5.526875E2,1.2296094E2,2.740625E1,4.020625E2,4.6921484E2,4.9115234E2,4.3066217E2,7.794512E2,8.955908E2,7.621064E2,6.846759E2,3.415431E2,1.6952667E2,2.3877783E2,1.7730615E2,0E0,2.7986328E1,1.6848956E2,2.2167139E2,2.8345898E2,7.983665E2,3.494992E2,3.9994452E2,0E0,3.1713184E2,2.4642285E2,3.8217822E2,3.8219385E2,4.7034586E2,2.6267188E2,1.3723496E3,5.8379395E2,4.5773438E1,2.953125E0,2.923291E1,0E0,0E0,0E0,0E0,0E0,0E0,0E0,0E0,0E0,0E0,0E0,0E0,0E0,0E0,0E0,0E0,0E0,0E0,0E0,0E0,0E0,0E0,0E0,0E0,0E0,0E0,0E0,0E0,0E0,0E0,0E0,0E0,0E0,0E0,0E0,0E0,0E0,0E0,0E0,0E0,0E0,0E0,0E0,0E0,0E0,0E0,0E0,0E0,0E0,0E0,0E0,0E0,0E0,0E0,0E0,0E0,0E0,0E0,0E0,0E0],"parents":[2147483647,0,0,1,1,2,2,3,3,4,4,5,5,6,6,7,7,8,8,9,9,10,10,11,11,12,12,13,13,14,14,15,15,16,16,17,17,18,18,19,19,20,20,21,21,22,22,23,23,24,24,25,25,26,26,27,27,28,28,29,29,30,30,31,31,32,32,33,33,34,34,35,35,36,36,37,37,38,38,39,39,40,40,41,41,42,42,44,44,45,45,46,46,47,47,48,48,49,49,50,50,52,52,53,53,54,54,55,55,56,56,57,57,58,58,59,59,60,60,61,61,62,62],"right_children":[2,4,6,8,10,12,14,16,18,20,22,24,26,28,30,32,34,36,38,40,42,44,46,48,50,52,54,56,58,60,62,64,66,68,70,72,74,76,78,80,82,84,86,-1,88,90,92,94,96,98,100,-1,102,104,106,108,110,112,114,116,118,120,122,-1,-1,-1,-1,-1,-1,-1,-1,-1,-1,-1,-1,-1,-1,-1,-1,-1,-1,-1,-1,-1,-1,-1,-1,-1,-1,-1,-1,-1,-1,-1,-1,-1,-1,-1,-1,-1,-1,-1,-1,-1,-1,-1,-1,-1,-1,-1,-1,-1,-1,-1,-1,-1,-1,-1,-1,-1,-1,-1,-1],"split_conditions":[7.874016E-2,6.636838E-2,9.528796E-2,5.532787E-2,9.824349E-2,5.181347E-3,1.3554987E-1,4.0816326E-2,1.8085107E-2,7.5824715E-2,8.305647E-3,-4.1284405E-2,8.496732E-2,-2.9609691E-2,1.7879377E-1,2.40241E-2,4.729289E-2,-2.0689655E-2,6.962963E-2,6.342846E-2,2.1327774E-1,1.9900497E-2,1.5936255E-1,6.05E-3,4.5454547E-2,1.00732725E-2,3.5416666E-2,4.9261083E-3,5.0974216E-2,-5.811623E-2,1.3102894E-1,5.9203445E-3,1.7317073E-1,1.11E-2,1.462E-3,-5.0607286E-3,4.2739E0,1.2222E-2,7.3746316E-2,5.1E1,9.5974654E-2,1.222E-3,1.404E1,-7.738518E-2,7.0632E0,4.8042137E-2,2.264151E-2,3.16E-4,2.4248E-2,-1.130271E-2,8.024691E-2,-9.7646795E-2,4.2180456E-2,8.130081E-3,3.257329E-2,1.0352941E-1,1.7E1,1.0315306E-1,3.717472E-3,-5.899705E-3,8.3092645E-2,5.882353E-2,-6.392891E-2,-3.908774E-2,-8.082579E-2,-7.04821E-2,-9.777136E-3,-7.047395E-2,-5.8027517E-2,3.3319112E-2,-3.0321373E-2,-3.844917E-2,-7.404367E-2,-4.412888E-2,-1.45451175E-2,-3.6048777E-2,2.4458845E-3,2.7452894E-3,4.5866672E-2,-6.747639E-2,1.812887E-2,7.8353696E-2,-9.2221275E-2,4.9037702E-2,4.4630687E-3,6.586357E-2,-1.0106726E-1,8.520738E-2,-7.617908E-2,2.0204147E-3,5.0248004E-2,-1.0574714E-1,6.965532E-2,3.9148476E-2,-9.165626E-2,2.5917321E-2,-6.814616E-2,5.331427E-2,5.4191956E-3,2.0435048E-2,-9.456048E-2,2.672342E-2,5.5700894E-2,2.6871664E-2,7.056274E-2,2.5969783E-2,5.9625097E-2,5.6894362E-2,-4.4148427E-2,-6.2046833E-2,3.7588775E-3,7.108261E-2,7.963123E-2,-1.6560884E-2,6.9693774E-2,8.350967E-2,1.7823067E-3,8.365764E-2,7.896863E-2,8.675548E-2,8.526148E-2,-7.664951E-2,8.0549695E-2],"split_indices":[7,0,7,7,0,0,7,7,0,1,7,0,7,0,7,3,0,0,7,3,1,1,1,5,4,3,4,4,4,0,4,7,1,5,5,4,5,5,1,24,4,5,5,0,5,3,7,5,5,4,7,0,3,0,0,1,24,7,0,4,4,4,0,0,0,0,0,0,0,0,0,0,0,0,0,0,0,0,0,0,0,0,0,0,0,0,0,0,0,0,0,0,0,0,0,0,0,0,0,0,0,0,0,0,0,0,0,0,0,0,0,0,0,0,0,0,0,0,0,0,0,0,0],"split_type":[0,0,0,0,0,0,0,0,0,0,0,0,0,0,0,0,0,0,0,0,0,0,0,0,0,0,0,0,0,0,0,0,0,0,0,0,0,0,0,0,0,0,0,0,0,0,0,0,0,0,0,0,0,0,0,0,0,0,0,0,0,0,0,0,0,0,0,0,0,0,0,0,0,0,0,0,0,0,0,0,0,0,0,0,0,0,0,0,0,0,0,0,0,0,0,0,0,0,0,0,0,0,0,0,0,0,0,0,0,0,0,0,0,0,0,0,0,0,0,0,0,0,0],"sum_hessian":[3.910228E5,2.1333695E5,1.7768584E5,1.988045E5,1.4532445E4,2.2571635E4,1.5511422E5,1.68122E5,3.06825E4,3.5879385E3,1.0944507E4,6.616288E3,1.5955346E4,7.320929E4,8.190493E4,1.3312133E5,3.5000668E4,2.1812785E4,8.869715E3,8.5785583E2,2.7300828E3,6.44663E3,4.4978774E3,1.6663561E3,4.949932E3,4.433937E3,1.1521408E4,4.3232773E3,6.888601E4,3.920835E4,4.2696574E4,1.1617972E5,1.694162E4,3.359162E4,1.4090481E3,8.302246E3,1.3510539E4,5.179915E3,3.6898E3,7.431552E2,1.1470063E2,1.8267472E3,9.033355E2,4.4659686E0,6.4421636E3,1.344649E3,3.1532285E3,7.639744E2,9.023816E2,4.51844E3,4.314924E2,8.5815254E1,4.348122E3,5.601922E3,5.919487E3,2.5625515E3,1.7607257E3,5.250324E4,1.6382772E4,1.3869785E3,3.7821375E4,4.054656E4,2.1500142E3,5.8264124E2,1.1559707E5,1.6616729E4,3.2489117E2,2.0659309E4,1.29323125E4,3.543969E2,1.0546512E3,2.0439701E3,6.2582754E3,1.0080635E4,3.4299043E3,2.8118848E3,2.36803E3,1.7574562E3,1.9323438E3,5.9901764E2,1.4413754E2,9.850143E1,1.6199203E1,3.781387E2,1.4486085E3,8.8799146E2,1.534407E1,6.4401978E3,1.9660404E0,2.157719E2,1.1288771E3,1.727167E1,3.1359568E3,4.340535E1,7.205691E2,4.3091516E2,4.7146643E2,4.189503E2,4.0994893E3,9.7219955E1,3.3427246E2,2.959457E3,1.3886648E3,3.4557397E2,5.2563477E3,1.021717E3,4.8977695E3,2.4659768E3,9.657472E1,3.343567E2,1.426369E3,1.1654402E4,4.0848836E4,4.7455725E2,1.5908216E4,1.1152324E3,2.717461E2,3.1116127E4,6.705248E3,3.212615E4,8.420409E3,2.223424E0,2.1477908E3],"tree_param":{"num_deleted":"0","num_feature":"26","num_nodes":"123","size_leaf_vector":"1"}},{"base_weights":[8.6832205E-3,-1.1697764E0,1.4066796E0,-1.3425975E0,1.2263018E0,7.428294E-1,1.5273106E0,-1.4706529E0,-6.464427E-1,1.6169189E0,7.9575527E-1,3.511462E-2,8.545902E-1,1.4152205E0,1.6229702E0,-1.540209E0,-1.2592292E0,-8.904165E-1,-5.3507164E-2,1.619418E0,-8.8614844E-2,2.1284868E-1,1.1701485E0,1.8824314E-1,-8.619729E-1,5.570855E-1,1.0937771E0,1.238797E0,1.4654897E0,1.5856926E0,1.6587676E0,-1.5570195E0,-1.2252792E0,-1.2996869E0,-4.098259E-1,-1.2254866E0,-7.527722E-1,-6.644436E-1,3.1357795E-1,-8.356091E-2,1.6207241E0,-6.3730365E-1,5.391576E-1,8.938707E-1,1.3790749E0,-5.8744926E-2,7.2762376E-1,-1.2013769E0,1.3534008E0,1.0975438E-1,8.5174185E-1,6.120926E-1,1.1776625E0,1.3762414E0,1.0290016E0,1.3708934E0,1.5014807E0,1.5343039E0,1.6220597E0,1.663238E0,1.4987812E0,-4.103967E-2,-7.8084625E-2,8.111436E-3,-6.4045094E-2,-7.1727864E-2,-5.9059646E-2,-7.7404015E-2,-2.7689298E-3,-7.170117E-2,-3.8263153E-2,-4.958453E-2,-2.5956854E-2,-5.1106777E-2,-1.0283767E-2,-3.4490474E-2,2.0443836E-2,-7.739752E-2,8.1093855E-2,-4.646161E-3,-4.944722E-2,-2.957595E-2,3.2022085E-2,-3.9802035E-3,5.197707E-2,-9.986837E-2,6.963693E-2,5.478719E-3,-7.3990606E-2,-2.4236266E-2,5.6270815E-2,-2.3217175E-2,-9.524443E-2,8.675704E-2,-8.82979E-2,-1.0490698E-2,2.5683958E-2,1.2475626E-2,4.850013E-2,3.2410823E-2,-1.0019974E-1,5.5329848E-2,7.098378E-2,7.042326E-2,-1.5869245E-4,1.1477168E-2,5.3773202E-2,6.459325E-2,7.381279E-2,7.540268E-2,4.338212E-2,7.703677E-2,5.118525E-2,-6.530586E-2,8.111345E-2,8.3381824E-2,8.0721125E-2,-8.750643E-2,7.5800985E-2],"categories":[],"categories_nodes":[],"categories_segments":[],"categories_sizes":[],"default_left":[0,0,0,0,0,0,0,0,0,0,0,0,0,0,0,0,0,0,0,0,0,0,0,0,0,0,0,0,0,0,0,0,0,0,0,0,0,0,0,0,0,0,0,0,0,0,0,0,0,0,0,0,0,0,0,0,0,0,0,0,0,0,0,0,0,0,0,0,0,0,0,0,0,0,0,0,0,0,0,0,0,0,0,0,0,0,0,0,0,0,0,0,0,0,0,0,0,0,0,0,0,0,0,0,0,0,0,0,0,0,0,0,0,0,0,0,0,0,0],"id":4,"left_children":[1,3,5,7,9,11,13,15,17,19,21,23,25,27,29,31,33,35,37,39,-1,41,43,45,47,49,51,53,55,57,59,61,63,65,67,69,71,73,75,-1,77,79,81,83,85,87,89,91,93,95,97,99,101,103,105,107,109,111,113,115,117,-1,-1,-1,-1,-1,-1,-1,-1,-1,-1,-1,-1,-1,-1,-1,-1,-1,-1,-1,-1,-1,-1,-1,-1,-1,-1,-1,-1,-1,-1,-1,-1,-1,-1,-1,-1,-1,-1,-1,-1,-1,-1,-1,-1,-1,-1,-1,-1,-1,-1,-1,-1,-1,-1,-1,-1,-1,-1],"loss_changes":[6.405138E5,8.735684E4,1.4239469E4,1.7539906E4,2.38558E3,2.16296E3,1.61125E3,2.4420625E3,4.4225947E3,6.589258E1,1.4735293E3,5.126373E2,1.6799727E3,6.127656E2,1.05703125E2,6.6009375E2,1.4134531E3,9.980508E2,1.999198E3,3.4660156E1,0E0,7.3335693E2,2.3610742E2,4.2468298E2,4.107605E2,1.3875244E3,5.282256E2,4.418789E2,1.8153125E2,7.1875E1,2.7117188E1,4.0709375E2,4.8960645E2,6.2597656E2,7.552495E2,6.040488E2,8.5663477E2,5.4883765E2,5.3276337E2,0E0,2.9666016E1,1.4028983E2,2.1910864E2,2.5155774E2,1.107124E2,5.233422E2,4.834001E2,2.4404553E2,8.970352E1,5.399012E2,4.5176953E2,1.8498413E2,1.9016113E2,4.1273633E2,2.259292E2,1.2194141E2,1.6139844E2,5.263672E1,1.6378906E1,5.953125E0,6.623682E1,0E0,0E0,0E0,0E0,0E0,0E0,0E0,0E0,0E0,0E0,0E0,0E0,0E0,0E0,0E0,0E0,0E0,0E0,0E0,0E0,0E0,0E0,0E0,0E0,0E0,0E0,0E0,0E0,0E0,0E0,0E0,0E0,0E0,0E0,0E0,0E0,0E0,0E0,0E0,0E0,0E0,0E0,0E0,0E0,0E0,0E0,0E0,0E0,0E0,0E0,0E0,0E0,0E0,0E0,0E0,0E0,0E0,0E0],"parents":[2147483647,0,0,1,1,2,2,3,3,4,4,5,5,6,6,7,7,8,8,9,9,10,10,11,11,12,12,13,13,14,14,15,15,16,16,17,17,18,18,19,19,21,21,22,22,23,23,24,24,25,25,26,26,27,27,28,28,29,29,30,30,31,31,32,32,33,33,34,34,35,35,36,36,37,37,38,38,40,40,41,41,42,42,43,43,44,44,45,45,46,46,47,47,48,48,49,49,50,50,51,51,52,52,53,53,54,54,55,55,56,56,57,57,58,58,59,59,60,60],"right_children":[2,4,6,8,10,12,14,16,18,20,22,24,26,28,30,32,34,36,38,40,-1,42,44,46,48,50,52,54,56,58,60,62,64,66,68,70,72,74,76,-1,78,80,82,84,86,88,90,92,94,96,98,100,102,104,106,108,110,112,114,116,118,-1,-1,-1,-1,-1,-1,-1,-1,-1,-1,-1,-1,-1,-1,-1,-1,-1,-1,-1,-1,-1,-1,-1,-1,-1,-1,-1,-1,-1,-1,-1,-1,-1,-1,-1,-1,-1,-1,-1,-1,-1,-1,-1,-1,-1,-1,-1,-1,-1,-1,-1,-1,-1,-1,-1,-1,-1,-1],"split_conditions":[7.874016E-2,9.5974654E-2,9.774436E-2,5.532787E-2,2.5316456E-2,8.658009E-3,1.3554987E-1,3.875969E-2,3.9779004E-2,9.8843E0,4.8042137E-2,4.4227723E-2,8.878521E-2,2.3E1,1.7879377E-1,4.5345E0,6.800766E-2,2.1E1,1.213294E1,9E0,-8.8614844E-2,1.2196482E1,1.3155386E1,1.3359963E1,7.2E1,1.2466855E1,1.1441248E1,2.8973546E-2,1.06153846E-1,3.1E1,1.6178522E-1,8.377689E0,-9.415262E-3,2.6E1,2.3E1,2.2727273E-2,1.2164766E1,3.1E1,1.5460257E-2,-8.356091E-2,2.54E-4,2.2E1,1.7E1,5.3557128E-2,3.3016734E-2,6.153846E-3,8.695652E-2,-1.3741207E-2,8.695652E-2,8.496732E-2,2E1,1.1399723E1,5E1,7.8277156E-2,-6.9156295E-4,1.3616E0,1.5536426E1,1.5972813E1,4.116062E-3,9.5974654E-2,2.7243722E-2,-4.103967E-2,-7.8084625E-2,8.111436E-3,-6.4045094E-2,-7.1727864E-2,-5.9059646E-2,-7.7404015E-2,-2.7689298E-3,-7.170117E-2,-3.8263153E-2,-4.958453E-2,-2.5956854E-2,-5.1106777E-2,-1.0283767E-2,-3.4490474E-2,2.0443836E-2,-7.739752E-2,8.1093855E-2,-4.646161E-3,-4.944722E-2,-2.957595E-2,3.2022085E-2,-3.9802035E-3,5.197707E-2,-9.986837E-2,6.963693E-2,5.478719E-3,-7.3990606E-2,-2.4236266E-2,5.6270815E-2,-2.3217175E-2,-9.524443E-2,8.675704E-2,-8.82979E-2,-1.0490698E-2,2.5683958E-2,1.2475626E-2,4.850013E-2,3.2410823E-2,-1.0019974E-1,5.5329848E-2,7.098378E-2,7.042326E-2,-1.5869245E-4,1.1477168E-2,5.3773202E-2,6.459325E-2,7.381279E-2,7.540268E-2,4.338212E-2,7.703677E-2,5.118525E-2,-6.530586E-2,8.111345E-2,8.3381824E-2,8.0721125E-2,-8.750643E-2,7.5800985E-2],"split_indices":[7,4,7,7,7,4,7,7,4,5,3,3,7,24,7,5,4,24,6,24,0,6,6,6,24,6,6,3,7,24,4,6,4,24,24,4,6,24,3,0,5,24,24,3,7,4,7,4,7,7,24,6,24,4,4,5,6,6,3,4,3,0,0,0,0,0,0,0,0,0,0,0,0,0,0,0,0,0,0,0,0,0,0,0,0,0,0,0,0,0,0,0,0,0,0,0,0,0,0,0,0,0,0,0,0,0,0,0,0,0,0,0,0,0,0,0,0,0,0],"split_type":[0,0,0,0,0,0,0,0,0,0,0,0,0,0,0,0,0,0,0,0,0,0,0,0,0,0,0,0,0,0,0,0,0,0,0,0,0,0,0,0,0,0,0,0,0,0,0,0,0,0,0,0,0,0,0,0,0,0,0,0,0,0,0,0,0,0,0,0,0,0,0,0,0,0,0,0,0,0,0,0,0,0,0,0,0,0,0,0,0,0,0,0,0,0,0,0,0,0,0,0,0,0,0,0,0,0,0,0,0,0,0,0,0,0,0,0,0,0,0],"sum_hessian":[3.8878144E5,2.1095462E5,1.7782683E5,1.9676319E5,1.4191434E4,2.7345818E4,1.5048102E5,1.6619167E5,3.0571518E4,7.4393037E3,6.75213E3,3.7296267E3,2.3616191E4,6.9297195E4,8.118381E4,1.2504644E5,4.114523E4,2.1659027E4,8.912489E3,7.4343438E3,4.95976E0,2.6413242E3,4.1108057E3,3.1864973E3,5.431295E2,1.0526492E4,1.3089699E4,1.537238E4,5.3924816E4,3.9791848E4,4.1391965E4,1.18706164E5,6.340272E3,3.9274047E4,1.8711847E3,6.304342E3,1.5354686E4,3.3448596E3,5.56763E3,2.4421184E0,7.431902E3,7.3234607E2,1.9089781E3,1.7723641E3,2.3384417E3,2.1862715E3,1.00022565E3,4.713713E2,7.1758224E1,4.1808013E3,6.345691E3,1.9426979E3,1.1147002E4,9.284324E3,6.088056E3,1.4872904E4,3.9051914E4,1.6508133E4,2.3283717E4,4.025767E4,1.1342936E3,7.498178E2,1.1795635E5,2.4429915E2,6.095973E3,1.8362576E4,2.0911469E4,4.435198E2,1.4276649E3,4.33703E3,1.9673124E3,7.5899043E3,7.7647817E3,1.8787838E3,1.4660758E3,4.8238867E2,5.085241E3,2.215233E0,7.4296865E3,2.8790305E2,4.44443E2,1.5654626E2,1.7524319E3,2.307542E2,1.54161E3,8.839961E0,2.3296018E3,1.955566E3,2.3070552E2,2.4705614E2,7.531695E2,2.3101192E2,2.4035939E2,6.432948E1,7.428743E0,2.3344011E3,1.8463999E3,1.0420878E3,5.303603E3,1.9169799E3,2.571805E1,8.621055E3,2.5259468E3,9.072369E3,2.1195488E2,3.3471417E2,5.7533423E3,8.506069E3,6.366835E3,3.8649742E4,4.021685E2,1.630079E4,2.073426E2,1.2169262E0,2.32825E4,3.6899766E4,3.3579033E3,5.456154E0,1.1288374E3],"tree_param":{"num_deleted":"0","num_feature":"26","num_nodes":"119","size_leaf_vector":"1"}},{"base_weights":[6.1131776E-3,-1.1201506E0,1.3424481E0,-1.317709E0,-2.746349E-1,7.303829E-1,1.4842553E0,-1.4112808E0,-7.131075E-1,6.5029913E-1,-4.5369178E-1,1.259327E0,1.5869328E-1,1.3878304E0,1.5666379E0,-2.5526166E-1,-1.4293538E0,8.591866E-1,-9.4415295E-1,2.3133181E-4,1.047268E0,-7.582931E-1,2.3371455E-1,1.4592506E0,9.388618E-1,8.793378E-1,-1.9416541E-1,1.4665631E0,8.9802146E-1,1.6076252E0,1.5253727E0,-1.0092597E0,1.247431E0,-9.52217E-1,-1.4482093E0,1.3036935E0,4.377852E-1,-3.4812215E-1,-1.0817163E0,1.0575104E0,-4.640501E-1,1.2806727E0,5.0431496E-1,7.862216E-2,-9.618078E-1,5.5219203E-1,-4.7353002E-1,1.495543E0,1.2703035E0,4.5832545E-1,1.1904526E0,1.2064474E0,6.4071333E-1,-4.6316102E-1,4.681315E-1,1.5409181E0,1.3452E0,1.1666024E0,6.104338E-1,1.6165739E0,1.5648049E0,1.34423E0,1.5529848E0,-6.912629E-2,-1.5336098E-2,8.075117E-2,2.6670633E-2,-6.267686E-2,-5.781214E-3,-7.508805E-2,-6.914221E-2,6.6547625E-2,-9.809674E-2,3.552501E-2,-7.033216E-2,1.1857524E-2,-3.687179E-2,-5.543207E-2,6.870218E-2,5.7104375E-2,-8.5615724E-2,-9.512728E-3,-6.4086996E-2,8.044021E-2,5.2296337E-2,-1.1901889E-2,4.902305E-2,5.9987485E-2,-9.033157E-3,-5.641858E-2,-1.8583989E-2,7.096794E-2,1.863989E-2,-3.3224784E-2,3.3281025E-2,7.967375E-2,7.2570615E-2,6.4586215E-2,-9.442037E-2,3.3789437E-2,-5.5216532E-2,6.1177503E-2,-9.640034E-2,6.173585E-2,-1.11526586E-1,6.795966E-3,4.6595115E-2,-4.931764E-3,-3.8138896E-2,3.6321323E-2,-1.5146879E-2,7.365369E-2,7.873847E-2,4.849277E-2,7.025558E-2,3.2342076E-3,6.1440658E-2,3.439725E-2,-3.9698128E-2,8.012255E-2,8.127319E-2,-8.007725E-2,7.829165E-2,7.351779E-2,5.8001824E-2,7.541945E-2,7.876284E-2],"categories":[],"categories_nodes":[],"categories_segments":[],"categories_sizes":[],"default_left":[0,0,0,0,0,0,0,0,0,0,0,0,0,0,0,0,0,0,0,0,0,0,0,0,0,0,0,0,0,0,0,0,0,0,0,0,0,0,0,0,0,0,0,0,0,0,0,0,0,0,0,0,0,0,0,0,0,0,0,0,0,0,0,0,0,0,0,0,0,0,0,0,0,0,0,0,0,0,0,0,0,0,0,0,0,0,0,0,0,0,0,0,0,0,0,0,0,0,0,0,0,0,0,0,0,0,0,0,0,0,0,0,0,0,0,0,0,0,0,0,0,0,0,0,0,0,0],"id":5,"left_children":[1,3,5,7,9,11,13,15,17,19,21,23,25,27,29,31,33,35,37,39,41,43,45,47,49,51,53,55,57,59,61,63,65,67,69,71,73,75,77,79,81,83,85,87,89,91,93,95,97,99,101,103,105,107,109,111,113,115,117,119,121,123,125,-1,-1,-1,-1,-1,-1,-1,-1,-1,-1,-1,-1,-1,-1,-1,-1,-1,-1,-1,-1,-1,-1,-1,-1,-1,-1,-1,-1,-1,-1,-1,-1,-1,-1,-1,-1,-1,-1,-1,-1,-1,-1,-1,-1,-1,-1,-1,-1,-1,-1,-1,-1,-1,-1,-1,-1,-1,-1,-1,-1,-1,-1,-1,-1],"loss_changes":[5.774077E5,3.4774562E4,1.52278125E4,9.546E3,6.5307686E3,9.980701E3,1.1294688E3,3.0528438E3,8.21768E3,1.6504841E3,6.9175522E3,1.0970273E3,4.0340234E3,2.5300625E3,1.27453125E2,2.5513916E3,1.2930938E3,5.423645E2,1.6166348E3,1.1912969E3,5.0258252E2,3.8992812E3,2.2853018E3,7.0484375E1,7.9608203E2,4.062495E2,1.8975654E3,5.0822656E2,7.0161523E2,1.2234375E1,1.8945312E2,3.927356E2,1.9663281E2,1.3794639E3,4.8240625E2,1.2813257E2,7.501863E2,8.4315967E2,1.0609844E3,1.754342E2,3.7729742E2,2.1218115E2,4.2279587E2,1.3021975E3,1.8096562E3,1.0877122E3,6.8578064E2,3.5933594E1,1.1797119E2,7.7076953E2,4.486792E2,2.1634741E2,4.4336743E2,8.271792E2,6.1297626E2,7.819531E1,4.819297E2,3.221548E2,4.7876233E2,1.390625E0,2.428418E1,1.1614453E2,3.0625E1,0E0,0E0,0E0,0E0,0E0,0E0,0E0,0E0,0E0,0E0,0E0,0E0,0E0,0E0,0E0,0E0,0E0,0E0,0E0,0E0,0E0,0E0,0E0,0E0,0E0,0E0,0E0,0E0,0E0,0E0,0E0,0E0,0E0,0E0,0E0,0E0,0E0,0E0,0E0,0E0,0E0,0E0,0E0,0E0,0E0,0E0,0E0,0E0,0E0,0E0,0E0,0E0,0E0,0E0,0E0,0E0,0E0,0E0,0E0,0E0,0E0,0E0,0E0,0E0],"parents":[2147483647,0,0,1,1,2,2,3,3,4,4,5,5,6,6,7,7,8,8,9,9,10,10,11,11,12,12,13,13,14,14,15,15,16,16,17,17,18,18,19,19,20,20,21,21,22,22,23,23,24,24,25,25,26,26,27,27,28,28,29,29,30,30,31,31,32,32,33,33,34,34,35,35,36,36,37,37,38,38,39,39,40,40,41,41,42,42,43,43,44,44,45,45,46,46,47,47,48,48,49,49,50,50,51,51,52,52,53,53,54,54,55,55,56,56,57,57,58,58,59,59,60,60,61,61,62,62],"right_children":[2,4,6,8,10,12,14,16,18,20,22,24,26,28,30,32,34,36,38,40,42,44,46,48,50,52,54,56,58,60,62,64,66,68,70,72,74,76,78,80,82,84,86,88,90,92,94,96,98,100,102,104,106,108,110,112,114,116,118,120,122,124,126,-1,-1,-1,-1,-1,-1,-1,-1,-1,-1,-1,-1,-1,-1,-1,-1,-1,-1,-1,-1,-1,-1,-1,-1,-1,-1,-1,-1,-1,-1,-1,-1,-1,-1,-1,-1,-1,-1,-1,-1,-1,-1,-1,-1,-1,-1,-1,-1,-1,-1,-1,-1,-1,-1,-1,-1,-1,-1,-1,-1,-1,-1,-1,-1],"split_conditions":[1.0392939E0,2.9277721E-2,1.0642147E0,1.0201316E0,-9.415262E-3,1.9900497E-2,1.1072218E0,-1.2712139E-1,-3.1496063E-2,9.6099645E-1,1.0141766E0,-1.754386E-2,4.524887E-3,6.52921E-2,1.24215394E-1,9.7244734E-1,-4.3668123E-3,-6.1605126E-2,3.1625552E-4,-1.8123367E-1,9.122807E-3,-1.0377359E-1,5.9469942E-2,2.189781E-2,1.0487804E0,-1.3400335E-2,1.0579435E0,5.3973902E-2,1.0352941E-1,7.8277156E-2,1.1257555E0,2.5067553E-2,-1.2895347E-1,9.9710983E-1,9.9817187E-1,2.8064221E-2,2.3015874E-2,6.644518E-3,2.5291023E-1,-5.3426247E-2,-3.9012346E-2,-3.7308462E-2,5.3557128E-2,-8.5413925E-2,4.9618125E-2,-9.026297E-2,6.870128E-2,-1.3400335E-2,-1.9570816E-2,2.8700907E-2,7.449495E-2,5.5277776E-2,1.0487804E0,2.364865E-2,6.077348E-2,1.0766345E0,1.072133E0,1.0678587E0,1.6178522E-1,1.1257555E0,-4.3181818E-2,6.800766E-2,1.1544338E0,-6.912629E-2,-1.5336098E-2,8.075117E-2,2.6670633E-2,-6.267686E-2,-5.781214E-3,-7.508805E-2,-6.914221E-2,6.6547625E-2,-9.809674E-2,3.552501E-2,-7.033216E-2,1.1857524E-2,-3.687179E-2,-5.543207E-2,6.870218E-2,5.7104375E-2,-8.5615724E-2,-9.512728E-3,-6.4086996E-2,8.044021E-2,5.2296337E-2,-1.1901889E-2,4.902305E-2,5.9987485E-2,-9.033157E-3,-5.641858E-2,-1.8583989E-2,7.096794E-2,1.863989E-2,-3.3224784E-2,3.3281025E-2,7.967375E-2,7.2570615E-2,6.4586215E-2,-9.442037E-2,3.3789437E-2,-5.5216532E-2,6.1177503E-2,-9.640034E-2,6.173585E-2,-1.11526586E-1,6.795966E-3,4.6595115E-2,-4.931764E-3,-3.8138896E-2,3.6321323E-2,-1.5146879E-2,7.365369E-2,7.873847E-2,4.849277E-2,7.025558E-2,3.2342076E-3,6.1440658E-2,3.439725E-2,-3.9698128E-2,8.012255E-2,8.127319E-2,-8.007725E-2,7.829165E-2,7.351779E-2,5.8001824E-2,7.541945E-2,7.876284E-2],"split_indices":[2,3,2,2,4,1,2,1,1,2,2,1,0,4,1,2,4,1,0,1,1,1,1,0,2,0,2,1,1,4,2,3,9,2,2,3,4,1,9,0,1,4,3,0,3,1,3,0,1,0,4,4,2,0,4,2,2,2,4,2,0,4,2,0,0,0,0,0,0,0,0,0,0,0,0,0,0,0,0,0,0,0,0,0,0,0,0,0,0,0,0,0,0,0,0,0,0,0,0,0,0,0,0,0,0,0,0,0,0,0,0,0,0,0,0,0,0,0,0,0,0,0,0,0,0,0,0],"split_type":[0,0,0,0,0,0,0,0,0,0,0,0,0,0,0,0,0,0,0,0,0,0,0,0,0,0,0,0,0,0,0,0,0,0,0,0,0,0,0,0,0,0,0,0,0,0,0,0,0,0,0,0,0,0,0,0,0,0,0,0,0,0,0,0,0,0,0,0,0,0,0,0,0,0,0,0,0,0,0,0,0,0,0,0,0,0,0,0,0,0,0,0,0,0,0,0,0,0,0,0,0,0,0,0,0,0,0,0,0,0,0,0,0,0,0,0,0,0,0,0,0,0,0,0,0,0,0],"sum_hessian":[3.8364084E5,2.0818369E5,1.7545714E5,1.687532E5,3.9430473E4,3.3005523E4,1.4245162E5,1.4613512E5,2.2618092E4,6.3948223E3,3.3035652E4,1.7143059E4,1.5862466E4,6.5640414E4,7.68112E4,2.2497246E3,1.4388539E5,2.8975012E3,1.972059E4,2.4248843E3,3.9699382E3,2.2891805E4,1.0143847E4,1.055483E4,6.5882275E3,5.213475E3,1.064899E4,5.654869E4,9.091727E3,3.851622E4,3.829499E4,1.4982728E3,7.5145184E2,5.47185E3,1.3841355E5,1.4090736E3,1.4884275E3,3.698661E3,1.602193E4,7.395273E2,1.6853569E3,2.7754634E3,1.1944747E3,4.477903E3,1.8413902E4,6.994425E3,3.149422E3,8.848353E3,1.7064778E3,2.2649717E3,4.323256E3,2.1973135E3,3.0161619E3,7.573338E3,3.0756528E3,3.5058105E4,2.1490586E4,4.6996353E3,4.3920913E3,3.1828035E4,6.688184E3,5.071874E3,3.3223113E4,9.7779266E2,5.204801E2,4.9523315E2,2.5621872E2,4.0225332E3,1.4493167E3,7.6069984E4,6.2343562E4,1.3979967E3,1.1076963E1,1.2972347E3,1.9119278E2,1.4776438E3,2.221017E3,1.5848711E4,1.7321793E2,7.1818506E2,2.1342226E1,1.263514E3,4.2184293E2,1.1550557E3,1.6204077E3,4.669537E2,7.27521E2,8.404108E2,3.6374922E3,1.4359903E4,4.0539985E3,1.1977511E3,5.796674E3,2.6976145E3,4.518077E2,2.73777E3,6.1105825E3,1.6955703E3,1.09074745E1,1.9887761E3,2.761957E2,4.2784546E3,4.480141E1,2.1800232E3,1.729026E1,1.1039181E3,1.9122437E3,3.4171848E3,4.156153E3,2.3039329E3,7.717201E2,1.1684559E4,2.3373547E4,2.9604736E3,1.8530113E4,2.5125635E2,4.448379E3,4.162846E3,2.2924478E2,1.2365238E4,1.9462797E4,1.6655248E0,6.6865186E3,3.0063235E3,2.0655503E3,1.108861E4,2.2134504E4],"tree_param":{"num_deleted":"0","num_feature":"26","num_nodes":"127","size_leaf_vector":"1"}},{"base_weights":[1.6878917E-3,-1.1041857E0,1.261179E0,1.9205683E-1,-1.168012E0,5.066964E-1,1.4094882E0,-2.1555214E-1,1.0132619E0,-1.2691257E0,-5.3403854E-1,1.1116638E0,8.167386E-2,1.1312054E0,1.4702233E0,5.778869E-1,-6.1223537E-1,1.2390902E0,3.888985E-1,8.649135E-1,-1.28625E0,4.2012867E-1,-6.629561E-1,1.3435507E0,9.3237406E-1,3.8646516E-1,-3.2295126E-1,1.3175771E0,4.7203028E-1,1.394196E0,1.5165231E0,1.7102886E-2,1.2335987E0,-9.179748E-1,3.7769604E-2,1.4357145E0,1.0001115E0,-8.907844E-1,9.295927E-1,-7.834081E-1,1.4395864E0,-1.321115E0,-7.305198E-1,1.4669275E0,2.834672E-1,-9.447748E-1,-3.0025554E-1,1.3494115E0,-9.824632E-2,6.333931E-1,1.2454264E0,8.574341E-2,8.0743563E-1,1.2251474E0,-4.0952066E-1,1.3981565E0,1.1060196E0,1.2528225E0,3.8712272E-1,1.4753269E0,1.0802437E0,1.5374322E0,1.4426205E0,1.3412929E-2,-8.417746E-2,6.669503E-2,1.4919217E-2,2.234362E-2,-5.447346E-2,-2.1119753E-2,3.904801E-2,7.5866506E-2,5.066892E-2,6.588867E-2,2.6743654E-2,-8.6789176E-2,3.733824E-2,-1.0333214E-2,7.254119E-2,7.6207495E-3,-1.0155469E-1,7.454272E-2,-9.83625E-2,-1.7202646E-2,-6.686205E-2,-5.5060398E-2,-2.5957111E-2,7.524982E-2,-8.8068426E-2,7.039624E-2,6.0901647E-3,-1.8413063E-3,-5.3158563E-2,-2.9635284E-2,1.0315256E-2,6.7720614E-2,-1.0090852E-1,1.6547753E-2,4.3799378E-2,-1.0942391E-1,6.341706E-2,5.292384E-2,1.6231935E-4,5.8563173E-2,2.6890254E-2,-8.693836E-2,6.4651646E-2,-3.5841525E-2,-6.1007845E-3,7.321661E-2,6.513297E-2,6.50322E-2,4.874375E-2,6.878329E-2,-7.1858935E-4,-4.3600064E-2,2.282169E-2,7.545091E-2,7.017892E-2,5.5605322E-2,8.417738E-3,7.781365E-2,7.52283E-2,6.793001E-2,7.486724E-2],"categories":[],"categories_nodes":[],"categories_segments":[],"categories_sizes":[],"default_left":[0,0,0,0,0,0,0,0,0,0,0,0,0,0,0,0,0,0,0,0,0,0,0,0,0,0,0,0,0,0,0,0,0,0,0,0,0,0,0,0,0,0,0,0,0,0,0,0,0,0,0,0,0,0,0,0,0,0,0,0,0,0,0,0,0,0,0,0,0,0,0,0,0,0,0,0,0,0,0,0,0,0,0,0,0,0,0,0,0,0,0,0,0,0,0,0,0,0,0,0,0,0,0,0,0,0,0,0,0,0,0,0,0,0,0,0,0,0,0,0,0,0,0,0,0],"id":6,"left_children":[1,3,5,7,9,11,13,15,17,19,21,23,25,27,29,31,33,35,37,39,41,43,45,47,49,51,53,55,57,59,61,63,65,67,69,71,73,75,77,79,81,83,85,87,89,91,93,95,-1,97,99,101,103,105,107,109,111,113,115,117,119,121,123,-1,-1,-1,-1,-1,-1,-1,-1,-1,-1,-1,-1,-1,-1,-1,-1,-1,-1,-1,-1,-1,-1,-1,-1,-1,-1,-1,-1,-1,-1,-1,-1,-1,-1,-1,-1,-1,-1,-1,-1,-1,-1,-1,-1,-1,-1,-1,-1,-1,-1,-1,-1,-1,-1,-1,-1,-1,-1,-1,-1,-1,-1],"loss_changes":[5.2532156E5,1.6615547E4,1.9730312E4,3.1551946E3,1.2268891E4,7.448599E3,2.489E3,1.9831604E3,4.4037573E2,6.0335312E3,3.2390752E3,4.9573242E2,2.0986672E3,3.2432383E3,4.2367188E2,7.7228656E2,8.34798E2,1.064375E2,5.764796E2,1.2464282E3,3.1719375E3,4.480102E2,2.3707305E3,1.03677734E2,6.305034E2,1.2286447E3,9.8035065E2,3.4935156E2,3.8545642E2,1.1648594E3,1.139375E2,4.8443607E2,9.042139E1,6.6915405E2,4.601931E2,4.17959E1,1.5292761E2,3.4394016E2,3.469701E2,3.9788507E2,1.7325513E2,2.4274062E3,7.570918E2,4.7106934E1,5.0407318E2,1.4031426E3,1.5029048E3,9.0328125E1,0E0,2.5298108E2,2.6195752E2,4.5441077E2,3.9610425E2,8.020514E1,6.1174695E2,9.227344E1,1.4377051E2,8.883197E1,4.587494E2,8.584375E1,2.7315918E2,3.3921875E1,7.425781E1,0E0,0E0,0E0,0E0,0E0,0E0,0E0,0E0,0E0,0E0,0E0,0E0,0E0,0E0,0E0,0E0,0E0,0E0,0E0,0E0,0E0,0E0,0E0,0E0,0E0,0E0,0E0,0E0,0E0,0E0,0E0,0E0,0E0,0E0,0E0,0E0,0E0,0E0,0E0,0E0,0E0,0E0,0E0,0E0,0E0,0E0,0E0,0E0,0E0,0E0,0E0,0E0,0E0,0E0,0E0,0E0,0E0,0E0,0E0,0E0,0E0,0E0],"parents":[2147483647,0,0,1,1,2,2,3,3,4,4,5,5,6,6,7,7,8,8,9,9,10,10,11,11,12,12,13,13,14,14,15,15,16,16,17,17,18,18,19,19,20,20,21,21,22,22,23,23,24,24,25,25,26,26,27,27,28,28,29,29,30,30,31,31,32,32,33,33,34,34,35,35,36,36,37,37,38,38,39,39,40,40,41,41,42,42,43,43,44,44,45,45,46,46,47,47,49,49,50,50,51,51,52,52,53,53,54,54,55,55,56,56,57,57,58,58,59,59,60,60,61,61,62,62],"right_children":[2,4,6,8,10,12,14,16,18,20,22,24,26,28,30,32,34,36,38,40,42,44,46,48,50,52,54,56,58,60,62,64,66,68,70,72,74,76,78,80,82,84,86,88,90,92,94,96,-1,98,100,102,104,106,108,110,112,114,116,118,120,122,124,-1,-1,-1,-1,-1,-1,-1,-1,-1,-1,-1,-1,-1,-1,-1,-1,-1,-1,-1,-1,-1,-1,-1,-1,-1,-1,-1,-1,-1,-1,-1,-1,-1,-1,-1,-1,-1,-1,-1,-1,-1,-1,-1,-1,-1,-1,-1,-1,-1,-1,-1,-1,-1,-1,-1,-1,-1,-1,-1,-1,-1,-1],"split_conditions":[1.0357959E0,-9.415262E-3,1.0579435E0,9.9710983E-1,1.0196991E0,3.125E-3,1.0766345E0,-3.7308462E-2,-2.366127E-2,-8.5413925E-2,-4.8653536E-2,-1.31233595E-2,3.599649E-2,4.278075E-2,1.1072218E0,9.5519376E-1,1.3155386E1,-4.5272436E-2,1.211761E1,9.377729E-1,5.728E0,-2.4783147E-2,1.236143E1,3.6820763E-1,1.0487804E0,1.0487804E0,-8.8303044E-2,2.3015874E-2,-3.7720032E-2,5.5277776E-2,1.1511111E-1,-5.3426247E-2,7.676884E-2,-8.5413925E-2,6.4539E0,-2.3174293E-2,-2.9112082E-3,1.0225189E0,-1.5151516E-2,-1.03022784E-1,6.7342E0,-1.4661229E-1,9.839527E-1,2.06659E-2,-1.6272561E-1,-5.8479533E-3,1.0302417E0,7.449495E-2,-9.824632E-2,1.2466855E1,-1.1614402E-2,-6.612652E-2,8.96861E-3,1.0765871E1,1.2431629E1,3.569447E-2,1.510574E-2,7.449495E-2,1.0654095E1,3.0303031E-2,1.6178522E-1,1.568545E-1,1.1544338E0,1.3412929E-2,-8.417746E-2,6.669503E-2,1.4919217E-2,2.234362E-2,-5.447346E-2,-2.1119753E-2,3.904801E-2,7.5866506E-2,5.066892E-2,6.588867E-2,2.6743654E-2,-8.6789176E-2,3.733824E-2,-1.0333214E-2,7.254119E-2,7.6207495E-3,-1.0155469E-1,7.454272E-2,-9.83625E-2,-1.7202646E-2,-6.686205E-2,-5.5060398E-2,-2.5957111E-2,7.524982E-2,-8.8068426E-2,7.039624E-2,6.0901647E-3,-1.8413063E-3,-5.3158563E-2,-2.9635284E-2,1.0315256E-2,6.7720614E-2,-1.0090852E-1,1.6547753E-2,4.3799378E-2,-1.0942391E-1,6.341706E-2,5.292384E-2,1.6231935E-4,5.8563173E-2,2.6890254E-2,-8.693836E-2,6.4651646E-2,-3.5841525E-2,-6.1007845E-3,7.321661E-2,6.513297E-2,6.50322E-2,4.874375E-2,6.878329E-2,-7.1858935E-4,-4.3600064E-2,2.282169E-2,7.545091E-2,7.017892E-2,5.5605322E-2,8.417738E-3,7.781365E-2,7.52283E-2,6.793001E-2,7.486724E-2],"split_indices":[2,4,2,2,2,0,2,4,0,0,9,0,4,4,2,2,6,0,6,2,5,0,6,9,2,2,9,4,9,4,4,0,9,0,5,4,9,2,0,9,5,9,2,4,9,0,2,4,0,6,0,9,9,6,6,9,0,4,6,4,4,9,2,0,0,0,0,0,0,0,0,0,0,0,0,0,0,0,0,0,0,0,0,0,0,0,0,0,0,0,0,0,0,0,0,0,0,0,0,0,0,0,0,0,0,0,0,0,0,0,0,0,0,0,0,0,0,0,0,0,0,0,0,0,0],"split_type":[0,0,0,0,0,0,0,0,0,0,0,0,0,0,0,0,0,0,0,0,0,0,0,0,0,0,0,0,0,0,0,0,0,0,0,0,0,0,0,0,0,0,0,0,0,0,0,0,0,0,0,0,0,0,0,0,0,0,0,0,0,0,0,0,0,0,0,0,0,0,0,0,0,0,0,0,0,0,0,0,0,0,0,0,0,0,0,0,0,0,0,0,0,0,0,0,0,0,0,0,0,0,0,0,0,0,0,0,0,0,0,0,0,0,0,0,0,0,0,0,0,0,0,0,0],"sum_hessian":[3.7715716E5,2.008258E5,1.7633136E5,9.42442E3,1.9140138E5,2.8968156E4,1.473632E5,6.2987456E3,3.125674E3,1.6507261E5,2.6328764E4,1.1952964E4,1.7015191E4,2.640369E4,1.20959516E5,2.0993015E3,4.199444E3,2.2947083E3,8.3096594E2,1.3136542E3,1.6375895E5,3.1335955E3,2.3195168E4,5.2091484E3,6.743816E3,9.704867E3,7.3103247E3,2.0583129E4,5.820561E3,4.5793895E4,7.516562E4,1.1321122E3,9.6718933E2,2.8557754E3,1.3436685E3,1.2561663E3,1.038542E3,2.4662386E2,5.843421E2,3.3950272E2,9.741515E2,1.5409034E5,9.668612E3,3.6073157E2,2.7728638E3,1.3052083E4,1.0143085E4,5.200528E3,8.620316E0,3.4509788E3,3.2928372E3,5.661651E3,4.0432166E3,3.864466E2,6.923878E3,1.4901675E4,5.6814536E3,5.6952966E2,5.2510312E3,3.6387117E4,9.406779E3,5.85737E4,1.6591918E4,9.8716754E2,1.4494461E2,8.731209E2,9.4068474E1,3.1859705E2,2.5371782E3,8.3011444E2,5.135541E2,1.0505559E3,2.0561032E2,6.160643E2,4.2247763E2,1.6263953E2,8.398433E1,1.839481E2,4.00394E2,1.9449796E2,1.4500476E2,9.6026324E2,1.3888245E1,2.5022576E3,1.515881E5,3.5096343E3,6.158978E3,3.570549E2,3.6766768E0,3.475766E2,2.425287E3,1.5058054E3,1.1546277E4,6.430453E3,3.7126318E3,5.193414E3,7.114141E0,1.5370859E3,1.9138928E3,2.1201225E1,3.271636E3,4.4169824E2,5.2199526E3,1.7195653E3,2.3236514E3,8.101861E0,3.7834473E2,3.345949E3,3.5779292E3,8.793681E3,6.107994E3,2.2835894E3,3.3978643E3,5.1912E2,5.0409668E1,2.7336826E2,4.977663E3,2.4746654E4,1.1640462E4,9.088978E3,3.1780103E2,3.720139E4,2.1372309E4,6.5544443E3,1.0037475E4],"tree_param":{"num_deleted":"0","num_feature":"26","num_nodes":"125","size_leaf_vector":"1"}},{"base_weights":[1.7691177E-3,-1.0365161E0,1.2964944E0,-1.2378186E0,1.1344553E0,7.520699E-2,1.3499922E0,-1.3743912E0,-9.098194E-1,7.4611706E-1,1.3882126E0,-3.5160777E-1,1.3071234E0,9.034168E-1,1.4175403E0,-1.3851806E0,9.3630576E-1,-1.0703853E0,-6.018471E-1,1.3191391E0,6.284776E-1,-9.6894704E-2,1.3928392E0,5.093617E-1,-6.491296E-1,1.4006014E0,-9.612588E-2,4.187172E-1,1.1427193E0,1.2783557E0,1.4622482E0,-1.4475077E0,-1.2902191E0,1.5014594E0,-9.1863215E-2,-7.225358E-1,-1.1600357E0,-8.948933E-1,-4.243199E-1,-1.0615712E-1,1.481414E0,1.7962192E-1,8.0331177E-1,1.4970341E0,1.298816E0,-9.9938524E-1,8.6138624E-1,-1.3255808E0,-2.7547657E-1,1.5332989E0,9.8349136E-1,5.7181585E-1,-5.689885E-3,9.2641336E-1,1.2765474E0,1.3221087E0,1.8987456E-1,1.4132345E0,1.5084499E0,-7.319645E-2,-5.731627E-2,-7.0062675E-2,-6.0718317E-2,-8.6587265E-2,7.936333E-2,-5.735842E-2,-2.4246393E-2,-6.4970575E-2,-5.028073E-2,-5.541907E-2,-2.9947057E-2,2.9340072E-2,-2.4026781E-2,-8.819282E-2,7.449478E-2,-1.0072582E-1,1.2432363E-2,-3.4392945E-2,4.4232033E-2,-7.850325E-2,7.491015E-2,5.0489485E-2,6.8000846E-2,1.4771201E-2,-9.207766E-2,5.0925035E-2,-3.8384955E-2,-7.4316576E-2,-2.4488254E-2,3.1005803E-2,-4.8178103E-2,-6.9238506E-2,7.6879986E-2,-2.708745E-2,6.371577E-2,1.8684996E-2,3.869782E-2,-3.6511473E-2,2.4638366E-2,5.421738E-2,-8.703776E-3,6.400466E-2,-1.09583996E-1,5.358866E-2,6.909679E-2,-1.8080905E-2,4.9062755E-2,7.28048E-2,6.7690596E-2,7.570956E-2,7.2351255E-2],"categories":[],"categories_nodes":[],"categories_segments":[],"categories_sizes":[],"default_left":[0,0,0,0,0,0,0,0,0,0,0,0,0,0,0,0,0,0,0,0,0,0,0,0,0,0,0,0,0,0,0,0,0,0,0,0,0,0,0,0,0,0,0,0,0,0,0,0,0,0,0,0,0,0,0,0,0,0,0,0,0,0,0,0,0,0,0,0,0,0,0,0,0,0,0,0,0,0,0,0,0,0,0,0,0,0,0,0,0,0,0,0,0,0,0,0,0,0,0,0,0,0,0,0,0,0,0,0,0,0,0],"id":7,"left_children":[1,3,5,7,9,11,13,15,17,19,21,23,25,27,29,31,33,35,37,39,41,-1,43,45,47,49,-1,51,53,55,57,59,61,63,-1,65,67,69,71,-1,73,75,77,79,81,83,85,87,89,91,93,95,97,99,101,103,105,107,109,-1,-1,-1,-1,-1,-1,-1,-1,-1,-1,-1,-1,-1,-1,-1,-1,-1,-1,-1,-1,-1,-1,-1,-1,-1,-1,-1,-1,-1,-1,-1,-1,-1,-1,-1,-1,-1,-1,-1,-1,-1,-1,-1,-1,-1,-1,-1,-1,-1,-1,-1,-1],"loss_changes":[5.0052884E5,9.030375E4,1.08264375E4,8.469531E3,1.726875E3,3.6574194E3,4.7874375E3,3.3297188E3,2.7484219E3,4.6644556E2,1.65875E2,1.3236895E3,5.4304614E2,2.4190977E3,8.561875E2,7.846094E2,9.7629266E2,1.1386641E3,9.908662E2,6.6216406E2,4.5132764E2,0E0,1.0179883E2,7.0582947E2,9.701908E2,9.480371E1,0E0,4.481084E2,4.030664E2,1.5966875E3,2.341875E2,3.9507812E2,4.418672E2,1.460415E2,0E0,7.551863E2,6.239453E2,4.5344287E2,6.748408E2,0E0,3.365576E1,2.4494229E2,5.0269385E2,2.0336914E1,9.722363E1,2.7486865E2,2.763828E2,1.8281274E2,1.5256832E3,1.8674072E1,1.8821649E2,2.0267786E2,6.610015E2,9.2852637E2,1.0886621E2,4.813125E2,5.6639545E2,1.2703906E2,1.6742188E1,0E0,0E0,0E0,0E0,0E0,0E0,0E0,0E0,0E0,0E0,0E0,0E0,0E0,0E0,0E0,0E0,0E0,0E0,0E0,0E0,0E0,0E0,0E0,0E0,0E0,0E0,0E0,0E0,0E0,0E0,0E0,0E0,0E0,0E0,0E0,0E0,0E0,0E0,0E0,0E0,0E0,0E0,0E0,0E0,0E0,0E0,0E0,0E0,0E0,0E0,0E0,0E0],"parents":[2147483647,0,0,1,1,2,2,3,3,4,4,5,5,6,6,7,7,8,8,9,9,10,10,11,11,12,12,13,13,14,14,15,15,16,16,17,17,18,18,19,19,20,20,22,22,23,23,24,24,25,25,27,27,28,28,29,29,30,30,31,31,32,32,33,33,35,35,36,36,37,37,38,38,40,40,41,41,42,42,43,43,44,44,45,45,46,46,47,47,48,48,49,49,50,50,51,51,52,52,53,53,54,54,55,55,56,56,57,57,58,58],"right_children":[2,4,6,8,10,12,14,16,18,20,22,24,26,28,30,32,34,36,38,40,42,-1,44,46,48,50,-1,52,54,56,58,60,62,64,-1,66,68,70,72,-1,74,76,78,80,82,84,86,88,90,92,94,96,98,100,102,104,106,108,110,-1,-1,-1,-1,-1,-1,-1,-1,-1,-1,-1,-1,-1,-1,-1,-1,-1,-1,-1,-1,-1,-1,-1,-1,-1,-1,-1,-1,-1,-1,-1,-1,-1,-1,-1,-1,-1,-1,-1,-1,-1,-1,-1,-1,-1,-1,-1,-1,-1,-1,-1,-1],"split_conditions":[8.169291E-2,1.0678587E0,9.839527E-1,4.3405674E-2,1.1072218E0,1.5045236E-1,9.774436E-2,8.32E-2,1.0196991E0,2.016129E-2,1.7301038E-2,-8.010681E-3,6.800766E-2,1.050735E0,1.0678587E0,2.8625954E-2,2.4844721E-2,1.0731707E-3,5.532787E-2,9.5974654E-2,1.0766345E0,-9.6894704E-2,5.9203445E-3,2.1E1,9.43995E-1,-7.283484E-2,-9.612588E-2,7.2972186E-2,1.0766345E0,7.8277156E-2,1.5045236E-1,5.7622503E-2,1.1261292E1,3.797468E-2,-9.1863215E-2,2.5E1,1.1951299E1,1.0368727E0,-8.0757104E-2,-1.0615712E-1,2.153297E-2,1.6E1,1.1021175E1,8.094335E-2,1.1257555E0,-1.4661229E-1,5.5E1,1.260355E-1,-4.529471E-2,1.1E1,9.340118E-1,7.936508E-3,1.2797356E1,4.976672E-2,9E1,1.06153846E-1,3.8E1,3.846154E-2,1.1511111E-1,-7.319645E-2,-5.731627E-2,-7.0062675E-2,-6.0718317E-2,-8.6587265E-2,7.936333E-2,-5.735842E-2,-2.4246393E-2,-6.4970575E-2,-5.028073E-2,-5.541907E-2,-2.9947057E-2,2.9340072E-2,-2.4026781E-2,-8.819282E-2,7.449478E-2,-1.0072582E-1,1.2432363E-2,-3.4392945E-2,4.4232033E-2,-7.850325E-2,7.491015E-2,5.0489485E-2,6.8000846E-2,1.4771201E-2,-9.207766E-2,5.0925035E-2,-3.8384955E-2,-7.4316576E-2,-2.4488254E-2,3.1005803E-2,-4.8178103E-2,-6.9238506E-2,7.6879986E-2,-2.708745E-2,6.371577E-2,1.8684996E-2,3.869782E-2,-3.6511473E-2,2.4638366E-2,5.421738E-2,-8.703776E-3,6.400466E-2,-1.09583996E-1,5.358866E-2,6.909679E-2,-1.8080905E-2,4.9062755E-2,7.28048E-2,6.7690596E-2,7.570956E-2,7.2351255E-2],"split_indices":[7,2,2,7,2,7,7,0,2,7,0,4,4,2,2,7,7,4,7,4,2,0,7,24,2,9,0,9,2,4,7,9,6,9,0,24,6,2,9,0,9,24,6,9,2,9,24,7,9,24,2,0,6,4,24,7,24,4,4,0,0,0,0,0,0,0,0,0,0,0,0,0,0,0,0,0,0,0,0,0,0,0,0,0,0,0,0,0,0,0,0,0,0,0,0,0,0,0,0,0,0,0,0,0,0,0,0,0,0,0,0],"split_type":[0,0,0,0,0,0,0,0,0,0,0,0,0,0,0,0,0,0,0,0,0,0,0,0,0,0,0,0,0,0,0,0,0,0,0,0,0,0,0,0,0,0,0,0,0,0,0,0,0,0,0,0,0,0,0,0,0,0,0,0,0,0,0,0,0,0,0,0,0,0,0,0,0,0,0,0,0,0,0,0,0,0,0,0,0,0,0,0,0,0,0,0,0,0,0,0,0,0,0,0,0,0,0,0,0,0,0,0,0,0,0],"sum_hessian":[3.723338E5,2.0663014E5,1.6570369E5,1.8909666E5,1.7533488E4,6.9540376E3,1.5874964E5,1.3350464E5,5.559201E4,6.9308228E3,1.0602667E4,5.1651973E3,1.7888406E3,2.0859232E4,1.3789042E5,1.3288456E5,6.200771E2,3.653926E4,1.905275E4,1.1787783E3,5.7520444E3,1.4147383E1,1.058852E4,1.3263347E3,3.8388625E3,1.7390715E3,4.976896E1,6.8954546E3,1.3963777E4,3.3531066E4,1.0435935E5,8.0219164E4,5.2665402E4,5.154962E2,1.04580894E2,7.48931E3,2.9049951E4,7.1862627E3,1.1866487E4,5.252386E1,1.1262545E3,1.6129951E3,4.1390493E3,5.015505E3,5.5730146E3,2.5057082E2,1.0757639E3,1.3650557E3,2.473807E3,1.3173121E3,4.217595E2,5.067192E3,1.8282625E3,5.340261E3,8.623517E3,3.2235117E4,1.295948E3,5.065388E4,5.370547E4,7.606791E4,4.151252E3,2.1368447E4,3.1296955E4,1.2831335E1,5.0266486E2,2.6857463E3,4.8035635E3,1.5264902E4,1.3785048E4,4.173164E3,3.013099E3,6.245007E2,1.1241987E4,2.3963337E0,1.1238582E3,4.8335896E1,1.5646592E3,2.1368375E2,3.9253655E3,1.3993421E0,5.0141055E3,9.769228E2,4.596092E3,9.9004074E1,1.5156674E2,9.814813E2,9.428254E1,1.1442133E3,2.208424E2,1.0748767E3,1.3989302E3,1.4662778E0,1.3158458E3,6.740227E1,3.543572E2,2.5605107E3,2.5066812E3,7.44956E2,1.0833064E3,4.670062E3,6.701989E2,8.61534E3,8.177102E0,6.2214507E3,2.6013666E4,7.6404663E2,5.3190137E2,2.9414E4,2.1239879E4,4.90931E4,4.6123677E3],"tree_param":{"num_deleted":"0","num_feature":"26","num_nodes":"111","size_leaf_vector":"1"}},{"base_weights":[-2.9769854E-3,-1.0381846E0,1.2205546E0,-1.2244644E0,9.9152726E-1,5.169874E-1,1.3363745E0,-1.318978E0,-9.1326904E-1,9.513327E-2,1.1900071E0,-1.51899345E-2,1.0423981E0,7.814266E-1,1.3783215E0,4.2016584E-2,-1.3282793E0,-1.1373665E0,-7.281808E-1,1.3360174E0,-5.894708E-2,8.452876E-1,1.3469824E0,-1.1048746E0,1.8705317E-1,1.1633832E0,-1.6873765E-1,2.7505076E-1,1.0860764E0,1.2978382E0,1.4520758E0,-7.860826E-2,9.117877E-1,-1.3584177E0,-1.0791328E0,-8.2221705E-1,-1.2296028E0,-2.6436955E-1,-8.513602E-1,-8.2080916E-2,1.4433321E0,2.0038371E-1,-1.0096368E0,9.809268E-1,3.6783665E-2,1.4523023E0,1.2415806E0,-1.4258605E0,-2.4750066E-1,7.6693565E-1,-2.1507224E-1,6.1786556E-1,1.3289833E0,1.0907953E0,-6.804464E-1,7.7359617E-1,-9.639452E-2,1.0942782E0,-1.04776256E-1,1.1639218E0,1.351115E0,1.4153954E0,1.4709092E0,-7.79745E-2,6.258169E-2,-7.10186E-2,-6.4793825E-2,-6.1101753E-2,-3.965641E-2,-5.3031124E-2,-1.3979495E-2,-4.5686737E-2,-6.408148E-2,-4.173952E-2,1.1529565E-2,-4.3968312E-2,3.2369755E-2,7.434944E-2,-9.289219E-2,-1.2327589E-2,2.544846E-2,-6.523041E-2,4.27476E-2,-1.09817326E-1,4.9803983E-2,-1.0023729E-1,2.443104E-2,-7.322995E-2,7.267549E-2,-1.10617876E-1,6.2293448E-2,-3.3751945E-4,-7.8724205E-2,-4.9029622E-2,3.6037356E-2,-1.1262386E-3,5.1402893E-2,-3.2168787E-2,1.1399924E-2,-3.0647604E-2,6.2059153E-2,6.968877E-2,3.9048065E-2,-9.104341E-2,6.857743E-2,-7.1568124E-2,3.1558316E-2,-8.916515E-3,4.7213286E-2,-4.7505375E-2,5.822506E-3,4.7275495E-2,6.2144447E-2,5.992628E-2,-2.1344034E-2,6.972281E-2,6.282344E-2,7.1449816E-2,4.7440715E-2,7.378166E-2,6.916148E-2],"categories":[],"categories_nodes":[],"categories_segments":[],"categories_sizes":[],"default_left":[0,0,0,0,0,0,0,0,0,0,0,0,0,0,0,0,0,0,0,0,0,0,0,0,0,0,0,0,0,0,0,0,0,0,0,0,0,0,0,0,0,0,0,0,0,0,0,0,0,0,0,0,0,0,0,0,0,0,0,0,0,0,0,0,0,0,0,0,0,0,0,0,0,0,0,0,0,0,0,0,0,0,0,0,0,0,0,0,0,0,0,0,0,0,0,0,0,0,0,0,0,0,0,0,0,0,0,0,0,0,0,0,0,0,0,0,0,0,0,0,0],"id":8,"left_children":[1,3,5,7,9,11,13,15,17,19,21,23,25,27,29,31,33,35,37,39,41,43,45,47,49,51,53,55,57,59,61,-1,63,65,67,69,71,73,75,-1,77,79,81,83,85,87,89,91,93,95,97,99,101,103,105,107,109,111,-1,113,115,117,119,-1,-1,-1,-1,-1,-1,-1,-1,-1,-1,-1,-1,-1,-1,-1,-1,-1,-1,-1,-1,-1,-1,-1,-1,-1,-1,-1,-1,-1,-1,-1,-1,-1,-1,-1,-1,-1,-1,-1,-1,-1,-1,-1,-1,-1,-1,-1,-1,-1,-1,-1,-1,-1,-1,-1,-1,-1,-1],"loss_changes":[4.623012E5,7.4754734E4,1.36304375E4,5.3250938E3,2.9569355E3,6.611866E3,3.3425156E3,1.7584375E3,1.749125E3,5.763551E2,7.351914E2,2.5893801E3,1.7437412E3,1.5572275E3,7.908125E2,1.3265251E3,1.0344531E3,5.5367773E2,1.3200352E3,1.0876465E2,6.614565E2,4.6716968E2,1.019707E2,5.058357E2,2.3111023E3,9.764863E2,6.9781793E2,7.0263025E2,1.6678125E2,4.5409375E2,4.6046875E1,0E0,5.175953E2,4.7503125E2,6.0769727E2,5.590051E2,2.4138477E2,1.3697588E3,7.6698145E2,0E0,4.91557E1,2.9087158E2,3.1736133E2,1.7783008E2,5.6651843E2,1.8576172E1,7.206152E1,2.8220752E2,3.572045E2,8.3664795E2,1.1108403E3,1.9349824E3,2.9355957E2,2.5823373E2,7.589988E2,2.6334705E2,3.9531656E2,1.3784082E2,0E0,1.00150195E3,1.8564062E2,1.488164E2,1.7015625E1,0E0,0E0,0E0,0E0,0E0,0E0,0E0,0E0,0E0,0E0,0E0,0E0,0E0,0E0,0E0,0E0,0E0,0E0,0E0,0E0,0E0,0E0,0E0,0E0,0E0,0E0,0E0,0E0,0E0,0E0,0E0,0E0,0E0,0E0,0E0,0E0,0E0,0E0,0E0,0E0,0E0,0E0,0E0,0E0,0E0,0E0,0E0,0E0,0E0,0E0,0E0,0E0,0E0,0E0,0E0,0E0,0E0,0E0],"parents":[2147483647,0,0,1,1,2,2,3,3,4,4,5,5,6,6,7,7,8,8,9,9,10,10,11,11,12,12,13,13,14,14,15,15,16,16,17,17,18,18,19,19,20,20,21,21,22,22,23,23,24,24,25,25,26,26,27,27,28,28,29,29,30,30,32,32,33,33,34,34,35,35,36,36,37,37,38,38,40,40,41,41,42,42,43,43,44,44,45,45,46,46,47,47,48,48,49,49,50,50,51,51,52,52,53,53,54,54,55,55,56,56,57,57,59,59,60,60,61,61,62,62],"right_children":[2,4,6,8,10,12,14,16,18,20,22,24,26,28,30,32,34,36,38,40,42,44,46,48,50,52,54,56,58,60,62,-1,64,66,68,70,72,74,76,-1,78,80,82,84,86,88,90,92,94,96,98,100,102,104,106,108,110,112,-1,114,116,118,120,-1,-1,-1,-1,-1,-1,-1,-1,-1,-1,-1,-1,-1,-1,-1,-1,-1,-1,-1,-1,-1,-1,-1,-1,-1,-1,-1,-1,-1,-1,-1,-1,-1,-1,-1,-1,-1,-1,-1,-1,-1,-1,-1,-1,-1,-1,-1,-1,-1,-1,-1,-1,-1,-1,-1,-1,-1,-1],"split_conditions":[7.745505E-2,1.0609233E0,1.0357959E0,4.6647232E-2,1.0766345E0,1.06153846E-1,9.090909E-2,5.9203445E-3,9.966887E-1,2.016129E-2,1.1072218E0,9.504132E-1,5.376344E-2,1.0678587E0,1.3554987E-1,1E0,1.0201316E0,2.004008E-4,-2.112676E-2,9.5974654E-2,1.3529412E-1,1.8996608E-1,5.9203445E-3,5.1552773E-2,-4.209329E-2,9.7244734E-1,-4.950992E-2,1.1690647E-2,8.9E1,1.0678587E0,1.1072218E0,-7.860826E-2,1.8E1,2.5641026E-2,1.2502511E1,3.2058E0,-1E-1,6.0402684E-2,2.9271916E-1,-8.2080916E-2,2.9824E0,1.2466855E1,1.4665347E1,-1.9284738E-2,1.0883335E0,8.094335E-2,1.1459891E-2,-1.8123367E-1,4.2E1,2.2693988E-2,1.016523E0,1.3554987E-1,5.798687E-2,9.43995E-1,6.342846E-2,8.169291E-2,1.0450939E0,1.0965677E0,-1.04776256E-1,8.3092645E-2,5.0974216E-2,9.5974654E-2,1.6178522E-1,-7.79745E-2,6.258169E-2,-7.10186E-2,-6.4793825E-2,-6.1101753E-2,-3.965641E-2,-5.3031124E-2,-1.3979495E-2,-4.5686737E-2,-6.408148E-2,-4.173952E-2,1.1529565E-2,-4.3968312E-2,3.2369755E-2,7.434944E-2,-9.289219E-2,-1.2327589E-2,2.544846E-2,-6.523041E-2,4.27476E-2,-1.09817326E-1,4.9803983E-2,-1.0023729E-1,2.443104E-2,-7.322995E-2,7.267549E-2,-1.10617876E-1,6.2293448E-2,-3.3751945E-4,-7.8724205E-2,-4.9029622E-2,3.6037356E-2,-1.1262386E-3,5.1402893E-2,-3.2168787E-2,1.1399924E-2,-3.0647604E-2,6.2059153E-2,6.968877E-2,3.9048065E-2,-9.104341E-2,6.857743E-2,-7.1568124E-2,3.1558316E-2,-8.916515E-3,4.7213286E-2,-4.7505375E-2,5.822506E-3,4.7275495E-2,6.2144447E-2,5.992628E-2,-2.1344034E-2,6.972281E-2,6.282344E-2,7.1449816E-2,4.7440715E-2,7.378166E-2,6.916148E-2],"split_indices":[7,2,2,7,2,7,7,7,2,7,2,2,4,2,7,2,2,4,1,4,9,1,7,3,1,2,9,1,24,2,2,0,24,7,6,5,1,7,9,0,5,6,6,9,2,9,7,1,24,3,2,7,1,2,3,7,2,2,0,4,4,4,4,0,0,0,0,0,0,0,0,0,0,0,0,0,0,0,0,0,0,0,0,0,0,0,0,0,0,0,0,0,0,0,0,0,0,0,0,0,0,0,0,0,0,0,0,0,0,0,0,0,0,0,0,0,0,0,0,0,0],"split_type":[0,0,0,0,0,0,0,0,0,0,0,0,0,0,0,0,0,0,0,0,0,0,0,0,0,0,0,0,0,0,0,0,0,0,0,0,0,0,0,0,0,0,0,0,0,0,0,0,0,0,0,0,0,0,0,0,0,0,0,0,0,0,0,0,0,0,0,0,0,0,0,0,0,0,0,0,0,0,0,0,0,0,0,0,0,0,0,0,0,0,0,0,0,0,0,0,0,0,0,0,0,0,0,0,0,0,0,0,0,0,0,0,0,0,0,0,0,0,0,0,0],"sum_hessian":[3.649892E5,1.9771028E5,1.672789E5,1.8109081E5,1.6619477E4,2.3645547E4,1.4363336E5,1.3890162E5,4.2189184E4,3.0130632E3,1.3606413E4,1.1747612E4,1.1897936E4,1.0095285E4,1.3353808E5,9.4281854E2,1.379588E5,1.9081238E4,2.3107947E4,3.3195963E2,2.6811035E3,4.259308E3,9.347105E3,1.8383156E3,9.909297E3,1.0817384E4,1.0805524E3,3.7928586E3,6.3024263E3,6.3864977E4,6.967309E4,3.2985083E2,6.129677E2,1.2306728E5,1.4891522E4,4.322434E3,1.4758804E4,4.849838E3,1.825811E4,1.1050368E1,3.2090927E2,2.1071113E3,5.739923E2,3.6472173E3,6.1209094E2,4.668973E3,4.6781323E3,1.337075E3,5.012407E2,4.0574167E3,5.8518794E3,2.5201763E3,8.297207E3,3.1184283E2,7.687096E2,1.6189108E3,2.173948E3,6.2868755E3,1.5550844E1,1.8183008E4,4.568197E4,2.3662818E4,4.6010277E4,7.3669846E1,5.3929785E2,6.18129E4,6.125438E4,9.927813E3,4.963709E3,3.0023748E3,1.3200596E3,2.0897793E3,1.2669024E4,2.2528452E3,2.596993E3,1.7923598E4,3.3451065E2,3.1726315E2,3.6461236E0,8.60712E2,1.2463993E3,4.9585077E2,7.814152E1,1.6628258E1,3.630589E3,1.1029765E2,5.0179327E2,1.4303359E0,4.6675425E3,5.162565E0,4.6729697E3,1.2685591E2,1.210219E3,2.8525336E2,2.1598734E2,1.00869775E3,3.048719E3,2.9752961E3,2.8765835E3,8.4723083E2,1.6729454E3,7.418574E3,8.786329E2,2.694223E1,2.849006E2,4.8878326E2,2.7992633E2,2.4611804E2,1.3727927E3,4.3314667E2,1.7408013E3,3.1454517E3,3.1414238E3,1.7796146E4,3.8686267E2,3.1324094E4,1.4357875E4,2.2990574E4,6.7224286E2,4.3643133E4,2.367144E3],"tree_param":{"num_deleted":"0","num_feature":"26","num_nodes":"121","size_leaf_vector":"1"}},{"base_weights":[-2.2219033E-3,-9.815387E-1,1.191583E0,-1.1574361E0,6.245775E-1,5.213093E-1,1.2944093E0,-1.2494458E0,-4.8625296E-1,-3.3316735E-2,1.227653E0,-2.4161135E-1,8.6769474E-1,1.1761197E0,1.400975E0,-1.3458437E0,-1.1213766E0,-9.867215E-1,-2.8419024E-1,-4.9939686E-1,2.5885385E-1,1.422934E0,9.4312114E-1,-1.0451517E0,-2.9197466E-3,3.4185624E-1,9.5243865E-1,5.121425E-1,1.2236685E0,1.3633603E0,1.4369311E0,-4.966293E-1,-1.35208E0,-1.2353874E0,-1.0487137E0,-6.2932986E-1,-1.1887887E0,-6.314867E-1,-5.7165835E-2,-6.040973E-1,7.641762E-1,1.2171804E-1,1.0009713E0,-7.7773E-2,1.425626E0,3.0853313E-1,1.0925821E0,-1.3829813E0,-8.128791E-2,-3.7977406E-1,3.2425892E-1,1.316739E-1,7.874021E-1,6.966417E-1,1.0559404E0,9.43732E-1,-1.1609273E-1,1.2729859E0,1.0586255E0,9.516413E-1,1.3724228E0,1.4428713E0,1.3363196E0,7.498178E-2,-7.668543E-2,-6.966358E-2,-6.388848E-2,1.4091802E-2,-6.2291604E-2,-5.362327E-2,-2.497553E-2,-5.611027E-2,-1.4375021E-2,-6.0716957E-2,5.343029E-2,-4.8840407E-2,-1.5387023E-2,-1.0167038E-2,3.0501032E-2,-3.4672543E-2,5.3113114E-2,-2.6813552E-2,6.6869E-2,4.6351153E-2,1.1490713E-3,3.2219864E-2,6.421875E-2,7.134433E-2,-8.3686434E-2,-2.024034E-2,4.5035593E-2,-1.14708714E-1,5.529896E-2,5.3916544E-2,-7.372258E-2,-8.401894E-2,2.343668E-2,5.7165595E-3,-6.2189043E-2,1.8663133E-2,-1.0386752E-1,5.24117E-4,5.6700755E-2,4.546302E-2,-1.1290198E-1,-1.185946E-3,4.356212E-2,5.9244215E-2,4.7199782E-2,5.080648E-2,-4.9476217E-2,9.380187E-4,-9.115008E-2,5.8675706E-2,6.6062145E-2,-2.073287E-2,5.5061158E-2,6.2247355E-2,-1.0518028E-1,6.894787E-2,5.309386E-2,7.273121E-2,7.141563E-2,-8.9600675E-2,6.7220554E-2],"categories":[],"categories_nodes":[],"categories_segments":[],"categories_sizes":[],"default_left":[0,0,0,0,0,0,0,0,0,0,0,0,0,0,0,0,0,0,0,0,0,0,0,0,0,0,0,0,0,0,0,0,0,0,0,0,0,0,0,0,0,0,0,0,0,0,0,0,0,0,0,0,0,0,0,0,0,0,0,0,0,0,0,0,0,0,0,0,0,0,0,0,0,0,0,0,0,0,0,0,0,0,0,0,0,0,0,0,0,0,0,0,0,0,0,0,0,0,0,0,0,0,0,0,0,0,0,0,0,0,0,0,0,0,0,0,0,0,0,0,0,0,0,0,0],"id":9,"left_children":[1,3,5,7,9,11,13,15,17,19,21,23,25,27,29,31,33,35,37,39,41,43,45,47,49,51,53,55,57,59,61,63,65,67,69,71,73,75,77,79,81,83,85,-1,87,89,91,93,95,97,99,101,103,105,107,109,111,113,115,117,119,121,123,-1,-1,-1,-1,-1,-1,-1,-1,-1,-1,-1,-1,-1,-1,-1,-1,-1,-1,-1,-1,-1,-1,-1,-1,-1,-1,-1,-1,-1,-1,-1,-1,-1,-1,-1,-1,-1,-1,-1,-1,-1,-1,-1,-1,-1,-1,-1,-1,-1,-1,-1,-1,-1,-1,-1,-1,-1,-1,-1,-1,-1,-1],"loss_changes":[4.1820847E5,5.5517234E4,1.110975E4,1.0937094E4,7.6962446E3,5.6667295E3,1.7601406E3,1.9214531E3,2.1591904E3,1.2635801E3,5.609883E2,1.2843407E3,6.568369E2,2.0907656E3,9.746875E1,4.699375E2,5.5291406E2,4.4277588E2,1.1994867E3,4.7347693E2,5.8035205E2,5.0320312E1,3.9061353E2,4.992566E2,6.368051E2,1.91717E2,3.355E2,1.2008676E3,5.018047E2,1.3284375E2,2.053125E1,1.346758E3,2.6825E2,4.1291406E2,5.3251953E2,3.737591E2,2.2751904E2,6.720176E2,8.9745667E2,4.9244568E2,2.0498691E2,3.8285565E2,8.905658E1,0E0,2.5808594E1,3.3287518E2,1.5389087E2,2.572351E2,3.517882E2,1.0247933E3,3.2613272E2,1.6920268E2,2.4563867E2,4.6052917E2,1.2936328E2,3.684419E2,4.1535602E2,2.2689062E2,8.93376E2,6.993956E2,6.990625E1,3.984375E0,5.5770264E1,0E0,0E0,0E0,0E0,0E0,0E0,0E0,0E0,0E0,0E0,0E0,0E0,0E0,0E0,0E0,0E0,0E0,0E0,0E0,0E0,0E0,0E0,0E0,0E0,0E0,0E0,0E0,0E0,0E0,0E0,0E0,0E0,0E0,0E0,0E0,0E0,0E0,0E0,0E0,0E0,0E0,0E0,0E0,0E0,0E0,0E0,0E0,0E0,0E0,0E0,0E0,0E0,0E0,0E0,0E0,0E0,0E0,0E0,0E0,0E0,0E0,0E0],"parents":[2147483647,0,0,1,1,2,2,3,3,4,4,5,5,6,6,7,7,8,8,9,9,10,10,11,11,12,12,13,13,14,14,15,15,16,16,17,17,18,18,19,19,20,20,21,21,22,22,23,23,24,24,25,25,26,26,27,27,28,28,29,29,30,30,31,31,32,32,33,33,34,34,35,35,36,36,37,37,38,38,39,39,40,40,41,41,42,42,44,44,45,45,46,46,47,47,48,48,49,49,50,50,51,51,52,52,53,53,54,54,55,55,56,56,57,57,58,58,59,59,60,60,61,61,62,62],"right_children":[2,4,6,8,10,12,14,16,18,20,22,24,26,28,30,32,34,36,38,40,42,44,46,48,50,52,54,56,58,60,62,64,66,68,70,72,74,76,78,80,82,84,86,-1,88,90,92,94,96,98,100,102,104,106,108,110,112,114,116,118,120,122,124,-1,-1,-1,-1,-1,-1,-1,-1,-1,-1,-1,-1,-1,-1,-1,-1,-1,-1,-1,-1,-1,-1,-1,-1,-1,-1,-1,-1,-1,-1,-1,-1,-1,-1,-1,-1,-1,-1,-1,-1,-1,-1,-1,-1,-1,-1,-1,-1,-1,-1,-1,-1,-1,-1,-1,-1,-1,-1,-1,-1,-1,-1],"split_conditions":[7.874016E-2,4.477612E-2,9.528796E-2,5.91716E-2,9.824349E-2,7.725587E-3,1.3554987E-1,3.168317E-2,-2.0689655E-2,1.213294E1,7.440476E-3,-4.1284405E-2,1.1427389E1,-2.9609691E-2,1.7879377E-1,8.377689E0,1.1317105E1,2.004008E-4,1.1951299E1,5.930479E-2,2.1327774E-1,2.4549918E-2,1.3887554E-1,4.4E1,6.256E-3,9.090909E-2,8.496732E-2,4.115226E-3,5.22696E-2,-7.1938775E-2,1.3102894E-1,5.9203445E-3,7.6E-1,-1.8123367E-1,3.4897715E-2,2.5E1,1.5972813E1,5.395E-3,3.257329E-2,7.745505E-2,3.9E1,5.92E-4,1.3906528E1,-7.7773E-2,7.0632E0,1.3329752E1,1.8890921E-2,3.16E-4,3.3405013E-2,1.4285714E-2,1.8996608E-1,1.2264151E-1,1.1261292E1,1.2431629E1,3.599649E-2,1.0352941E-1,5.0974216E-2,1.06153846E-1,6.4226077E-4,9.375E-3,1.5536426E1,3.1558186E-2,-5.3426247E-2,7.498178E-2,-7.668543E-2,-6.966358E-2,-6.388848E-2,1.4091802E-2,-6.2291604E-2,-5.362327E-2,-2.497553E-2,-5.611027E-2,-1.4375021E-2,-6.0716957E-2,5.343029E-2,-4.8840407E-2,-1.5387023E-2,-1.0167038E-2,3.0501032E-2,-3.4672543E-2,5.3113114E-2,-2.6813552E-2,6.6869E-2,4.6351153E-2,1.1490713E-3,3.2219864E-2,6.421875E-2,7.134433E-2,-8.3686434E-2,-2.024034E-2,4.5035593E-2,-1.14708714E-1,5.529896E-2,5.3916544E-2,-7.372258E-2,-8.401894E-2,2.343668E-2,5.7165595E-3,-6.2189043E-2,1.8663133E-2,-1.0386752E-1,5.24117E-4,5.6700755E-2,4.546302E-2,-1.1290198E-1,-1.185946E-3,4.356212E-2,5.9244215E-2,4.7199782E-2,5.080648E-2,-4.9476217E-2,9.380187E-4,-9.115008E-2,5.8675706E-2,6.6062145E-2,-2.073287E-2,5.5061158E-2,6.2247355E-2,-1.0518028E-1,6.894787E-2,5.309386E-2,7.273121E-2,7.141563E-2,-8.9600675E-2,6.7220554E-2],"split_indices":[7,0,7,7,0,0,7,7,0,6,7,0,6,0,7,6,6,4,6,3,1,1,1,24,5,7,7,4,4,0,4,7,5,1,0,24,6,5,0,7,24,5,6,0,5,6,7,5,3,4,1,0,6,6,4,1,4,7,0,4,6,4,0,0,0,0,0,0,0,0,0,0,0,0,0,0,0,0,0,0,0,0,0,0,0,0,0,0,0,0,0,0,0,0,0,0,0,0,0,0,0,0,0,0,0,0,0,0,0,0,0,0,0,0,0,0,0,0,0,0,0,0,0,0,0],"split_type":[0,0,0,0,0,0,0,0,0,0,0,0,0,0,0,0,0,0,0,0,0,0,0,0,0,0,0,0,0,0,0,0,0,0,0,0,0,0,0,0,0,0,0,0,0,0,0,0,0,0,0,0,0,0,0,0,0,0,0,0,0,0,0,0,0,0,0,0,0,0,0,0,0,0,0,0,0,0,0,0,0,0,0,0,0,0,0,0,0,0,0,0,0,0,0,0,0,0,0,0,0,0,0,0,0,0,0,0,0,0,0,0,0,0,0,0,0,0,0,0,0,0,0,0,0],"sum_hessian":[3.5771225E5,1.9650942E5,1.6120284E5,1.7711278E5,1.939663E4,2.1441598E4,1.3976125E5,1.5575953E5,2.1353256E4,9.277147E3,1.0119482E4,6.6953228E3,1.4746275E4,6.624279E4,7.351846E4,8.886278E4,6.689675E4,6.140528E3,1.5212729E4,3.5744146E3,5.7027334E3,5.998541E3,4.1209414E3,1.5325867E3,5.162736E3,2.047362E3,1.2698913E4,4.427557E3,6.1815234E4,3.5949523E4,3.7568938E4,6.4840717E2,8.8214375E4,2.6033422E4,4.086333E4,2.219342E3,3.9211858E3,6.0127646E3,9.199964E3,3.301382E3,2.730326E2,4.814269E3,8.884641E2,4.895977E0,5.993645E3,7.861475E2,3.3347937E3,1.1345111E3,3.9807547E2,2.3991555E3,2.7635806E3,1.3919958E3,6.553662E2,3.6603538E3,9.03856E3,2.6242375E3,1.8033197E3,4.758836E4,1.4226876E4,7.765473E2,3.5172973E4,3.5461883E4,2.1070566E3,2.215334E2,4.2687378E2,5.6743E4,3.1471373E4,1.7781241E2,2.585561E4,3.9168426E4,1.6948992E3,9.079329E2,1.311409E3,3.877757E3,4.3428562E1,2.9084604E3,3.104304E3,7.547144E3,1.6528202E3,3.1339187E3,1.6746327E2,8.354824E1,1.8948434E2,5.248833E2,4.2893857E3,3.948915E2,4.9357263E2,5.991748E3,1.8972894E0,3.567373E2,4.2941022E2,1.2468751E1,3.322325E3,4.0264725E1,1.0942465E3,1.0135335E2,2.9672214E2,1.5268522E3,8.723033E2,2.7091462E3,5.4434288E1,1.2427476E3,1.4924828E2,6.308262E2,2.4540018E1,7.142781E2,2.9460757E3,4.1959087E3,4.8426504E3,2.5299683E3,9.4269165E1,1.6721979E3,1.3112178E2,1.5553443E4,3.2034914E4,3.995433E2,1.3827332E4,7.090688E2,6.747855E1,3.444476E4,7.2821375E2,1.956704E4,1.5894842E4,4.8670874E0,2.1021895E3],"tree_param":{"num_deleted":"0","num_feature":"26","num_nodes":"125","size_leaf_vector":"1"}},{"base_weights":[1.0511966E-2,-9.51732E-1,1.1509427E0,-1.0956783E0,8.6175144E-1,5.086335E-1,1.2593769E0,-1.197562E0,-5.392587E-1,1.01111546E-1,1.197916E0,-2.535975E-1,8.093831E-1,1.1431942E0,1.3666052E0,-1.3143936E0,-1.080162E0,-7.6873296E-1,3.0726029E-2,-7.339404E-1,4.0217698E-1,1.3861042E0,9.1843504E-1,-7.8295183E-1,-5.8275618E-2,5.167896E-1,9.406103E-1,4.007502E-1,1.1922464E0,1.2784005E0,1.3861328E0,-1.3220865E0,-2.001289E-1,-1.1431429E0,-8.7737155E-1,-1.0657823E0,-5.902854E-1,-2.1729244E-1,5.120746E-1,6.040869E-1,-9.760947E-1,-5.9061922E-2,6.6604656E-1,-8.757833E-2,1.390314E0,3.797168E-1,1.0300156E0,-7.918479E-2,-4.0013787E-1,4.010886E-1,-2.1322492E-1,2.1729414E-1,7.7212167E-1,8.029854E-1,1.0971513E0,4.9972722E-1,-9.7650474E-1,1.0592774E0,1.2317952E0,6.870734E-1,1.2955102E0,1.3508689E0,1.405767E0,-1.7593488E-2,-6.6538595E-2,-7.605837E-2,1.8945362E-2,-6.294871E-2,-5.3216737E-2,-4.5221135E-2,4.158718E-2,-7.839429E-2,-4.8273537E-2,-4.565569E-2,-2.3057682E-2,-2.4938183E-2,1.1759817E-2,1.4696175E-2,4.7562104E-2,-8.327363E-2,5.5560123E-2,-6.9611594E-2,-5.631603E-3,-2.8295795E-2,1.953829E-2,3.609981E-2,-1.0341231E-1,-7.102803E-2,6.959841E-2,-7.045298E-2,3.9314155E-2,-1.08602546E-1,5.210622E-2,-5.8894027E-2,5.2892277E-3,-2.2572046E-2,4.164128E-2,-3.527437E-2,-2.5253284E-3,1.5783701E-2,-1.04558125E-1,3.989319E-2,-1.18159615E-1,-1.0118114E-1,4.13153E-2,2.0217178E-2,5.6353785E-2,6.5210923E-3,3.817086E-2,-1.0471558E-1,2.1734837E-2,-4.1100476E-3,5.5921387E-2,6.1954964E-2,2.5128052E-2,4.219632E-2,-1.1449911E-1,6.513972E-2,4.349374E-2,6.79122E-2,4.9532253E-2,7.0554644E-2,6.846548E-2],"categories":[],"categories_nodes":[],"categories_segments":[],"categories_sizes":[],"default_left":[0,0,0,0,0,0,0,0,0,0,0,0,0,0,0,0,0,0,0,0,0,0,0,0,0,0,0,0,0,0,0,0,0,0,0,0,0,0,0,0,0,0,0,0,0,0,0,0,0,0,0,0,0,0,0,0,0,0,0,0,0,0,0,0,0,0,0,0,0,0,0,0,0,0,0,0,0,0,0,0,0,0,0,0,0,0,0,0,0,0,0,0,0,0,0,0,0,0,0,0,0,0,0,0,0,0,0,0,0,0,0,0,0,0,0,0,0,0,0,0,0,0,0],"id":10,"left_children":[1,3,5,7,9,11,13,15,17,19,21,23,25,27,29,31,33,35,37,39,41,43,45,47,49,51,53,55,57,59,61,63,65,67,69,71,73,75,77,79,81,83,85,-1,87,89,91,-1,93,95,97,99,101,103,105,107,109,111,113,115,117,119,121,-1,-1,-1,-1,-1,-1,-1,-1,-1,-1,-1,-1,-1,-1,-1,-1,-1,-1,-1,-1,-1,-1,-1,-1,-1,-1,-1,-1,-1,-1,-1,-1,-1,-1,-1,-1,-1,-1,-1,-1,-1,-1,-1,-1,-1,-1,-1,-1,-1,-1,-1,-1,-1,-1,-1,-1,-1,-1,-1,-1],"loss_changes":[3.882781E5,5.0096594E4,1.1276859E4,1.0078422E4,3.6085576E3,5.361873E3,1.7242656E3,2.0597656E3,3.5993271E3,1.0880328E3,5.134912E2,6.8423663E2,6.4348145E2,2.4212188E3,1.223125E2,6.4534375E2,9.563906E2,1.0393564E3,9.4320636E2,3.721922E2,3.8715753E2,7.966699E1,2.365249E2,5.461388E2,3.4426437E2,3.9711414E2,2.4854199E2,5.624596E2,3.2671094E2,1.3134961E2,3.8921875E1,6.2983594E2,3.964947E2,5.207578E2,8.2223535E2,3.6927246E2,5.1061816E2,6.642053E2,2.5710675E2,2.0484265E2,3.489276E2,2.6433322E2,3.1102936E2,0E0,2.913086E1,4.9408038E2,1.2883716E2,0E0,4.7549313E2,4.4942035E2,2.8964282E2,5.4394916E2,2.2819373E2,4.0803564E2,1.1178174E2,3.7451044E2,4.374592E2,9.660293E2,2.5540625E2,1.745584E2,3.8248047E1,5.4753906E1,5.4140625E0,0E0,0E0,0E0,0E0,0E0,0E0,0E0,0E0,0E0,0E0,0E0,0E0,0E0,0E0,0E0,0E0,0E0,0E0,0E0,0E0,0E0,0E0,0E0,0E0,0E0,0E0,0E0,0E0,0E0,0E0,0E0,0E0,0E0,0E0,0E0,0E0,0E0,0E0,0E0,0E0,0E0,0E0,0E0,0E0,0E0,0E0,0E0,0E0,0E0,0E0,0E0,0E0,0E0,0E0,0E0,0E0,0E0,0E0,0E0,0E0],"parents":[2147483647,0,0,1,1,2,2,3,3,4,4,5,5,6,6,7,7,8,8,9,9,10,10,11,11,12,12,13,13,14,14,15,15,16,16,17,17,18,18,19,19,20,20,21,21,22,22,23,23,24,24,25,25,26,26,27,27,28,28,29,29,30,30,31,31,32,32,33,33,34,34,35,35,36,36,37,37,38,38,39,39,40,40,41,41,42,42,44,44,45,45,46,46,48,48,49,49,50,50,51,51,52,52,53,53,54,54,55,55,56,56,57,57,58,58,59,59,60,60,61,61,62,62],"right_children":[2,4,6,8,10,12,14,16,18,20,22,24,26,28,30,32,34,36,38,40,42,44,46,48,50,52,54,56,58,60,62,64,66,68,70,72,74,76,78,80,82,84,86,-1,88,90,92,-1,94,96,98,100,102,104,106,108,110,112,114,116,118,120,122,-1,-1,-1,-1,-1,-1,-1,-1,-1,-1,-1,-1,-1,-1,-1,-1,-1,-1,-1,-1,-1,-1,-1,-1,-1,-1,-1,-1,-1,-1,-1,-1,-1,-1,-1,-1,-1,-1,-1,-1,-1,-1,-1,-1,-1,-1,-1,-1,-1,-1,-1,-1,-1,-1,-1,-1,-1,-1,-1,-1],"split_conditions":[7.745505E-2,6.0675442E-2,9.528796E-2,5.532787E-2,9.824349E-2,3.717472E-3,1.3554987E-1,2.8625954E-2,1.8085107E-2,7.3746316E-2,8.305647E-3,-4.1284405E-2,1.2180752E1,-2.9609691E-2,1.5045236E-1,7.7688E0,1.2396694E-2,-2.0689655E-2,7.063912E-2,8.68E-4,1.2466855E1,2.153297E-2,1.19816475E1,3.1730648E-2,-5.1338956E-2,8.695652E-2,8.878521E-2,1.0352941E-1,1.0315306E-1,-5.811623E-2,1.7879377E-1,8.377689E0,1.6288957E-2,1.1289111E1,2.5291023E-1,-1.0013073E-1,1.1317105E1,1.3078248E1,1.360429E1,4.249459E-2,4.8221E0,8.448E-3,1.88501E1,-8.757833E-2,1.9900497E-2,5.3557128E-2,1.655629E-2,-7.918479E-2,6.05E-3,-8.440626E-2,8.169291E-2,1.2011712E1,1.599E1,8.647129E-3,-2.7920647E-2,-5.811623E-2,2.9271916E-1,-3.3670033E-3,1.5536426E1,7.7467695E-2,1.5536426E1,1.5536426E1,2.1327774E-1,-1.7593488E-2,-6.6538595E-2,-7.605837E-2,1.8945362E-2,-6.294871E-2,-5.3216737E-2,-4.5221135E-2,4.158718E-2,-7.839429E-2,-4.8273537E-2,-4.565569E-2,-2.3057682E-2,-2.4938183E-2,1.1759817E-2,1.4696175E-2,4.7562104E-2,-8.327363E-2,5.5560123E-2,-6.9611594E-2,-5.631603E-3,-2.8295795E-2,1.953829E-2,3.609981E-2,-1.0341231E-1,-7.102803E-2,6.959841E-2,-7.045298E-2,3.9314155E-2,-1.08602546E-1,5.210622E-2,-5.8894027E-2,5.2892277E-3,-2.2572046E-2,4.164128E-2,-3.527437E-2,-2.5253284E-3,1.5783701E-2,-1.04558125E-1,3.989319E-2,-1.18159615E-1,-1.0118114E-1,4.13153E-2,2.0217178E-2,5.6353785E-2,6.5210923E-3,3.817086E-2,-1.0471558E-1,2.1734837E-2,-4.1100476E-3,5.5921387E-2,6.1954964E-2,2.5128052E-2,4.219632E-2,-1.1449911E-1,6.513972E-2,4.349374E-2,6.79122E-2,4.9532253E-2,7.0554644E-2,6.846548E-2],"split_indices":[7,0,7,7,0,0,7,7,0,1,7,0,6,0,7,5,0,0,7,5,6,9,6,3,9,7,7,1,7,0,7,6,3,6,9,9,6,6,6,7,5,5,5,0,1,3,7,0,5,9,7,6,5,3,9,0,9,0,6,3,6,6,1,0,0,0,0,0,0,0,0,0,0,0,0,0,0,0,0,0,0,0,0,0,0,0,0,0,0,0,0,0,0,0,0,0,0,0,0,0,0,0,0,0,0,0,0,0,0,0,0,0,0,0,0,0,0,0,0,0,0,0,0],"split_type":[0,0,0,0,0,0,0,0,0,0,0,0,0,0,0,0,0,0,0,0,0,0,0,0,0,0,0,0,0,0,0,0,0,0,0,0,0,0,0,0,0,0,0,0,0,0,0,0,0,0,0,0,0,0,0,0,0,0,0,0,0,0,0,0,0,0,0,0,0,0,0,0,0,0,0,0,0,0,0,0,0,0,0,0,0,0,0,0,0,0,0,0,0,0,0,0,0,0,0,0,0,0,0,0,0,0,0,0,0,0,0,0,0,0,0,0,0,0,0,0,0,0,0],"sum_hessian":[3.5382322E5,1.919037E5,1.6191952E5,1.7779177E5,1.4111938E4,2.3387814E4,1.385317E5,1.502745E5,2.7517273E4,4.3256304E3,9.786309E3,6.61717E3,1.6770645E4,6.649522E4,7.203649E4,7.531444E4,7.4960055E4,1.961855E4,7.8987217E3,1.1458894E3,3.1797412E3,5.8459697E3,3.9403384E3,1.7827139E3,4.8344556E3,5.194208E3,1.15764375E4,4.1215474E3,6.2373668E4,1.3069517E4,5.8966973E4,7.479784E4,5.165883E2,5.719294E4,1.7767117E4,7.360711E3,1.2257841E4,5.2131533E3,2.685568E3,1.7537231E2,9.705171E2,1.1574017E3,2.0223395E3,7.276727E0,5.838693E3,6.768526E2,3.2634858E3,5.755924E2,1.2071215E3,1.2190021E3,3.6154539E3,2.3912305E3,2.8029775E3,6.163688E3,5.412749E3,3.845804E3,2.7574326E2,1.4305184E4,4.8068484E4,3.6868002E2,1.2700837E4,2.1114234E4,3.785274E4,6.640193E2,7.413383E4,1.5693129E2,3.59657E2,2.3150984E4,3.4041953E4,1.7490752E4,2.7636536E2,1.2232383E3,6.1374727E3,3.500514E3,8.757327E3,3.2138635E3,1.99929E3,1.7953962E3,8.901718E2,3.1611795E1,1.4376053E2,6.5448315E2,3.1603394E2,5.440841E2,6.133176E2,1.9825089E3,3.9830563E1,2.9296E0,5.835763E3,1.2489302E2,5.519596E2,1.1622482E1,3.2518633E3,4.7523132E2,7.3189014E2,4.0978143E2,8.092206E2,8.973666E2,2.7180872E3,2.2943164E3,9.691401E1,2.7808909E3,2.2086699E1,4.973463E1,6.1139536E3,2.2471336E2,5.1880356E3,1.602688E3,2.243116E3,1.5359625E2,1.22147E2,7.04742E2,1.3600441E4,4.7591113E4,4.7737094E2,3.5090814E2,1.7771877E1,1.2485109E4,2.1572731E2,2.0687912E4,4.2632196E2,3.299495E4,4.8577915E3],"tree_param":{"num_deleted":"0","num_feature":"26","num_nodes":"123","size_leaf_vector":"1"}},{"base_weights":[5.1473523E-3,-9.298738E-1,1.0925146E0,-1.080747E0,7.2815174E-1,4.752425E-1,1.2336855E0,-1.2000859E0,-7.019191E-1,2.7429046E-2,1.1717141E0,-2.184373E-1,7.994532E-1,1.118259E0,1.3333392E0,-1.2804341E0,-1.0949242E0,-8.397379E-1,-3.6747673E-1,-4.500635E-1,4.106337E-1,1.3567944E0,8.742144E-1,-7.413594E-1,2.6751736E-2,5.175201E-1,9.480466E-1,-3.2782431E-3,1.1465634E0,1.2929322E0,1.3711568E0,-1.288148E0,-1.8148223E-1,-1.1390932E0,-9.0521765E-1,-9.212433E-1,-5.672669E-1,-5.741854E-1,3.901644E-2,-6.994375E-1,1.6697267E-1,-9.50293E-3,8.2026094E-1,-8.126644E-2,1.3603749E0,4.213239E-1,1.004401E0,-1.4461076E0,-4.4874898E-1,-9.201419E-2,7.2937334E-1,-2.6101261E-2,6.891823E-1,1.0668832E0,8.786468E-1,-8.2146895E-1,4.2727387E-1,8.286874E-1,1.1674591E0,9.384629E-1,1.3014479E0,1.3492521E0,1.382172E0,-2.0778121E-2,-6.483381E-2,-7.410344E-2,1.8273307E-2,-5.8817416E-2,-4.6522137E-2,2.0590775E-2,-4.6404507E-2,-4.8697565E-2,-2.7451536E-2,-4.784952E-2,-2.0142926E-2,-3.3160616E-2,2.776747E-3,-1.0260585E-2,2.3568537E-2,3.8686816E-2,-4.0473703E-2,5.4829806E-2,-6.607022E-3,4.7367506E-2,-3.0866532E-2,2.2825036E-2,5.5746343E-2,6.809023E-2,-8.6435236E-2,2.5313804E-2,-1.1427833E-1,-1.0797842E-1,5.113868E-2,-2.8771017E-2,-7.803817E-2,-4.5098864E-2,-7.43268E-3,-2.4362527E-2,1.2794966E-2,4.115821E-2,-1.1030573E-1,2.2825722E-2,-2.7561838E-2,1.1749709E-3,3.9429516E-2,5.356112E-2,-1.0727479E-1,-1.157426E-1,4.4231143E-2,2.389534E-2,-7.759757E-2,-3.8705354E-3,3.7941217E-2,1.914104E-2,5.416885E-2,5.406901E-2,6.0795076E-2,-1.11170046E-1,4.9292468E-2,6.2992044E-2,6.661404E-2,-8.4271625E-2,6.748959E-2,6.9439135E-2,6.749159E-2],"categories":[],"categories_nodes":[],"categories_segments":[],"categories_sizes":[],"default_left":[0,0,0,0,0,0,0,0,0,0,0,0,0,0,0,0,0,0,0,0,0,0,0,0,0,0,0,0,0,0,0,0,0,0,0,0,0,0,0,0,0,0,0,0,0,0,0,0,0,0,0,0,0,0,0,0,0,0,0,0,0,0,0,0,0,0,0,0,0,0,0,0,0,0,0,0,0,0,0,0,0,0,0,0,0,0,0,0,0,0,0,0,0,0,0,0,0,0,0,0,0,0,0,0,0,0,0,0,0,0,0,0,0,0,0,0,0,0,0,0,0,0,0,0,0],"id":11,"left_children":[1,3,5,7,9,11,13,15,17,19,21,23,25,27,29,31,33,35,37,39,41,43,45,47,49,51,53,55,57,59,61,63,65,67,69,71,73,75,77,79,81,83,85,-1,87,89,91,93,95,97,99,101,103,105,107,109,111,113,115,117,119,121,123,-1,-1,-1,-1,-1,-1,-1,-1,-1,-1,-1,-1,-1,-1,-1,-1,-1,-1,-1,-1,-1,-1,-1,-1,-1,-1,-1,-1,-1,-1,-1,-1,-1,-1,-1,-1,-1,-1,-1,-1,-1,-1,-1,-1,-1,-1,-1,-1,-1,-1,-1,-1,-1,-1,-1,-1,-1,-1,-1,-1,-1,-1],"loss_changes":[3.510546E5,4.644078E4,1.3910328E4,7.692047E3,4.812837E3,6.6830938E3,1.4929688E3,1.0919688E3,1.8787031E3,1.0986722E3,5.209238E2,1.2136326E3,8.4788477E2,1.9111328E3,1.04765625E2,6.2153906E2,4.6864062E2,6.4058984E2,9.99798E2,4.1147235E2,5.732808E2,6.4609375E1,2.1416211E2,6.22437E2,5.3788275E2,6.524719E2,1.08421875E2,5.227616E2,3.8907812E2,1.0057422E2,6.8203125E0,5.4147656E2,3.6505295E2,3.523047E2,3.1941504E2,4.3538477E2,4.2569287E2,4.4223096E2,4.237228E2,3.0928455E2,2.1432602E2,9.5756537E2,1.8027747E2,0E0,2.8134766E1,1.8841742E2,1.6649487E2,8.7552246E1,2.90454E2,7.583384E2,2.5841608E2,4.257493E2,3.51614E2,7.037988E1,1.6191846E2,4.863874E2,1.6275478E2,4.112837E2,2.2842969E2,1.2126776E2,4.0566406E1,2.20625E1,3.2382812E0,0E0,0E0,0E0,0E0,0E0,0E0,0E0,0E0,0E0,0E0,0E0,0E0,0E0,0E0,0E0,0E0,0E0,0E0,0E0,0E0,0E0,0E0,0E0,0E0,0E0,0E0,0E0,0E0,0E0,0E0,0E0,0E0,0E0,0E0,0E0,0E0,0E0,0E0,0E0,0E0,0E0,0E0,0E0,0E0,0E0,0E0,0E0,0E0,0E0,0E0,0E0,0E0,0E0,0E0,0E0,0E0,0E0,0E0,0E0,0E0,0E0,0E0],"parents":[2147483647,0,0,1,1,2,2,3,3,4,4,5,5,6,6,7,7,8,8,9,9,10,10,11,11,12,12,13,13,14,14,15,15,16,16,17,17,18,18,19,19,20,20,21,21,22,22,23,23,24,24,25,25,26,26,27,27,28,28,29,29,30,30,31,31,32,32,33,33,34,34,35,35,36,36,37,37,38,38,39,39,40,40,41,41,42,42,44,44,45,45,46,46,47,47,48,48,49,49,50,50,51,51,52,52,53,53,54,54,55,55,56,56,57,57,58,58,59,59,60,60,61,61,62,62],"right_children":[2,4,6,8,10,12,14,16,18,20,22,24,26,28,30,32,34,36,38,40,42,44,46,48,50,52,54,56,58,60,62,64,66,68,70,72,74,76,78,80,82,84,86,-1,88,90,92,94,96,98,100,102,104,106,108,110,112,114,116,118,120,122,124,-1,-1,-1,-1,-1,-1,-1,-1,-1,-1,-1,-1,-1,-1,-1,-1,-1,-1,-1,-1,-1,-1,-1,-1,-1,-1,-1,-1,-1,-1,-1,-1,-1,-1,-1,-1,-1,-1,-1,-1,-1,-1,-1,-1,-1,-1,-1,-1,-1,-1,-1,-1,-1,-1,-1,-1,-1,-1,-1,-1,-1,-1],"split_conditions":[7.499085E-2,5.263158E-2,9.774436E-2,4.6647232E-2,9.824349E-2,7.725587E-3,1.3554987E-1,2.8625954E-2,1.2121212E-2,9.649405E-2,7.440476E-3,2.3E1,8.496732E-2,-5.811623E-2,1.7879377E-1,7.7688E0,3.054E0,6.534824E-2,8.5584655E-2,5.9772726E-2,1.7485E0,4.2376086E-2,1.3887554E-1,-4.5272436E-2,9.528796E-2,3.3043478E-2,2.4006622E-2,2.3E1,-2.311757E-2,-7.1938775E-2,2.8E1,5.9203445E-3,1.6288957E-2,2.7793046E-2,-1.3638103E-1,6.584822E-2,-3.2258064E-2,7.063912E-2,3.8E1,4.99E-4,-2.3809524E-2,1.462E-3,5.7971016E-2,-8.126644E-2,7.0632E0,1.3113604E-1,1.9379845E-2,-1.515025E-1,8.3333336E-2,6.05E-3,1.06424E1,-1.8018018E-2,2.0833334E-2,2.37328E1,6.4945607E-3,-1.180203E-1,2.120891E-3,3E1,2.8E1,1.007E-3,3.1E1,3.16E-4,2.0593135E-1,-2.0778121E-2,-6.483381E-2,-7.410344E-2,1.8273307E-2,-5.8817416E-2,-4.6522137E-2,2.0590775E-2,-4.6404507E-2,-4.8697565E-2,-2.7451536E-2,-4.784952E-2,-2.0142926E-2,-3.3160616E-2,2.776747E-3,-1.0260585E-2,2.3568537E-2,3.8686816E-2,-4.0473703E-2,5.4829806E-2,-6.607022E-3,4.7367506E-2,-3.0866532E-2,2.2825036E-2,5.5746343E-2,6.809023E-2,-8.6435236E-2,2.5313804E-2,-1.1427833E-1,-1.0797842E-1,5.113868E-2,-2.8771017E-2,-7.803817E-2,-4.5098864E-2,-7.43268E-3,-2.4362527E-2,1.2794966E-2,4.115821E-2,-1.1030573E-1,2.2825722E-2,-2.7561838E-2,1.1749709E-3,3.9429516E-2,5.356112E-2,-1.0727479E-1,-1.157426E-1,4.4231143E-2,2.389534E-2,-7.759757E-2,-3.8705354E-3,3.7941217E-2,1.914104E-2,5.416885E-2,5.406901E-2,6.0795076E-2,-1.11170046E-1,4.9292468E-2,6.2992044E-2,6.661404E-2,-8.4271625E-2,6.748959E-2,6.9439135E-2,6.749159E-2],"split_indices":[7,0,7,7,0,0,7,7,0,9,7,24,7,0,7,5,5,7,9,7,5,1,1,0,7,1,1,24,0,0,24,7,3,3,9,1,0,7,24,5,1,5,7,0,5,1,7,1,7,5,5,1,0,5,3,9,9,24,24,5,24,5,9,0,0,0,0,0,0,0,0,0,0,0,0,0,0,0,0,0,0,0,0,0,0,0,0,0,0,0,0,0,0,0,0,0,0,0,0,0,0,0,0,0,0,0,0,0,0,0,0,0,0,0,0,0,0,0,0,0,0,0,0,0,0],"split_type":[0,0,0,0,0,0,0,0,0,0,0,0,0,0,0,0,0,0,0,0,0,0,0,0,0,0,0,0,0,0,0,0,0,0,0,0,0,0,0,0,0,0,0,0,0,0,0,0,0,0,0,0,0,0,0,0,0,0,0,0,0,0,0,0,0,0,0,0,0,0,0,0,0,0,0,0,0,0,0,0,0,0,0,0,0,0,0,0,0,0,0,0,0,0,0,0,0,0,0,0,0,0,0,0,0,0,0,0,0,0,0,0,0,0,0,0,0,0,0,0,0,0,0,0,0],"sum_hessian":[3.4528244E5,1.8564631E5,1.5963611E5,1.701626E5,1.5483715E4,2.9714275E4,1.29921836E5,1.2939748E5,4.0765125E4,6.0024062E3,9.481309E3,9.464469E3,2.0249807E4,6.0202723E4,6.971912E4,7.334634E4,5.6051133E4,2.8867668E4,1.1897457E4,2.6723489E3,3.3300574E3,5.8428184E3,3.63849E3,3.0205105E3,6.443958E3,6.990636E3,1.325917E4,1.4819678E3,5.8720758E4,3.3722625E4,3.599649E4,7.283492E4,5.1141922E2,4.5461453E4,1.058968E4,2.2218861E4,6.648806E3,7.8865835E3,4.0108733E3,1.9030865E3,7.692623E2,1.6444224E3,1.685635E3,6.463807E0,5.8363545E3,8.1333E2,2.82516E3,8.850169E2,2.1354934E3,5.5129575E3,9.310003E2,1.6778983E3,5.312738E3,4.883152E3,8.376019E3,5.1065234E2,9.713155E2,3.6244587E3,5.5096297E4,7.9374286E2,3.2928883E4,1.208598E4,2.3910508E4,7.054382E2,7.2129484E4,1.5089554E2,3.6052368E2,3.857001E4,6.8914385E3,1.8047842E2,1.0409201E4,1.9461377E4,2.7574863E3,1.9712399E3,4.6775664E3,6.909673E3,9.769107E2,2.563391E3,1.4474822E3,1.3184947E2,1.771237E3,1.866136E2,5.8264874E2,6.385877E2,1.0058346E3,7.555141E2,9.3012085E2,5.8342134E3,2.1410325E0,7.893696E2,2.3960358E1,1.56376915E1,2.8095222E3,1.03681946E2,7.8133496E2,8.499001E2,1.2855934E3,2.5807622E3,2.9321953E3,9.028725E2,2.8127815E1,8.744148E2,8.034835E2,6.9044305E2,4.6222944E3,4.87723E3,5.921482E0,1.49232235E1,8.361096E3,1.8389223E2,3.267601E2,3.8541107E2,5.8590436E2,1.3185944E3,2.3058645E3,1.9849082E4,3.5247215E4,1.1042017E1,7.827008E2,1.4033489E4,1.8895395E4,1.593111E0,1.2084388E4,1.981764E4,4.092866E3],"tree_param":{"num_deleted":"0","num_feature":"26","num_nodes":"125","size_leaf_vector":"1"}},{"base_weights":[-2.2891867E-3,-8.885339E-1,1.1036983E0,-1.0699372E0,8.97435E-1,5.097336E-1,1.2140231E0,-1.1802E0,-7.418561E-1,4.7594196E-1,1.1819966E0,1.6237472E-1,9.81003E-1,9.2632663E-1,1.2659084E0,-1.2171626E0,-8.870286E-1,-9.728127E-1,-5.606824E-1,1.2087218E0,3.2620293E-1,9.669482E-1,1.2566326E0,-5.2134335E-1,4.5185384E-1,1.1330919E0,-2.446846E-2,5.896379E-1,1.0917532E0,1.2057732E0,1.3332611E0,-1.3012227E0,-1.1462753E0,8.363085E-1,-9.383297E-1,-3.5324234E-1,-1.0291288E0,-7.3805684E-1,-2.4051894E-1,-9.34446E-2,1.3221321E0,6.416998E-1,-6.498657E-2,-1.0169049E-1,9.84717E-1,-8.396572E-2,1.2585491E0,6.905844E-1,-7.6788366E-1,9.336473E-1,7.634013E-2,6.2478113E-1,1.2390044E0,7.3792994E-1,-8.0779004E-1,1.0704746E0,2.6228842E-1,8.0684894E-1,1.1320678E0,-1.2648608E-1,1.2067175E0,1.2896687E0,1.3452765E0,-2.9132927E-2,-6.553117E-2,-5.881405E-2,-4.760158E-2,-7.1431994E-2,7.427008E-2,-6.261676E-2,-4.1813876E-2,-4.9772125E-2,4.1308566E-3,-7.397492E-2,-4.9203284E-2,-4.4970077E-2,-2.123299E-2,1.8890232E-2,-2.3134224E-2,-8.410114E-2,6.660288E-2,1.6229238E-2,5.0529875E-2,4.89477E-2,-1.2327439E-2,-9.82443E-2,4.9878158E-2,-9.9824056E-2,6.298854E-2,4.269791E-2,-9.045931E-2,-7.6856115E-3,-5.5574E-2,-4.7359997E-3,5.035156E-2,1.0085171E-2,-5.8731634E-2,-4.7527608E-2,5.29099E-2,6.4875685E-2,3.511842E-2,-9.5317386E-2,5.1333953E-2,-7.318412E-2,3.092516E-3,5.4241E-2,-1.15465276E-1,2.3823502E-2,-2.132552E-2,-1.2542802E-1,4.208888E-2,5.73602E-2,3.2045323E-2,6.241966E-2,5.6533802E-2,6.510739E-2,3.731498E-2,6.764942E-2,6.5008126E-2],"categories":[],"categories_nodes":[],"categories_segments":[],"categories_sizes":[],"default_left":[0,0,0,0,0,0,0,0,0,0,0,0,0,0,0,0,0,0,0,0,0,0,0,0,0,0,0,0,0,0,0,0,0,0,0,0,0,0,0,0,0,0,0,0,0,0,0,0,0,0,0,0,0,0,0,0,0,0,0,0,0,0,0,0,0,0,0,0,0,0,0,0,0,0,0,0,0,0,0,0,0,0,0,0,0,0,0,0,0,0,0,0,0,0,0,0,0,0,0,0,0,0,0,0,0,0,0,0,0,0,0,0,0,0,0,0,0,0,0],"id":12,"left_children":[1,3,5,7,9,11,13,15,17,19,21,23,25,27,29,31,33,35,37,39,41,43,45,47,49,51,53,55,57,59,61,63,65,67,69,71,73,75,77,-1,79,81,83,-1,85,-1,87,89,91,93,95,97,99,101,103,105,107,109,111,-1,113,115,117,-1,-1,-1,-1,-1,-1,-1,-1,-1,-1,-1,-1,-1,-1,-1,-1,-1,-1,-1,-1,-1,-1,-1,-1,-1,-1,-1,-1,-1,-1,-1,-1,-1,-1,-1,-1,-1,-1,-1,-1,-1,-1,-1,-1,-1,-1,-1,-1,-1,-1,-1,-1,-1,-1,-1,-1],"loss_changes":[3.3098953E5,6.073608E4,9.8430625E3,6.1554375E3,2.0727256E3,3.852191E3,1.8898906E3,1.3791406E3,1.7907891E3,7.642224E2,1.6440039E2,2.6818315E3,1.5269902E3,1.0776777E3,4.3310938E2,6.725E2,1.2618916E3,6.562363E2,1.3623716E3,4.1502185E2,7.143241E2,1.4398633E2,4.519629E1,1.2048179E3,1.7221395E3,4.6616992E2,7.8467706E2,1.00404175E3,1.4818066E2,2.0307812E2,2.4773438E1,3.4872656E2,3.565703E2,6.0912854E2,4.4285645E2,4.393982E2,3.4863086E2,7.8029297E2,1.1754022E3,0E0,3.62489E1,3.7445764E2,4.9014404E2,0E0,1.0228955E2,0E0,3.2947266E1,2.8001233E2,7.067075E2,3.1474658E2,8.393699E2,1.0235286E3,2.2442676E2,5.1037024E2,3.6973325E2,1.27793945E2,5.6044604E2,1.8885437E2,8.378613E1,0E0,1.7827344E2,7.334961E1,1.203125E1,0E0,0E0,0E0,0E0,0E0,0E0,0E0,0E0,0E0,0E0,0E0,0E0,0E0,0E0,0E0,0E0,0E0,0E0,0E0,0E0,0E0,0E0,0E0,0E0,0E0,0E0,0E0,0E0,0E0,0E0,0E0,0E0,0E0,0E0,0E0,0E0,0E0,0E0,0E0,0E0,0E0,0E0,0E0,0E0,0E0,0E0,0E0,0E0,0E0,0E0,0E0,0E0,0E0,0E0,0E0,0E0],"parents":[2147483647,0,0,1,1,2,2,3,3,4,4,5,5,6,6,7,7,8,8,9,9,10,10,11,11,12,12,13,13,14,14,15,15,16,16,17,17,18,18,19,19,20,20,21,21,22,22,23,23,24,24,25,25,26,26,27,27,28,28,29,29,30,30,31,31,32,32,33,33,34,34,35,35,36,36,37,37,38,38,40,40,41,41,42,42,44,44,46,46,47,47,48,48,49,49,50,50,51,51,52,52,53,53,54,54,55,55,56,56,57,57,58,58,60,60,61,61,62,62],"right_children":[2,4,6,8,10,12,14,16,18,20,22,24,26,28,30,32,34,36,38,40,42,44,46,48,50,52,54,56,58,60,62,64,66,68,70,72,74,76,78,-1,80,82,84,-1,86,-1,88,90,92,94,96,98,100,102,104,106,108,110,112,-1,114,116,118,-1,-1,-1,-1,-1,-1,-1,-1,-1,-1,-1,-1,-1,-1,-1,-1,-1,-1,-1,-1,-1,-1,-1,-1,-1,-1,-1,-1,-1,-1,-1,-1,-1,-1,-1,-1,-1,-1,-1,-1,-1,-1,-1,-1,-1,-1,-1,-1,-1,-1,-1,-1,-1,-1,-1,-1],"split_conditions":[8.024691E-2,1.0609233E0,1.0392939E0,4.6647232E-2,1.0965677E0,1.13649026E-1,1E-1,1.0201316E0,9.966887E-1,2.4844721E-2,1.1257555E0,9.839527E-1,4.278075E-2,1.0678587E0,1.5045236E-1,2.4390243E-2,1.4224751E-2,-1.3741207E-2,6.45933E-2,9.5974654E-2,2.9277721E-2,8.950663E0,2.189781E-2,-2.3174293E-2,-3.1496063E-2,9.588647E-1,-2.7190333E-2,-2.6737968E-3,1.1497609E1,-5.811623E-2,1.0965677E0,2.132226E-3,2.8352454E-2,2.7793046E-2,2.793296E-2,3.212919E-2,1.3E1,1.0328312E0,-2.0618556E-2,-9.34446E-2,2.6884748E-2,1.0766345E0,2.6785715E-2,-1.0169049E-1,2.5210084E-2,-8.396572E-2,3.3473942E-2,7.1179345E-2,-9.62536E-2,1.3837875E-2,1.24215394E-1,1.3554987E-1,5.5272974E-2,9.377729E-1,3.1E1,7.449495E-2,2.5641026E-2,1.2987013E-2,6.870128E-2,-1.2648608E-1,3.846154E-2,1.0410095E-1,9.5974654E-2,-2.9132927E-2,-6.553117E-2,-5.881405E-2,-4.760158E-2,-7.1431994E-2,7.427008E-2,-6.261676E-2,-4.1813876E-2,-4.9772125E-2,4.1308566E-3,-7.397492E-2,-4.9203284E-2,-4.4970077E-2,-2.123299E-2,1.8890232E-2,-2.3134224E-2,-8.410114E-2,6.660288E-2,1.6229238E-2,5.0529875E-2,4.89477E-2,-1.2327439E-2,-9.82443E-2,4.9878158E-2,-9.9824056E-2,6.298854E-2,4.269791E-2,-9.045931E-2,-7.6856115E-3,-5.5574E-2,-4.7359997E-3,5.035156E-2,1.0085171E-2,-5.8731634E-2,-4.7527608E-2,5.29099E-2,6.4875685E-2,3.511842E-2,-9.5317386E-2,5.1333953E-2,-7.318412E-2,3.092516E-3,5.4241E-2,-1.15465276E-1,2.3823502E-2,-2.132552E-2,-1.2542802E-1,4.208888E-2,5.73602E-2,3.2045323E-2,6.241966E-2,5.6533802E-2,6.510739E-2,3.731498E-2,6.764942E-2,6.5008126E-2],"split_indices":[7,2,2,7,2,7,7,2,2,7,2,2,4,2,7,7,7,4,7,4,3,6,0,4,1,2,1,1,6,0,2,3,3,3,7,3,24,2,1,0,9,2,1,0,4,0,9,9,1,3,1,7,1,2,24,4,0,4,3,0,4,4,4,0,0,0,0,0,0,0,0,0,0,0,0,0,0,0,0,0,0,0,0,0,0,0,0,0,0,0,0,0,0,0,0,0,0,0,0,0,0,0,0,0,0,0,0,0,0,0,0,0,0,0,0,0,0,0,0],"split_type":[0,0,0,0,0,0,0,0,0,0,0,0,0,0,0,0,0,0,0,0,0,0,0,0,0,0,0,0,0,0,0,0,0,0,0,0,0,0,0,0,0,0,0,0,0,0,0,0,0,0,0,0,0,0,0,0,0,0,0,0,0,0,0,0,0,0,0,0,0,0,0,0,0,0,0,0,0,0,0,0,0,0,0,0,0,0,0,0,0,0,0,0,0,0,0,0,0,0,0,0,0,0,0,0,0,0,0,0,0,0,0,0,0,0,0,0,0,0,0],"sum_hessian":[3.3768194E5,1.874642E5,1.5021775E5,1.7017927E5,1.7284941E4,2.3532047E4,1.266857E5,1.2736973E5,4.280953E4,6.967436E3,1.0317505E4,1.3547745E4,9.984301E3,1.9359395E4,1.07326305E5,1.13106305E5,1.4263424E4,1.8817271E4,2.3992258E4,1.1809812E3,5.786455E3,2.661858E3,7.655647E3,4.029561E3,9.518184E3,8.67238E3,1.3119218E3,6.3796367E3,1.2979758E4,5.6711316E4,5.061499E4,5.1737414E4,6.136889E4,4.11884E2,1.385154E4,1.5684954E3,1.7248777E4,1.5438072E4,8.554185E3,4.1422474E1,1.1395588E3,3.2027642E3,2.5836907E3,1.5001393E1,2.6468567E3,4.423305E0,7.6512236E3,6.8085486E2,3.348706E3,4.16846E3,5.349724E3,1.4965964E3,7.175783E3,6.6486945E2,6.470523E2,2.583102E3,3.796535E3,1.611591E3,1.1368167E4,1.3654143E1,5.6697664E4,1.0959889E4,3.96551E4,6.689297E2,5.1068484E4,5.3153043E4,8.215849E3,9.147829E1,3.2040573E2,3.394794E3,1.0456746E4,6.3362354E2,9.3487177E2,1.5660059E3,1.5682771E4,1.019009E4,5.2479824E3,2.2609329E3,6.293252E3,3.1977696E0,1.136361E3,1.7232709E3,1.4794934E3,3.821315E2,2.201559E3,1.0818633E1,2.636038E3,2.2580128E0,7.648966E3,6.39705E2,4.1149857E1,1.2018577E3,2.1468484E3,2.776278E2,3.890832E3,4.863208E3,