{"learner":{"attributes":{"scikit_learn":"{\"_estimator_type\": \"ranker\"}"},"feature_names":[],"feature_types":[],"gradient_booster":{"model":{"cats":{"enc":[],"feature_segments":[],"sorted_idx":[]},"gbtree_model_param":{"num_parallel_tree":"1","num_trees":"200"},"iteration_indptr":[0,1,2,3,4,5,6,7,8,9,10,11,12,13,14,15,16,17,18,19,20,21,22,23,24,25,26,27,28,29,30,31,32,33,34,35,36,37,38,39,40,41,42,43,44,45,46,47,48,49,50,51,52,53,54,55,56,57,58,59,60,61,62,63,64,65,66,67,68,69,70,71,72,73,74,75,76,77,78,79,80,81,82,83,84,85,86,87,88,89,90,91,92,93,94,95,96,97,98,99,100,101,102,103,104,105,106,107,108,109,110,111,112,113,114,115,116,117,118,119,120,121,122,123,124,125,126,127,128,129,130,131,132,133,134,135,136,137,138,139,140,141,142,143,144,145,146,147,148,149,150,151,152,153,154,155,156,157,158,159,160,161,162,163,164,165,166,167,168,169,170,171,172,173,174,175,176,177,178,179,180,181,182,183,184,185,186,187,188,189,190,191,192,193,194,195,196,197,198,199,200],"tree_info":[0,0,0,0,0,0,0,0,0,0,0,0,0,0,0,0,0,0,0,0,0,0,0,0,0,0,0,0,0,0,0,0,0,0,0,0,0,0,0,0,0,0,0,0,0,0,0,0,0,0,0,0,0,0,0,0,0,0,0,0,0,0,0,0,0,0,0,0,0,0,0,0,0,0,0,0,0,0,0,0,0,0,0,0,0,0,0,0,0,0,0,0,0,0,0,0,0,0,0,0,0,0,0,0,0,0,0,0,0,0,0,0,0,0,0,0,0,0,0,0,0,0,0,0,0,0,0,0,0,0,0,0,0,0,0,0,0,0,0,0,0,0,0,0,0,0,0,0,0,0,0,0,0,0,0,0,0,0,0,0,0,0,0,0,0,0,0,0,0,0,0,0,0,0,0,0,0,0,0,0,0,0,0,0,0,0,0,0,0,0,0,0,0,0,0,0,0,0,0,0],"trees":[{"base_weights":[1.9111591E-3,-3.559643E-2,8.444081E-2,-1.24210626E-1,-1.534891E-2,4.6225965E-2,1.4601324E-1,-3.4517986E-1,-1.055712E-1,-2.4384946E-2,1.8564956E-1,-1.6460305E-1,5.928378E-2,5.649778E-2,1.7212853E-1,-8.769846E-2,-4.244507E-1,-4.980769E-2,-1.5337555E-1,-3.720035E-2,8.431757E-2,4.865846E-2,2.277431E-1,2.4963833E-1,-2.381785E-1,4.371685E-2,1.9607961E-1,-9.495319E-2,7.942668E-2,1.5662307E-1,3.640213E-1,-1.955961E-1,1.2961757E-1,-1.2225927E-1,-4.5439112E-1,2.649036E-2,-1.06493205E-1,-2.2068318E-2,-1.4141822E-1,-7.7523845E-3,-7.945455E-2,1.382774E-2,1.6818976E-1,9.182354E-2,-1.1889709E-2,3.272328E-1,1.2375648E-1,1.6000286E-2,2.411806E-2,-2.601967E-1,6.9017224E-3,1.2235871E-2,1.1786008E-1,2.6564342E-1,-4.2014554E-2,4.621628E-2,-2.0445986E-2,2.52053E-2,1.927763E-1,1.1842022E-1,2.4646555E-1,4.365641E-1,1.4435577E-1,-1.4599686E-2,4.074182E-3,1.134962E-2,-1.9875343E-3,-1.1019084E-2,2.1343403E-3,-1.6487014E-2,-2.8558014E-2,-3.8293944E-4,9.747622E-3,-8.021654E-3,-6.8625243E-4,-4.1454863E-3,-8.8911615E-3,-2.233972E-3,1.7678008E-3,-6.8171592E-3,-9.432522E-4,5.438836E-3,-2.3896417E-3,1.1799711E-2,1.0344749E-3,-1.1131725E-2,6.315948E-3,9.942682E-3,2.110958E-2,-1.3118539E-3,1.5319578E-2,7.0453375E-3,-6.2291003E-3,-2.0842743E-3,-1.3948168E-2,1.3461347E-4,1.1324794E-2,-1.0801529E-2,6.54668E-3,-1.772642E-3,1.6329302E-2,1.4613794E-2,-6.272174E-3,-9.849951E-3,8.608111E-3,1.4700554E-2,-1.3173796E-3,1.230313E-2,4.1467664E-3,7.907827E-3,-1.819587E-4,2.1178355E-2,9.639573E-3,5.810476E-3,2.437975E-2,-9.972352E-3,1.2483605E-2],"categories":[],"categories_nodes":[],"categories_segments":[],"categories_sizes":[],"default_left":[0,0,0,0,0,0,0,0,0,0,0,0,0,0,0,0,0,0,0,0,0,0,0,0,0,0,0,0,0,0,0,0,0,0,0,0,0,0,0,0,0,0,0,0,0,0,0,0,0,0,0,0,0,0,0,0,0,0,0,0,0,0,0,0,0,0,0,0,0,0,0,0,0,0,0,0,0,0,0,0,0,0,0,0,0,0,0,0,0,0,0,0,0,0,0,0,0,0,0,0,0,0,0,0,0,0,0,0,0,0,0,0,0,0,0,0,0],"id":0,"left_children":[1,3,5,7,9,11,13,15,17,19,21,23,25,27,29,31,33,35,37,39,41,43,45,47,49,51,53,55,57,59,61,63,65,67,69,71,73,-1,75,77,79,81,83,85,-1,87,89,91,-1,93,-1,95,97,99,101,103,-1,105,107,109,111,113,115,-1,-1,-1,-1,-1,-1,-1,-1,-1,-1,-1,-1,-1,-1,-1,-1,-1,-1,-1,-1,-1,-1,-1,-1,-1,-1,-1,-1,-1,-1,-1,-1,-1,-1,-1,-1,-1,-1,-1,-1,-1,-1,-1,-1,-1,-1,-1,-1,-1,-1,-1,-1,-1,-1],"loss_changes":[9.409443E0,3.747921E0,2.2281265E0,1.5639997E0,3.0964322E0,1.6272043E0,8.395152E-1,5.707538E-1,9.514632E-1,2.2738643E0,4.1191673E-1,1.1119058E0,1.1711599E0,2.9762596E-1,7.7830315E-1,2.1931964E-1,1.4815521E-1,7.27475E-1,6.0301733E-1,1.8145826E0,1.0158024E0,2.507526E-1,5.3721595E-1,3.0201644E-1,2.8305423E-1,1.1625323E0,9.43892E-1,5.259195E-1,4.4438493E-1,8.683739E-1,2.5940514E-1,1.8208295E-1,6.420541E-2,6.439939E-2,1.0447836E-1,4.1696694E-1,4.7982156E-1,0E0,3.8357997E-1,1.3718387E0,2.062174E0,5.590324E-1,7.8071404E-1,2.1047445E-1,0E0,2.5652742E-1,8.000532E-1,8.563248E-2,0E0,1.05372906E-1,0E0,7.1746105E-1,6.7657185E-1,8.137922E-1,4.1586903E-1,3.0316076E-1,0E0,7.088684E-1,1.1714655E-1,8.998561E-1,6.5120935E-1,1.8392134E-1,2.8576982E-1,0E0,0E0,0E0,0E0,0E0,0E0,0E0,0E0,0E0,0E0,0E0,0E0,0E0,0E0,0E0,0E0,0E0,0E0,0E0,0E0,0E0,0E0,0E0,0E0,0E0,0E0,0E0,0E0,0E0,0E0,0E0,0E0,0E0,0E0,0E0,0E0,0E0,0E0,0E0,0E0,0E0,0E0,0E0,0E0,0E0,0E0,0E0,0E0,0E0,0E0,0E0,0E0,0E0,0E0],"parents":[2147483647,0,0,1,1,2,2,3,3,4,4,5,5,6,6,7,7,8,8,9,9,10,10,11,11,12,12,13,13,14,14,15,15,16,16,17,17,18,18,19,19,20,20,21,21,22,22,23,23,24,24,25,25,26,26,27,27,28,28,29,29,30,30,31,31,32,32,33,33,34,34,35,35,36,36,38,38,39,39,40,40,41,41,42,42,43,43,45,45,46,46,47,47,49,49,51,51,52,52,53,53,54,54,55,55,57,57,58,58,59,59,60,60,61,61,62,62],"right_children":[2,4,6,8,10,12,14,16,18,20,22,24,26,28,30,32,34,36,38,40,42,44,46,48,50,52,54,56,58,60,62,64,66,68,70,72,74,-1,76,78,80,82,84,86,-1,88,90,92,-1,94,-1,96,98,100,102,104,-1,106,108,110,112,114,116,-1,-1,-1,-1,-1,-1,-1,-1,-1,-1,-1,-1,-1,-1,-1,-1,-1,-1,-1,-1,-1,-1,-1,-1,-1,-1,-1,-1,-1,-1,-1,-1,-1,-1,-1,-1,-1,-1,-1,-1,-1,-1,-1,-1,-1,-1,-1,-1,-1,-1,-1,-1,-1,-1],"split_conditions":[2.1052632E-2,1.088E-3,1.4492754E-2,-5.5376396E-2,1.2646136E-1,-6.973975E-2,1.948E-3,-2.73E-2,8.2E-3,4.0939E0,9.997378E0,-2.75E-2,6.1304E0,4.87E-4,9.5507674E-2,-2.99E-2,-2.4896266E-2,-1.19E-2,-4.1879468E-2,2.2612E-2,-4.524887E-3,9.935083E0,3.27E-2,9.3E-3,1.3289036E-2,5.8441557E-2,2.6666667E-2,7.437276E-2,3.9215688E-2,4.4903778E-2,5.691057E-2,9.57E-4,6.95E-4,1.038961E-2,9.7E-3,7.8E-3,-3.5460992E-3,-2.2068318E-2,-2.6737968E-2,2.835E-3,1.8357E0,2.967359E-3,9.3E-3,-2.0746889E-2,-1.1889709E-2,2.096E-3,2.2759E0,-1.6622868E-1,2.411806E-2,-1.904762E-2,6.9017224E-3,1.9971904E-1,-5.67E-2,-2.5510205E-2,7E0,1.7730497E-2,-2.0445986E-2,2.2222223E-2,8.293839E-2,5.087659E-2,6.521739E-2,2.835E-3,4.0939596E-2,-1.4599686E-2,4.074182E-3,1.134962E-2,-1.9875343E-3,-1.1019084E-2,2.1343403E-3,-1.6487014E-2,-2.8558014E-2,-3.8293944E-4,9.747622E-3,-8.021654E-3,-6.8625243E-4,-4.1454863E-3,-8.8911615E-3,-2.233972E-3,1.7678008E-3,-6.8171592E-3,-9.432522E-4,5.438836E-3,-2.3896417E-3,1.1799711E-2,1.0344749E-3,-1.1131725E-2,6.315948E-3,9.942682E-3,2.110958E-2,-1.3118539E-3,1.5319578E-2,7.0453375E-3,-6.2291003E-3,-2.0842743E-3,-1.3948168E-2,1.3461347E-4,1.1324794E-2,-1.0801529E-2,6.54668E-3,-1.772642E-3,1.6329302E-2,1.4613794E-2,-6.272174E-3,-9.849951E-3,8.608111E-3,1.4700554E-2,-1.3173796E-3,1.230313E-2,4.1467664E-3,7.907827E-3,-1.819587E-4,2.1178355E-2,9.639573E-3,5.810476E-3,2.437975E-2,-9.972352E-3,1.2483605E-2],"split_indices":[1,5,0,17,17,17,5,26,27,5,6,0,5,5,17,26,0,26,0,5,0,6,5,27,0,1,4,4,0,0,4,5,5,4,26,27,1,0,1,5,5,4,27,0,0,5,5,17,0,0,0,17,26,0,24,0,0,4,4,4,4,5,0,0,0,0,0,0,0,0,0,0,0,0,0,0,0,0,0,0,0,0,0,0,0,0,0,0,0,0,0,0,0,0,0,0,0,0,0,0,0,0,0,0,0,0,0,0,0,0,0,0,0,0,0,0,0],"split_type":[0,0,0,0,0,0,0,0,0,0,0,0,0,0,0,0,0,0,0,0,0,0,0,0,0,0,0,0,0,0,0,0,0,0,0,0,0,0,0,0,0,0,0,0,0,0,0,0,0,0,0,0,0,0,0,0,0,0,0,0,0,0,0,0,0,0,0,0,0,0,0,0,0,0,0,0,0,0,0,0,0,0,0,0,0,0,0,0,0,0,0,0,0,0,0,0,0,0,0,0,0,0,0,0,0,0,0,0,0,0,0,0,0,0,0,0,0],"sum_hessian":[3.0377573E3,2.0889514E3,9.488057E2,3.875754E2,1.7013761E3,5.865284E2,3.6227728E2,2.8787123E1,3.587883E2,1.629021E3,7.235516E1,3.3531384E1,5.52997E2,8.253503E1,2.7974228E2,7.272257E0,2.1514866E1,1.6655026E2,1.9223802E2,1.4578112E3,1.712098E2,1.7513716E1,5.484145E1,4.696483E0,2.88349E1,4.9768198E2,5.531505E1,1.0439356E1,7.209567E1,2.6050864E2,1.9233614E1,4.9262934E0,2.3459637E0,2.397734E0,1.9117132E1,7.12207E1,9.532956E1,6.231895E0,1.8600613E2,8.5978784E2,5.980233E2,9.365931E1,7.7550476E1,1.5810677E1,1.7030392E0,2.6929573E1,2.7911875E1,2.8769608E0,1.8195221E0,2.7531948E1,1.3029519E0,3.5016714E2,1.4751483E2,4.271835E1,1.2596697E1,7.7896686E0,2.649687E0,4.959433E1,2.250134E1,1.844113E2,7.609734E1,1.3716458E1,5.5171556E0,3.6148434E0,1.3114498E0,1.2735387E0,1.0724249E0,1.2926718E0,1.1050621E0,1.1096018E1,8.021113E0,6.001045E1,1.1210254E1,5.9818703E1,3.551086E1,7.260157E1,1.1340456E2,4.630761E2,3.9671173E2,3.0778647E2,2.9023682E2,3.656001E1,5.70993E1,5.2717022E1,2.483346E1,1.0237948E0,1.4786881E1,1.2765461E1,1.4164113E1,1.57956505E1,1.2116224E1,1.5221936E0,1.3547672E0,2.4323168E0,2.5099632E1,3.3620444E2,1.3962702E1,4.973372E0,1.4254146E2,7.2612567E0,3.5457092E1,2.0159032E0,1.0580793E1,2.4651127E0,5.3245554E0,7.2240057E0,4.2370327E1,1.4316107E1,8.185235E0,1.3889758E2,4.5513718E1,1.609599E1,6.0001354E1,2.3350508E0,1.1381408E1,1.0841576E0,4.432998E0],"tree_param":{"num_deleted":"0","num_feature":"29","num_nodes":"117","size_leaf_vector":"1"}},{"base_weights":[2.2531166E-3,-1.8788563E-1,3.6185E-1,-3.089459E-1,-1.8575842E-2,1.9033675E-1,5.3551555E-1,-4.3515676E-1,-2.3230773E-1,-1.1845022E-1,7.703209E-2,-1.5789549E-1,2.6710573E-1,4.7388107E-2,5.7671976E-1,-4.8118755E-1,-3.8752338E-1,-2.6936305E-1,-8.937668E-2,-1.6431795E-1,4.6487E-1,3.460798E-2,2.468082E-1,-1.0913017E-1,-3.1999442E-1,2.931515E-1,-1.4584419E-1,2.2730064E-1,-9.075053E-2,6.094826E-1,8.625165E-2,-4.8485333E-1,4.3872483E-3,-3.4204113E-1,-4.3583035E-1,-2.8561682E-1,-9.017287E-2,7.8482755E-2,-1.9322887E-1,-2.0425786E-1,9.407189E-3,1.3084048E-1,5.407467E-1,-1.0715134E-1,9.5697604E-2,2.9356834E-1,-7.4101225E-3,-1.8388839E-1,1.7573458E-1,-1.20217666E-1,-4.6315622E-1,3.2691196E-1,1.3603947E-1,-1.6537348E-2,-7.259871E-2,7.903166E-2,4.8815435E-1,-1.3797487E-1,3.3284914E-1,5.135043E-1,6.9982624E-1,-1.854223E-1,1.746069E-1,-2.4825443E-2,-1.4106005E-2,-1.9713255E-2,-1.4071658E-2,-2.399289E-2,-1.7693913E-2,-1.3826648E-2,-2.5544366E-2,-7.2821986E-4,-1.7637732E-2,-2.0976566E-2,5.3664227E-3,-7.794117E-3,-1.9966919E-2,-1.4839883E-2,-4.809018E-3,-1.0161602E-2,5.4574953E-3,2.4583293E-2,-3.297067E-3,3.2133557E-2,1.3782786E-2,-8.916019E-3,4.8008994E-3,5.783676E-3,-9.367108E-3,1.6271422E-2,-2.1127106E-3,1.0388248E-2,-1.3885493E-2,-1.1148007E-2,6.0101417E-3,-6.734803E-3,1.5883245E-2,-1.048983E-2,8.307892E-3,-2.5681157E-2,2.504299E-3,5.951256E-3,1.785003E-2,2.3648168E-3,1.578917E-2,-1.2578733E-2,-9.369423E-4,1.0291271E-2,-1.1956645E-2,2.7845567E-2,5.0180587E-3,-9.261503E-3,9.572736E-3,2.1826336E-2,4.5470577E-3,2.7800335E-2,1.6485218E-2,3.6668472E-2,2.5120873E-2,-1.1083259E-2,2.9971583E-3,-1.8168514E-3,1.4508406E-2],"categories":[],"categories_nodes":[],"categories_segments":[],"categories_sizes":[],"default_left":[0,0,0,0,0,0,0,0,0,0,0,0,0,0,0,0,0,0,0,0,0,0,0,0,0,0,0,0,0,0,0,0,0,0,0,0,0,0,0,0,0,0,0,0,0,0,0,0,0,0,0,0,0,0,0,0,0,0,0,0,0,0,0,0,0,0,0,0,0,0,0,0,0,0,0,0,0,0,0,0,0,0,0,0,0,0,0,0,0,0,0,0,0,0,0,0,0,0,0,0,0,0,0,0,0,0,0,0,0,0,0,0,0,0,0,0,0,0,0,0,0,0,0],"id":1,"left_children":[1,3,5,7,9,11,13,15,17,19,21,23,25,27,29,31,33,35,37,39,41,43,45,47,49,51,53,55,57,59,61,63,-1,65,67,69,71,73,75,77,79,81,83,85,87,89,91,93,95,97,99,101,103,-1,105,107,109,111,113,115,117,119,121,-1,-1,-1,-1,-1,-1,-1,-1,-1,-1,-1,-1,-1,-1,-1,-1,-1,-1,-1,-1,-1,-1,-1,-1,-1,-1,-1,-1,-1,-1,-1,-1,-1,-1,-1,-1,-1,-1,-1,-1,-1,-1,-1,-1,-1,-1,-1,-1,-1,-1,-1,-1,-1,-1,-1,-1,-1,-1,-1,-1],"loss_changes":[2.699777E2,5.29348E1,4.0576935E1,1.446553E1,1.0301874E1,1.845249E1,1.3610107E1,1.0585403E0,4.949974E0,1.4192288E1,3.9624314E0,9.5336366E-1,6.1157875E0,1.3594477E0,9.993439E0,6.361618E-1,4.7532654E-1,2.144947E0,3.4118428E0,3.4008827E0,9.1066456E-1,3.8402739E0,1.3104959E0,2.111387E0,7.5645304E-1,2.77454E0,4.3873566E-1,8.77378E-1,6.698024E-1,4.7206573E0,9.999928E-1,5.285568E-1,0E0,3.67054E-1,3.142891E-1,1.2560692E0,1.2544227E0,1.1250939E0,8.665452E-1,3.9554386E0,1.9845722E0,6.350288E-1,6.667967E-1,1.9498092E0,1.7721486E0,1.0086403E0,1.1089388E0,9.514251E-1,9.594934E-1,3.7359905E-1,4.4510722E-1,2.6894264E0,1.5118401E0,0E0,2.4355058E-1,7.064994E-1,1.6780198E-1,4.8327255E-1,4.6106547E-2,2.0651855E0,1.6116638E0,1.0557398E-1,7.646006E-1,0E0,0E0,0E0,0E0,0E0,0E0,0E0,0E0,0E0,0E0,0E0,0E0,0E0,0E0,0E0,0E0,0E0,0E0,0E0,0E0,0E0,0E0,0E0,0E0,0E0,0E0,0E0,0E0,0E0,0E0,0E0,0E0,0E0,0E0,0E0,0E0,0E0,0E0,0E0,0E0,0E0,0E0,0E0,0E0,0E0,0E0,0E0,0E0,0E0,0E0,0E0,0E0,0E0,0E0,0E0,0E0,0E0,0E0,0E0,0E0],"parents":[2147483647,0,0,1,1,2,2,3,3,4,4,5,5,6,6,7,7,8,8,9,9,10,10,11,11,12,12,13,13,14,14,15,15,16,16,17,17,18,18,19,19,20,20,21,21,22,22,23,23,24,24,25,25,26,26,27,27,28,28,29,29,30,30,31,31,33,33,34,34,35,35,36,36,37,37,38,38,39,39,40,40,41,41,42,42,43,43,44,44,45,45,46,46,47,47,48,48,49,49,50,50,51,51,52,52,54,54,55,55,56,56,57,57,58,58,59,59,60,60,61,61,62,62],"right_children":[2,4,6,8,10,12,14,16,18,20,22,24,26,28,30,32,34,36,38,40,42,44,46,48,50,52,54,56,58,60,62,64,-1,66,68,70,72,74,76,78,80,82,84,86,88,90,92,94,96,98,100,102,104,-1,106,108,110,112,114,116,118,120,122,-1,-1,-1,-1,-1,-1,-1,-1,-1,-1,-1,-1,-1,-1,-1,-1,-1,-1,-1,-1,-1,-1,-1,-1,-1,-1,-1,-1,-1,-1,-1,-1,-1,-1,-1,-1,-1,-1,-1,-1,-1,-1,-1,-1,-1,-1,-1,-1,-1,-1,-1,-1,-1,-1,-1,-1,-1,-1,-1,-1],"split_conditions":[5.6277055E-2,1.4184397E-2,8.148148E-2,2.5125628E-2,3.4591194E-2,-1.3157895E-2,-2.0746889E-2,1.8229166E-2,6.6347E0,1.388507E-1,1.4344394E-1,5.564516E-2,6.521739E-2,2.7210885E-3,6.521739E-2,7.5658E0,8E-3,1.2646136E-1,1.9309122E-2,1.7950426E-1,6.3E-3,4.4903778E-2,4.7376093E-2,2.4165709E-2,7.5658E0,3.547712E-2,4.0939596E-2,1.17810115E-1,1.7284596E-1,1.02564104E-1,4.0939596E-2,1.04E-2,4.3872483E-3,6.5E-3,9.6E-3,1.12E-2,8.9E-3,-2.0746889E-2,1.1309158E-1,4.4903778E-2,2.1686748E-2,8.573799E0,8.7E-3,9.5507674E-2,7.437276E-2,3.186559E-2,7.4074075E-2,9.5507674E-2,6.3762E0,6.1304E0,2.1272047E-1,1.8518519E-2,7.1525425E-2,-1.6537348E-2,2.7364925E-2,6.2832095E-2,9.5E-3,1.12E-2,3.1067962E-2,3.7755605E-2,2.2728406E-1,1.305756E-1,9.738418E-2,-2.4825443E-2,-1.4106005E-2,-1.9713255E-2,-1.4071658E-2,-2.399289E-2,-1.7693913E-2,-1.3826648E-2,-2.5544366E-2,-7.2821986E-4,-1.7637732E-2,-2.0976566E-2,5.3664227E-3,-7.794117E-3,-1.9966919E-2,-1.4839883E-2,-4.809018E-3,-1.0161602E-2,5.4574953E-3,2.4583293E-2,-3.297067E-3,3.2133557E-2,1.3782786E-2,-8.916019E-3,4.8008994E-3,5.783676E-3,-9.367108E-3,1.6271422E-2,-2.1127106E-3,1.0388248E-2,-1.3885493E-2,-1.1148007E-2,6.0101417E-3,-6.734803E-3,1.5883245E-2,-1.048983E-2,8.307892E-3,-2.5681157E-2,2.504299E-3,5.951256E-3,1.785003E-2,2.3648168E-3,1.578917E-2,-1.2578733E-2,-9.369423E-4,1.0291271E-2,-1.1956645E-2,2.7845567E-2,5.0180587E-3,-9.261503E-3,9.572736E-3,2.1826336E-2,4.5470577E-3,2.7800335E-2,1.6485218E-2,3.6668472E-2,2.5120873E-2,-1.1083259E-2,2.9971583E-3,-1.8168514E-3,1.4508406E-2],"split_indices":[7,0,7,7,7,0,0,7,5,1,17,1,4,4,4,5,27,17,3,17,27,0,4,1,5,3,0,7,7,7,0,27,0,27,27,27,27,0,1,0,7,6,27,17,4,3,1,17,5,5,1,1,7,0,3,9,27,27,4,3,9,4,7,0,0,0,0,0,0,0,0,0,0,0,0,0,0,0,0,0,0,0,0,0,0,0,0,0,0,0,0,0,0,0,0,0,0,0,0,0,0,0,0,0,0,0,0,0,0,0,0,0,0,0,0,0,0,0,0,0,0,0,0],"split_type":[0,0,0,0,0,0,0,0,0,0,0,0,0,0,0,0,0,0,0,0,0,0,0,0,0,0,0,0,0,0,0,0,0,0,0,0,0,0,0,0,0,0,0,0,0,0,0,0,0,0,0,0,0,0,0,0,0,0,0,0,0,0,0,0,0,0,0,0,0,0,0,0,0,0,0,0,0,0,0,0,0,0,0,0,0,0,0,0,0,0,0,0,0,0,0,0,0,0,0,0,0,0,0,0,0,0,0,0,0,0,0,0,0,0,0,0,0,0,0,0,0,0,0],"sum_hessian":[3.9465896E3,2.5818828E3,1.3647068E3,1.5049707E3,1.0769122E3,6.8766266E2,6.7704407E2,5.6682385E2,9.381468E2,5.2658734E2,5.503248E2,1.24023254E2,5.636394E2,5.286983E1,6.2417426E2,2.8363226E2,2.831916E2,7.443002E2,1.9384663E2,4.888651E2,3.7722214E1,4.4126437E2,1.0906048E2,9.662741E1,2.7395845E1,5.304714E2,3.316803E1,2.2682528E1,3.0187304E1,5.848633E2,3.931095E1,2.819633E2,1.668977E0,1.5002228E2,1.3316931E2,6.818571E2,6.2443043E1,7.418441E1,1.19662224E2,3.9733978E2,9.152532E1,7.486968E0,3.0235247E1,1.3266331E2,3.0860104E2,9.198606E1,1.707442E1,7.682134E1,1.9806067E1,1.2204572E1,1.5191273E1,4.35755E2,9.4716385E1,8.413409E0,2.4754622E1,1.5292984E1,7.389543E0,2.776612E1,2.4211826E0,2.868291E2,2.9803418E2,9.377745E0,2.9933205E1,2.652637E2,1.669957E1,7.7627754E1,7.239452E1,8.347068E1,4.969863E1,6.575687E2,2.4288422E1,4.930228E1,1.314076E1,3.3200774E0,7.0864334E1,1.0279274E2,1.6869482E1,2.1311606E2,1.8422374E2,2.8892498E1,6.263282E1,2.1133428E0,5.3736253E0,2.0809786E1,9.425461E0,9.833827E1,3.4325035E1,2.8880927E2,1.9791792E1,8.404364E1,7.9424205E0,9.635406E0,7.4390163E0,6.831106E1,8.510281E0,6.230236E0,1.3575831E1,9.500272E0,2.7043002E0,1.3830576E1,1.3606972E0,5.572168E1,3.8003333E2,6.425537E1,3.0461014E1,4.8771095E0,1.9877512E1,1.118762E1,4.105364E0,5.9062433E0,1.4832996E0,2.4665668E1,3.1004524E0,1.131658E0,1.2895247E0,2.3131439E2,5.551472E1,2.524274E2,4.5606785E1,8.254993E0,1.1227512E0,1.0837016E1,1.909619E1],"tree_param":{"num_deleted":"0","num_feature":"29","num_nodes":"123","size_leaf_vector":"1"}},{"base_weights":[-2.3338948E-3,-6.82331E-1,5.8859825E-1,-7.1486425E-1,-1.1644845E-3,-2.1338832E-1,6.373127E-1,-7.504247E-1,-6.0254407E-1,6.142057E-1,-2.3141907E-1,-2.8481567E-1,4.3650374E-1,6.518567E-1,-3.9527962E-1,-3.9772704E-2,-7.109098E-1,-6.26866E-1,-4.9340096E-1,-6.351515E-3,6.7716485E-1,6.862494E-2,-3.9605063E-1,-4.3104678E-1,-1.0430024E-1,5.261989E-1,-5.059912E-4,5.1514125E-1,7.5117576E-1,-2.7230447E-2,-1.4173417E-1,-3.5891023E-2,-5.176658E-1,-5.950828E-1,-3.3369225E-2,-1.0572277E-1,-5.236721E-1,3.482873E-2,9.460995E-3,1.8088448E-1,-2.2142391E-1,-4.3972412E-1,1.836305E-2,-5.363721E-1,-2.3833196E-1,-2.8260195E-1,1.7620702E-1,2.5502148E-1,6.142822E-1,2.9510823E-1,5.8214E-1,8.429664E-1,6.7304605E-1,1.28937075E-2,-2.56575E-1,-1.1221674E-2,-3.1472653E-2,-3.0460758E-2,-2.2350525E-2,7.4779787E-3,-1.0594466E-2,-1.1431559E-2,-2.697151E-2,1.7004967E-2,-1.0027378E-3,4.2312574E-3,-2.1598067E-2,-2.6143974E-2,-1.3796917E-2,1.4811059E-3,-2.8002221E-2,-3.226389E-4,-2.046786E-2,-2.8939277E-2,-5.174885E-3,1.9586591E-2,-1.9634074E-2,-1.4090213E-3,2.0160085E-2,3.4027483E-2,1.0566562E-2,-9.563087E-3,1.7492019E-2,3.2946814E-2,1.947715E-2,2.911036E-2,4.269952E-2,2.6878262E-2,3.7386518E-2,-4.7521493E-3,9.126964E-3,-1.5533887E-2,-5.1048906E-3],"categories":[],"categories_nodes":[],"categories_segments":[],"categories_sizes":[],"default_left":[0,0,0,0,0,0,0,0,0,0,0,0,0,0,0,0,0,0,0,0,0,0,0,0,0,0,0,0,0,0,0,0,0,0,0,0,0,0,0,0,0,0,0,0,0,0,0,0,0,0,0,0,0,0,0,0,0,0,0,0,0,0,0,0,0,0,0,0,0,0,0,0,0,0,0,0,0,0,0,0,0,0,0,0,0,0,0,0,0,0,0,0,0],"id":2,"left_children":[1,3,5,7,9,11,13,15,17,19,21,23,25,27,29,-1,31,33,35,-1,37,39,41,43,45,47,-1,49,51,-1,53,-1,55,57,-1,59,61,-1,-1,63,65,67,-1,69,71,73,75,77,79,81,83,85,87,89,91,-1,-1,-1,-1,-1,-1,-1,-1,-1,-1,-1,-1,-1,-1,-1,-1,-1,-1,-1,-1,-1,-1,-1,-1,-1,-1,-1,-1,-1,-1,-1,-1,-1,-1,-1,-1,-1,-1],"loss_changes":[1.5297034E3,3.9223816E1,7.971033E1,6.295349E0,1.1716394E1,5.5733128E0,2.909851E1,1.7103271E0,7.82547E-1,1.1367836E0,2.9993894E0,2.7627745E0,4.867909E-1,2.5332275E1,9.5627546E-1,0E0,5.507202E-1,3.1234741E-2,8.7937355E-1,0E0,6.6241264E-2,7.619316E-1,1.4616146E0,1.0584459E0,2.4966152E0,8.286309E-2,0E0,1.1624619E1,7.284973E0,0E0,2.0697415E-1,0E0,7.5792646E-1,1.3710022E-1,0E0,2.2200009E-1,2.1899033E-1,0E0,0E0,5.3579336E-1,4.6414173E-1,3.643365E-1,0E0,5.1220226E-1,8.877951E-1,1.5471206E0,2.560389E0,1.8628809E-1,3.933406E-2,5.0930195E0,8.800949E0,9.3859863E-1,5.632965E0,1.2428617E-1,2.368477E-2,0E0,0E0,0E0,0E0,0E0,0E0,0E0,0E0,0E0,0E0,0E0,0E0,0E0,0E0,0E0,0E0,0E0,0E0,0E0,0E0,0E0,0E0,0E0,0E0,0E0,0E0,0E0,0E0,0E0,0E0,0E0,0E0,0E0,0E0,0E0,0E0,0E0,0E0],"parents":[2147483647,0,0,1,1,2,2,3,3,4,4,5,5,6,6,7,7,8,8,9,9,10,10,11,11,12,12,13,13,14,14,16,16,17,17,18,18,20,20,21,21,22,22,23,23,24,24,25,25,27,27,28,28,30,30,32,32,33,33,35,35,36,36,39,39,40,40,41,41,43,43,44,44,45,45,46,46,47,47,48,48,49,49,50,50,51,51,52,52,53,53,54,54],"right_children":[2,4,6,8,10,12,14,16,18,20,22,24,26,28,30,-1,32,34,36,-1,38,40,42,44,46,48,-1,50,52,-1,54,-1,56,58,-1,60,62,-1,-1,64,66,68,-1,70,72,74,76,78,80,82,84,86,88,90,92,-1,-1,-1,-1,-1,-1,-1,-1,-1,-1,-1,-1,-1,-1,-1,-1,-1,-1,-1,-1,-1,-1,-1,-1,-1,-1,-1,-1,-1,-1,-1,-1,-1,-1,-1,-1,-1,-1],"split_conditions":[8.148148E-2,1.0578438E0,1.0060667E0,4.4895448E-2,9.810165E0,1.10701025E-1,6.521739E-2,2.4793388E-2,1.0319679E0,3.06E-3,3.4591194E-2,5.5071E0,1.48E-2,1.0676873E0,1.0960563E0,-3.9772704E-2,1.0369474E0,8.9E-3,-5.29E-2,-6.351515E-3,2.9972753E-2,7.8E-3,9.01E-2,9.4E-3,9.919355E-1,1.02564104E-1,-5.059912E-4,1.02564104E-1,7.063584E-2,-2.7230447E-2,1.1471423E-1,-3.5891023E-2,3.2E-2,8.3E-3,-3.3369225E-2,-1.6692135E-2,1.0328705E0,3.482873E-2,9.460995E-3,9.598366E-2,6.521739E-2,6.8627454E-2,1.836305E-2,6.1E-3,9.6E-3,1.0555903E-1,3.1067962E-2,-7.9184934E-2,9.950709E-1,2.414E-3,8.955684E-2,9.045226E-2,1.1278736E-1,1.3333334E-1,1.1532125E0,-1.1221674E-2,-3.1472653E-2,-3.0460758E-2,-2.2350525E-2,7.4779787E-3,-1.0594466E-2,-1.1431559E-2,-2.697151E-2,1.7004967E-2,-1.0027378E-3,4.2312574E-3,-2.1598067E-2,-2.6143974E-2,-1.3796917E-2,1.4811059E-3,-2.8002221E-2,-3.226389E-4,-2.046786E-2,-2.8939277E-2,-5.174885E-3,1.9586591E-2,-1.9634074E-2,-1.4090213E-3,2.0160085E-2,3.4027483E-2,1.0566562E-2,-9.563087E-3,1.7492019E-2,3.2946814E-2,1.947715E-2,2.911036E-2,4.269952E-2,2.6878262E-2,3.7386518E-2,-4.7521493E-3,9.126964E-3,-1.5533887E-2,-5.1048906E-3],"split_indices":[7,2,2,7,6,17,4,7,2,5,7,5,26,2,2,0,2,27,26,0,7,27,26,27,2,7,0,7,9,0,4,0,7,27,0,9,2,0,0,4,4,7,0,27,27,7,4,9,2,5,9,7,7,7,2,0,0,0,0,0,0,0,0,0,0,0,0,0,0,0,0,0,0,0,0,0,0,0,0,0,0,0,0,0,0,0,0,0,0,0,0,0,0],"split_type":[0,0,0,0,0,0,0,0,0,0,0,0,0,0,0,0,0,0,0,0,0,0,0,0,0,0,0,0,0,0,0,0,0,0,0,0,0,0,0,0,0,0,0,0,0,0,0,0,0,0,0,0,0,0,0,0,0,0,0,0,0,0,0,0,0,0,0,0,0,0,0,0,0,0,0,0,0,0,0,0,0,0,0,0,0,0,0,0,0,0,0,0,0],"sum_hessian":[3.8048223E3,1.7690209E3,2.0358013E3,1.6883347E3,8.068613E1,1.1638432E2,1.919417E3,1.2780305E3,4.1030423E2,2.1515924E1,5.91702E1,1.053657E2,1.1018626E1,1.8931212E3,2.6295744E1,5.8839294E2,6.896376E2,3.3165356E2,7.865065E1,1.6047748E0,1.991115E1,2.1170233E1,3.799997E1,5.7443924E1,4.7921772E1,9.027473E0,1.9911531E0,7.991946E2,1.0939266E3,1.5826511E1,1.0469232E1,6.63206E2,2.6431587E1,1.946525E2,1.3700108E2,6.021876E0,7.262877E1,1.8738203E1,1.1729473E0,1.5534267E1,5.6359653E0,3.634442E1,1.655549E0,3.599058E1,2.1453342E1,2.9293915E1,1.862786E1,3.168379E0,5.859094E0,1.87809E2,6.113856E2,4.984887E2,5.954379E2,4.840051E0,5.6291804E0,8.125373E0,1.8306215E1,1.7485011E2,1.9802374E1,1.648722E0,4.3731537E0,4.468735E0,6.8160034E1,8.280577E0,7.2536902E0,2.540705E0,3.0952604E0,2.2651575E1,1.3692845E1,1.4347576E0,3.4555824E1,9.547031E0,1.1906311E1,1.0197995E1,1.909592E1,1.3735529E1,4.89233E0,1.3665167E0,1.8018624E0,4.4399977E0,1.4190967E0,1.8744446E1,1.6906456E2,4.3536618E2,1.7601942E2,2.2402271E1,4.7608646E2,2.1450813E2,3.8092978E2,3.2267764E0,1.613275E0,3.420173E0,2.2090077E0],"tree_param":{"num_deleted":"0","num_feature":"29","num_nodes":"93","size_leaf_vector":"1"}},{"base_weights":[-4.1845534E-3,-7.778411E-1,6.801601E-1,-7.9655755E-1,-1.0700557E-2,1.05488874E-1,7.264116E-1,-8.2067037E-1,-6.996584E-1,4.510321E-1,-3.0302554E-1,-4.581536E-1,2.8068274E-1,7.3633355E-1,-4.77308E-1,-8.225329E-1,-3.1179434E-1,-7.069748E-1,-3.7970272E-1,5.2692384E-1,-1.7207494E-2,-5.48093E-1,5.0359048E-2,-6.0784435E-1,2.3785515E-2,-2.533531E-2,3.5509872E-1,5.4398465E-1,7.736367E-1,-5.6257E-1,-2.2286151E-1,-4.2158302E-2,-3.9660748E-2,2.2586707E-2,-3.0879144E-2,-3.6314953E-2,-3.164359E-2,-2.7523672E-2,-1.2068057E-2,3.3684784E-1,3.5518225E-2,2.4081257E-4,-2.9323125E-2,3.542438E-1,-3.7151104E-1,-3.2245167E-2,-1.6207145E-1,4.115181E-1,-2.2441567E-1,5.9424585E-1,-2.2876415E-1,7.9799193E-1,6.0012203E-1,-8.864656E-3,-2.9647946E-2,4.3466697E-3,-1.5670095E-2,1.5541041E-2,-1.0706547E-2,3.2712508E-2,6.0043223E-3,2.0925501E-2,1.9311712E-3,2.3722379E-3,-2.3850143E-2,6.198217E-3,-1.6068196E-2,1.7208891E-2,3.5059392E-2,7.1005407E-3,-2.915272E-2,-1.4629709E-2,3.1165427E-2,-1.6924333E-2,1.4610985E-2,3.8333166E-2,4.397283E-2,1.9519454E-2,3.412272E-2],"categories":[],"categories_nodes":[],"categories_segments":[],"categories_sizes":[],"default_left":[0,0,0,0,0,0,0,0,0,0,0,0,0,0,0,0,0,0,0,0,0,0,0,0,0,0,0,0,0,0,0,0,0,0,0,0,0,0,0,0,0,0,0,0,0,0,0,0,0,0,0,0,0,0,0,0,0,0,0,0,0,0,0,0,0,0,0,0,0,0,0,0,0,0,0,0,0,0,0],"id":3,"left_children":[1,3,5,7,9,11,13,15,17,19,21,23,25,27,29,31,33,35,37,39,-1,41,43,45,-1,-1,47,49,51,53,55,-1,-1,-1,-1,-1,-1,-1,57,59,-1,-1,-1,61,63,-1,65,67,69,71,73,75,77,-1,-1,-1,-1,-1,-1,-1,-1,-1,-1,-1,-1,-1,-1,-1,-1,-1,-1,-1,-1,-1,-1,-1,-1,-1,-1],"loss_changes":[1.9590092E3,2.492749E1,5.2108826E1,3.387085E0,5.8564806E0,1.4685714E1,2.205194E1,1.0247192E0,5.3822327E-1,1.1969881E0,2.3266146E0,5.2288084E0,6.805935E0,1.2512451E1,2.1004581E-1,1.4556885E-1,1.8058879E0,2.1118164E-2,6.1262476E-1,3.1018448E-1,0E0,3.371668E-1,1.6426623E0,4.058361E-1,0E0,0E0,3.4896507E0,1.1638382E1,5.8911133E0,2.2778034E-2,1.8253914E-1,0E0,0E0,0E0,0E0,0E0,0E0,0E0,3.3738577E-1,5.847541E-1,0E0,0E0,0E0,1.3319159E-1,2.6232564E-1,0E0,2.0873405E-1,1.6125679E0,1.3792787E0,7.356476E0,1.174058E0,2.6915283E0,3.0069962E0,0E0,0E0,0E0,0E0,0E0,0E0,0E0,0E0,0E0,0E0,0E0,0E0,0E0,0E0,0E0,0E0,0E0,0E0,0E0,0E0,0E0,0E0,0E0,0E0,0E0,0E0],"parents":[2147483647,0,0,1,1,2,2,3,3,4,4,5,5,6,6,7,7,8,8,9,9,10,10,11,11,12,12,13,13,14,14,15,15,16,16,17,17,18,18,19,19,21,21,22,22,23,23,26,26,27,27,28,28,29,29,30,30,38,38,39,39,43,43,44,44,46,46,47,47,48,48,49,49,50,50,51,51,52,52],"right_children":[2,4,6,8,10,12,14,16,18,20,22,24,26,28,30,32,34,36,38,40,-1,42,44,46,-1,-1,48,50,52,54,56,-1,-1,-1,-1,-1,-1,-1,58,60,-1,-1,-1,62,64,-1,66,68,70,72,74,76,78,-1,-1,-1,-1,-1,-1,-1,-1,-1,-1,-1,-1,-1,-1,-1,-1,-1,-1,-1,-1,-1,-1,-1,-1,-1,-1],"split_conditions":[9.045226E-2,1.0764431E0,1.0348293E0,4.9079753E-2,6.8426197E-3,1.0060667E0,6.521739E-2,1.0607336E0,1.0676873E0,8.5E-3,8.3084576E-2,1.2646136E-1,1.02564104E-1,1.0676873E0,1.1240429E0,2.8735632E-2,6.8426197E-3,7.368421E-2,8.478261E-2,7.6E-3,-1.7207494E-2,1.8780055E-2,1.1839709E-1,1.0014105E0,2.3785515E-2,-2.533531E-2,8.955684E-2,9.227182E-2,1.388507E-1,5.436374E-2,1.5921788E-1,-4.2158302E-2,-3.9660748E-2,2.2586707E-2,-3.0879144E-2,-3.6314953E-2,-3.164359E-2,-2.7523672E-2,4.018301E-2,1.718766E-2,3.5518225E-2,2.4081257E-4,-2.9323125E-2,3.186559E-2,-4.52E-2,-3.2245167E-2,1.7073339E-2,1.9971904E-1,6.2921345E-2,1.02564104E-1,9.5507674E-2,1.1065078E0,1.0960563E0,-8.864656E-3,-2.9647946E-2,4.3466697E-3,-1.5670095E-2,1.5541041E-2,-1.0706547E-2,3.2712508E-2,6.0043223E-3,2.0925501E-2,1.9311712E-3,2.3722379E-3,-2.3850143E-2,6.198217E-3,-1.6068196E-2,1.7208891E-2,3.5059392E-2,7.1005407E-3,-2.915272E-2,-1.4629709E-2,3.1165427E-2,-1.6924333E-2,1.4610985E-2,3.8333166E-2,4.397283E-2,1.9519454E-2,3.412272E-2],"split_indices":[7,2,2,7,7,2,4,2,2,27,7,17,7,2,2,7,7,7,7,27,0,3,1,2,0,0,9,9,1,1,1,0,0,0,0,0,0,0,9,3,0,0,0,3,26,0,3,17,1,7,17,2,2,0,0,0,0,0,0,0,0,0,0,0,0,0,0,0,0,0,0,0,0,0,0,0,0,0,0],"split_type":[0,0,0,0,0,0,0,0,0,0,0,0,0,0,0,0,0,0,0,0,0,0,0,0,0,0,0,0,0,0,0,0,0,0,0,0,0,0,0,0,0,0,0,0,0,0,0,0,0,0,0,0,0,0,0,0,0,0,0,0,0,0,0,0,0,0,0,0,0,0,0,0,0,0,0,0,0,0,0],"sum_hessian":[3.6981E3,1.7357198E3,1.9623804E3,1.6943434E3,4.1376472E1,1.4641876E2,1.8159615E3,1.3507479E3,3.435954E2,1.5829917E1,2.5546556E1,3.4336033E1,1.12082726E2,1.8015005E3,1.4461029E1,1.3452081E3,5.5398164E0,3.347315E2,8.863897E0,1.4758708E1,1.0712084E0,1.475983E1,1.0786725E1,2.9893465E1,4.4425683E0,9.176619E0,1.0290611E2,2.9515488E2,1.5063457E3,9.924493E0,4.536536E0,7.732535E2,5.7195465E2,1.4477154E0,4.092101E0,2.5851562E2,7.621587E1,5.7128644E0,3.1510332E0,8.64121E0,6.117499E0,1.0145472E0,1.3745283E1,6.3633375E0,4.4233875E0,2.7186617E1,2.7068477E0,9.404056E1,8.865551E0,2.7734665E2,1.7808199E1,1.317778E3,1.8856775E2,1.2252079E0,8.6992855E0,1.0349991E0,3.5015368E0,1.0057094E0,2.1453238E0,2.6875505E0,5.9536586E0,5.0159955E0,1.3473423E0,1.00044E0,3.4229476E0,1.0475612E0,1.6592864E0,7.807779E1,1.5962773E1,4.683934E0,4.181617E0,8.51282E0,2.6883383E2,1.4999502E1,2.808697E0,9.59281E2,3.584969E2,5.4775238E1,1.3379251E2],"tree_param":{"num_deleted":"0","num_feature":"29","num_nodes":"79","size_leaf_vector":"1"}},{"base_weights":[-1.534108E-3,-7.83904E-1,6.71743E-1,-7.9309183E-1,-2.721829E-2,-3.8082752E-1,6.984918E-1,-8.123705E-1,-7.231347E-1,5.983838E-1,-5.304273E-1,-5.750594E-1,3.9018902E-1,7.080118E-1,-5.411852E-1,-4.071487E-2,-1.6702937E-1,-3.6340833E-2,-4.6460015E-1,3.3869848E-2,4.015084E-3,-2.8926164E-2,4.2348076E-4,-3.249298E-2,-3.7141842E-1,4.611223E-1,-3.907389E-3,4.1082108E-1,7.4037E-1,-3.036055E-2,-2.8521404E-1,2.4312815E-2,-2.8056458E-2,-2.6983589E-2,-1.6098286E-3,-4.4740744E-2,-4.8262048E-1,1.4200512E-1,5.693921E-1,-2.4383463E-2,4.6571857E-1,7.56584E-1,4.5990485E-1,1.8238879E-4,-1.803138E-2,-1.5975906E-2,1.0398676E-2,-2.2784274E-3,-2.6547242E-2,-4.0597818E-4,1.173909E-2,3.0954018E-2,8.836332E-3,2.481436E-2,-2.3814779E-2,3.5667676E-2,4.186783E-2,-6.371201E-3,2.5961021E-2],"categories":[],"categories_nodes":[],"categories_segments":[],"categories_sizes":[],"default_left":[0,0,0,0,0,0,0,0,0,0,0,0,0,0,0,0,0,0,0,0,0,0,0,0,0,0,0,0,0,0,0,0,0,0,0,0,0,0,0,0,0,0,0,0,0,0,0,0,0,0,0,0,0,0,0,0,0,0,0],"id":4,"left_children":[1,3,5,7,9,11,13,15,17,19,21,23,25,27,29,-1,31,-1,33,-1,-1,-1,-1,-1,35,37,-1,39,41,-1,43,-1,-1,-1,-1,45,47,49,51,-1,53,55,57,-1,-1,-1,-1,-1,-1,-1,-1,-1,-1,-1,-1,-1,-1,-1,-1],"loss_changes":[1.9522828E3,1.189624E1,5.635138E1,1.6968994E0,7.1174483E0,7.7144933E0,2.3313904E1,1.5049438E0,1.927185E-2,3.590157E-1,3.2892156E-1,3.733387E-1,3.9017165E-1,1.8242493E1,8.664894E-2,0E0,1.6081978E0,0E0,2.4353087E-1,0E0,0E0,0E0,0E0,0E0,4.5701635E-1,2.4401832E-1,0E0,9.678608E0,7.555664E0,0E0,1.1106929E-1,0E0,0E0,0E0,0E0,3.753231E-1,1.8124032E-1,5.363909E-2,2.10917E-2,0E0,5.45121E0,5.1343994E0,3.4640732E0,0E0,0E0,0E0,0E0,0E0,0E0,0E0,0E0,0E0,0E0,0E0,0E0,0E0,0E0,0E0,0E0],"parents":[2147483647,0,0,1,1,2,2,3,3,4,4,5,5,6,6,7,7,8,8,9,9,10,10,11,11,12,12,13,13,14,14,16,16,18,18,24,24,25,25,27,27,28,28,30,30,35,35,36,36,37,37,38,38,40,40,41,41,42,42],"right_children":[2,4,6,8,10,12,14,16,18,20,22,24,26,28,30,-1,32,-1,34,-1,-1,-1,-1,-1,36,38,-1,40,42,-1,44,-1,-1,-1,-1,46,48,50,52,-1,54,56,58,-1,-1,-1,-1,-1,-1,-1,-1,-1,-1,-1,-1,-1,-1,-1,-1],"split_conditions":[9.045226E-2,1.0880328E0,1.0242214E0,4.6563193E-2,9.725578E0,1.2646136E-1,6.521739E-2,1.0676873E0,8.842975E-2,6.283186E-2,1.10701025E-1,1.0067189E0,1.3333334E-1,1.0676873E0,1.1240429E0,-4.071487E-2,9.304377E0,-3.6340833E-2,1.0676873E0,3.3869848E-2,4.015084E-3,-2.8926164E-2,4.2348076E-4,-3.249298E-2,6.281407E-3,1.0555903E-1,-3.907389E-3,1.02564104E-1,1.4825581E-1,-3.036055E-2,1.5921788E-1,2.4312815E-2,-2.8056458E-2,-2.6983589E-2,-1.6098286E-3,1.1278736E-1,-5.67E-2,-3.1578947E-2,1.0206776E0,-2.4383463E-2,9.227182E-2,1.4746478E-1,1.0960563E0,1.8238879E-4,-1.803138E-2,-1.5975906E-2,1.0398676E-2,-2.2784274E-3,-2.6547242E-2,-4.0597818E-4,1.173909E-2,3.0954018E-2,8.836332E-3,2.481436E-2,-2.3814779E-2,3.5667676E-2,4.186783E-2,-6.371201E-3,2.5961021E-2],"split_indices":[7,2,2,7,6,17,4,2,7,4,17,2,7,2,2,0,6,0,2,0,0,0,0,0,4,7,0,7,1,0,1,0,0,0,0,7,26,1,2,0,9,7,2,0,0,0,0,0,0,0,0,0,0,0,0,0,0,0,0],"split_type":[0,0,0,0,0,0,0,0,0,0,0,0,0,0,0,0,0,0,0,0,0,0,0,0,0,0,0,0,0,0,0,0,0,0,0,0,0,0,0,0,0,0,0,0,0,0,0,0,0,0,0,0,0,0,0,0,0,0,0],"sum_hessian":[3.7042676E3,1.7132505E3,1.9910171E3,1.6926499E3,2.0600584E1,4.901544E1,1.9420016E3,1.3186475E3,3.7400238E2,9.099153E0,1.15014305E1,3.9355335E1,9.660109E0,1.9276274E3,1.4374174E1,1.3144608E3,4.1866183E0,3.669649E2,7.0374746E0,7.6282525E0,1.4709005E0,1.049154E1,1.0098909E0,2.718039E1,1.2174945E1,8.402838E0,1.2572709E0,1.9061714E2,1.7370104E3,1.033592E1,4.0382543E0,1.487312E0,2.6993062E0,5.7850327E0,1.2524416E0,3.448028E0,8.726917E0,2.7142808E0,5.6885567E0,1.0522086E1,1.8009505E2,1.640475E3,9.653533E1,1.033023E0,3.0052314E0,1.5252602E0,1.922768E0,1.0623002E0,7.6646166E0,1.38525E0,1.3290308E0,4.537737E0,1.1508198E0,1.7489288E2,5.2021646E0,1.0749692E3,5.655058E2,8.749693E0,8.778564E1],"tree_param":{"num_deleted":"0","num_feature":"29","num_nodes":"59","size_leaf_vector":"1"}},{"base_weights":[-4.505583E-3,-7.6308876E-1,6.511058E-1,-7.7184653E-1,1.0355509E-2,-4.3581772E-1,6.774814E-1,-7.885314E-1,-3.5338443E-2,6.4802295E-1,-5.115005E-1,-5.7883096E-1,3.7022868E-1,6.860677E-1,-5.3104585E-1,-3.947809E-2,-2.9816216E-1,3.4915604E-2,7.4413246E-3,3.0525236E-3,-2.8579015E-2,-3.1249106E-2,-2.402821E-1,-5.711212E-3,4.9213392E-1,3.4043047E-1,7.069966E-1,-2.7550185E-2,-7.4511743E-3,1.0264576E-2,-2.6180392E-2,9.9133484E-2,-2.69526E-2,2.7297342E-2,7.5410116E-3,-2.3262339E-2,4.0825766E-1,7.583623E-1,6.155952E-1,-1.1067771E-2,1.4408325E-2,2.2129985E-2,-2.163584E-2,3.5898384E-2,4.1041046E-2,2.7129902E-2,3.7073474E-2],"categories":[],"categories_nodes":[],"categories_segments":[],"categories_sizes":[],"default_left":[0,0,0,0,0,0,0,0,0,0,0,0,0,0,0,0,0,0,0,0,0,0,0,0,0,0,0,0,0,0,0,0,0,0,0,0,0,0,0,0,0,0,0,0,0,0,0],"id":5,"left_children":[1,3,5,7,9,11,13,15,-1,17,19,21,23,25,27,-1,29,-1,-1,-1,-1,-1,31,-1,33,35,37,-1,-1,-1,-1,39,-1,-1,-1,-1,41,43,45,-1,-1,-1,-1,-1,-1,-1,-1],"loss_changes":[1.8393241E3,1.162146E1,5.716809E1,1.2836304E0,7.047823E0,5.7023315E0,2.046637E1,4.4195557E-1,0E0,1.3518453E-1,4.3592882E-1,4.8768234E-1,5.159117E-1,1.3677063E1,2.6382923E-2,0E0,6.089243E-1,0E0,0E0,0E0,0E0,0E0,7.148282E-1,0E0,3.5345197E-2,6.298236E0,8.0460205E0,0E0,0E0,0E0,0E0,2.9994148E-1,0E0,0E0,0E0,0E0,3.1844578E0,2.3286133E0,5.640747E0,0E0,0E0,0E0,0E0,0E0,0E0,0E0,0E0],"parents":[2147483647,0,0,1,1,2,2,3,3,4,4,5,5,6,6,7,7,9,9,10,10,11,11,12,12,13,13,14,14,16,16,22,22,24,24,25,25,26,26,31,31,36,36,37,37,38,38],"right_children":[2,4,6,8,10,12,14,16,-1,18,20,22,24,26,28,-1,30,-1,-1,-1,-1,-1,32,-1,34,36,38,-1,-1,-1,-1,40,-1,-1,-1,-1,42,44,46,-1,-1,-1,-1,-1,-1,-1,-1],"split_conditions":[9.045226E-2,1.0880328E0,1.0287644E0,4.725537E-2,9.643939E0,1.2646136E-1,6.521739E-2,1.0676873E0,-3.5338443E-2,5.2173913E-2,2.1546612E-2,1.0242214E0,1.0555903E-1,1.0676873E0,1.7284596E-1,-3.947809E-2,6.8426197E-3,3.4915604E-2,7.4413246E-3,3.0525236E-3,-2.8579015E-2,-3.1249106E-2,2.8708134E-2,-5.711212E-3,-9.98004E-4,1.02564104E-1,6.456693E-2,-2.7550185E-2,-7.4511743E-3,1.0264576E-2,-2.6180392E-2,6.6347E0,-2.69526E-2,2.7297342E-2,7.5410116E-3,-2.3262339E-2,9.227182E-2,1.4746478E-1,1.4746478E-1,-1.1067771E-2,1.4408325E-2,2.2129985E-2,-2.163584E-2,3.5898384E-2,4.1041046E-2,2.7129902E-2,3.7073474E-2],"split_indices":[7,2,2,7,6,17,4,2,0,4,3,2,7,2,7,0,7,0,0,0,0,0,1,0,1,7,1,0,0,0,0,5,0,0,0,0,9,7,7,0,0,0,0,0,0,0,0],"split_type":[0,0,0,0,0,0,0,0,0,0,0,0,0,0,0,0,0,0,0,0,0,0,0,0,0,0,0,0,0,0,0,0,0,0,0,0,0,0,0,0,0,0,0,0,0,0,0],"sum_hessian":[3.6963555E3,1.7135303E3,1.9828251E3,1.6943472E3,1.9183153E1,4.6608044E1,1.936217E3,1.3397421E3,3.5460507E2,8.524775E0,1.0658378E1,3.9824116E1,6.7839284E0,1.9229869E3,1.3230068E1,1.3363242E3,3.4178483E0,7.3822165E0,1.1425582E0,1.0106732E0,9.647705E0,3.430199E1,5.522124E0,1.376542E0,5.407387E0,1.10777664E2,1.8122094E3,1.2152838E1,1.0772302E0,1.0847769E0,2.3330715E0,2.89803E0,2.6240935E0,4.1530538E0,1.254333E0,8.146861E0,1.02630806E2,1.1555289E3,6.566804E2,1.0117345E0,1.8862956E0,9.9059326E1,3.5714784E0,7.0929443E2,4.462344E2,4.190024E2,2.3767804E2],"tree_param":{"num_deleted":"0","num_feature":"29","num_nodes":"47","size_leaf_vector":"1"}},{"base_weights":[5.999478E-4,-7.4575907E-1,6.4061034E-1,-7.537978E-1,-1.7605724E-2,4.554853E-3,6.875864E-1,-3.8616095E-2,-3.49898E-2,5.8446616E-1,-5.0226575E-1,-4.9795485E-1,2.3054628E-1,6.933829E-1,-4.5750034E-1,2.6931602E-3,3.2566782E-2,2.6185962E-4,-2.8313283E-2,-5.876365E-1,2.740243E-1,-2.500771E-2,3.0927026E-1,7.4401146E-1,6.156529E-1,-5.939211E-3,-2.4166707E-2,-2.5089836E-1,-3.120147E-2,2.2717075E-2,-4.3207384E-3,4.2371282E-1,-4.917709E-2,7.790924E-1,6.8771344E-1,5.236382E-1,7.161792E-1,-2.134203E-2,4.7825784E-3,2.421893E-2,-9.235541E-3,4.8564496E-3,-1.902435E-2,3.6074895E-2,4.0072184E-2,3.2397095E-2,3.9638136E-2,3.031372E-2,2.0652456E-2,3.6598057E-2,1.5105269E-2],"categories":[],"categories_nodes":[],"categories_segments":[],"categories_sizes":[],"default_left":[0,0,0,0,0,0,0,0,0,0,0,0,0,0,0,0,0,0,0,0,0,0,0,0,0,0,0,0,0,0,0,0,0,0,0,0,0,0,0,0,0,0,0,0,0,0,0,0,0,0,0],"id":6,"left_children":[1,3,5,7,9,11,13,-1,-1,15,17,19,21,23,25,-1,-1,-1,-1,27,29,-1,31,33,35,-1,-1,37,-1,-1,-1,39,41,43,45,47,49,-1,-1,-1,-1,-1,-1,-1,-1,-1,-1,-1,-1,-1,-1],"loss_changes":[1.7808617E3,1.0061096E1,5.9967102E1,1.1624146E0,6.076206E0,1.5905157E1,1.27229E1,0E0,0E0,2.948997E-1,3.7703705E-1,3.1691875E0,5.7111692E0,6.8616943E0,3.0230522E-2,0E0,0E0,0E0,0E0,3.2438755E-1,3.7750548E-1,0E0,3.6232758E0,1.6793213E0,6.4647827E0,0E0,0E0,3.761918E-1,0E0,0E0,0E0,2.550273E0,1.1105558E0,3.015747E-1,1.3209076E0,3.311699E0,2.0703888E0,0E0,0E0,0E0,0E0,0E0,0E0,0E0,0E0,0E0,0E0,0E0,0E0,0E0,0E0],"parents":[2147483647,0,0,1,1,2,2,3,3,4,4,5,5,6,6,9,9,10,10,11,11,12,12,13,13,14,14,19,19,20,20,22,22,23,23,24,24,27,27,31,31,32,32,33,33,34,34,35,35,36,36],"right_children":[2,4,6,8,10,12,14,-1,-1,16,18,20,22,24,26,-1,-1,-1,-1,28,30,-1,32,34,36,-1,-1,38,-1,-1,-1,40,42,44,46,48,50,-1,-1,-1,-1,-1,-1,-1,-1,-1,-1,-1,-1,-1,-1],"split_conditions":[9.045226E-2,1.0880328E0,1.0676873E0,4.2735044E-2,9.643939E0,1.0295308E0,6.521739E-2,-3.8616095E-2,-3.49898E-2,3.27E-2,8.943782E-2,1.6128758E-1,1.02564104E-1,5.3156145E-2,7.626619E-2,2.6931602E-3,3.2566782E-2,2.6185962E-4,-2.8313283E-2,-9.089555E-3,7.8E-3,-2.500771E-2,8.7E-3,2.910053E-2,1.1065078E0,-5.939211E-3,-2.4166707E-2,9.926307E-1,-3.120147E-2,2.2717075E-2,-4.3207384E-3,9.609375E-2,3.9263118E-2,1.0764431E0,1.1065078E0,3.3798285E-2,2.4797001E-1,-2.134203E-2,4.7825784E-3,2.421893E-2,-9.235541E-3,4.8564496E-3,-1.902435E-2,3.6074895E-2,4.0072184E-2,3.2397095E-2,3.9638136E-2,3.031372E-2,2.0652456E-2,3.6598057E-2,1.5105269E-2],"split_indices":[7,2,2,7,6,2,4,0,0,5,1,17,7,1,1,0,0,0,0,4,27,0,27,4,2,0,0,2,0,0,0,1,1,2,2,4,1,0,0,0,0,0,0,0,0,0,0,0,0,0,0],"split_type":[0,0,0,0,0,0,0,0,0,0,0,0,0,0,0,0,0,0,0,0,0,0,0,0,0,0,0,0,0,0,0,0,0,0,0,0,0,0,0,0,0,0,0,0,0,0,0,0,0,0,0],"sum_hessian":[3.726167E3,1.7200898E3,2.0060771E3,1.7012727E3,1.8817156E1,1.3804504E2,1.8680321E3,1.2568413E3,4.4443134E2,8.300223E0,1.05169325E1,4.245022E1,9.5594826E1,1.8590161E3,9.015955E0,1.1310381E0,7.169185E0,1.2805619E0,9.23637E0,3.824594E1,4.2042794E0,8.776822E0,8.6818E1,1.1205719E3,7.384443E2,1.035618E0,7.9803376E0,4.5002236E0,3.3745716E1,2.6286967E0,1.575583E0,6.566944E1,2.1148558E1,6.824683E2,4.3810358E2,3.887857E2,3.4965857E2,2.831165E0,1.6690588E0,5.9900642E1,5.7688003E0,1.51605215E1,5.9880357E0,2.0010974E2,4.8235855E2,3.2298846E2,1.1511513E2,2.1994925E2,1.6883647E2,3.360815E2,1.3577055E1],"tree_param":{"num_deleted":"0","num_feature":"29","num_nodes":"51","size_leaf_vector":"1"}},{"base_weights":[-1.6503374E-3,-7.303551E-1,6.2194574E-1,-7.374719E-1,-5.210044E-2,-4.8514494E-1,6.449772E-1,-7.5384915E-1,-3.4454536E-2,5.445727E-1,-5.0765115E-1,-5.986234E-1,2.252281E-1,6.5296096E-1,-2.69389E-2,-3.7722442E-2,-8.5847575E-4,6.0206497E-1,6.9539114E-3,2.914957E-3,-2.8403347E-2,-3.3504558E-1,-3.1087104E-2,-1.4602421E-1,4.5110044E-1,3.008412E-1,6.6919476E-1,8.848099E-3,3.214676E-2,-2.197871E-2,2.2030731E-3,-1.3991986E-2,2.0986057E-3,2.6272118E-2,6.397832E-3,-2.377728E-2,3.7277424E-1,7.10606E-1,5.729753E-1,2.0586602E-2,-1.6685585E-2,3.447498E-2,3.933319E-2,2.1352164E-2,3.3767518E-2],"categories":[],"categories_nodes":[],"categories_segments":[],"categories_sizes":[],"default_left":[0,0,0,0,0,0,0,0,0,0,0,0,0,0,0,0,0,0,0,0,0,0,0,0,0,0,0,0,0,0,0,0,0,0,0,0,0,0,0,0,0,0,0,0,0],"id":7,"left_children":[1,3,5,7,9,11,13,15,-1,17,19,21,23,25,-1,-1,-1,27,-1,-1,-1,29,-1,31,33,35,37,-1,-1,-1,-1,-1,-1,-1,-1,-1,39,41,43,-1,-1,-1,-1,-1,-1],"loss_changes":[1.7104724E3,8.340149E0,5.203125E1,8.414917E-1,5.468129E0,3.513071E0,1.9134644E1,5.493164E-1,0E0,1.2029123E-1,4.2114592E-1,1.3545036E-2,6.108496E-1,1.1085815E1,0E0,0E0,0E0,1.4175892E-2,0E0,0E0,0E0,2.2164929E-1,0E0,9.2594765E-2,3.5709977E-2,5.138693E0,7.1105957E0,0E0,0E0,0E0,0E0,0E0,0E0,0E0,0E0,0E0,2.390603E0,1.5683594E0,8.269913E0,0E0,0E0,0E0,0E0,0E0,0E0],"parents":[2147483647,0,0,1,1,2,2,3,3,4,4,5,5,6,6,7,7,9,9,10,10,11,11,12,12,13,13,17,17,21,21,23,23,24,24,25,25,26,26,36,36,37,37,38,38],"right_children":[2,4,6,8,10,12,14,16,-1,18,20,22,24,26,-1,-1,-1,28,-1,-1,-1,30,-1,32,34,36,38,-1,-1,-1,-1,-1,-1,-1,-1,-1,40,42,44,-1,-1,-1,-1,-1,-1],"split_conditions":[9.045226E-2,1.0880328E0,1.0295308E0,4.2735044E-2,9.548692E0,6.722672E-2,6.521739E-2,1E1,-3.4454536E-2,7.9E-3,2.1384774E-2,-9.089555E-3,1.08978875E-1,1.0676873E0,-2.69389E-2,-3.7722442E-2,-8.5847575E-4,6.4E-3,6.9539114E-3,2.914957E-3,-2.8403347E-2,1.0071943E0,-3.1087104E-2,1.910828E-2,7.8E-3,1.02564104E-1,5.9877176E-2,8.848099E-3,3.214676E-2,-2.197871E-2,2.2030731E-3,-1.3991986E-2,2.0986057E-3,2.6272118E-2,6.397832E-3,-2.377728E-2,9.6E-3,1.1065078E0,1.3333334E-1,2.0586602E-2,-1.6685585E-2,3.447498E-2,3.933319E-2,2.1352164E-2,3.3767518E-2],"split_indices":[7,2,2,7,6,17,4,20,0,27,3,4,7,2,0,0,0,27,0,0,0,2,0,4,27,7,1,0,0,0,0,0,0,0,0,0,27,2,7,0,0,0,0,0,0],"split_type":[0,0,0,0,0,0,0,0,0,0,0,0,0,0,0,0,0,0,0,0,0,0,0,0,0,0,0,0,0,0,0,0,0,0,0,0,0,0,0,0,0,0,0,0,0],"sum_hessian":[3.7621E3,1.734765E3,2.0273352E3,1.716665E3,1.810004E1,4.0907448E1,1.9864277E3,1.2716313E3,4.450337E2,7.751644E0,1.0348397E1,3.540844E1,5.4990044E0,1.9735656E3,1.2862171E1,1.2705729E3,1.0584563E0,6.364499E0,1.3871449E0,1.0015274E0,9.346869E0,4.1045566E0,3.1303885E1,2.2138112E0,3.2851934E0,8.783822E1,1.8857273E3,1.0257038E0,5.338795E0,3.092409E0,1.0121478E0,1.0078713E0,1.2059399E0,2.1618168E0,1.1233765E0,6.972435E0,8.086578E1,1.3138733E3,5.71854E2,7.703504E1,3.8307383E0,1.0363475E3,2.7752573E2,2.379031E2,3.339509E2],"tree_param":{"num_deleted":"0","num_feature":"29","num_nodes":"45","size_leaf_vector":"1"}},{"base_weights":[4.572479E-4,-6.7166877E-1,6.2403286E-1,-7.0566946E-1,-1.8280126E-1,6.3971937E-1,-2.8296946E-2,-7.143124E-1,-5.1273596E-1,7.126654E-2,-3.706703E-1,6.8425024E-1,5.7809854E-1,-7.147886E-1,-7.5143683E-3,-5.713456E-1,-9.812052E-2,1.8505614E-1,-2.37222E-1,-2.5198385E-1,-3.3284433E-2,6.226398E-1,7.0480216E-1,4.529374E-1,6.412519E-1,-6.3334525E-1,-3.6031276E-2,-6.1510617E-1,-1.1777839E-1,5.9477273E-2,-2.313417E-2,-2.0589201E-1,3.359325E-1,2.5115076E-2,-4.287776E-1,-1.05768465E-1,-5.723345E-1,6.426341E-1,3.1102774E-1,5.549936E-1,7.1135163E-1,-2.8555065E-1,4.6266142E-1,6.001926E-1,7.082316E-1,-3.2139644E-2,-4.8605627E-3,-2.7697717E-4,-3.1276114E-2,1.17581105E-2,-1.2650187E-2,-1.808094E-2,8.883999E-3,-1.772921E-2,2.33954E-2,2.0019162E-2,-3.7902087E-4,-2.4811095E-3,-2.3461757E-2,1.6418105E-3,-1.923216E-2,-3.016214E-2,-4.039212E-3,1.5639223E-2,3.2546457E-2,2.2371128E-2,-9.84737E-4,7.976594E-3,2.9013947E-2,3.451246E-2,3.7932724E-2,-1.9542826E-2,1.1952779E-3,2.4058713E-2,2.5329515E-3,3.1566273E-2,2.4133084E-2,9.857439E-3,3.5618145E-2],"categories":[],"categories_nodes":[],"categories_segments":[],"categories_sizes":[],"default_left":[0,0,0,0,0,0,0,0,0,0,0,0,0,0,0,0,0,0,0,0,0,0,0,0,0,0,0,0,0,0,0,0,0,0,0,0,0,0,0,0,0,0,0,0,0,0,0,0,0,0,0,0,0,0,0,0,0,0,0,0,0,0,0,0,0,0,0,0,0,0,0,0,0,0,0,0,0,0,0],"id":8,"left_children":[1,3,5,7,9,11,-1,13,15,17,19,21,23,25,-1,27,29,31,33,35,-1,37,39,41,43,45,-1,47,49,51,-1,53,55,-1,57,59,61,63,65,67,69,71,73,75,77,-1,-1,-1,-1,-1,-1,-1,-1,-1,-1,-1,-1,-1,-1,-1,-1,-1,-1,-1,-1,-1,-1,-1,-1,-1,-1,-1,-1,-1,-1,-1,-1,-1,-1],"loss_changes":[1.5934655E3,3.0284424E1,3.7175842E1,2.4859009E0,5.770045E0,4.9470215E0,0E0,3.31604E-1,1.8121471E0,1.8689766E0,2.2601643E0,9.854126E-1,6.2165527E0,3.1982422E-1,0E0,1.2603798E0,6.439456E-1,2.3426752E0,2.2621355E0,2.330946E0,0E0,1.606514E0,4.253235E-1,2.1390839E0,1.0730286E0,5.324478E-1,0E0,3.83873E-1,4.0052584E-1,4.8120862E-1,0E0,1.3033508E0,6.271746E-1,0E0,1.610272E-1,1.4150721E0,1.9091511E-1,5.392685E-1,8.847928E-1,3.0301762E-1,2.722168E-1,1.4785963E-1,2.0825195E0,9.549942E-1,2.8494263E-1,0E0,0E0,0E0,0E0,0E0,0E0,0E0,0E0,0E0,0E0,0E0,0E0,0E0,0E0,0E0,0E0,0E0,0E0,0E0,0E0,0E0,0E0,0E0,0E0,0E0,0E0,0E0,0E0,0E0,0E0,0E0,0E0,0E0,0E0],"parents":[2147483647,0,0,1,1,2,2,3,3,4,4,5,5,7,7,8,8,9,9,10,10,11,11,12,12,13,13,15,15,16,16,17,17,18,18,19,19,21,21,22,22,23,23,24,24,25,25,27,27,28,28,29,29,31,31,32,32,34,34,35,35,36,36,37,37,38,38,39,39,40,40,41,41,42,42,43,43,44,44],"right_children":[2,4,6,8,10,12,-1,14,16,18,20,22,24,26,-1,28,30,32,34,36,-1,38,40,42,44,46,-1,48,50,52,-1,54,56,-1,58,60,62,64,66,68,70,72,74,76,78,-1,-1,-1,-1,-1,-1,-1,-1,-1,-1,-1,-1,-1,-1,-1,-1,-1,-1,-1,-1,-1,-1,-1,-1,-1,-1,-1,-1,-1,-1,-1,-1,-1,-1],"split_conditions":[1.063995E0,1.039372E0,6.521739E-2,1.0295308E0,1.3574661E-2,2.910053E-2,-2.8296946E-2,8.3070524E-2,9.3768E0,8.7E-3,6.0606062E-2,1.0764431E0,1.0880328E0,-3.258656E-2,-7.5143683E-3,1.9971904E-1,8.4E-3,6.5E-3,-6.1E-2,5.6E-3,-3.3284433E-2,2.1929825E-2,-2.0304568E-2,1.0676873E0,1.1240429E0,1.6128758E-1,-3.6031276E-2,-2.9020293E-2,-2.38E-2,6.3E-3,-2.313417E-2,1E1,1.93E-2,2.5115076E-2,0E0,7.9E-3,2.7502877E-1,1.0676873E0,1.13E-2,6.2E-3,1.1065078E0,1.10701025E-1,5.6655664E-2,5.5205047E-2,-1.3422819E-2,-3.2139644E-2,-4.8605627E-3,-2.7697717E-4,-3.1276114E-2,1.17581105E-2,-1.2650187E-2,-1.808094E-2,8.883999E-3,-1.772921E-2,2.33954E-2,2.0019162E-2,-3.7902087E-4,-2.4811095E-3,-2.3461757E-2,1.6418105E-3,-1.923216E-2,-3.016214E-2,-4.039212E-3,1.5639223E-2,3.2546457E-2,2.2371128E-2,-9.84737E-4,7.976594E-3,2.9013947E-2,3.451246E-2,3.7932724E-2,-1.9542826E-2,1.1952779E-3,2.4058713E-2,2.5329515E-3,3.1566273E-2,2.4133084E-2,9.857439E-3,3.5618145E-2],"split_indices":[2,2,4,2,0,4,0,0,5,27,4,2,2,0,0,17,27,27,26,26,0,0,0,2,2,17,0,0,26,27,0,20,26,0,4,27,17,2,5,27,2,17,0,4,0,0,0,0,0,0,0,0,0,0,0,0,0,0,0,0,0,0,0,0,0,0,0,0,0,0,0,0,0,0,0,0,0,0,0],"split_type":[0,0,0,0,0,0,0,0,0,0,0,0,0,0,0,0,0,0,0,0,0,0,0,0,0,0,0,0,0,0,0,0,0,0,0,0,0,0,0,0,0,0,0,0,0,0,0,0,0,0,0,0,0,0,0,0,0,0,0,0,0,0,0,0,0,0,0,0,0,0,0,0,0,0,0,0,0,0,0],"sum_hessian":[3.7999187E3,1.8287301E3,1.9711886E3,1.7093981E3,1.1933209E2,1.9459984E3,2.5190224E1,1.6335186E3,7.5879456E1,5.0992374E1,6.8339714E1,1.123782E3,8.2221643E2,1.6318734E3,1.645204E0,6.615047E1,9.728986E0,3.7543964E1,1.3448409E1,5.0056156E1,1.828356E1,2.8892813E2,8.348538E2,2.7848013E2,5.4373627E2,1.1645592E2,1.5154175E3,6.0004986E1,6.145481E0,7.3768725E0,2.3521135E0,1.0352947E1,2.7191015E1,2.4330606E0,1.1015348E1,3.5282555E1,1.47736025E1,2.7050885E2,1.8419277E1,3.8561638E1,7.9629224E2,3.2505786E0,2.7522955E2,3.4326898E2,2.0046729E2,1.1424381E2,2.2121117E0,1.0338564E0,5.897113E1,1.497622E0,4.647859E0,1.165495E0,6.2113776E0,8.869424E0,1.4835234E0,2.2755936E1,4.43508E0,1.2767323E0,9.738616E0,2.415796E1,1.1124594E1,1.3685824E1,1.0877781E0,7.5853662E0,2.629235E2,1.2791153E1,5.628124E0,2.7566679E0,3.580497E1,5.6142505E2,2.3486717E2,2.2290165E0,1.021562E0,2.6323358E2,1.1995976E1,2.6792624E2,7.534274E1,1.9981453E0,1.9846915E2],"tree_param":{"num_deleted":"0","num_feature":"29","num_nodes":"79","size_leaf_vector":"1"}},{"base_weights":[-4.014684E-3,-6.578937E-1,6.0759914E-1,-6.941102E-1,-1.728914E-1,6.2172186E-1,-2.8063422E-2,-6.978352E-1,-5.7460505E-1,1.5433533E-1,-4.9710697E-1,6.6783047E-1,4.9747396E-1,-6.9831014E-1,-7.902525E-3,-6.454177E-1,-1.1390549E-1,3.159015E-1,-1.617472E-1,1.8410674E-1,-5.416806E-1,7.090811E-1,6.3173676E-1,3.3901906E-1,6.048014E-1,-6.6023666E-1,-3.5468426E-2,-3.51468E-1,-3.3080786E-2,2.307038E-1,-2.697563E-2,4.6104884E-1,7.52507E-2,1.3420048E-1,-4.8862752E-1,2.0850962E-2,-8.91802E-3,-2.3286484E-1,-6.0306984E-1,7.1555465E-1,4.6179512E-1,5.412023E-1,6.719922E-1,4.899345E-1,1.8356442E-1,6.502905E-1,3.0920875E-1,-3.3093058E-2,-2.24427E-3,-1.1626735E-3,-2.230924E-2,-2.9509633E-3,2.0805493E-2,3.089554E-2,1.642519E-2,1.5504739E-2,-1.1524835E-2,1.2700579E-2,-1.5815323E-2,2.8558413E-3,-2.758786E-2,9.0042624E-4,-2.7209638E-2,-1.2109653E-2,-3.1173775E-2,3.607074E-2,2.5099501E-2,2.5419632E-2,-6.4178705E-3,2.9871348E-2,1.748744E-2,3.375753E-2,1.3805958E-2,2.6564533E-2,1.0785998E-2,1.2488284E-2,-4.632221E-3,3.346721E-2,2.1423174E-2,2.251306E-2,-2.8085585E-3],"categories":[],"categories_nodes":[],"categories_segments":[],"categories_sizes":[],"default_left":[0,0,0,0,0,0,0,0,0,0,0,0,0,0,0,0,0,0,0,0,0,0,0,0,0,0,0,0,0,0,0,0,0,0,0,0,0,0,0,0,0,0,0,0,0,0,0,0,0,0,0,0,0,0,0,0,0,0,0,0,0,0,0,0,0,0,0,0,0,0,0,0,0,0,0,0,0,0,0,0,0],"id":9,"left_children":[1,3,5,7,9,11,-1,13,15,17,19,21,23,25,-1,27,29,31,33,35,37,39,41,43,45,47,-1,49,-1,51,-1,53,55,57,59,-1,-1,61,63,65,67,69,71,73,75,77,79,-1,-1,-1,-1,-1,-1,-1,-1,-1,-1,-1,-1,-1,-1,-1,-1,-1,-1,-1,-1,-1,-1,-1,-1,-1,-1,-1,-1,-1,-1,-1,-1,-1,-1],"loss_changes":[1.5237482E3,3.2224854E1,3.284723E1,3.6169434E-1,1.3792518E1,1.081427E1,0E0,3.1427002E-1,1.8006287E0,3.3759122E0,2.0787659E0,1.6605225E0,8.817474E0,2.2839355E-1,0E0,3.5324097E-3,1.4251243E0,1.4820247E0,2.2599597E0,4.753145E-1,1.0241127E0,7.144165E-1,2.4223022E0,4.98958E0,4.034752E0,3.5707092E-1,0E0,1.3643914E-1,0E0,3.2541183E-1,0E0,3.560996E-1,1.3302898E0,7.6527286E-1,4.1028428E-1,0E0,0E0,9.32618E-1,2.2170258E-1,4.3154907E-1,6.00677E-1,2.3790665E0,4.7003174E-1,1.124464E0,2.0025656E0,8.63266E-1,2.2888126E0,0E0,0E0,0E0,0E0,0E0,0E0,0E0,0E0,0E0,0E0,0E0,0E0,0E0,0E0,0E0,0E0,0E0,0E0,0E0,0E0,0E0,0E0,0E0,0E0,0E0,0E0,0E0,0E0,0E0,0E0,0E0,0E0,0E0,0E0],"parents":[2147483647,0,0,1,1,2,2,3,3,4,4,5,5,7,7,8,8,9,9,10,10,11,11,12,12,13,13,15,15,16,16,17,17,18,18,19,19,20,20,21,21,22,22,23,23,24,24,25,25,27,27,29,29,31,31,32,32,33,33,34,34,37,37,38,38,39,39,40,40,41,41,42,42,43,43,44,44,45,45,46,46],"right_children":[2,4,6,8,10,12,-1,14,16,18,20,22,24,26,-1,28,30,32,34,36,38,40,42,44,46,48,-1,50,-1,52,-1,54,56,58,60,-1,-1,62,64,66,68,70,72,74,76,78,80,-1,-1,-1,-1,-1,-1,-1,-1,-1,-1,-1,-1,-1,-1,-1,-1,-1,-1,-1,-1,-1,-1,-1,-1,-1,-1,-1,-1,-1,-1,-1,-1,-1,-1],"split_conditions":[1.0676873E0,1.039372E0,6.521739E-2,1.0311223E0,4.1758243E-2,6.456693E-2,-2.8063422E-2,8.3070524E-2,9.3768E0,7.9E-3,-9.5147477E-4,1.7110266E-2,1.1065078E0,-3.696498E-2,-7.902525E-3,4.0241447E-3,3.6144577E-2,9.153318E-3,1.2437811E-2,6.140351E-2,3.4018263E-2,1.15E-2,1.0817717E0,2.6058631E-2,1.8979591E-1,1.0287644E0,-3.5468426E-2,-1.007109E-2,-3.3080786E-2,2.790322E-2,-2.697563E-2,-3.1578947E-2,1.1363637E-2,9.6E-3,-3.7678976E-2,2.0850962E-2,-8.91802E-3,7.9E-3,-6.6006603E-3,1.3706097E-1,5.740266E-2,3.0659731E-2,6.097561E-2,1.388507E-1,5.5205047E-2,6.0606062E-2,8.3548E0,-3.3093058E-2,-2.24427E-3,-1.1626735E-3,-2.230924E-2,-2.9509633E-3,2.0805493E-2,3.089554E-2,1.642519E-2,1.5504739E-2,-1.1524835E-2,1.2700579E-2,-1.5815323E-2,2.8558413E-3,-2.758786E-2,9.0042624E-4,-2.7209638E-2,-1.2109653E-2,-3.1173775E-2,3.607074E-2,2.5099501E-2,2.5419632E-2,-6.4178705E-3,2.9871348E-2,1.748744E-2,3.375753E-2,1.3805958E-2,2.6564533E-2,1.0785998E-2,1.2488284E-2,-4.632221E-3,3.346721E-2,2.1423174E-2,2.251306E-2,-2.8085585E-3],"split_indices":[2,2,4,2,1,1,0,0,5,27,4,1,2,1,0,4,1,1,0,1,9,27,2,4,1,2,0,1,0,3,0,1,0,27,1,0,0,27,0,9,9,4,0,1,4,4,5,0,0,0,0,0,0,0,0,0,0,0,0,0,0,0,0,0,0,0,0,0,0,0,0,0,0,0,0,0,0,0,0,0,0],"split_type":[0,0,0,0,0,0,0,0,0,0,0,0,0,0,0,0,0,0,0,0,0,0,0,0,0,0,0,0,0,0,0,0,0,0,0,0,0,0,0,0,0,0,0,0,0,0,0,0,0,0,0,0,0,0,0,0,0,0,0,0,0,0,0,0,0,0,0,0,0,0,0,0,0,0,0,0,0,0,0,0,0],"sum_hessian":[3.808119E3,1.8404307E3,1.9676882E3,1.7121486E3,1.2828212E2,1.9446602E3,2.3028011E1,1.6557006E3,5.6447994E1,6.4105354E1,6.4176765E1,1.4151283E3,5.295318E2,1.6539518E3,1.7487816E0,4.857997E1,7.8680234E0,4.2421898E1,2.1683458E1,3.7491114E0,6.0427654E1,6.516862E2,7.6344214E2,2.1551335E2,3.140185E2,3.8592697E2,1.2680248E3,3.7226338E0,4.4857338E1,4.600772E0,3.2672515E0,2.5890394E1,1.6531506E1,1.1689544E1,9.993914E0,2.1908336E0,1.558278E0,1.0815264E1,4.961239E1,6.332161E2,1.8470097E1,2.394232E2,5.240189E2,1.08261444E2,1.0725191E2,2.710988E2,4.2919685E1,3.8483545E2,1.0915107E0,1.1126301E0,2.6100037E0,2.0613298E0,2.539442E0,1.0180393E1,1.5710001E1,9.341837E0,7.1896687E0,9.578368E0,2.1111755E0,1.0460708E0,8.947843E0,6.5108576E0,4.3044057E0,3.3439007E0,4.626849E1,6.139905E2,1.9225657E1,1.7246853E1,1.2232443E0,1.8343341E2,5.5989788E1,5.191713E2,4.847583E0,9.325893E1,1.5002522E1,8.659315E1,2.0658754E1,2.4779703E2,2.3301764E1,3.0798012E1,1.2121672E1],"tree_param":{"num_deleted":"0","num_feature":"29","num_nodes":"81","size_leaf_vector":"1"}},{"base_weights":[-1.2259014E-3,-6.8283E-1,5.862566E-1,-6.861401E-1,-1.7544945E-1,-4.519217E-1,6.102189E-1,-7.028969E-1,-3.2312155E-2,4.422395E-1,-2.603263E-2,-5.695931E-1,-4.3558504E-2,6.1680925E-1,-2.494533E-2,-3.516705E-2,-4.817062E-3,2.5384272E-2,4.365573E-3,-2.901843E-2,-4.8891213E-3,1.7798479E-1,-2.3392282E-2,6.259241E-1,2.2464484E-1,-1.4722508E-2,3.116607E-1,6.651982E-1,5.601328E-1,-7.9195976E-2,4.136171E-1,-4.0243734E-3,2.130889E-2,2.2413615E-2,3.370931E-2,1.818862E-2,3.0184394E-2,1.2862633E-2,-1.7486751E-2,2.4144901E-2,-3.9507728E-4],"categories":[],"categories_nodes":[],"categories_segments":[],"categories_sizes":[],"default_left":[0,0,0,0,0,0,0,0,0,0,0,0,0,0,0,0,0,0,0,0,0,0,0,0,0,0,0,0,0,0,0,0,0,0,0,0,0,0,0,0,0],"id":10,"left_children":[1,3,5,7,9,11,13,15,-1,17,-1,19,21,23,-1,-1,-1,-1,-1,-1,-1,25,-1,27,29,-1,31,33,35,37,39,-1,-1,-1,-1,-1,-1,-1,-1,-1,-1],"loss_changes":[1.5346394E3,2.859253E0,5.148163E1,7.23938E-1,2.9687142E0,2.2342262E0,1.5017151E1,2.6342773E-1,0E0,7.518375E-2,0E0,1.2837219E-1,1.1735606E0,7.0115967E0,0E0,0E0,0E0,0E0,0E0,0E0,0E0,6.187561E-1,0E0,4.67865E0,2.7319117E0,0E0,3.4820735E-1,2.0741577E0,6.084305E0,1.8071367E0,8.549123E-1,0E0,0E0,0E0,0E0,0E0,0E0,0E0,0E0,0E0,0E0],"parents":[2147483647,0,0,1,1,2,2,3,3,4,4,5,5,6,6,7,7,9,9,11,11,12,12,13,13,21,21,23,23,24,24,26,26,27,27,28,28,29,29,30,30],"right_children":[2,4,6,8,10,12,14,16,-1,18,-1,20,22,24,-1,-1,-1,-1,-1,-1,-1,26,-1,28,30,-1,32,34,36,38,40,-1,-1,-1,-1,-1,-1,-1,-1,-1,-1],"split_conditions":[9.045226E-2,1.0960563E0,1.039372E0,3.968254E-2,9.152076E0,1.0295308E0,6.521739E-2,1.0817717E0,-3.2312155E-2,3.4463227E-2,-2.603263E-2,1.15E-2,4.4533245E-2,1.8979591E-1,-2.494533E-2,-3.516705E-2,-4.817062E-3,2.5384272E-2,4.365573E-3,-2.901843E-2,-4.8891213E-3,1.0555903E-1,-2.3392282E-2,4.5454547E-2,1.3333334E-1,-1.4722508E-2,-2.4366973E-2,1.0676873E0,1.0817717E0,2.4570024E-2,9.4E-3,-4.0243734E-3,2.130889E-2,2.2413615E-2,3.370931E-2,1.818862E-2,3.0184394E-2,1.2862633E-2,-1.7486751E-2,2.4144901E-2,-3.9507728E-4],"split_indices":[7,2,2,7,6,2,4,2,0,3,0,27,9,1,0,0,0,0,0,0,0,7,0,1,7,0,9,2,2,4,27,0,0,0,0,0,0,0,0,0,0],"split_type":[0,0,0,0,0,0,0,0,0,0,0,0,0,0,0,0,0,0,0,0,0,0,0,0,0,0,0,0,0,0,0,0,0,0,0,0,0,0,0,0,0],"sum_hessian":[3.8304739E3,1.7731187E3,2.0573552E3,1.7612758E3,1.1842868E1,4.601171E1,2.0113435E3,1.2286322E3,5.326436E2,4.14497E0,7.6978984E0,3.541262E1,1.0599093E1,1.999904E3,1.1439485E1,1.2275739E3,1.05828E0,3.1362758E0,1.008694E0,3.439695E1,1.0156693E0,7.3445926E0,3.254501E0,1.9538948E3,4.6009274E1,1.3545723E0,5.9900203E0,1.2178114E3,7.360834E2,1.78653E1,2.8143974E1,1.421035E0,4.5689855E0,5.047442E1,1.167337E3,1.3532878E2,6.007546E2,7.984589E0,9.880711E0,2.4046133E1,4.0978413E0],"tree_param":{"num_deleted":"0","num_feature":"29","num_nodes":"41","size_leaf_vector":"1"}},{"base_weights":[-3.6351718E-3,-6.3001233E-1,5.8307654E-1,-6.6569865E-1,-1.6010396E-1,6.031921E-1,2.4337442E-1,-3.4253366E-2,-6.4760506E-1,3.4978744E-1,-4.3835273E-1,6.4213663E-1,5.1474E-1,-2.565614E-1,3.4069136E-1,-3.250651E-2,-4.814691E-1,4.77469E-1,2.5464268E-2,-2.3523569E-1,-3.060866E-2,6.2500906E-1,7.145796E-1,3.746445E-1,6.319911E-1,1.3605957E-2,-3.4827286E-1,4.2191592E-1,9.772101E-2,-2.9678136E-2,2.8197985E-2,3.210266E-2,3.0807838E-1,1.6150199E-1,-1.8191963E-2,1.8077115E-2,-2.9051122E-1,6.537753E-1,5.535132E-1,1.4040196E-2,7.1697885E-1,4.751971E-1,2.8947297E-1,5.607707E-1,6.843551E-1,-4.0949604E-1,6.965317E-3,9.300703E-2,4.7920054E-1,2.2421625E-1,-3.1369406E-1,1.562348E-2,-1.8023117E-2,-4.6381503E-3,1.8571846E-2,1.3233654E-2,-1.5205118E-2,-7.1715564E-3,-2.3747822E-2,3.3048734E-2,1.6554601E-2,2.2333397E-2,2.9277865E-2,3.595872E-2,1.4257471E-2,1.5509103E-2,2.6497303E-2,1.9723704E-2,1.2340163E-2,3.1074986E-2,1.7027121E-2,8.390405E-3,3.4362283E-2,2.4893293E-3,-2.2545101E-2,1.0455216E-2,-2.5203714E-2,2.8777063E-2,1.7521722E-2,1.7394414E-2,-7.0450315E-3,5.5451873E-3,-2.2138098E-2],"categories":[],"categories_nodes":[],"categories_segments":[],"categories_sizes":[],"default_left":[0,0,0,0,0,0,0,0,0,0,0,0,0,0,0,0,0,0,0,0,0,0,0,0,0,0,0,0,0,0,0,0,0,0,0,0,0,0,0,0,0,0,0,0,0,0,0,0,0,0,0,0,0,0,0,0,0,0,0,0,0,0,0,0,0,0,0,0,0,0,0,0,0,0,0,0,0,0,0,0,0,0,0],"id":11,"left_children":[1,3,5,7,9,11,13,-1,15,17,19,21,23,25,27,-1,29,31,33,35,-1,37,39,41,43,-1,45,47,49,-1,51,-1,53,55,-1,-1,57,59,61,-1,63,65,67,69,71,73,-1,75,77,79,81,-1,-1,-1,-1,-1,-1,-1,-1,-1,-1,-1,-1,-1,-1,-1,-1,-1,-1,-1,-1,-1,-1,-1,-1,-1,-1,-1,-1,-1,-1,-1,-1],"loss_changes":[1.4166046E3,3.1156616E1,1.34539795E1,1.6351318E-1,1.9009472E1,6.1400146E0,5.582544E0,0E0,7.0373535E-2,1.953896E0,2.9073982E0,1.166626E0,9.278397E0,1.0147539E0,1.8330784E0,0E0,1.0187211E0,7.5035954E-1,8.249723E-1,1.4733136E0,0E0,1.8171692E0,5.014801E-2,2.1437454E0,7.8684235E-1,0E0,5.528095E-1,1.2908516E0,1.3763932E0,0E0,5.6745297E-1,0E0,5.089351E-1,6.2877554E-1,0E0,0E0,9.76784E-1,1.523529E0,8.015442E-1,0E0,2.2140503E-2,9.251652E-1,5.6025696E-1,1.6411476E0,1.4798737E-1,3.0787492E-1,0E0,9.201924E-1,5.4416084E-1,9.420764E-1,3.9536804E-1,0E0,0E0,0E0,0E0,0E0,0E0,0E0,0E0,0E0,0E0,0E0,0E0,0E0,0E0,0E0,0E0,0E0,0E0,0E0,0E0,0E0,0E0,0E0,0E0,0E0,0E0,0E0,0E0,0E0,0E0,0E0,0E0],"parents":[2147483647,0,0,1,1,2,2,3,3,4,4,5,5,6,6,8,8,9,9,10,10,11,11,12,12,13,13,14,14,16,16,17,17,18,18,19,19,21,21,22,22,23,23,24,24,26,26,27,27,28,28,30,30,32,32,33,33,36,36,37,37,38,38,40,40,41,41,42,42,43,43,44,44,45,45,47,47,48,48,49,49,50,50],"right_children":[2,4,6,8,10,12,14,-1,16,18,20,22,24,26,28,-1,30,32,34,36,-1,38,40,42,44,-1,46,48,50,-1,52,-1,54,56,-1,-1,58,60,62,-1,64,66,68,70,72,74,-1,76,78,80,82,-1,-1,-1,-1,-1,-1,-1,-1,-1,-1,-1,-1,-1,-1,-1,-1,-1,-1,-1,-1,-1,-1,-1,-1,-1,-1,-1,-1,-1,-1,-1,-1],"split_conditions":[1.0676873E0,1.039372E0,1.4825581E-1,1.3298954E-2,9.592326E-3,5.0799288E-2,1.0960563E0,-3.4253366E-2,1.0358524E0,7.8E-3,6.140351E-2,1.1065078E0,1.1065078E0,-5.67E-2,2.4797001E-1,-3.250651E-2,9.3768E0,-3.1578947E-2,2.790322E-2,-5.67E-2,-3.060866E-2,4.2706322E-2,-4.133967E-2,6.7353636E-2,1.1240429E0,1.3605957E-2,9.088518E-2,1.1065078E0,8.7E-3,-2.9678136E-2,4.741787E-2,3.210266E-2,-4.7513925E-2,-3.8684718E-4,-1.8191963E-2,1.8077115E-2,7.9E-3,1.15E-2,1.0764431E0,1.4040196E-2,2.9455388E-1,7E0,6.456693E-2,1.1309158E-1,5.6E-4,9.615705E0,6.965317E-3,9.7E-3,9E0,3.514E-1,3.7755605E-2,1.562348E-2,-1.8023117E-2,-4.6381503E-3,1.8571846E-2,1.3233654E-2,-1.5205118E-2,-7.1715564E-3,-2.3747822E-2,3.3048734E-2,1.6554601E-2,2.2333397E-2,2.9277865E-2,3.595872E-2,1.4257471E-2,1.5509103E-2,2.6497303E-2,1.9723704E-2,1.2340163E-2,3.1074986E-2,1.7027121E-2,8.390405E-3,3.4362283E-2,2.4893293E-3,-2.2545101E-2,1.0455216E-2,-2.5203714E-2,2.8777063E-2,1.7521722E-2,1.7394414E-2,-7.0450315E-3,5.5451873E-3,-2.2138098E-2],"split_indices":[2,2,1,3,1,1,2,0,2,27,1,2,2,26,1,0,5,1,3,26,0,9,17,9,2,0,3,2,27,0,9,0,9,1,0,0,27,27,2,0,9,24,1,1,5,6,0,27,24,5,3,0,0,0,0,0,0,0,0,0,0,0,0,0,0,0,0,0,0,0,0,0,0,0,0,0,0,0,0,0,0,0,0],"split_type":[0,0,0,0,0,0,0,0,0,0,0,0,0,0,0,0,0,0,0,0,0,0,0,0,0,0,0,0,0,0,0,0,0,0,0,0,0,0,0,0,0,0,0,0,0,0,0,0,0,0,0,0,0,0,0,0,0,0,0,0,0,0,0,0,0,0,0,0,0,0,0,0,0,0,0,0,0,0,0,0,0,0,0],"sum_hessian":[3.8526768E3,1.8633154E3,1.9893613E3,1.7314103E3,1.3190518E2,1.8774141E3,1.1194725E2,8.1843475E2,9.129755E2,4.6477665E1,8.542751E1,1.2991516E3,5.782626E2,1.7974163E1,9.397308E1,8.96437E2,1.653854E1,3.300992E1,1.3467748E1,4.047914E1,4.494837E1,1.0585157E3,2.4063577E2,2.6537674E2,3.128858E2,2.3662922E0,1.5607871E1,6.987688E1,2.4096205E1,1.342197E1,3.116569E0,1.5327226E1,1.7682692E1,1.0413885E1,3.053863E0,2.9617803E0,3.751736E1,7.490089E2,3.095069E2,1.9729599E0,2.3866281E2,1.1959952E2,1.4577724E2,1.3753426E2,1.7535153E2,1.400897E1,1.5989008E0,1.0754097E1,5.9122784E1,1.877774E1,5.318464E0,1.9132358E0,1.2033334E0,2.3501625E0,1.5332529E1,8.878163E0,1.5357215E0,2.1861904E1,1.5655457E1,7.3163696E2,1.7371922E1,7.485498E1,2.3465193E2,2.3679352E2,1.8692907E0,3.1455915E1,8.81436E1,3.9740204E1,1.0603704E2,1.0637794E2,3.115632E1,1.3044286E0,1.740471E2,1.1417762E0,1.2867194E1,9.547464E0,1.2066324E0,3.1834816E1,2.7287966E1,1.4061896E1,4.715844E0,1.272622E0,4.045842E0],"tree_param":{"num_deleted":"0","num_feature":"29","num_nodes":"83","size_leaf_vector":"1"}},{"base_weights":[-1.6486463E-3,-6.5182865E-1,5.5291104E-1,-6.5471315E-1,-2.9016346E-1,-4.5664003E-1,5.74495E-1,-6.688639E-1,-6.023465E-1,1.8743709E-2,-4.6634337E-1,-4.8731455E-1,1.099341E-2,5.8096653E-1,-2.3935156E-2,-3.3468E-2,-2.4395422E-3,-3.0277936E-2,-3.4778064E-1,-4.3389186E-2,-2.7111132E-2,-5.2262145E-1,-3.9883316E-2,5.364975E-1,6.5520024E-1,5.4337606E-3,-2.2520876E-2,9.289199E-3,-1.235226E-2,-2.6563276E-2,-4.7104927E-3,1.2990288E-2,-1.6678905E-2,5.592548E-1,2.2247264E-1,6.7194384E-1,5.7707274E-1,2.9410243E-2,2.1566942E-2,-4.076873E-4,1.7376607E-2,3.2133654E-2,3.5822626E-2,-2.4847423E-3,2.9161781E-2],"categories":[],"categories_nodes":[],"categories_segments":[],"categories_sizes":[],"default_left":[0,0,0,0,0,0,0,0,0,0,0,0,0,0,0,0,0,0,0,0,0,0,0,0,0,0,0,0,0,0,0,0,0,0,0,0,0,0,0,0,0,0,0,0,0],"id":12,"left_children":[1,3,5,7,9,11,13,15,17,-1,19,21,-1,23,-1,-1,-1,-1,25,27,-1,29,31,33,35,-1,-1,-1,-1,-1,-1,-1,-1,37,39,41,43,-1,-1,-1,-1,-1,-1,-1,-1],"loss_changes":[1.406313E3,1.6829224E0,4.6129395E1,9.165039E-1,2.049707E0,1.0330458E0,1.4327576E1,3.9562988E-1,1.0733032E-1,0E0,3.9677572E-1,6.5835094E-1,0E0,6.413086E0,0E0,0E0,0E0,0E0,3.8598734E-1,1.8960586E-1,0E0,9.721279E-2,4.5872697E-1,9.073151E0,6.105652E-1,0E0,0E0,0E0,0E0,0E0,0E0,0E0,0E0,4.1878967E0,2.5590725E0,3.5040283E-1,5.765953E-1,0E0,0E0,0E0,0E0,0E0,0E0,0E0,0E0],"parents":[2147483647,0,0,1,1,2,2,3,3,4,4,5,5,6,6,7,7,8,8,10,10,11,11,13,13,18,18,19,19,21,21,22,22,23,23,24,24,33,33,34,34,35,35,36,36],"right_children":[2,4,6,8,10,12,14,16,18,-1,20,22,-1,24,-1,-1,-1,-1,26,28,-1,30,32,34,36,-1,-1,-1,-1,-1,-1,-1,-1,38,40,42,44,-1,-1,-1,-1,-1,-1,-1,-1],"split_conditions":[9.045226E-2,1.0880328E0,1.039372E0,4.587156E-2,1.91713E-2,2.4700898E-1,6.521739E-2,1E1,8.842975E-2,1.8743709E-2,7.884363E-3,1.0358524E0,1.099341E-2,1.4746478E-1,-2.3935156E-2,-3.3468E-2,-2.4395422E-3,-3.0277936E-2,1.2864667E-2,5.294574E-2,-2.7111132E-2,1.15E-2,9.636852E-3,1.4335325E-1,1.3103054E-1,5.4337606E-3,-2.2520876E-2,9.289199E-3,-1.235226E-2,-2.6563276E-2,-4.7104927E-3,1.2990288E-2,-1.6678905E-2,5.564516E-2,1.0960563E0,1.1240429E0,5.26E-4,2.9410243E-2,2.1566942E-2,-4.076873E-4,1.7376607E-2,3.2133654E-2,3.5822626E-2,-2.4847423E-3,2.9161781E-2],"split_indices":[7,2,2,7,3,17,4,20,7,0,7,2,0,7,0,0,0,0,3,0,0,27,9,9,9,0,0,0,0,0,0,0,0,1,2,2,5,0,0,0,0,0,0,0,0],"split_type":[0,0,0,0,0,0,0,0,0,0,0,0,0,0,0,0,0,0,0,0,0,0,0,0,0,0,0,0,0,0,0,0,0,0,0,0,0,0,0,0,0,0,0,0,0],"sum_hessian":[3.8983188E3,1.7943737E3,2.103945E3,1.7793718E3,1.5001936E1,4.361842E1,2.0603267E3,1.3915648E3,3.87807E2,2.905723E0,1.2096212E1,4.1993977E1,1.6244458E0,2.0481897E3,1.2136903E1,1.3903729E3,1.1918582E0,3.8161288E2,6.1941085E0,2.0790906E0,1.0017122E1,3.8766827E1,3.227149E0,1.2860317E3,7.62158E2,1.1262987E0,5.06781E0,1.0195509E0,1.0595398E0,3.776477E1,1.002058E0,1.6543858E0,1.5727631E0,1.1984028E3,8.762898E1,6.213872E2,1.407708E2,9.743003E2,2.2410251E2,3.1139109E1,5.6489872E1,3.8417603E2,2.372112E2,1.3019092E0,1.3946889E2],"tree_param":{"num_deleted":"0","num_feature":"29","num_nodes":"45","size_leaf_vector":"1"}},{"base_weights":[-2.169849E-3,-6.373517E-1,5.427193E-1,-6.403381E-1,-2.7113706E-1,-4.7109658E-1,5.637526E-1,-3.2917716E-2,-5.981061E-1,3.5805833E-1,-4.3821126E-1,-5.050443E-1,-4.9239498E-2,5.6751496E-1,-2.1832855E-2,-3.0017141E-2,-3.5461003E-1,2.1488065E-2,5.5957655E-3,-5.7759162E-2,-2.6048273E-2,-2.6274282E-2,-1.915247E-1,-1.6066276E-2,1.2133997E-2,5.2249044E-1,6.39162E-1,5.826313E-3,-2.2387695E-2,7.070353E-3,-1.2808E-2,-1.4872792E-2,2.4455271E-3,5.72062E-1,3.3096737E-1,6.4583254E-1,1.3471836E-1,1.7017256E-2,2.9217213E-2,3.8142428E-3,2.0563597E-2,3.277205E-2,2.7612606E-2,1.9304978E-2,-1.6357724E-2],"categories":[],"categories_nodes":[],"categories_segments":[],"categories_sizes":[],"default_left":[0,0,0,0,0,0,0,0,0,0,0,0,0,0,0,0,0,0,0,0,0,0,0,0,0,0,0,0,0,0,0,0,0,0,0,0,0,0,0,0,0,0,0,0,0],"id":13,"left_children":[1,3,5,7,9,11,13,-1,15,17,19,21,23,25,-1,-1,27,-1,-1,29,-1,-1,31,-1,-1,33,35,-1,-1,-1,-1,-1,-1,37,39,41,43,-1,-1,-1,-1,-1,-1,-1,-1],"loss_changes":[1.3485234E3,1.7940063E0,4.4986267E1,9.6343994E-1,1.8690246E0,5.933809E-1,7.98291E0,0E0,8.358765E-2,2.1929264E-2,3.8925314E-1,1.5472794E-1,4.2136738E-1,6.2718506E0,0E0,0E0,3.7681693E-1,0E0,0E0,1.746923E-1,0E0,0E0,1.1674535E-1,0E0,0E0,1.1801727E1,2.5570374E0,0E0,0E0,0E0,0E0,0E0,0E0,2.652649E0,5.3283005E0,3.3511353E-1,1.4637027E0,0E0,0E0,0E0,0E0,0E0,0E0,0E0,0E0],"parents":[2147483647,0,0,1,1,2,2,3,3,4,4,5,5,6,6,8,8,9,9,10,10,11,11,12,12,13,13,16,16,19,19,22,22,25,25,26,26,33,33,34,34,35,35,36,36],"right_children":[2,4,6,8,10,12,14,-1,16,18,20,22,24,26,-1,-1,28,-1,-1,30,-1,-1,32,-1,-1,34,36,-1,-1,-1,-1,-1,-1,38,40,42,44,-1,-1,-1,-1,-1,-1,-1,-1],"split_conditions":[9.045226E-2,1.0880328E0,1.039372E0,3.943662E-2,1.91713E-2,1.0358524E0,6.6433564E-2,-3.2917716E-2,8.842975E-2,7E0,6.8426197E-3,1E1,1.17810115E-1,1.4746478E-1,-2.1832855E-2,-3.0017141E-2,8.43E-4,2.1488065E-2,5.5957655E-3,5.294574E-2,-2.6048273E-2,-2.6274282E-2,1.1278736E-1,-1.6066276E-2,1.2133997E-2,5.564516E-2,2.4797001E-1,5.826313E-3,-2.2387695E-2,7.070353E-3,-1.2808E-2,-1.4872792E-2,2.4455271E-3,1.0676873E0,1.0817717E0,4.4299357E-2,2.2612E-2,1.7017256E-2,2.9217213E-2,3.8142428E-3,2.0563597E-2,3.277205E-2,2.7612606E-2,1.9304978E-2,-1.6357724E-2],"split_indices":[7,2,2,7,3,2,0,0,7,24,7,16,7,7,0,0,5,0,0,0,0,0,7,0,0,1,1,0,0,0,0,0,0,2,2,3,5,0,0,0,0,0,0,0,0],"split_type":[0,0,0,0,0,0,0,0,0,0,0,0,0,0,0,0,0,0,0,0,0,0,0,0,0,0,0,0,0,0,0,0,0,0,0,0,0,0,0,0,0,0,0,0,0],"sum_hessian":[3.8942993E3,1.7980858E3,2.0962134E3,1.782799E3,1.5286922E1,4.2170544E1,2.054043E3,1.2394589E3,5.433401E2,2.9676714E0,1.2319251E1,3.8847233E1,3.3233073E0,2.046778E3,7.264878E0,5.3694226E2,6.3978224E0,1.7204981E0,1.2471732E0,2.5042474E0,9.815003E0,3.5834736E1,3.0124974E0,1.6679482E0,1.6553589E0,1.262002E3,7.8477606E2,1.0146297E0,5.383193E0,1.3930696E0,1.1111779E0,1.9265437E0,1.0859538E0,1.00094293E3,2.6105902E2,7.742574E2,1.0518672E1,5.182995E1,9.49113E2,6.3049664E1,1.9800937E2,6.9671716E2,7.7540184E1,6.917679E0,3.6009934E0],"tree_param":{"num_deleted":"0","num_feature":"29","num_nodes":"45","size_leaf_vector":"1"}},{"base_weights":[-1.7669486E-4,-6.2378526E-1,5.255442E-1,-6.267141E-1,-2.5383598E-1,-4.7940147E-1,5.457933E-1,-6.467602E-1,-5.8746177E-1,2.0047234E-2,-4.3218428E-1,-5.02068E-1,-1.4049411E-1,5.5201656E-1,-2.2677151E-2,-3.2371115E-2,1.259762E-3,-2.9473772E-2,-3.3801973E-1,-4.945638E-2,-2.51917E-2,-2.5625E-2,-3.928391E-3,-1.6909942E-2,7.5002583E-3,5.0715595E-1,6.2152535E-1,5.919577E-3,-2.1503696E-2,8.711317E-3,-1.1844931E-2,5.51626E-1,3.0691803E-1,5.895785E-1,6.661223E-1,1.647569E-2,2.8219862E-2,9.992101E-3,2.2948967E-2,3.1710923E-2,2.539356E-2,3.367522E-2,1.4523777E-2],"categories":[],"categories_nodes":[],"categories_segments":[],"categories_sizes":[],"default_left":[0,0,0,0,0,0,0,0,0,0,0,0,0,0,0,0,0,0,0,0,0,0,0,0,0,0,0,0,0,0,0,0,0,0,0,0,0,0,0,0,0,0,0],"id":14,"left_children":[1,3,5,7,9,11,13,15,17,-1,19,21,23,25,-1,-1,-1,-1,27,29,-1,-1,-1,-1,-1,31,33,-1,-1,-1,-1,35,37,39,41,-1,-1,-1,-1,-1,-1,-1,-1],"loss_changes":[1.2921835E3,1.7944336E0,4.377997E1,1.0269775E0,2.0232687E0,2.5803185E-1,1.3290649E1,5.3848267E-1,1.0984802E-1,0E0,3.2970166E-1,1.3513756E-1,2.8447783E-1,6.184021E0,0E0,0E0,0E0,0E0,3.5644925E-1,1.7326304E-1,0E0,0E0,0E0,0E0,0E0,1.1158813E1,7.6571655E-1,0E0,0E0,0E0,0E0,2.7633362E0,3.7092018E0,1.4375763E0,7.240753E-1,0E0,0E0,0E0,0E0,0E0,0E0,0E0,0E0],"parents":[2147483647,0,0,1,1,2,2,3,3,4,4,5,5,6,6,7,7,8,8,10,10,11,11,12,12,13,13,18,18,19,19,25,25,26,26,31,31,32,32,33,33,34,34],"right_children":[2,4,6,8,10,12,14,16,18,-1,20,22,24,26,-1,-1,-1,-1,28,30,-1,-1,-1,-1,-1,32,34,-1,-1,-1,-1,36,38,40,42,-1,-1,-1,-1,-1,-1,-1,-1],"split_conditions":[9.045226E-2,1.0880328E0,1.039372E0,3.7037037E-2,1.8032903E-2,1.0358524E0,6.521739E-2,1E0,8.842975E-2,2.0047234E-2,6.8426197E-3,1.15E-2,1.17810115E-1,1.4746478E-1,-2.2677151E-2,-3.2371115E-2,1.259762E-3,-2.9473772E-2,8.43E-4,3.6004398E-2,-2.51917E-2,-2.5625E-2,-3.928391E-3,-1.6909942E-2,7.5002583E-3,5.703422E-2,1.1240429E0,5.919577E-3,-2.1503696E-2,8.711317E-3,-1.1844931E-2,1.0676873E0,1.1065078E0,4.3582376E-2,2.4797001E-1,1.647569E-2,2.8219862E-2,9.992101E-3,2.2948967E-2,3.1710923E-2,2.539356E-2,3.367522E-2,1.4523777E-2],"split_indices":[7,2,2,7,3,2,4,22,7,0,7,27,7,7,0,0,0,0,5,3,0,0,0,0,0,1,2,0,0,0,0,2,2,1,1,0,0,0,0,0,0,0,0],"split_type":[0,0,0,0,0,0,0,0,0,0,0,0,0,0,0,0,0,0,0,0,0,0,0,0,0,0,0,0,0,0,0,0,0,0,0,0,0,0,0,0,0,0,0],"sum_hessian":[3.9394575E3,1.801883E3,2.1375747E3,1.7870413E3,1.4841772E1,4.177228E1,2.0958022E3,1.1726774E3,6.1436383E2,2.9100037E0,1.1931768E1,3.8702393E1,3.0698888E0,2.0832766E3,1.2525735E1,1.1715596E3,1.1178534E0,6.080918E2,6.2720513E0,2.1480246E0,9.783744E0,3.756686E1,1.1355349E0,1.7289922E0,1.3408967E0,1.2711677E3,8.121088E2,1.0046781E0,5.267373E0,1.0114843E0,1.1365403E0,1.0387262E3,2.324416E2,4.81447E2,3.3066183E2,5.793526E1,9.807909E2,1.3775429E2,9.468732E1,3.069732E2,1.744738E2,3.2351138E2,7.1504436E0],"tree_param":{"num_deleted":"0","num_feature":"29","num_nodes":"43","size_leaf_vector":"1"}},{"base_weights":[-2.142893E-5,-6.089407E-1,5.1623565E-1,-6.1148375E-1,-2.8058746E-1,-4.6185315E-1,5.360201E-1,-6.2961215E-1,-2.841037E-2,3.672878E-1,-2.4413548E-2,-4.858383E-1,-1.0785776E-1,5.421415E-1,-2.1748919E-2,-3.1511318E-2,5.0145603E-4,2.215851E-2,5.251634E-3,-2.4836605E-2,-3.332056E-3,1.1853102E-2,-1.5599298E-2,4.987072E-1,6.079003E-1,5.4267657E-1,3.0021513E-1,5.7568896E-1,6.527484E-1,1.49834845E-2,2.7770836E-2,5.1428387E-3,1.957703E-2,2.977552E-2,1.9032E-2,3.3091437E-2,1.6887022E-2],"categories":[],"categories_nodes":[],"categories_segments":[],"categories_sizes":[],"default_left":[0,0,0,0,0,0,0,0,0,0,0,0,0,0,0,0,0,0,0,0,0,0,0,0,0,0,0,0,0,0,0,0,0,0,0,0,0],"id":15,"left_children":[1,3,5,7,9,11,13,15,-1,17,-1,19,21,23,-1,-1,-1,-1,-1,-1,-1,-1,-1,25,27,29,31,33,35,-1,-1,-1,-1,-1,-1,-1,-1],"loss_changes":[1.2327915E3,1.3308716E0,4.1315674E1,1.0423584E0,2.2886255E0,3.0942345E-1,1.2602966E1,4.9682617E-1,0E0,4.053855E-2,0E0,1.4785194E-1,3.5485303E-1,5.6036377E0,0E0,0E0,0E0,0E0,0E0,0E0,0E0,0E0,0E0,1.0755402E1,8.0599976E-1,3.0003967E0,4.089073E0,1.646759E0,7.332306E-1,0E0,0E0,0E0,0E0,0E0,0E0,0E0,0E0],"parents":[2147483647,0,0,1,1,2,2,3,3,4,4,5,5,6,6,7,7,9,9,11,11,12,12,13,13,23,23,24,24,25,25,26,26,27,27,28,28],"right_children":[2,4,6,8,10,12,14,16,-1,18,-1,20,22,24,-1,-1,-1,-1,-1,-1,-1,-1,-1,26,28,30,32,34,36,-1,-1,-1,-1,-1,-1,-1,-1],"split_conditions":[9.045226E-2,1.0880328E0,1.039372E0,3.968254E-2,9.2436905E0,1.0358524E0,6.521739E-2,1E0,-2.841037E-2,1.903861E-2,-2.4413548E-2,1.15E-2,7.532011E-4,1.4746478E-1,-2.1748919E-2,-3.1511318E-2,5.0145603E-4,2.215851E-2,5.251634E-3,-2.4836605E-2,-3.332056E-3,1.1853102E-2,-1.5599298E-2,5.564516E-2,1.1240429E0,1.0676873E0,1.0880328E0,1.08350515E-1,2.9455388E-1,1.49834845E-2,2.7770836E-2,5.1428387E-3,1.957703E-2,2.977552E-2,1.9032E-2,3.3091437E-2,1.6887022E-2],"split_indices":[7,2,2,7,6,2,4,22,0,3,0,27,4,7,0,0,0,0,0,0,0,0,0,1,2,2,2,1,9,0,0,0,0,0,0,0,0],"split_type":[0,0,0,0,0,0,0,0,0,0,0,0,0,0,0,0,0,0,0,0,0,0,0,0,0,0,0,0,0,0,0,0,0,0,0,0,0],"sum_hessian":[3.9196047E3,1.7983235E3,2.1212812E3,1.7836472E3,1.4676272E1,4.1614716E1,2.0796665E3,1.247517E3,5.3613025E2,3.376057E0,1.1300216E1,3.8625206E1,2.9895113E0,2.067077E3,1.2589645E1,1.2463348E3,1.182047E0,2.0833929E0,1.2926642E0,3.746659E1,1.1586152E0,1.0514742E0,1.9380372E0,1.2500157E3,8.170612E2,1.0219112E3,2.2810452E2,4.835768E2,3.3348444E2,5.2128475E1,9.697827E2,7.283377E1,1.5527075E2,4.3710385E2,4.647297E1,3.230707E2,1.0413722E1],"tree_param":{"num_deleted":"0","num_feature":"29","num_nodes":"37","size_leaf_vector":"1"}},{"base_weights":[-3.4273046E-3,-5.9529424E-1,4.9764824E-1,-5.9824E-1,-2.3219955E-1,-4.4771698E-1,5.1681244E-1,-6.189101E-1,-5.579087E-1,3.744682E-1,-4.2804405E-1,-4.6109053E-1,2.5642917E-3,5.2270687E-1,-2.0879434E-2,-3.09779E-2,5.111662E-4,-2.8530503E-2,-2.5688333E-2,2.1688597E-2,5.8615333E-3,-7.461039E-4,-2.3113864E-2,-4.7195873E-1,-2.2138946E-3,4.7402757E-1,5.9720325E-1,-2.4154428E-2,-1.8993485E-3,5.1860183E-1,2.6690182E-1,6.0275775E-1,6.95813E-2,1.5235438E-2,2.6562542E-2,-2.983699E-3,1.6108159E-2,2.841196E-2,3.249615E-2,1.1541894E-2,-2.2785535E-2],"categories":[],"categories_nodes":[],"categories_segments":[],"categories_sizes":[],"default_left":[0,0,0,0,0,0,0,0,0,0,0,0,0,0,0,0,0,0,0,0,0,0,0,0,0,0,0,0,0,0,0,0,0,0,0,0,0,0,0,0,0],"id":16,"left_children":[1,3,5,7,9,11,13,15,17,19,21,23,-1,25,-1,-1,-1,-1,-1,-1,-1,-1,-1,27,-1,29,31,-1,-1,33,35,37,39,-1,-1,-1,-1,-1,-1,-1,-1],"loss_changes":[1.1627539E3,1.7836304E0,3.869751E1,1.140625E0,2.0731478E0,3.0874538E-1,1.1682495E1,4.8287964E-1,5.1132202E-2,1.7222643E-2,1.7182684E-1,1.6803169E-1,0E0,7.2194824E0,0E0,0E0,0E0,0E0,0E0,0E0,0E0,0E0,0E0,1.7747211E-1,0E0,1.1458405E1,2.342987E0,0E0,0E0,2.631836E0,4.0708733E0,9.415283E-1,9.190747E-1,0E0,0E0,0E0,0E0,0E0,0E0,0E0,0E0],"parents":[2147483647,0,0,1,1,2,2,3,3,4,4,5,5,6,6,7,7,8,8,9,9,10,10,11,11,13,13,23,23,25,25,26,26,29,29,30,30,31,31,32,32],"right_children":[2,4,6,8,10,12,14,16,18,20,22,24,-1,26,-1,-1,-1,-1,-1,-1,-1,-1,-1,28,-1,30,32,-1,-1,34,36,38,40,-1,-1,-1,-1,-1,-1,-1,-1],"split_conditions":[9.045226E-2,1.0880328E0,1.039372E0,3.7037037E-2,1.91713E-2,2.4700898E-1,6.521739E-2,1E0,6.2327635E-2,1.2777061E-2,9.3524475E0,1.0381409E0,2.5642917E-3,1.4746478E-1,-2.0879434E-2,-3.09779E-2,5.111662E-4,-2.8530503E-2,-2.5688333E-2,2.1688597E-2,5.8615333E-3,-7.461039E-4,-2.3113864E-2,1.15E-2,-2.2138946E-3,5.436374E-2,2.4797001E-1,-2.4154428E-2,-1.8993485E-3,1.0676873E0,1.0764431E0,1.1240429E0,3.27E-2,1.5235438E-2,2.6562542E-2,-2.983699E-3,1.6108159E-2,2.841196E-2,3.249615E-2,1.1541894E-2,-2.2785535E-2],"split_indices":[7,2,2,7,3,17,4,22,7,3,6,2,0,7,0,0,0,0,0,0,0,0,0,27,0,1,1,0,0,2,2,2,5,0,0,0,0,0,0,0,0],"split_type":[0,0,0,0,0,0,0,0,0,0,0,0,0,0,0,0,0,0,0,0,0,0,0,0,0,0,0,0,0,0,0,0,0,0,0,0,0,0,0,0,0],"sum_hessian":[3.918673E3,1.796487E3,2.122186E3,1.7813872E3,1.5099807E1,4.1721294E1,2.0804646E3,1.1682863E3,6.1310095E2,3.462365E0,1.1637443E1,4.0706318E1,1.0149757E0,2.0678606E3,1.2604007E1,1.1670996E3,1.1866593E0,4.6684528E2,1.4625568E2,2.2559962E0,1.2063687E0,1.0004183E0,1.0637024E1,3.9542953E1,1.163368E0,1.2550906E3,8.127701E2,3.8443825E1,1.0991259E0,1.0315856E3,2.2350505E2,8.0416187E2,8.608197E0,5.8999386E1,9.725862E2,3.23352E1,1.9116985E2,4.718668E2,3.3229507E2,7.0151935E0,1.5930035E0],"tree_param":{"num_deleted":"0","num_feature":"29","num_nodes":"41","size_leaf_vector":"1"}},{"base_weights":[-5.970644E-3,-5.8390474E-1,4.8361266E-1,-6.003312E-1,-2.664311E-2,-4.3477055E-1,5.022683E-1,-6.0310924E-1,-7.447544E-2,-4.5833373E-1,-1.0353948E-1,5.0798506E-1,-4.050802E-1,-3.1057006E-2,-2.9273978E-2,3.7938687E-1,-2.1084165E-2,-2.345169E-2,-3.3314906E-3,1.1287074E-2,-1.5810153E-2,4.752899E-1,6.1299795E-1,-2.2368474E-2,-2.1497665E-1,6.3582263E-3,2.217393E-2,5.3050274E-1,3.5532996E-1,5.6946427E-1,6.494433E-1,-9.160407E-4,-1.3446662E-2,1.7899899E-2,2.7046664E-2,1.0990666E-2,2.0802999E-2,2.9819265E-2,2.302701E-2,3.2726828E-2,1.5400265E-2],"categories":[],"categories_nodes":[],"categories_segments":[],"categories_sizes":[],"default_left":[0,0,0,0,0,0,0,0,0,0,0,0,0,0,0,0,0,0,0,0,0,0,0,0,0,0,0,0,0,0,0,0,0,0,0,0,0,0,0,0,0],"id":17,"left_children":[1,3,5,7,-1,9,11,13,15,17,19,21,23,-1,-1,25,-1,-1,-1,-1,-1,27,29,-1,31,-1,-1,33,35,37,39,-1,-1,-1,-1,-1,-1,-1,-1,-1,-1],"loss_changes":[1.1065706E3,1.1838989E0,3.6493896E1,1.9258423E0,0E0,2.857275E-1,1.0971985E1,6.286621E-2,1.4569293E0,1.3456345E-1,3.603766E-1,6.791931E0,1.2772799E-2,0E0,0E0,9.7798705E-3,0E0,0E0,0E0,0E0,0E0,1.0261017E1,4.018097E-1,0E0,4.166636E-2,0E0,0E0,1.7466736E0,4.0259666E0,3.9904785E-1,2.463913E-1,0E0,0E0,0E0,0E0,0E0,0E0,0E0,0E0,0E0,0E0],"parents":[2147483647,0,0,1,1,2,2,3,3,5,5,6,6,7,7,8,8,9,9,10,10,11,11,12,12,15,15,21,21,22,22,24,24,27,27,28,28,29,29,30,30],"right_children":[2,4,6,8,-1,10,12,14,16,18,20,22,24,-1,-1,26,-1,-1,-1,-1,-1,28,30,-1,32,-1,-1,34,36,38,40,-1,-1,-1,-1,-1,-1,-1,-1,-1,-1],"split_conditions":[9.045226E-2,4.3644298E-2,1.039372E0,1.0717803E0,-2.664311E-2,1.0358524E0,6.521739E-2,2.417962E-2,9.2436905E0,1.15E-2,-1.369863E-2,1.7284596E-1,1.1240429E0,-3.1057006E-2,-2.9273978E-2,1E0,-2.1084165E-2,-2.345169E-2,-3.3314906E-3,1.1287074E-2,-1.5810153E-2,5.8716338E-2,1.1240429E0,-2.2368474E-2,1.9183627E-1,6.3582263E-3,2.217393E-2,1.0676873E0,1.1278736E-1,3.768116E-2,2.9455388E-1,-9.160407E-4,-1.3446662E-2,1.7899899E-2,2.7046664E-2,1.0990666E-2,2.0802999E-2,2.9819265E-2,2.302701E-2,3.2726828E-2,1.5400265E-2],"split_indices":[7,7,2,2,0,2,4,7,6,27,0,7,2,0,0,22,0,0,0,0,0,9,2,0,9,0,0,2,7,4,9,0,0,0,0,0,0,0,0,0,0],"split_type":[0,0,0,0,0,0,0,0,0,0,0,0,0,0,0,0,0,0,0,0,0,0,0,0,0,0,0,0,0,0,0,0,0,0,0,0,0,0,0,0,0],"sum_hessian":[3.9088792E3,1.7925963E3,2.116283E3,1.3480176E3,4.4457874E2,4.1689316E1,2.0745938E3,1.3407874E3,7.2301736E0,3.8562332E1,3.1269848E0,2.062042E3,1.255168E1,6.459276E2,6.9485974E2,3.0936043E0,4.1365695E0,3.734478E1,1.2175536E0,1.2029234E0,1.9240614E0,1.576679E3,4.8536298E2,9.160578E0,3.391102E0,1.2314681E0,1.8621364E0,1.0773807E3,4.9929825E2,2.2874911E2,2.5661386E2,1.0185037E0,2.3725984E0,6.344352E1,1.01393726E3,1.5594115E2,3.433571E2,1.798285E2,4.8920612E1,2.5193874E2,4.675135E0],"tree_param":{"num_deleted":"0","num_feature":"29","num_nodes":"41","size_leaf_vector":"1"}},{"base_weights":[-5.5561084E-3,-5.5362356E-1,4.7510356E-1,-5.765128E-1,-1.22593954E-1,4.9079362E-1,-4.672239E-1,-2.5989158E-2,-5.836694E-1,1.01843916E-1,-3.4644902E-1,1.1319246E-1,5.023112E-1,-2.4898699E-2,-3.051408E-1,-2.9837126E-2,-2.828244E-2,1.8410072E-1,-2.240969E-2,-5.0116487E-2,-4.5823047E-1,2.979536E-1,-3.480057E-1,5.585561E-1,4.3840897E-1,-3.0117359E-3,-1.6710458E-2,3.3792534E-1,-1.1508957E-1,-3.5530418E-1,2.1793748E-1,-2.543219E-2,-1.8301027E-1,3.905904E-1,-3.6567252E-3,-1.6601655E-1,-2.3310248E-2,5.929991E-1,5.0875723E-1,3.9310253E-1,5.72802E-1,-3.4819401E-3,2.3072857E-2,1.7516961E-2,-1.418238E-2,-2.015414E-2,-3.2089835E-3,2.2320753E-2,-1.038096E-2,9.215681E-3,-2.2729166E-2,2.1477269E-2,4.364488E-3,1.716644E-2,-1.2645259E-2,1.0109908E-2,-1.4607056E-2,2.9913396E-2,2.0441828E-2,1.9248815E-2,2.6627028E-2,2.1343973E-2,7.3694023E-3,2.9204944E-2,8.98721E-3],"categories":[],"categories_nodes":[],"categories_segments":[],"categories_sizes":[],"default_left":[0,0,0,0,0,0,0,0,0,0,0,0,0,0,0,0,0,0,0,0,0,0,0,0,0,0,0,0,0,0,0,0,0,0,0,0,0,0,0,0,0,0,0,0,0,0,0,0,0,0,0,0,0,0,0,0,0,0,0,0,0,0,0,0,0],"id":18,"left_children":[1,3,5,7,9,11,13,-1,15,17,19,21,23,-1,25,-1,-1,27,-1,29,31,33,35,37,39,-1,-1,41,43,45,47,-1,49,51,53,55,-1,57,59,61,63,-1,-1,-1,-1,-1,-1,-1,-1,-1,-1,-1,-1,-1,-1,-1,-1,-1,-1,-1,-1,-1,-1,-1,-1],"loss_changes":[1.0342118E3,1.802655E1,3.1153564E1,4.0368652E-1,4.746287E0,8.89267E0,2.1330833E-2,0E0,2.4841309E-2,2.235935E0,1.5395713E0,5.4038734E0,6.931244E0,0E0,3.772229E-2,0E0,0E0,1.9770254E0,0E0,1.2262471E0,3.804407E-1,1.2572892E0,3.1522417E-1,1.5134888E0,5.4942627E0,0E0,0E0,1.4452224E0,1.2797221E0,7.075763E-2,8.798754E-1,0E0,7.6667863E-1,3.6889505E-1,1.0859332E0,4.649564E-1,0E0,3.565979E-1,1.089508E0,5.793915E0,9.3688965E-1,0E0,0E0,0E0,0E0,0E0,0E0,0E0,0E0,0E0,0E0,0E0,0E0,0E0,0E0,0E0,0E0,0E0,0E0,0E0,0E0,0E0,0E0,0E0,0E0],"parents":[2147483647,0,0,1,1,2,2,3,3,4,4,5,5,6,6,8,8,9,9,10,10,11,11,12,12,14,14,17,17,19,19,20,20,21,21,22,22,23,23,24,24,27,27,28,28,29,29,30,30,32,32,33,33,34,34,35,35,37,37,38,38,39,39,40,40],"right_children":[2,4,6,8,10,12,14,-1,16,18,20,22,24,-1,26,-1,-1,28,-1,30,32,34,36,38,40,-1,-1,42,44,46,48,-1,50,52,54,56,-1,58,60,62,64,-1,-1,-1,-1,-1,-1,-1,-1,-1,-1,-1,-1,-1,-1,-1,-1,-1,-1,-1,-1,-1,-1,-1,-1],"split_conditions":[1.0528779E0,1.039372E0,6.521739E-2,-2.3762377E-2,1.2437811E-2,1.0676873E0,1.1240429E0,-2.5989158E-2,1.4309108E-2,8.955684E-2,1.45071475E-2,5.6156684E-2,2.5742574E-2,-2.4898699E-2,3.9092924E-2,-2.9837126E-2,-2.828244E-2,8.1E-3,-2.240969E-2,2.7364925E-2,9.3768E0,7.9E-3,8.6944126E-2,3.6243558E-2,1.1240429E0,-3.0117359E-3,-1.6710458E-2,6.5E-3,-6.04E-2,5.323E0,4.3521266E-2,-2.543219E-2,3.3333335E-2,3.0555556E-2,-6.6159444E-4,0E0,-2.3310248E-2,2.1929825E-2,1.0764431E0,1.3103054E-1,2.9455388E-1,-3.4819401E-3,2.3072857E-2,1.7516961E-2,-1.418238E-2,-2.015414E-2,-3.2089835E-3,2.2320753E-2,-1.038096E-2,9.215681E-3,-2.2729166E-2,2.1477269E-2,4.364488E-3,1.716644E-2,-1.2645259E-2,1.0109908E-2,-1.4607056E-2,2.9913396E-2,2.0441828E-2,1.9248815E-2,2.6627028E-2,2.1343973E-2,7.3694023E-3,2.9204944E-2,8.98721E-3],"split_indices":[2,2,4,0,0,2,2,0,3,9,9,9,4,0,3,0,0,27,0,3,5,27,9,9,2,0,0,27,26,5,4,0,4,0,0,0,0,0,2,9,9,0,0,0,0,0,0,0,0,0,0,0,0,0,0,0,0,0,0,0,0,0,0,0,0],"split_type":[0,0,0,0,0,0,0,0,0,0,0,0,0,0,0,0,0,0,0,0,0,0,0,0,0,0,0,0,0,0,0,0,0,0,0,0,0,0,0,0,0,0,0,0,0,0,0,0,0,0,0,0,0,0,0,0,0,0,0,0,0,0,0,0,0],"sum_hessian":[3.9238887E3,1.8333162E3,2.0905725E3,1.7405492E3,9.276706E1,2.0568052E3,3.3767326E1,2.03227E2,1.5373221E3,4.6595398E1,4.6171665E1,6.1200325E1,1.9956049E3,2.6640759E1,7.1265674E0,8.7235693E2,6.649652E2,4.111243E1,5.482969E0,1.3043006E1,3.312866E1,4.394816E1,1.7252167E1,1.0572789E3,9.38326E2,1.0820745E0,6.0444927E0,2.7066889E1,1.4045541E1,5.946845E0,7.096161E0,2.7282976E1,5.845682E0,3.3395905E1,1.0552256E1,7.7398343E0,9.512332E0,6.185532E2,4.387257E2,7.0468756E2,2.3363844E2,6.3971767E0,2.0669712E1,3.4475596E0,1.0597981E1,4.778103E0,1.1687422E0,4.585326E0,2.5108347E0,2.6213763E0,3.2243059E0,2.9225977E1,4.1699286E0,4.2534523E0,6.298803E0,1.8208336E0,5.9190006E0,5.991628E2,1.9390417E1,7.3480515E1,3.6524518E2,6.1887695E2,8.581061E1,2.2663858E2,6.9998517E0],"tree_param":{"num_deleted":"0","num_feature":"29","num_nodes":"65","size_leaf_vector":"1"}},{"base_weights":[-2.584673E-3,-1.9112144E-1,1.4493853E-1,-2.6249546E-1,3.0500245E-1,1.6874762E-1,-2.577751E-2,-2.9300314E-1,4.9090254E-1,8.695753E-2,4.066121E-1,1.3012949E-1,5.664075E-1,-3.429643E-1,-3.8172796E-2,2.2342053E-1,5.466515E-1,-2.7848038E-1,1.8061051E-1,4.7190276E-1,1.8281873E-1,7.6470986E-2,3.3416593E-1,5.8728963E-1,2.9355222E-1,-3.6375535E-1,3.5140105E-2,2.7907504E-2,-3.6063683E-1,3.972856E-1,-1.7920522E-1,2.9585877E-1,6.062586E-1,-3.5400352E-1,1.5302454E-2,2.1530242E-1,-1.883318E-2,4.8015612E-1,3.912781E-2,6.680425E-2,3.9714184E-1,1.5150076E-1,-2.4050327E-1,4.1058394E-1,1.9370991E-1,3.0335918E-2,4.257662E-1,2.4662875E-2,7.521268E-2,-1.5632281E-2,-2.332926E-2,-2.3725925E-2,5.380069E-3,-6.4316415E-3,4.5544426E-3,-2.1414876E-2,-7.3567904E-3,8.711936E-3,2.400651E-2,6.5064947E-3,-2.1464797E-2,2.1626122E-2,-2.6469288E-4,3.0984748E-2,1.0086556E-2,-2.0307718E-2,6.692645E-3,1.4887345E-2,-8.3321E-4,1.5171188E-2,2.54978E-2,1.5216159E-2,-1.3055059E-2,8.4798485E-3,-6.1874925E-3,2.2390774E-2,3.3782169E-3,-1.6274614E-2,9.385831E-3,-2.1405516E-2,1.2577156E-3,2.1263294E-2,9.314421E-3,1.1144705E-2,1.1571134E-3,2.6301995E-2,-6.659869E-3,2.0698948E-2,-1.0773442E-2],"categories":[],"categories_nodes":[],"categories_segments":[],"categories_sizes":[],"default_left":[0,0,0,0,0,0,0,0,0,0,0,0,0,0,0,0,0,0,0,0,0,0,0,0,0,0,0,0,0,0,0,0,0,0,0,0,0,0,0,0,0,0,0,0,0,0,0,0,0,0,0,0,0,0,0,0,0,0,0,0,0,0,0,0,0,0,0,0,0,0,0,0,0,0,0,0,0,0,0,0,0,0,0,0,0,0,0,0,0],"id":19,"left_children":[1,3,5,7,9,11,-1,13,15,17,19,21,23,25,27,29,31,33,35,37,39,41,43,45,47,49,51,53,55,57,59,61,63,65,-1,67,-1,69,71,73,75,77,79,81,83,-1,85,-1,87,-1,-1,-1,-1,-1,-1,-1,-1,-1,-1,-1,-1,-1,-1,-1,-1,-1,-1,-1,-1,-1,-1,-1,-1,-1,-1,-1,-1,-1,-1,-1,-1,-1,-1,-1,-1,-1,-1,-1,-1],"loss_changes":[1.09604126E2,6.133526E1,3.4853428E1,3.491559E1,4.795141E0,3.270776E1,0E0,1.850618E1,7.6138973E-1,2.4657516E0,2.0828247E0,2.129065E1,9.025192E-1,9.57222E0,5.1147385E0,9.049437E-1,5.432615E-1,7.61294E-1,1.1789391E0,3.8944054E-1,8.477185E-1,3.672985E1,4.268711E0,2.884903E-1,6.3487756E-1,5.912445E0,2.4254422E0,1.9872909E0,5.2656794E-1,7.579255E-2,3.8706434E-1,4.647236E-1,8.2095146E-2,3.9941573E-1,0E0,1.0394857E0,0E0,4.3545341E-1,3.3643302E-1,4.913699E-1,1.7259419E-1,2.1623068E1,1.4747904E1,7.818413E-1,7.148409E-1,0E0,1.3065901E0,0E0,9.3035364E-1,0E0,0E0,0E0,0E0,0E0,0E0,0E0,0E0,0E0,0E0,0E0,0E0,0E0,0E0,0E0,0E0,0E0,0E0,0E0,0E0,0E0,0E0,0E0,0E0,0E0,0E0,0E0,0E0,0E0,0E0,0E0,0E0,0E0,0E0,0E0,0E0,0E0,0E0,0E0,0E0],"parents":[2147483647,0,0,1,1,2,2,3,3,4,4,5,5,7,7,8,8,9,9,10,10,11,11,12,12,13,13,14,14,15,15,16,16,17,17,18,18,19,19,20,20,21,21,22,22,23,23,24,24,25,25,26,26,27,27,28,28,29,29,30,30,31,31,32,32,33,33,35,35,37,37,38,38,39,39,40,40,41,41,42,42,43,43,44,44,46,46,48,48],"right_children":[2,4,6,8,10,12,-1,14,16,18,20,22,24,26,28,30,32,34,36,38,40,42,44,46,48,50,52,54,56,58,60,62,64,66,-1,68,-1,70,72,74,76,78,80,82,84,-1,86,-1,88,-1,-1,-1,-1,-1,-1,-1,-1,-1,-1,-1,-1,-1,-1,-1,-1,-1,-1,-1,-1,-1,-1,-1,-1,-1,-1,-1,-1,-1,-1,-1,-1,-1,-1,-1,-1,-1,-1,-1,-1],"split_conditions":[3.8510913E-3,6.9158E0,6.521739E-2,1E1,-1.5151516E-2,1E1,-2.577751E-2,4.6422377E-2,-5.05E-2,9.3768E0,1.5673982E-2,6.1304E0,4.964787E-2,1.4344394E-1,1.993E-1,-5.29E-2,-3.0674847E-2,9.5507674E-2,3.429603E-2,2.2200862E-1,7.6628354E-4,1.993E-1,5.740266E-2,5.691057E-2,-3.1E-2,1.993E-1,1E1,-1.5151516E-2,5.323E0,8.9E-3,-1.3422819E-2,-1.18E-2,5.691057E-2,6.839687E-2,1.5302454E-2,8.7E-3,-1.883318E-2,8.3548E0,6.4E-3,7.42404E-2,3.5902504E-2,9.991635E0,3.2869E0,5.5205047E-2,3.8398247E-2,3.0335918E-2,1.5043075E-1,2.4662875E-2,1.3706097E-1,-1.5632281E-2,-2.332926E-2,-2.3725925E-2,5.380069E-3,-6.4316415E-3,4.5544426E-3,-2.1414876E-2,-7.3567904E-3,8.711936E-3,2.400651E-2,6.5064947E-3,-2.1464797E-2,2.1626122E-2,-2.6469288E-4,3.0984748E-2,1.0086556E-2,-2.0307718E-2,6.692645E-3,1.4887345E-2,-8.3321E-4,1.5171188E-2,2.54978E-2,1.5216159E-2,-1.3055059E-2,8.4798485E-3,-6.1874925E-3,2.2390774E-2,3.3782169E-3,-1.6274614E-2,9.385831E-3,-2.1405516E-2,1.2577156E-3,2.1263294E-2,9.314421E-3,1.1144705E-2,1.1571134E-3,2.6301995E-2,-6.659869E-3,2.0698948E-2,-1.0773442E-2],"split_indices":[0,5,4,20,0,20,0,9,26,5,4,5,3,17,5,26,0,17,4,17,0,5,9,4,26,5,18,0,5,27,0,26,4,3,0,27,0,5,27,9,4,6,5,4,3,0,9,0,9,0,0,0,0,0,0,0,0,0,0,0,0,0,0,0,0,0,0,0,0,0,0,0,0,0,0,0,0,0,0,0,0,0,0,0,0,0,0,0,0],"split_type":[0,0,0,0,0,0,0,0,0,0,0,0,0,0,0,0,0,0,0,0,0,0,0,0,0,0,0,0,0,0,0,0,0,0,0,0,0,0,0,0,0,0,0,0,0,0,0,0,0,0,0,0,0,0,0,0,0,0,0,0,0,0,0,0,0,0,0,0,0,0,0,0,0,0,0,0,0,0,0,0,0,0,0,0,0,0,0,0,0],"sum_hessian":[3.9386785E3,1.7288666E3,2.209812E3,1.5118394E3,2.1702731E2,2.1336436E3,7.616843E1,1.4535895E3,5.824977E1,6.9577095E1,1.4745021E2,1.945989E3,1.8765454E2,1.2150293E3,2.385602E2,1.0910251E1,4.733952E1,1.3790895E1,5.5786198E1,1.13289795E2,3.416042E1,1.5418741E3,4.0411478E2,1.7324348E2,1.4411056E1,1.1517361E3,6.329328E1,1.9874603E2,3.9814175E1,7.6290684E0,3.281182E0,1.0235954E1,3.7103565E1,1.2562197E1,1.2286988E0,5.309456E1,2.691638E0,1.1106226E2,2.2275312E0,2.301432E1,1.11461E1,1.2471808E3,2.946934E2,2.6047485E2,1.4363992E2,1.5218216E2,2.1061316E1,6.8690853E0,7.5419703E0,7.720451E2,3.7969095E2,7.1879606E0,5.6105324E1,5.6851875E1,1.4189415E2,2.946906E1,1.0345116E1,2.9066203E0,4.7224483E0,1.6812844E0,1.5998976E0,6.740761E0,3.495194E0,3.539599E1,1.7075757E0,1.150031E1,1.0618867E0,3.8962955E1,1.4131602E1,1.7638224E1,9.342404E1,1.1755337E0,1.0519977E0,1.5021231E1,7.9930897E0,9.349783E0,1.7963169E0,8.744676E1,1.159734E3,1.7236084E2,1.2233254E2,2.4363121E2,1.6843641E1,1.2239186E2,2.124807E1,1.7907713E1,3.1536033E0,3.28703E0,4.25494E0],"tree_param":{"num_deleted":"0","num_feature":"29","num_nodes":"89","size_leaf_vector":"1"}},{"base_weights":[-1.16944044E-4,-5.601731E-1,4.675156E-1,-5.766518E-1,-5.0225574E-1,4.7614256E-1,-4.2582786E-1,-5.786812E-1,6.541109E-2,-2.5773032E-2,-4.4435993E-1,4.2469594E-1,5.5530953E-1,-2.1947294E-2,-6.330269E-3,-5.791852E-1,-5.0762496E-3,1.7197905E-2,-1.5115193E-2,-4.5352605E-1,-8.280784E-2,4.4836172E-1,3.0711945E-2,5.8990365E-1,5.0899285E-1,-2.9870778E-2,-2.7945027E-2,-2.288028E-2,-8.849525E-3,-1.0834365E-2,5.49934E-3,4.717736E-1,2.975073E-1,-1.2908117E-1,1.9526319E-1,6.0153836E-1,4.8126897E-1,4.3957582E-1,5.5427253E-1,2.575147E-2,1.981489E-2,9.902412E-4,1.7097963E-2,-1.0574869E-2,1.623507E-2,1.5813999E-2,6.1474385E-4,5.1578037E-3,3.0151634E-2,2.936524E-2,1.6544191E-2,1.7826881E-2,2.5308637E-2,2.8380467E-2,1.6091594E-2],"categories":[],"categories_nodes":[],"categories_segments":[],"categories_sizes":[],"default_left":[0,0,0,0,0,0,0,0,0,0,0,0,0,0,0,0,0,0,0,0,0,0,0,0,0,0,0,0,0,0,0,0,0,0,0,0,0,0,0,0,0,0,0,0,0,0,0,0,0,0,0,0,0,0,0],"id":20,"left_children":[1,3,5,7,9,11,13,15,17,-1,19,21,23,-1,-1,25,-1,-1,-1,27,29,31,33,35,37,-1,-1,-1,-1,-1,-1,39,41,43,45,47,49,51,53,-1,-1,-1,-1,-1,-1,-1,-1,-1,-1,-1,-1,-1,-1,-1,-1],"loss_changes":[1.0320125E3,1.4216309E0,1.6752655E1,1.8478088E0,8.050537E-2,8.428589E0,2.7119875E-2,2.743225E-1,6.442925E-1,0E0,2.3568726E-1,1.2048431E1,1.0371704E0,0E0,0E0,1.7758179E-1,0E0,0E0,0E0,9.471893E-3,1.0802819E-1,4.1694794E0,1.9809325E0,3.0644226E-1,9.009857E-1,0E0,0E0,0E0,0E0,0E0,0E0,3.2390747E0,2.0504093E0,1.50244E0,8.162998E-1,2.519989E-1,6.127949E-1,6.4128494E-1,4.8869324E-1,0E0,0E0,0E0,0E0,0E0,0E0,0E0,0E0,0E0,0E0,0E0,0E0,0E0,0E0,0E0,0E0],"parents":[2147483647,0,0,1,1,2,2,3,3,4,4,5,5,6,6,7,7,8,8,10,10,11,11,12,12,15,15,19,19,20,20,21,21,22,22,23,23,24,24,31,31,32,32,33,33,34,34,35,35,36,36,37,37,38,38],"right_children":[2,4,6,8,10,12,14,16,18,-1,20,22,24,-1,-1,26,-1,-1,-1,28,30,32,34,36,38,-1,-1,-1,-1,-1,-1,40,42,44,46,48,50,52,54,-1,-1,-1,-1,-1,-1,-1,-1,-1,-1,-1,-1,-1,-1,-1,-1],"split_conditions":[9.045226E-2,4.5544554E-2,6.521739E-2,2.4797001E-1,7.1525425E-2,1.4746478E-1,2.7352924E-2,1E1,2.7093781E-2,-2.5773032E-2,2.4700898E-1,1.4335325E-1,5.3156145E-2,-2.1947294E-2,-6.330269E-3,2.5606468E-2,-5.0762496E-3,1.7197905E-2,-1.5115193E-2,1.15E-2,8.3084576E-2,3.186559E-2,1.17810115E-1,1.1213853E-1,1.7284596E-1,-2.9870778E-2,-2.7945027E-2,-2.288028E-2,-8.849525E-3,-1.0834365E-2,5.49934E-3,2.8033473E-2,9.738418E-2,3E-2,1.7272727E-1,3.3087214E-3,2.9490616E-2,8E-3,6.0606062E-2,2.575147E-2,1.981489E-2,9.902412E-4,1.7097963E-2,-1.0574869E-2,1.623507E-2,1.5813999E-2,6.1474385E-4,5.1578037E-3,3.0151634E-2,2.936524E-2,1.6544191E-2,1.7826881E-2,2.5308637E-2,2.8380467E-2,1.6091594E-2],"split_indices":[7,7,4,1,7,7,17,20,3,0,17,9,1,0,0,7,0,0,0,27,7,3,7,9,7,0,0,0,0,0,0,4,7,26,1,3,4,27,4,0,0,0,0,0,0,0,0,0,0,0,0,0,0,0,0],"split_type":[0,0,0,0,0,0,0,0,0,0,0,0,0,0,0,0,0,0,0,0,0,0,0,0,0,0,0,0,0,0,0,0,0,0,0,0,0,0,0,0,0,0,0,0,0,0,0,0,0,0,0,0,0,0,0],"sum_hessian":[3.938475E3,1.7920471E3,2.146428E3,1.3881362E3,4.0391092E2,2.1263608E3,2.006711E1,1.3838611E3,4.275158E0,3.2246097E2,8.144994E1,1.2926791E3,8.336818E2,1.8776966E1,1.290144E0,1.3821871E3,1.673903E0,2.4692717E0,1.8058861E0,7.918797E1,2.261968E0,1.2193003E3,7.337879E1,4.7051584E2,3.6316595E2,7.129701E2,6.6921704E2,7.739149E1,1.7964863E0,1.261816E0,1.0001518E0,1.0536514E3,1.6564886E2,3.733699E1,3.6041805E1,4.209004E2,4.961545E1,1.4759698E2,2.1556897E2,6.6608746E2,3.8756393E2,2.3056242E1,1.4259262E2,3.204998E1,5.287009E0,2.1254978E1,1.4786825E1,1.4675696E0,4.1943283E2,2.739444E1,2.2221012E1,6.851758E1,7.9079414E1,2.025077E2,1.3061271E1],"tree_param":{"num_deleted":"0","num_feature":"29","num_nodes":"55","size_leaf_vector":"1"}},{"base_weights":[1.3714916E-3,-5.5166054E-1,4.5728603E-1,-5.7037354E-1,-4.9772787E-1,-4.0304166E-1,4.7507966E-1,-5.7316196E-1,-3.3304714E-2,-2.5634428E-2,-4.471492E-1,-4.1650122E-1,3.6144317E-3,4.8011056E-1,-3.56096E-1,-2.9610021E-2,-2.770392E-2,1.8733514E-2,-1.8486662E-2,-4.5405713E-1,-1.3843937E-1,-4.2674172E-1,-4.3805517E-4,4.4690168E-1,5.8520675E-1,-2.0203445E-2,-1.6629069E-1,-2.2910444E-2,-1.9127668E-1,5.2395146E-3,-1.283924E-2,-1.6473655E-1,-2.2418851E-2,4.9924722E-1,3.610268E-1,5.958879E-1,4.794534E-1,-1.1063247E-2,2.7780936E-4,-5.3912075E-4,-1.4577255E-2,5.5105616E-3,-1.3325048E-2,2.5950987E-2,1.7387507E-2,1.5355858E-2,2.4363926E-2,3.040503E-2,2.5308013E-2,1.2092388E-2,2.6948234E-2],"categories":[],"categories_nodes":[],"categories_segments":[],"categories_sizes":[],"default_left":[0,0,0,0,0,0,0,0,0,0,0,0,0,0,0,0,0,0,0,0,0,0,0,0,0,0,0,0,0,0,0,0,0,0,0,0,0,0,0,0,0,0,0,0,0,0,0,0,0,0,0],"id":21,"left_children":[1,3,5,7,9,11,13,15,17,-1,19,21,-1,23,25,-1,-1,-1,-1,27,29,31,-1,33,35,-1,37,-1,39,-1,-1,41,-1,43,45,47,49,-1,-1,-1,-1,-1,-1,-1,-1,-1,-1,-1,-1,-1,-1],"loss_changes":[9.9587384E2,1.517395E0,3.333368E1,1.954956E0,1.2458038E-1,3.1423473E-1,9.042419E0,1.4831543E-1,1.2187418E0,0E0,1.8144989E-1,1.77207E-1,0E0,7.099945E0,5.4258704E-2,0E0,0E0,0E0,0E0,3.412819E-2,1.4049624E-1,1.6564846E-1,0E0,7.0434875E0,2.827301E-1,0E0,4.2706236E-2,0E0,5.9341207E-2,0E0,0E0,1.6377896E-1,0E0,2.802414E0,4.0170975E0,1.885376E-1,5.9477997E-1,0E0,0E0,0E0,0E0,0E0,0E0,0E0,0E0,0E0,0E0,0E0,0E0,0E0,0E0],"parents":[2147483647,0,0,1,1,2,2,3,3,4,4,5,5,6,6,7,7,8,8,10,10,11,11,13,13,14,14,19,19,20,20,21,21,23,23,24,24,26,26,28,28,31,31,33,33,34,34,35,35,36,36],"right_children":[2,4,6,8,10,12,14,16,18,-1,20,22,-1,24,26,-1,-1,-1,-1,28,30,32,-1,34,36,-1,38,-1,40,-1,-1,42,-1,44,46,48,50,-1,-1,-1,-1,-1,-1,-1,-1,-1,-1,-1,-1,-1,-1],"split_conditions":[9.045226E-2,4.2735044E-2,1.039372E0,1.0717803E0,6.688963E-2,2.4700898E-1,6.521739E-2,2.417962E-2,9.19974E0,-2.5634428E-2,2.4700898E-1,1.15E-2,3.6144317E-3,1.7284596E-1,1.1240429E0,-2.9610021E-2,-2.770392E-2,1.8733514E-2,-1.8486662E-2,1.15E-2,-1.6E-2,-1.30293155E-2,-4.3805517E-4,2.910053E-2,5.3606883E-2,-2.0203445E-2,1.4746478E-1,-2.2910444E-2,5.6E-3,5.2395146E-3,-1.283924E-2,2.9391212E-2,-2.2418851E-2,3.399352E-2,1.1065078E0,4.4299357E-2,3.15534E-2,-1.1063247E-2,2.7780936E-4,-5.3912075E-4,-1.4577255E-2,5.5105616E-3,-1.3325048E-2,2.5950987E-2,1.7387507E-2,1.5355858E-2,2.4363926E-2,3.040503E-2,2.5308013E-2,1.2092388E-2,2.6948234E-2],"split_indices":[7,7,2,2,7,17,4,7,6,0,17,27,0,7,2,0,0,0,0,27,26,4,0,4,4,0,7,0,26,0,0,3,0,3,2,3,0,0,0,0,0,0,0,0,0,0,0,0,0,0,0],"split_type":[0,0,0,0,0,0,0,0,0,0,0,0,0,0,0,0,0,0,0,0,0,0,0,0,0,0,0,0,0,0,0,0,0,0,0,0,0,0,0,0,0,0,0,0,0,0,0,0,0,0,0],"sum_hessian":[3.947759E3,1.7837863E3,2.163973E3,1.317186E3,4.6660016E2,4.3410492E1,2.1205623E3,1.3103159E3,6.8701563E0,3.5303806E2,1.135621E2,4.2335476E1,1.0750158E0,2.108224E3,1.2338235E1,6.408984E2,6.694175E2,3.053552E0,3.8166046E0,1.1061604E2,2.9460561E0,4.12528E1,1.082678E0,1.6060024E3,5.0222162E2,8.947829E0,3.3904052E0,1.08163445E2,2.4526021E0,1.0017487E0,1.9443073E0,3.8037179E0,3.744908E1,9.948016E2,6.1120087E2,4.5194043E2,5.0281204E1,2.350806E0,1.0395991E0,1.2714274E0,1.1811749E0,1.0051074E0,2.7986104E0,8.77809E2,1.1699257E2,4.3071686E2,1.8048401E2,3.9271204E2,5.92284E1,1.108539E1,3.9195812E1],"tree_param":{"num_deleted":"0","num_feature":"29","num_nodes":"51","size_leaf_vector":"1"}},{"base_weights":[1.7715768E-3,-5.4286206E-1,4.509274E-1,-5.6199545E-1,-4.8781335E-1,-3.9232853E-1,4.6840227E-1,-5.646347E-1,9.347496E-2,-2.5163306E-2,-4.3613055E-1,-4.0639687E-1,1.5144994E-3,4.7340468E-1,-3.4835958E-1,-2.9187499E-2,-2.7279595E-2,1.8425401E-2,-1.3891617E-2,-4.4298705E-1,-1.3486342E-1,-4.1674674E-1,-3.2590888E-4,5.4258835E-1,4.304765E-1,-3.9422396E-1,-1.6979654E-1,-2.2370135E-2,-1.7569736E-1,6.0139233E-3,-1.3087002E-2,-1.4151716E-1,-2.1846531E-2,5.497772E-1,2.739432E-1,2.3468882E-1,4.6678132E-1,-5.526424E-3,-2.069719E-2,1.2739623E-3,-1.2080038E-2,1.5846909E-3,-1.571237E-2,5.3488794E-3,-1.2645197E-2,2.0404594E-2,2.8132766E-2,-8.074472E-4,2.0473314E-2,1.6455637E-2,8.6694176E-4,2.1463787E-2,2.7844522E-2],"categories":[],"categories_nodes":[],"categories_segments":[],"categories_sizes":[],"default_left":[0,0,0,0,0,0,0,0,0,0,0,0,0,0,0,0,0,0,0,0,0,0,0,0,0,0,0,0,0,0,0,0,0,0,0,0,0,0,0,0,0,0,0,0,0,0,0,0,0,0,0,0,0],"id":22,"left_children":[1,3,5,7,9,11,13,15,17,-1,19,21,-1,23,25,-1,-1,-1,-1,27,29,31,-1,33,35,37,39,-1,41,-1,-1,43,-1,45,47,49,51,-1,-1,-1,-1,-1,-1,-1,-1,-1,-1,-1,-1,-1,-1,-1,-1],"loss_changes":[9.6320154E2,1.6002808E0,3.1981659E1,2.3258667E0,1.5312958E-1,2.760172E-1,8.804321E0,1.579895E-1,7.28133E-1,0E0,1.7757607E-1,1.7522526E-1,0E0,6.00943E0,4.3196797E-2,0E0,0E0,0E0,0E0,5.3455353E-2,1.6078168E-1,1.7089558E-1,0E0,1.3964233E0,9.145248E0,9.873629E-3,6.932089E-2,0E0,1.0952631E-1,0E0,0E0,1.4722112E-1,0E0,1.1921082E0,9.0574384E-1,4.2154236E0,3.4694824E0,0E0,0E0,0E0,0E0,0E0,0E0,0E0,0E0,0E0,0E0,0E0,0E0,0E0,0E0,0E0,0E0],"parents":[2147483647,0,0,1,1,2,2,3,3,4,4,5,5,6,6,7,7,8,8,10,10,11,11,13,13,14,14,19,19,20,20,21,21,23,23,24,24,25,25,26,26,28,28,31,31,33,33,34,34,35,35,36,36],"right_children":[2,4,6,8,10,12,14,16,18,-1,20,22,-1,24,26,-1,-1,-1,-1,28,30,32,-1,34,36,38,40,-1,42,-1,-1,44,-1,46,48,50,52,-1,-1,-1,-1,-1,-1,-1,-1,-1,-1,-1,-1,-1,-1,-1,-1],"split_conditions":[9.045226E-2,4.2735044E-2,1.039372E0,1.0960563E0,6.688963E-2,1.9971904E-1,6.521739E-2,2.417962E-2,9.034379E0,-2.5163306E-2,2.4700898E-1,1.15E-2,1.5144994E-3,1.7110266E-2,1.1240429E0,-2.9187499E-2,-2.7279595E-2,1.8425401E-2,-1.3891617E-2,1.15E-2,-1.6E-2,-1.598579E-2,-3.2590888E-4,1.15E-2,1.0764431E0,5.0799288E-2,1.8979591E-1,-2.2370135E-2,5.6E-3,6.0139233E-3,-1.3087002E-2,3.2666165E-2,-2.1846531E-2,1.0676873E0,1.17810115E-1,2.8368793E-2,1.7284596E-1,-5.526424E-3,-2.069719E-2,1.2739623E-3,-1.2080038E-2,1.5846909E-3,-1.571237E-2,5.3488794E-3,-1.2645197E-2,2.0404594E-2,2.8132766E-2,-8.074472E-4,2.0473314E-2,1.6455637E-2,8.6694176E-4,2.1463787E-2,2.7844522E-2],"split_indices":[7,7,2,2,7,17,4,7,6,0,17,27,0,1,2,0,0,0,0,27,26,4,0,27,2,1,1,0,26,0,0,3,0,2,7,4,7,0,0,0,0,0,0,0,0,0,0,0,0,0,0,0,0],"split_type":[0,0,0,0,0,0,0,0,0,0,0,0,0,0,0,0,0,0,0,0,0,0,0,0,0,0,0,0,0,0,0,0,0,0,0,0,0,0,0,0,0,0,0,0,0,0,0,0,0,0,0,0,0],"sum_hessian":[3.935455E3,1.7785848E3,2.15687E3,1.3130093E3,4.6557553E2,4.3354042E1,2.113516E3,1.3078818E3,5.127485E0,3.516865E2,1.13889046E2,4.1994495E1,1.3595482E0,2.101068E3,1.2447989E1,6.3789874E2,6.699831E2,2.9499502E0,2.1775348E0,1.108948E2,2.9942496E0,4.0893875E1,1.1006198E0,8.000525E2,1.3010157E3,8.943158E0,3.5048316E0,1.0842969E2,2.4651084E0,1.0117269E0,1.9825227E0,3.3414125E0,3.7552464E1,7.7818207E2,2.1870407E1,2.0467767E2,1.096338E3,1.0105141E0,7.9326434E0,1.1157206E0,2.3891108E0,1.2961655E0,1.1689429E0,1.046451E0,2.2949617E0,6.756115E1,7.106209E2,7.244382E0,1.4626025E1,1.4233047E2,6.23472E1,7.7819763E2,3.181404E2],"tree_param":{"num_deleted":"0","num_feature":"29","num_nodes":"53","size_leaf_vector":"1"}},{"base_weights":[-1.3186382E-3,-5.35897E-1,4.3312886E-1,-5.591966E-1,-4.9172467E-1,-3.993967E-1,4.4996798E-1,-2.8096363E-2,-5.3871213E-3,-2.522297E-2,-4.3118098E-1,-4.0954474E-1,-1.5550852E-3,4.9925113E-1,3.616708E-1,1.7272776E-2,-1.6624432E-2,-4.376135E-1,-1.5094548E-1,-1.5951964E-1,-2.1422189E-2,4.65695E-1,5.690096E-1,2.2518149E-1,4.7260085E-1,-2.2076687E-2,-1.9144166E-1,-1.3167724E-2,4.5008785E-3,4.8882132E-3,-1.2924834E-2,5.1532984E-1,4.0072295E-1,-1.6012557E-3,5.710722E-1,2.8927746E-1,-1.6850587E-2,3.2596076E-1,5.2558017E-1,4.3430566E-4,-1.5772793E-2,2.6773123E-2,1.7712606E-2,1.3538142E-2,2.167563E-2,2.9126832E-2,2.20994E-2,1.6367605E-3,1.7364822E-2,-9.195911E-3,6.4709815E-3,1.7472906E-2,-4.3408745E-3,2.7714679E-2,1.7345265E-2],"categories":[],"categories_nodes":[],"categories_segments":[],"categories_sizes":[],"default_left":[0,0,0,0,0,0,0,0,0,0,0,0,0,0,0,0,0,0,0,0,0,0,0,0,0,0,0,0,0,0,0,0,0,0,0,0,0,0,0,0,0,0,0,0,0,0,0,0,0,0,0,0,0,0,0],"id":23,"left_children":[1,3,5,7,9,11,13,-1,15,-1,17,19,-1,21,23,-1,-1,25,27,29,-1,31,33,35,37,-1,39,-1,-1,-1,-1,41,43,-1,45,47,49,51,53,-1,-1,-1,-1,-1,-1,-1,-1,-1,-1,-1,-1,-1,-1,-1,-1],"loss_changes":[9.202288E2,1.5533447E0,3.0823334E1,1.74469E0,2.6185608E-1,1.5121078E-1,9.144836E0,0E0,8.814872E-1,0E0,1.4112282E-1,1.3298368E-1,0E0,2.9482727E0,1.157135E1,0E0,0E0,2.3389816E-2,1.3490966E-1,1.4209247E-1,0E0,2.800293E0,5.654144E-1,5.3990364E0,3.1271057E0,0E0,9.0061545E-2,0E0,0E0,0E0,0E0,1.5131073E0,1.6225128E0,0E0,3.9352417E-1,4.081295E0,1.8259766E0,1.1487894E0,1.3994293E0,0E0,0E0,0E0,0E0,0E0,0E0,0E0,0E0,0E0,0E0,0E0,0E0,0E0,0E0,0E0,0E0],"parents":[2147483647,0,0,1,1,2,2,3,3,4,4,5,5,6,6,8,8,10,10,11,11,13,13,14,14,17,17,18,18,19,19,21,21,22,22,23,23,24,24,26,26,31,31,32,32,34,34,35,35,36,36,37,37,38,38],"right_children":[2,4,6,8,10,12,14,-1,16,-1,18,20,-1,22,24,-1,-1,26,28,30,-1,32,34,36,38,-1,40,-1,-1,-1,-1,42,44,-1,46,48,50,52,54,-1,-1,-1,-1,-1,-1,-1,-1,-1,-1,-1,-1,-1,-1,-1,-1],"split_conditions":[9.045226E-2,3.7037037E-2,1.039372E0,1.0717803E0,6.688963E-2,1.15E-2,4.5454547E-2,-2.8096363E-2,9.19974E0,-2.522297E-2,2.4700898E-1,-1.598579E-2,-1.5550852E-3,1.4746478E-1,1.4746478E-1,1.7272776E-2,-1.6624432E-2,1.15E-2,8.3084576E-2,2.8771363E-2,-2.1422189E-2,2.2222223E-2,1.0421069E0,1.3103054E-1,1.1065078E0,-2.2076687E-2,1.16E-2,-1.3167724E-2,4.5008785E-3,4.8882132E-3,-1.2924834E-2,5.8716338E-2,9.9951945E-2,-1.6012557E-3,1.2083002E-1,1.0764431E0,1.1065078E0,1.7272727E-1,5.35005E-2,4.3430566E-4,-1.5772793E-2,2.6773123E-2,1.7712606E-2,1.3538142E-2,2.167563E-2,2.9126832E-2,2.20994E-2,1.6367605E-3,1.7364822E-2,-9.195911E-3,6.4709815E-3,1.7472906E-2,-4.3408745E-3,2.7714679E-2,1.7345265E-2],"split_indices":[7,7,2,2,7,27,1,0,6,0,17,4,0,7,7,0,0,27,7,3,0,4,2,9,2,0,27,0,0,0,0,9,7,0,9,2,2,1,3,0,0,0,0,0,0,0,0,0,