{"learner":{"attributes":{"scikit_learn":"{\"_estimator_type\": \"ranker\"}"},"feature_names":[],"feature_types":[],"gradient_booster":{"model":{"cats":{"enc":[],"feature_segments":[],"sorted_idx":[]},"gbtree_model_param":{"num_parallel_tree":"1","num_trees":"200"},"iteration_indptr":[0,1,2,3,4,5,6,7,8,9,10,11,12,13,14,15,16,17,18,19,20,21,22,23,24,25,26,27,28,29,30,31,32,33,34,35,36,37,38,39,40,41,42,43,44,45,46,47,48,49,50,51,52,53,54,55,56,57,58,59,60,61,62,63,64,65,66,67,68,69,70,71,72,73,74,75,76,77,78,79,80,81,82,83,84,85,86,87,88,89,90,91,92,93,94,95,96,97,98,99,100,101,102,103,104,105,106,107,108,109,110,111,112,113,114,115,116,117,118,119,120,121,122,123,124,125,126,127,128,129,130,131,132,133,134,135,136,137,138,139,140,141,142,143,144,145,146,147,148,149,150,151,152,153,154,155,156,157,158,159,160,161,162,163,164,165,166,167,168,169,170,171,172,173,174,175,176,177,178,179,180,181,182,183,184,185,186,187,188,189,190,191,192,193,194,195,196,197,198,199,200],"tree_info":[0,0,0,0,0,0,0,0,0,0,0,0,0,0,0,0,0,0,0,0,0,0,0,0,0,0,0,0,0,0,0,0,0,0,0,0,0,0,0,0,0,0,0,0,0,0,0,0,0,0,0,0,0,0,0,0,0,0,0,0,0,0,0,0,0,0,0,0,0,0,0,0,0,0,0,0,0,0,0,0,0,0,0,0,0,0,0,0,0,0,0,0,0,0,0,0,0,0,0,0,0,0,0,0,0,0,0,0,0,0,0,0,0,0,0,0,0,0,0,0,0,0,0,0,0,0,0,0,0,0,0,0,0,0,0,0,0,0,0,0,0,0,0,0,0,0,0,0,0,0,0,0,0,0,0,0,0,0,0,0,0,0,0,0,0,0,0,0,0,0,0,0,0,0,0,0,0,0,0,0,0,0,0,0,0,0,0,0,0,0,0,0,0,0,0,0,0,0,0,0],"trees":[{"base_weights":[2.4727506E-3,-5.618924E-2,4.3867823E-2,-5.945001E-2,4.408828E-1,5.230682E-2,-1.6265574E-1,-2.3581254E-1,-4.931611E-2,2.8641222E-2,5.1058132E-2,-5.6827895E-2,6.65144E-2,-3.2751483E-1,-1.0136623E-1,-2.532776E-1,1.8412957E-2,-1.1975323E-1,-3.2735378E-2,-1.1562335E-2,1.4884764E-2,1.3691216E-2,-1.8396524E-1,3.9655335E-2,1.1610404E-1,-2.6881173E-2,-2.0987757E-1,-5.0658867E-2,-2.7777565E-1,-1.4772815E-1,-3.0297622E-1,9.622081E-3,-6.718406E-2,-7.247227E-2,-1.7086963E-1,-8.589864E-2,-1.2424917E-2,2.736782E-1,-9.083845E-3,-2.6258454E-1,-4.9201883E-2,2.232368E-2,1.0565602E-1,1.3057658E-1,-8.082084E-3,-2.8543085E-1,9.842469E-3,-2.3880339E-1,5.5605804E-5,1.00785075E-2,-3.5756925E-1,-1.0666866E-2,6.99731E-4,-2.06191E-2,-1.2264084E-2,1.0880273E-3,-7.1656117E-3,-4.6621445E-3,4.5852177E-3,-1.0879212E-2,-4.3382514E-3,-6.0548345E-3,-1.2363971E-3,-1.0261594E-2,-3.5471897E-4,4.917703E-3,2.227915E-2,2.0313915E-3,-4.655497E-3,-1.4514237E-2,-1.9499467E-3,3.7688364E-3,-8.190616E-3,1.3175537E-3,-1.0911722E-2,-6.5337704E-3,5.962616E-3,5.466151E-3,1.3203777E-2,-6.7329938E-3,2.5320346E-3,-6.362525E-3,-1.8861404E-2,-1.8943707E-2,-4.832106E-3,3.0940652E-3,-7.6506445E-3,-2.1678688E-2,-2.4906711E-3],"categories":[],"categories_nodes":[],"categories_segments":[],"categories_sizes":[],"default_left":[0,0,0,0,0,0,0,0,0,0,0,0,0,0,0,0,0,0,0,0,0,0,0,0,0,0,0,0,0,0,0,0,0,0,0,0,0,0,0,0,0,0,0,0,0,0,0,0,0,0,0,0,0,0,0,0,0,0,0,0,0,0,0,0,0,0,0,0,0,0,0,0,0,0,0,0,0,0,0,0,0,0,0,0,0,0,0,0,0],"id":0,"left_children":[1,3,5,7,9,11,13,15,17,-1,19,21,23,25,27,29,31,33,35,-1,-1,37,39,41,43,-1,45,47,49,51,53,-1,55,57,59,61,63,65,67,69,71,73,75,77,79,81,-1,83,85,-1,87,-1,-1,-1,-1,-1,-1,-1,-1,-1,-1,-1,-1,-1,-1,-1,-1,-1,-1,-1,-1,-1,-1,-1,-1,-1,-1,-1,-1,-1,-1,-1,-1,-1,-1,-1,-1,-1,-1],"loss_changes":[7.4065104E0,2.0715027E0,3.125024E0,2.2305174E0,3.998524E-1,2.6687365E0,6.785697E-1,3.061638E-1,1.383106E0,0E0,2.9217044E-1,1.7823404E0,2.021544E0,3.4795475E-1,4.5824122E-1,2.889042E-1,9.183985E-2,5.336244E-1,1.0384343E0,0E0,0E0,7.640807E-1,7.382152E-1,1.1281312E0,9.6069145E-1,0E0,4.7385734E-1,4.0300423E-1,5.144393E-1,2.397458E-1,1.6581178E-1,0E0,3.218092E-2,4.14684E-1,4.047358E-1,5.696269E-1,7.1567E-1,2.69378E-1,5.018131E-1,2.6455522E-1,4.0287143E-1,7.6530725E-1,6.7518306E-1,1.3281221E0,4.2805752E-1,1.24366224E-1,0E0,1.4195216E-1,3.3376032E-1,0E0,2.1875417E-1,0E0,0E0,0E0,0E0,0E0,0E0,0E0,0E0,0E0,0E0,0E0,0E0,0E0,0E0,0E0,0E0,0E0,0E0,0E0,0E0,0E0,0E0,0E0,0E0,0E0,0E0,0E0,0E0,0E0,0E0,0E0,0E0,0E0,0E0,0E0,0E0,0E0,0E0],"parents":[2147483647,0,0,1,1,2,2,3,3,4,4,5,5,6,6,7,7,8,8,10,10,11,11,12,12,13,13,14,14,15,15,16,16,17,17,18,18,21,21,22,22,23,23,24,24,26,26,27,27,28,28,29,29,30,30,32,32,33,33,34,34,35,35,36,36,37,37,38,38,39,39,40,40,41,41,42,42,43,43,44,44,45,45,47,47,48,48,50,50],"right_children":[2,4,6,8,10,12,14,16,18,-1,20,22,24,26,28,30,32,34,36,-1,-1,38,40,42,44,-1,46,48,50,52,54,-1,56,58,60,62,64,66,68,70,72,74,76,78,80,82,-1,84,86,-1,88,-1,-1,-1,-1,-1,-1,-1,-1,-1,-1,-1,-1,-1,-1,-1,-1,-1,-1,-1,-1,-1,-1,-1,-1,-1,-1,-1,-1,-1,-1,-1,-1,-1,-1,-1,-1,-1,-1],"split_conditions":[2.8205128E-2,4.4562627E-2,1.9480045E0,9.9502485E-3,1.6129032E-2,9.78E-4,5.7909604E-2,1.03E-2,9.78E-4,2.8641222E-2,2.395E-3,9.4E-3,5.3287983E-2,3.234E-1,2.6741471E0,1.6977929E-3,-1.734104E-2,8.2E-3,7E0,-1.1562335E-2,1.4884764E-2,-1.8867925E-2,-1.2663764E-2,4E-2,1E1,-2.6881173E-2,8.0350384E-2,3.076923E-2,-7.022472E-3,9.69166E-1,7.4461985E-1,9.622081E-3,1.05E-2,1.38121545E-2,5.886E-1,2.2727273E-2,1.778E-1,6.2992126E-2,7.23E-4,8.77E-4,2.2727273E-2,1E1,2.9411765E-2,1.5706806E-2,9.507814E-1,3.362832E-2,9.842469E-3,8E0,1.5706806E-2,1.00785075E-2,1E1,-1.0666866E-2,6.99731E-4,-2.06191E-2,-1.2264084E-2,1.0880273E-3,-7.1656117E-3,-4.6621445E-3,4.5852177E-3,-1.0879212E-2,-4.3382514E-3,-6.0548345E-3,-1.2363971E-3,-1.0261594E-2,-3.5471897E-4,4.917703E-3,2.227915E-2,2.0313915E-3,-4.655497E-3,-1.4514237E-2,-1.9499467E-3,3.7688364E-3,-8.190616E-3,1.3175537E-3,-1.0911722E-2,-6.5337704E-3,5.962616E-3,5.466151E-3,1.3203777E-2,-6.7329938E-3,2.5320346E-3,-6.362525E-3,-1.8861404E-2,-1.8943707E-2,-4.832106E-3,3.0940652E-3,-7.6506445E-3,-2.1678688E-2,-2.4906711E-3],"split_indices":[8,0,3,8,8,6,8,28,6,0,6,28,8,29,3,1,2,28,25,0,0,5,10,2,6,0,10,2,0,3,3,0,28,0,29,8,29,8,6,6,2,6,8,5,3,2,0,25,5,0,6,0,0,0,0,0,0,0,0,0,0,0,0,0,0,0,0,0,0,0,0,0,0,0,0,0,0,0,0,0,0,0,0,0,0,0,0,0,0],"split_type":[0,0,0,0,0,0,0,0,0,0,0,0,0,0,0,0,0,0,0,0,0,0,0,0,0,0,0,0,0,0,0,0,0,0,0,0,0,0,0,0,0,0,0,0,0,0,0,0,0,0,0,0,0,0,0,0,0,0,0,0,0,0,0,0,0,0,0,0,0,0,0,0,0,0,0,0,0,0,0,0,0,0,0,0,0,0,0,0,0],"sum_hessian":[3.0480435E3,1.2608724E3,1.787171E3,1.2535297E3,7.3427052E0,1.7177278E3,6.9443306E1,6.690461E1,1.1866251E3,5.1351876E0,2.2075176E0,1.9751648E2,1.5202113E3,1.7642916E1,5.180039E1,6.2607277E1,4.2973323E0,2.2491867E2,9.617064E2,1.0584266E0,1.149091E0,1.27621254E2,6.989522E1,9.87276E2,5.329353E2,5.051102E0,1.2591813E1,4.1234932E1,1.0565459E1,2.1313774E1,4.1293503E1,1.0052712E0,3.292061E0,1.1809891E2,1.0681976E2,2.649534E2,6.9675305E2,9.39192E0,1.1822934E2,4.35438E1,2.6351416E1,7.8299994E2,2.0427606E2,4.7726392E2,5.567137E1,1.0870704E1,1.7211092E0,7.9675407E0,3.326739E1,1.2899816E0,9.275477E0,1.4935464E1,6.37831E0,1.2134765E1,2.9158737E1,1.8475864E0,1.4444747E0,1.0521927E2,1.287964E1,6.765485E1,3.9164913E1,1.6755907E2,9.7394325E1,1.7736002E1,6.79017E2,5.428047E0,3.9638731E0,7.4606804E1,4.3622528E1,3.847837E1,5.06543E0,1.279064E1,1.3560776E1,7.709827E2,1.2017237E1,1.0644357E1,1.9363171E2,4.1328604E2,6.3977848E1,1.723276E1,3.843861E1,4.8682275E0,6.002476E0,3.1745617E0,4.792979E0,2.4120598E1,9.146792E0,7.1105947E0,2.164883E0],"tree_param":{"num_deleted":"0","num_feature":"30","num_nodes":"89","size_leaf_vector":"1"}},{"base_weights":[2.6654514E-5,-1.0185967E-1,2.883598E-1,-2.0439987E-1,1.5953843E-2,5.491331E-1,1.5682186E-1,-1.5338959E-1,-2.4347533E-1,-2.6834745E-2,5.879636E-2,6.058822E-1,3.9448586E-1,2.7643457E-1,1.11577116E-1,-1.6380337E-1,6.3117E-2,-2.5096574E-1,1.4680696E-1,-1.6766567E-2,-2.8303334E-1,1.3430725E-1,-3.8589623E-2,5.7494855E-1,7.7167326E-1,5.8551764E-1,3.0745894E-1,4.7295704E-1,1.99016E-1,-3.1631202E-1,1.2453953E-1,-8.845136E-2,-1.8493193E-1,1.6530529E-1,2.5441993E-2,-2.3013186E-1,-5.2812093E-1,2.0104963E-1,7.399166E-2,1.2918921E-2,-8.386622E-2,-4.838056E-1,-1.4922829E-1,6.0866255E-2,1.9297995E-1,-2.7969148E-2,-3.456631E-1,5.9257036E-1,3.1506595E-1,7.941426E-1,7.425621E-3,6.4331776E-1,1.4971788E-3,-1.163962E-2,3.8135868E-1,5.1313275E-1,-2.869906E-1,-5.294262E-1,2.3149274E-1,-5.4709053E-1,9.7078465E-2,9.277299E-2,2.6582053E-1,-5.3010187E-3,1.4465347E-2,-1.2525772E-2,-6.814804E-3,8.1205834E-4,9.170099E-3,2.0502466E-3,-8.319496E-3,-1.2343227E-2,-4.475053E-3,-2.7367268E-2,1.4738562E-2,1.1060405E-2,3.333255E-3,7.0373E-3,-4.22832E-5,7.424166E-3,-6.810024E-4,6.5238066E-3,-6.349824E-3,-4.9787657E-3,-3.2568347E-2,3.9879447E-3,-1.774703E-2,5.9273667E-3,-4.2299363E-3,3.97327E-3,1.2197337E-2,3.718874E-3,-2.764365E-3,-3.3261873E-2,-3.1884399E-3,2.5349049E-2,3.2201335E-2,2.0867342E-2,1.8757016E-4,1.2917273E-2,4.0739343E-2,3.519715E-2,6.48728E-3,1.08308885E-2,-1.4015362E-2,8.755182E-3,-2.6405325E-2,8.82255E-3,2.3079565E-2,2.8476262E-2,7.8766205E-4,-2.5721768E-2,4.359837E-3,-3.6225207E-2,5.162758E-3,2.7748118E-3,1.7324517E-2,-3.4128744E-2,4.8365872E-3,2.6030062E-2,-1.3513291E-2,-6.885758E-4,6.7089507E-3,-6.391604E-5,1.6824378E-2],"categories":[],"categories_nodes":[],"categories_segments":[],"categories_sizes":[],"default_left":[0,0,0,0,0,0,0,0,0,0,0,0,0,0,0,0,0,0,0,0,0,0,0,0,0,0,0,0,0,0,0,0,0,0,0,0,0,0,0,0,0,0,0,0,0,0,0,0,0,0,0,0,0,0,0,0,0,0,0,0,0,0,0,0,0,0,0,0,0,0,0,0,0,0,0,0,0,0,0,0,0,0,0,0,0,0,0,0,0,0,0,0,0,0,0,0,0,0,0,0,0,0,0,0,0,0,0,0,0,0,0,0,0,0,0,0,0,0,0,0,0,0,0,0,0],"id":1,"left_children":[1,3,5,7,9,11,13,15,17,19,21,23,25,27,29,31,33,35,37,39,41,43,45,47,49,51,53,55,57,59,61,63,65,67,69,71,73,75,77,79,81,83,85,87,89,91,93,95,97,99,-1,101,103,105,107,109,111,113,115,117,119,121,123,-1,-1,-1,-1,-1,-1,-1,-1,-1,-1,-1,-1,-1,-1,-1,-1,-1,-1,-1,-1,-1,-1,-1,-1,-1,-1,-1,-1,-1,-1,-1,-1,-1,-1,-1,-1,-1,-1,-1,-1,-1,-1,-1,-1,-1,-1,-1,-1,-1,-1,-1,-1,-1,-1,-1,-1,-1,-1,-1,-1,-1,-1],"loss_changes":[1.1731723E2,3.565053E1,3.568007E1,3.10746E0,2.5204558E0,2.8256454E0,3.7276382E0,1.5594082E0,2.6435318E0,1.7702969E0,5.0565004E0,8.569031E-1,1.4261093E0,2.7954807E0,2.8435078E0,1.0277348E0,1.19962856E-1,4.93235E0,5.393529E-2,1.322081E0,6.2513375E-1,1.6563964E0,9.7124493E-1,8.1002045E-1,3.9948654E-1,9.8240757E-1,1.6192565E0,1.7638493E0,3.3867283E0,1.4982302E0,2.180832E0,9.965522E-1,1.5966587E0,1.9966394E-2,8.070181E-2,1.8976555E0,1.1171722E0,1.0722876E-2,4.5180324E-2,1.6593049E0,1.8982594E0,5.747745E-1,8.301639E-1,1.4648607E0,1.2230029E0,8.19989E-1,8.5545814E-1,5.6614685E-1,5.064931E-1,1.8148422E-1,0E0,7.339287E-1,2.8052232E-1,1.4279886E0,8.331499E-1,1.4116344E0,3.2570544E-1,8.3918655E-1,2.6681948E0,9.271097E-1,1.1171267E0,1.7785904E0,1.6930385E0,0E0,0E0,0E0,0E0,0E0,0E0,0E0,0E0,0E0,0E0,0E0,0E0,0E0,0E0,0E0,0E0,0E0,0E0,0E0,0E0,0E0,0E0,0E0,0E0,0E0,0E0,0E0,0E0,0E0,0E0,0E0,0E0,0E0,0E0,0E0,0E0,0E0,0E0,0E0,0E0,0E0,0E0,0E0,0E0,0E0,0E0,0E0,0E0,0E0,0E0,0E0,0E0,0E0,0E0,0E0,0E0,0E0,0E0,0E0,0E0,0E0,0E0],"parents":[2147483647,0,0,1,1,2,2,3,3,4,4,5,5,6,6,7,7,8,8,9,9,10,10,11,11,12,12,13,13,14,14,15,15,16,16,17,17,18,18,19,19,20,20,21,21,22,22,23,23,24,24,25,25,26,26,27,27,28,28,29,29,30,30,31,31,32,32,33,33,34,34,35,35,36,36,37,37,38,38,39,39,40,40,41,41,42,42,43,43,44,44,45,45,46,46,47,47,48,48,49,49,51,51,52,52,53,53,54,54,55,55,56,56,57,57,58,58,59,59,60,60,61,61,62,62],"right_children":[2,4,6,8,10,12,14,16,18,20,22,24,26,28,30,32,34,36,38,40,42,44,46,48,50,52,54,56,58,60,62,64,66,68,70,72,74,76,78,80,82,84,86,88,90,92,94,96,98,100,-1,102,104,106,108,110,112,114,116,118,120,122,124,-1,-1,-1,-1,-1,-1,-1,-1,-1,-1,-1,-1,-1,-1,-1,-1,-1,-1,-1,-1,-1,-1,-1,-1,-1,-1,-1,-1,-1,-1,-1,-1,-1,-1,-1,-1,-1,-1,-1,-1,-1,-1,-1,-1,-1,-1,-1,-1,-1,-1,-1,-1,-1,-1,-1,-1,-1,-1,-1,-1,-1,-1],"split_conditions":[4.863222E-2,5.421687E-2,1.9138755E-2,4.515E-1,3.77E-3,1.3799E0,1.0546057E0,3.66E-2,7.3E-2,3.46E-2,1.4E-1,1.00323625E-1,4.819039E-1,5.7909604E-2,-6.06E-2,-3.77E-2,4.14E-2,1.01E-2,7.46E-2,1.3130547E0,9.637271E-1,8.2E-3,1.2446067E-1,1.06E-2,1.1494253E-1,3.2E-2,2.2886E0,1.8496189E-1,1.510574E-1,7.228E-3,8.831266E-1,8.3333336E-2,-1.09E-2,1.068E-3,5.2380953E-2,9.6E-3,5.376344E-2,5.3763443E-1,1.8018018E-2,-7.7348065E-1,1.0416667E-2,6.9565214E-2,1.895E-3,7.5E-3,3.087E-1,-4.9435027E-2,7.4782E0,2.01E-3,3.3433735E-1,9.528869E0,7.425621E-3,4.7467E0,4.735E-1,8.9E-3,3.662E-1,6.8248E0,4.953E-1,1.0261313E-1,1.1912866E-1,1E1,1.453E-2,3.967E-1,6.5025255E-2,-5.3010187E-3,1.4465347E-2,-1.2525772E-2,-6.814804E-3,8.1205834E-4,9.170099E-3,2.0502466E-3,-8.319496E-3,-1.2343227E-2,-4.475053E-3,-2.7367268E-2,1.4738562E-2,1.1060405E-2,3.333255E-3,7.0373E-3,-4.22832E-5,7.424166E-3,-6.810024E-4,6.5238066E-3,-6.349824E-3,-4.9787657E-3,-3.2568347E-2,3.9879447E-3,-1.774703E-2,5.9273667E-3,-4.2299363E-3,3.97327E-3,1.2197337E-2,3.718874E-3,-2.764365E-3,-3.3261873E-2,-3.1884399E-3,2.5349049E-2,3.2201335E-2,2.0867342E-2,1.8757016E-4,1.2917273E-2,4.0739343E-2,3.519715E-2,6.48728E-3,1.08308885E-2,-1.4015362E-2,8.755182E-3,-2.6405325E-2,8.82255E-3,2.3079565E-2,2.8476262E-2,7.8766205E-4,-2.5721768E-2,4.359837E-3,-3.6225207E-2,5.162758E-3,2.7748118E-3,1.7324517E-2,-3.4128744E-2,4.8365872E-3,2.6030062E-2,-1.3513291E-2,-6.885758E-4,6.7089507E-3,-6.391604E-5,1.6824378E-2],"split_indices":[0,8,8,29,6,6,3,27,27,27,6,0,3,8,27,27,27,28,27,3,3,28,8,28,9,27,6,18,9,6,9,2,27,6,8,28,8,9,8,9,1,8,6,28,29,2,6,6,2,7,0,6,29,28,29,6,29,8,2,19,6,29,2,0,0,0,0,0,0,0,0,0,0,0,0,0,0,0,0,0,0,0,0,0,0,0,0,0,0,0,0,0,0,0,0,0,0,0,0,0,0,0,0,0,0,0,0,0,0,0,0,0,0,0,0,0,0,0,0,0,0,0,0,0,0],"split_type":[0,0,0,0,0,0,0,0,0,0,0,0,0,0,0,0,0,0,0,0,0,0,0,0,0,0,0,0,0,0,0,0,0,0,0,0,0,0,0,0,0,0,0,0,0,0,0,0,0,0,0,0,0,0,0,0,0,0,0,0,0,0,0,0,0,0,0,0,0,0,0,0,0,0,0,0,0,0,0,0,0,0,0,0,0,0,0,0,0,0,0,0,0,0,0,0,0,0,0,0,0,0,0,0,0,0,0,0,0,0,0,0,0,0,0,0,0,0,0,0,0,0,0,0,0],"sum_hessian":[3.991479E3,2.9497815E3,1.0416975E3,1.5767264E3,1.3730549E3,3.4820602E2,6.934915E2,6.860551E2,8.906713E2,6.871468E2,6.8590814E2,2.5259596E2,9.561007E1,1.8892474E2,5.0456677E2,6.548031E2,3.1252033E1,8.742494E2,1.6421923E1,6.6218933E2,2.4957495E1,3.8613147E2,2.997767E2,2.1664223E2,3.595373E1,2.8131315E1,6.747875E1,5.1948208E1,1.3697655E2,1.4147743E1,4.90419E2,1.445331E2,5.1027002E2,7.5058312E0,2.3746202E1,8.148287E2,5.9420734E1,8.401935E0,8.019987E0,4.596455E2,2.0254382E2,8.934971E0,1.6022524E1,1.7238876E2,2.137427E2,2.908098E2,8.966894E0,2.0168637E2,1.4955853E1,3.4437634E1,1.5160992E0,2.5505518E1,2.6257966E0,1.2847183E1,5.463157E1,4.964826E1,2.2999463E0,5.193197E0,1.3178334E2,8.871652E0,5.2760925E0,4.0174475E2,8.867425E1,1.3879716E2,5.735918E0,2.1551111E2,2.947589E2,1.0179937E0,6.4878373E0,2.269153E1,1.0546727E0,7.275117E2,8.731696E1,5.8391445E1,1.029286E0,6.744184E0,1.6577505E0,3.7734263E0,4.246561E0,7.4499214E1,3.851463E2,3.3589672E1,1.6895415E2,3.1973882E0,5.737582E0,7.872068E0,8.150456E0,1.2357338E2,4.881538E1,6.702409E1,1.4671861E2,6.090572E1,2.299041E2,3.5652287E0,5.4016657E0,7.9801704E1,1.2188466E2,1.1000949E1,3.9549046E0,1.779033E0,3.26586E1,2.2481037E1,3.0244799E0,1.62026E0,1.0055366E0,9.920944E0,2.9262397E0,1.62724E1,3.835917E1,4.4462128E1,5.1861305E0,1.1973476E0,1.1025987E0,3.8583877E0,1.3348093E0,5.266519E1,7.911816E1,7.2795663E0,1.5920852E0,2.2568717E0,3.0192208E0,1.1262067E2,2.8912408E2,1.8757761E1,6.991649E1],"tree_param":{"num_deleted":"0","num_feature":"30","num_nodes":"125","size_leaf_vector":"1"}},{"base_weights":[9.160276E-4,-1.9736977E-1,2.4820018E-1,-2.9953963E-1,5.797536E-4,5.3003556E-1,1.6824514E-1,-1.7691E-1,-3.4152046E-1,-1.2560353E-1,1.8827513E-1,6.064035E-1,4.5816615E-1,2.3278545E-1,7.330095E-2,-2.3607013E-1,-7.4300975E-2,-3.5102242E-1,2.6017845E-2,8.849793E-2,-1.9535181E-1,-5.923154E-2,2.4583595E-1,4.989059E-1,6.674556E-1,7.096929E-1,4.2322886E-1,2.7017972E-1,-2.7713098E-2,-1.9065332E-1,1.4053182E-1,-5.3881615E-2,-2.7092358E-1,1.9201675E-2,-1.0024327E-1,-2.659189E-1,-3.897122E-1,-3.2861896E-2,2.5233833E-2,1.9618458E-1,-2.2191544E-1,-9.360809E-2,-2.4051696E-1,6.829747E-2,-2.6324606E-1,5.5676356E-2,3.0379063E-1,3.0944002E-1,5.877313E-1,6.8533224E-1,2.6894772E-1,7.4666595E-1,-1.5013446E-3,3.747238E-1,6.1609817E-1,1.9774467E-1,3.5363844E-1,1.8654744E-1,-9.340868E-2,8.527183E-3,-2.1248814E-1,-7.186008E-2,1.7355293E-1,-2.290404E-2,1.6238589E-3,-1.419189E-2,3.936254E-3,2.8140934E-3,-8.99558E-3,-1.4821611E-2,-5.760543E-3,1.4753488E-2,-1.976476E-2,8.649529E-3,-2.7386711E-3,-1.9989042E-2,1.0812411E-2,-4.2885607E-3,-2.7174154E-2,3.6506865E-3,-6.4548813E-3,2.0025026E-3,-1.2440802E-2,-2.3615167E-2,7.063052E-3,-7.4981973E-3,-1.9480497E-2,1.1953699E-2,-6.8427506E-3,1.6090091E-2,-8.036779E-3,1.9804148E-2,-6.7137354E-3,3.0601634E-2,-1.4666052E-3,3.468973E-2,1.5380956E-3,3.0804588E-2,-9.340489E-3,1.5559603E-2,4.0128484E-2,2.5398752E-2,1.5579636E-2,1.917336E-2,3.509482E-2,1.1720007E-2,4.3434855E-3,2.4317963E-2,1.1363407E-2,-2.93917E-3,1.900208E-2,-1.9453708E-3,-2.4973078E-2,-2.4611605E-2,7.4001937E-3,-3.6160394E-3,-1.2149172E-2,2.3008946E-3,-1.7970465E-2,4.6016304E-3,1.1634512E-2],"categories":[],"categories_nodes":[],"categories_segments":[],"categories_sizes":[],"default_left":[0,0,0,0,0,0,0,0,0,0,0,0,0,0,0,0,0,0,0,0,0,0,0,0,0,0,0,0,0,0,0,0,0,0,0,0,0,0,0,0,0,0,0,0,0,0,0,0,0,0,0,0,0,0,0,0,0,0,0,0,0,0,0,0,0,0,0,0,0,0,0,0,0,0,0,0,0,0,0,0,0,0,0,0,0,0,0,0,0,0,0,0,0,0,0,0,0,0,0,0,0,0,0,0,0,0,0,0,0,0,0,0,0,0,0,0,0,0,0,0,0],"id":2,"left_children":[1,3,5,7,9,11,13,15,17,19,21,23,25,27,29,31,33,35,37,39,41,43,45,47,49,51,53,55,57,59,61,63,65,-1,67,69,71,73,-1,75,77,79,81,83,85,87,89,91,93,95,97,99,-1,101,103,105,107,109,111,113,115,117,119,-1,-1,-1,-1,-1,-1,-1,-1,-1,-1,-1,-1,-1,-1,-1,-1,-1,-1,-1,-1,-1,-1,-1,-1,-1,-1,-1,-1,-1,-1,-1,-1,-1,-1,-1,-1,-1,-1,-1,-1,-1,-1,-1,-1,-1,-1,-1,-1,-1,-1,-1,-1,-1,-1,-1,-1,-1,-1],"loss_changes":[1.8964317E2,4.341195E1,3.8696014E1,7.228058E0,1.735399E1,1.807312E0,8.207954E0,2.1868477E0,3.6887665E0,6.5605106E0,4.2111464E0,8.555603E-1,1.4555092E0,7.7869186E0,9.692039E0,1.4450998E0,1.634904E0,3.278366E0,7.9117244E-1,3.6655757E0,1.4976492E0,1.4849952E0,2.619008E0,9.8875237E-1,6.174278E-1,6.484976E-1,1.4335918E0,4.152485E0,1.4413006E0,4.8450756E-1,3.0609179E0,1.3469958E0,8.9253616E-1,0E0,1.6045843E0,1.456562E0,2.8080368E0,1.2409861E-1,0E0,1.0547245E0,1.1957387E0,6.205116E-1,5.419464E-1,1.4666106E0,2.5498998E-1,2.0486374E0,1.583561E0,9.879148E-1,7.114086E-1,5.717125E-1,1.1399469E0,2.8194714E-1,0E0,1.0591316E0,4.134779E-1,1.5085497E0,5.311264E0,1.1650126E0,1.7086203E0,9.0583616E-1,4.1013622E-1,2.0228937E0,1.7934904E0,0E0,0E0,0E0,0E0,0E0,0E0,0E0,0E0,0E0,0E0,0E0,0E0,0E0,0E0,0E0,0E0,0E0,0E0,0E0,0E0,0E0,0E0,0E0,0E0,0E0,0E0,0E0,0E0,0E0,0E0,0E0,0E0,0E0,0E0,0E0,0E0,0E0,0E0,0E0,0E0,0E0,0E0,0E0,0E0,0E0,0E0,0E0,0E0,0E0,0E0,0E0,0E0,0E0,0E0,0E0,0E0,0E0,0E0],"parents":[2147483647,0,0,1,1,2,2,3,3,4,4,5,5,6,6,7,7,8,8,9,9,10,10,11,11,12,12,13,13,14,14,15,15,16,16,17,17,18,18,19,19,20,20,21,21,22,22,23,23,24,24,25,25,26,26,27,27,28,28,29,29,30,30,31,31,32,32,34,34,35,35,36,36,37,37,39,39,40,40,41,41,42,42,43,43,44,44,45,45,46,46,47,47,48,48,49,49,50,50,51,51,53,53,54,54,55,55,56,56,57,57,58,58,59,59,60,60,61,61,62,62],"right_children":[2,4,6,8,10,12,14,16,18,20,22,24,26,28,30,32,34,36,38,40,42,44,46,48,50,52,54,56,58,60,62,64,66,-1,68,70,72,74,-1,76,78,80,82,84,86,88,90,92,94,96,98,100,-1,102,104,106,108,110,112,114,116,118,120,-1,-1,-1,-1,-1,-1,-1,-1,-1,-1,-1,-1,-1,-1,-1,-1,-1,-1,-1,-1,-1,-1,-1,-1,-1,-1,-1,-1,-1,-1,-1,-1,-1,-1,-1,-1,-1,-1,-1,-1,-1,-1,-1,-1,-1,-1,-1,-1,-1,-1,-1,-1,-1,-1,-1,-1,-1,-1],"split_conditions":[4.863222E-2,5.376344E-2,3.2967035E-2,3.389E-1,1.5706806E-2,4.819039E-1,1.1045367E0,9E-4,7.3E-2,-2.4271844E-2,8.1E-3,4.485E-1,1.26482295E-2,7.84455E-2,8.831266E-1,-5.34E-2,3.8E-3,-2.74E-2,2.0245707E0,9E-4,2.684E-1,-1.705757E-2,2.4636526E-2,3.2043587E-2,9.392265E-1,1.00323625E-1,5.4242764E-2,9.160015E-2,6.6906475E-2,-1.8867925E-2,3.4053538E-2,1.684E-1,3.297E-1,1.9201675E-2,2.248E-1,7.29E-1,6.1E-3,5.388083E-1,2.5233833E-2,-1.9795151E-1,9.748201E-2,1.083E-1,6.1E-3,6.8698883E-1,1.2281965E0,-1.55E-2,6.8E-2,9.4E-3,4.119E-1,6.4235264E-3,4.0542923E-2,-4.5495728E-1,-1.5013446E-3,-2.26E-2,3.705E-1,6.535948E-2,9.748201E-2,4.0038772E-2,2.9272899E-2,-4.96E-2,1.2471949E0,2.9753365E-2,2.1881838E-3,-2.290404E-2,1.6238589E-3,-1.419189E-2,3.936254E-3,2.8140934E-3,-8.99558E-3,-1.4821611E-2,-5.760543E-3,1.4753488E-2,-1.976476E-2,8.649529E-3,-2.7386711E-3,-1.9989042E-2,1.0812411E-2,-4.2885607E-3,-2.7174154E-2,3.6506865E-3,-6.4548813E-3,2.0025026E-3,-1.2440802E-2,-2.3615167E-2,7.063052E-3,-7.4981973E-3,-1.9480497E-2,1.1953699E-2,-6.8427506E-3,1.6090091E-2,-8.036779E-3,1.9804148E-2,-6.7137354E-3,3.0601634E-2,-1.4666052E-3,3.468973E-2,1.5380956E-3,3.0804588E-2,-9.340489E-3,1.5559603E-2,4.0128484E-2,2.5398752E-2,1.5579636E-2,1.917336E-2,3.509482E-2,1.1720007E-2,4.3434855E-3,2.4317963E-2,1.1363407E-2,-2.93917E-3,1.900208E-2,-1.9453708E-3,-2.4973078E-2,-2.4611605E-2,7.4001937E-3,-3.6160394E-3,-1.2149172E-2,2.3008946E-3,-1.7970465E-2,4.6016304E-3,1.1634512E-2],"split_indices":[0,8,8,29,5,3,3,27,27,5,28,29,4,18,9,27,27,27,3,27,29,0,4,4,9,0,4,1,8,5,4,29,29,0,29,29,28,3,0,18,8,29,28,3,3,27,5,28,29,18,4,18,0,27,29,0,8,4,5,27,3,4,5,0,0,0,0,0,0,0,0,0,0,0,0,0,0,0,0,0,0,0,0,0,0,0,0,0,0,0,0,0,0,0,0,0,0,0,0,0,0,0,0,0,0,0,0,0,0,0,0,0,0,0,0,0,0,0,0,0,0],"split_type":[0,0,0,0,0,0,0,0,0,0,0,0,0,0,0,0,0,0,0,0,0,0,0,0,0,0,0,0,0,0,0,0,0,0,0,0,0,0,0,0,0,0,0,0,0,0,0,0,0,0,0,0,0,0,0,0,0,0,0,0,0,0,0,0,0,0,0,0,0,0,0,0,0,0,0,0,0,0,0,0,0,0,0,0,0,0,0,0,0,0,0,0,0,0,0,0,0,0,0,0,0,0,0,0,0,0,0,0,0,0,0,0,0,0,0,0,0,0,0,0,0],"sum_hessian":[3.8656702E3,2.1454968E3,1.7201733E3,1.4147651E3,7.307316E2,3.7891125E2,1.3412622E3,3.6213916E2,1.0526261E3,4.3716586E2,2.9356573E2,1.801003E2,1.9881094E2,7.976148E2,5.4364734E2,2.2887727E2,1.3326189E2,1.0261421E3,2.6483923E1,1.0735548E2,3.298104E2,5.5385166E1,2.3818057E2,6.8558174E1,1.1154213E2,2.189161E1,1.7691934E2,6.974583E2,1.0015646E2,1.0998823E2,4.3365915E2,3.716286E1,1.917144E2,6.399291E0,1.26862595E2,3.231664E2,7.029757E2,2.4412313E1,2.0716088E0,7.9978E1,2.7377474E1,1.02340355E2,2.2747005E2,3.449048E1,2.0894688E1,5.6092346E1,1.8208823E2,2.3313612E1,4.5244564E1,1.0606445E2,5.477672E0,2.0840555E1,1.0510538E0,1.4371825E2,3.320109E1,3.7519263E2,3.222657E2,2.307142E1,7.7085045E1,1.0926307E1,9.906192E1,5.819197E1,3.7546716E2,5.7844696E0,3.137839E1,1.850672E2,6.647204E0,4.2889908E1,8.397269E1,2.6794888E2,5.5217533E1,5.2656546E0,6.9771E2,1.6852183E0,2.2727097E1,1.9884319E0,7.798956E1,2.012412E1,7.253354E0,1.7784689E1,8.4555664E1,6.4252615E0,2.2104478E2,3.4506712E0,3.1039808E1,1.2170708E1,8.723979E0,2.8603788E1,2.7488556E1,1.7558739E2,6.50084E0,1.9594748E1,3.7188656E0,4.3538094E1,1.7064722E0,1.0465159E2,1.4128624E0,2.909642E0,2.56803E0,3.118092E0,1.7722464E1,4.3935944E1,9.978231E1,1.0419456E1,2.2781635E1,2.8113486E2,9.405777E1,1.5579391E2,1.6647179E2,1.0480023E1,1.2591398E1,6.892906E1,8.155984E0,1.8293407E0,9.096966E0,1.830358E1,8.075834E1,4.1868397E1,1.6323572E1,1.5893402E2,2.1653316E2],"tree_param":{"num_deleted":"0","num_feature":"30","num_nodes":"121","size_leaf_vector":"1"}},{"base_weights":[-1.9939868E-3,-2.0425394E-1,2.600047E-1,-3.1954294E-1,3.5810524E-3,5.1353925E-1,2.0710735E-1,-3.2857436E-1,1.4252369E-2,-1.3922311E-1,1.5006924E-1,5.6664336E-1,3.3522418E-1,2.6774362E-1,1.02044515E-1,-2.4054228E-1,-3.5854146E-1,-1.7221926E-2,3.4786854E-2,4.532412E-2,-2.2959554E-1,1.7124382E-1,-1.8636745E-1,5.737478E-1,-1.035143E-2,5.354933E-1,2.1652867E-1,3.126573E-1,1.41383E-1,-1.05056934E-1,1.5043224E-1,-8.098217E-2,-2.5770912E-1,-3.520081E-1,-3.3016782E-2,1.4658609E-3,2.0874906E-2,2.0583221E-1,-1.5880239E-1,8.384261E-2,-2.4893047E-1,4.358663E-2,2.2403756E-1,1.0801121E-2,-2.2707409E-1,5.4078424E-1,6.926842E-1,5.9803027E-1,3.4078572E-2,-2.088705E-1,2.9674318E-1,2.4384217E-1,4.006191E-1,6.2496264E-2,2.569399E-1,-2.341924E-1,1.0170727E-2,-3.195674E-2,1.8115686E-1,4.901937E-3,-9.032802E-3,-1.704326E-2,-1.0325422E-2,-1.9762626E-2,-1.5798595E-2,-8.67333E-4,1.1793326E-2,-1.2497799E-2,1.277598E-2,4.801299E-3,-1.1768369E-2,1.3890462E-2,-2.188958E-3,-5.0965385E-3,-1.3029702E-2,1.468944E-2,-4.3084263E-3,-4.9047256E-3,1.2138136E-2,-1.2965038E-2,8.220966E-3,2.7738167E-2,1.2570313E-2,2.7076159E-2,3.8823497E-2,3.2414716E-2,9.9746715E-3,1.7618686E-2,-1.653633E-2,-3.4022216E-2,7.527108E-3,1.0390953E-3,2.2580942E-2,3.020719E-2,1.0937521E-2,2.0438552E-2,-1.452896E-2,1.4812387E-2,-1.6560508E-3,-2.0915052E-2,1.4168906E-2,1.0783032E-2,-1.5188855E-2,3.0313632E-3,-2.2619784E-2,2.455095E-2,-7.2259866E-3,-1.5045359E-2,9.882171E-3],"categories":[],"categories_nodes":[],"categories_segments":[],"categories_sizes":[],"default_left":[0,0,0,0,0,0,0,0,0,0,0,0,0,0,0,0,0,0,0,0,0,0,0,0,0,0,0,0,0,0,0,0,0,0,0,0,0,0,0,0,0,0,0,0,0,0,0,0,0,0,0,0,0,0,0,0,0,0,0,0,0,0,0,0,0,0,0,0,0,0,0,0,0,0,0,0,0,0,0,0,0,0,0,0,0,0,0,0,0,0,0,0,0,0,0,0,0,0,0,0,0,0,0,0,0,0,0,0,0],"id":3,"left_children":[1,3,5,7,9,11,13,15,17,19,21,23,25,27,29,31,33,-1,35,37,39,41,43,45,-1,47,49,51,53,55,57,59,61,63,-1,65,-1,67,69,71,73,75,77,-1,79,81,83,85,87,89,91,93,95,97,99,101,103,105,107,-1,-1,-1,-1,-1,-1,-1,-1,-1,-1,-1,-1,-1,-1,-1,-1,-1,-1,-1,-1,-1,-1,-1,-1,-1,-1,-1,-1,-1,-1,-1,-1,-1,-1,-1,-1,-1,-1,-1,-1,-1,-1,-1,-1,-1,-1,-1,-1,-1,-1],"loss_changes":[2.005232E2,5.116935E1,2.2003067E1,4.145462E0,1.5980386E1,2.4984207E0,8.672787E0,3.441925E0,2.8556225E-1,6.462007E0,2.7181997E0,1.3132324E0,1.4908948E0,4.8666077E0,5.0401025E0,9.178028E-1,1.7308655E0,0E0,4.5898587E-1,4.2263484E0,1.5955629E0,2.3846064E0,4.2261767E-1,4.706726E-1,0E0,7.471056E-1,1.567529E0,3.7615166E0,2.0690527E0,1.4240782E0,2.2855635E0,6.377113E-1,1.244976E0,1.3972702E0,0E0,1.5471384E-1,0E0,1.6964681E0,1.1329095E0,4.0440077E-1,3.9348698E-1,3.440071E0,1.5383921E0,0E0,3.1008685E-1,5.618553E-1,1.2698746E-1,3.0538988E-1,5.548254E-1,1.3882842E0,1.5948224E0,3.1248665E0,1.6868553E0,3.0775855E0,1.7694497E0,1.4771104E0,1.2282312E0,3.5737057E0,2.8277903E0,0E0,0E0,0E0,0E0,0E0,0E0,0E0,0E0,0E0,0E0,0E0,0E0,0E0,0E0,0E0,0E0,0E0,0E0,0E0,0E0,0E0,0E0,0E0,0E0,0E0,0E0,0E0,0E0,0E0,0E0,0E0,0E0,0E0,0E0,0E0,0E0,0E0,0E0,0E0,0E0,0E0,0E0,0E0,0E0,0E0,0E0,0E0,0E0,0E0,0E0],"parents":[2147483647,0,0,1,1,2,2,3,3,4,4,5,5,6,6,7,7,8,8,9,9,10,10,11,11,12,12,13,13,14,14,15,15,16,16,18,18,19,19,20,20,21,21,22,22,23,23,25,25,26,26,27,27,28,28,29,29,30,30,31,31,32,32,33,33,35,35,37,37,38,38,39,39,40,40,41,41,42,42,44,44,45,45,46,46,47,47,48,48,49,49,50,50,51,51,52,52,53,53,54,54,55,55,56,56,57,57,58,58],"right_children":[2,4,6,8,10,12,14,16,18,20,22,24,26,28,30,32,34,-1,36,38,40,42,44,46,-1,48,50,52,54,56,58,60,62,64,-1,66,-1,68,70,72,74,76,78,-1,80,82,84,86,88,90,92,94,96,98,100,102,104,106,108,-1,-1,-1,-1,-1,-1,-1,-1,-1,-1,-1,-1,-1,-1,-1,-1,-1,-1,-1,-1,-1,-1,-1,-1,-1,-1,-1,-1,-1,-1,-1,-1,-1,-1,-1,-1,-1,-1,-1,-1,-1,-1,-1,-1,-1,-1,-1,-1,-1,-1],"split_conditions":[4.863222E-2,5.376344E-2,1.0714286E-2,7.3E-2,1.5706806E-2,1.8307E0,1.0895E0,3.389E-1,-1.799687E-2,-2.1004567E-2,1.4E-1,1.17E-2,5.87986E-1,9.748201E-2,6.8884745E-2,-5.34E-2,1.15E-2,-1.7221926E-2,2.3970144E0,9.56E-4,1.083E-1,3.9E-3,5.4739654E-2,5.1773872E-2,-1.035143E-2,5.4173E0,2.2886E0,9.975865E-2,9.507814E-1,4.217578E-2,8.770458E-2,7E0,-1.19E-2,2.4305556E-2,-3.3016782E-2,4.9076993E-2,2.0874906E-2,9.64451E0,-5.29E-2,6.3E-3,-6.03E-2,2.164E-1,8.2E-3,1.0801121E-2,9.01E-2,8.119E-1,2.475E-3,3E-2,6.408431E-2,-5.6E-3,3.662E-1,1.7657729E-2,7.3E-2,-9.708738E-3,-6.04E-2,2.5252525E-2,1.334733E-1,3.7000973E-2,1.098E-1,4.901937E-3,-9.032802E-3,-1.704326E-2,-1.0325422E-2,-1.9762626E-2,-1.5798595E-2,-8.67333E-4,1.1793326E-2,-1.2497799E-2,1.277598E-2,4.801299E-3,-1.1768369E-2,1.3890462E-2,-2.188958E-3,-5.0965385E-3,-1.3029702E-2,1.468944E-2,-4.3084263E-3,-4.9047256E-3,1.2138136E-2,-1.2965038E-2,8.220966E-3,2.7738167E-2,1.2570313E-2,2.7076159E-2,3.8823497E-2,3.2414716E-2,9.9746715E-3,1.7618686E-2,-1.653633E-2,-3.4022216E-2,7.527108E-3,1.0390953E-3,2.2580942E-2,3.020719E-2,1.0937521E-2,2.0438552E-2,-1.452896E-2,1.4812387E-2,-1.6560508E-3,-2.0915052E-2,1.4168906E-2,1.0783032E-2,-1.5188855E-2,3.0313632E-3,-2.2619784E-2,2.455095E-2,-7.2259866E-3,-1.5045359E-2,9.882171E-3],"split_indices":[0,8,8,27,5,6,3,29,5,5,6,28,3,8,10,27,28,0,3,6,29,6,8,4,0,6,6,0,3,4,0,25,27,8,0,8,0,7,27,28,27,29,28,0,27,29,6,27,4,27,29,4,27,5,27,8,8,8,29,0,0,0,0,0,0,0,0,0,0,0,0,0,0,0,0,0,0,0,0,0,0,0,0,0,0,0,0,0,0,0,0,0,0,0,0,0,0,0,0,0,0,0,0,0,0,0,0,0,0],"split_type":[0,0,0,0,0,0,0,0,0,0,0,0,0,0,0,0,0,0,0,0,0,0,0,0,0,0,0,0,0,0,0,0,0,0,0,0,0,0,0,0,0,0,0,0,0,0,0,0,0,0,0,0,0,0,0,0,0,0,0,0,0,0,0,0,0,0,0,0,0,0,0,0,0,0,0,0,0,0,0,0,0,0,0,0,0,0,0,0,0,0,0,0,0,0,0,0,0,0,0,0,0,0,0,0,0,0,0,0,0],"sum_hessian":[3.7820366E3,2.1344705E3,1.647566E3,1.3725565E3,7.61914E2,2.8290546E2,1.3646606E3,1.3364132E3,3.6143322E1,3.8583344E2,3.7608057E2,2.1630872E2,6.659673E1,8.642921E2,5.003685E2,3.416884E2,9.9472485E2,1.1029866E0,3.5040333E1,1.2699619E2,2.5883725E2,3.5427432E2,2.1806227E1,2.1459653E2,1.7121931E0,2.3475754E1,4.312098E1,6.3655896E2,2.2773317E2,9.4544235E1,4.0582428E2,3.3746143E1,3.0794223E2,9.7576746E2,1.8957417E1,3.3157303E1,1.883031E0,7.108921E1,5.590699E1,1.4845226E1,2.4399202E2,1.0418261E2,2.5009172E2,1.6076463E0,2.0198582E1,1.7237038E2,4.222615E1,2.0701193E1,2.7745621E0,6.586594E0,3.6534386E1,3.592663E2,2.7729266E2,1.362564E2,9.1476776E1,4.409481E1,5.0449425E1,5.850195E1,3.4732233E2,1.2075015E1,2.167113E1,1.1519465E2,1.9274759E2,4.3899432E2,5.3677313E2,3.1551075E1,1.6062294E0,6.5917516E0,6.449746E1,1.2858003E1,4.3048985E1,5.424283E0,9.420942E0,1.8652182E1,2.2533984E2,3.5146572E1,6.903604E1,1.3506057E1,2.3658566E2,1.8974327E1,1.2242532E0,1.635525E2,8.8178625E0,1.7720003E1,2.450615E1,1.7826237E1,2.8749564E0,1.499935E0,1.2746271E0,2.4624634E0,4.1241307E0,1.3540959E1,2.2993427E1,2.1888197E1,3.373781E2,2.7446423E2,2.828406E0,3.894673E1,9.730966E1,2.888247E0,8.858853E1,5.6257906E0,3.846902E1,4.6271122E1,4.1783004E0,9.766044E0,4.873591E1,1.0915097E1,3.3640723E2],"tree_param":{"num_deleted":"0","num_feature":"30","num_nodes":"109","size_leaf_vector":"1"}},{"base_weights":[2.9257783E-3,-2.1677247E-1,2.3903911E-1,-2.9650873E-1,1.4263636E-1,4.242184E-1,1.662868E-1,-1.6542088E-2,-3.10727E-1,-2.793047E-1,1.9534954E-1,5.2380306E-1,3.4344357E-1,1.5481136E-2,2.530393E-1,2.1583448E-1,-1.9823095E-1,-3.1897396E-1,-3.991947E-3,-2.866786E-1,-2.9262935E-4,-1.5356994E-1,2.131056E-1,5.360403E-1,-2.8023276E-1,2.0162093E-2,3.68409E-1,8.754804E-2,-2.1243726E-1,3.1069264E-1,1.8784204E-1,9.354049E-2,3.1375594E-2,-5.045521E-2,-3.427931E-1,-2.309908E-1,-3.509559E-1,-1.0600393E-1,3.4464297E-1,-2.9591176E-1,-2.8216604E-3,5.56419E-2,-2.7495852E-1,5.101034E-2,2.5535825E-1,5.4823154E-1,1.8001321E-1,7.3807165E-3,-2.3968771E-2,-3.6613694E-1,1.3934322E-1,4.2547047E-1,2.2374535E-1,1.00996904E-1,-5.1163787E-1,-2.8176093E-1,-1.462159E-2,-9.073353E-3,3.3389196E-1,-1.1355617E-2,2.2574846E-1,1.027497E-2,-1.6259553E-2,-8.4432475E-3,1.0820455E-2,-2.0036386E-2,-8.152402E-3,-2.9662158E-3,-1.2304869E-2,-1.5542096E-2,-1.9956335E-2,-9.154064E-3,-1.0587962E-3,8.157202E-5,2.3058057E-2,-9.93801E-3,-1.6063482E-2,2.154396E-2,-9.908498E-3,-1.5266478E-2,-3.5607566E-3,1.0735849E-2,-1.6036483E-3,1.3573065E-2,-8.409796E-3,2.9653354E-2,2.1698862E-2,1.5782787E-2,-1.0084566E-2,1.26489895E-5,-2.2676772E-2,2.2950303E-2,-1.0348973E-3,1.255737E-2,2.3093395E-2,2.1695152E-3,1.7607938E-2,-5.8501493E-4,8.505961E-3,-3.1393494E-2,6.775487E-3,-1.4565565E-2,-3.9444574E-5,1.8282393E-2,-5.754621E-3,-2.6262108E-2,6.945688E-3,7.444984E-3,1.7973484E-2,3.2303107E-3,-8.884202E-3,-1.0014798E-2,1.1995698E-2],"categories":[],"categories_nodes":[],"categories_segments":[],"categories_sizes":[],"default_left":[0,0,0,0,0,0,0,0,0,0,0,0,0,0,0,0,0,0,0,0,0,0,0,0,0,0,0,0,0,0,0,0,0,0,0,0,0,0,0,0,0,0,0,0,0,0,0,0,0,0,0,0,0,0,0,0,0,0,0,0,0,0,0,0,0,0,0,0,0,0,0,0,0,0,0,0,0,0,0,0,0,0,0,0,0,0,0,0,0,0,0,0,0,0,0,0,0,0,0,0,0,0,0,0,0,0,0,0,0,0,0,0,0],"id":4,"left_children":[1,3,5,7,9,11,13,15,17,19,21,23,25,27,29,31,33,35,37,39,-1,41,43,45,47,49,51,53,55,57,59,61,-1,63,65,67,69,71,73,75,-1,77,79,81,83,85,87,-1,-1,89,91,93,95,97,99,101,103,105,107,109,111,-1,-1,-1,-1,-1,-1,-1,-1,-1,-1,-1,-1,-1,-1,-1,-1,-1,-1,-1,-1,-1,-1,-1,-1,-1,-1,-1,-1,-1,-1,-1,-1,-1,-1,-1,-1,-1,-1,-1,-1,-1,-1,-1,-1,-1,-1,-1,-1,-1,-1,-1,-1],"loss_changes":[1.9217764E2,5.5039055E1,2.3986076E1,6.2482605E0,7.819754E0,3.8663406E0,1.6789532E1,3.2929804E0,3.7804718E0,7.7332735E-2,1.9591436E0,2.34803E0,2.2575989E0,7.7356834E0,3.0043602E0,1.6660367E0,9.1677237E-1,4.0154114E0,1.4646279E0,6.4370155E-2,0E0,4.124492E-1,2.0163393E0,8.5780334E-1,4.1203538E-1,1.02599E0,2.0548668E0,2.9338827E0,1.547687E0,3.1995277E0,2.9089956E0,1.3601273E0,0E0,7.56829E-1,1.6302705E-1,9.9947166E-1,1.9353638E0,2.042352E-1,3.7193775E-1,2.5887966E-2,0E0,7.11466E-1,4.0534794E-2,8.5717964E-1,1.6470289E0,8.3161163E-1,5.185113E-1,0E0,0E0,1.6882849E-1,8.7450683E-1,1.0621223E0,1.7399311E0,2.7335148E0,6.8807983E-1,2.2447872E-1,1.2043227E0,2.373751E0,1.8475189E0,8.0100614E-1,1.9999619E0,0E0,0E0,0E0,0E0,0E0,0E0,0E0,0E0,0E0,0E0,0E0,0E0,0E0,0E0,0E0,0E0,0E0,0E0,0E0,0E0,0E0,0E0,0E0,0E0,0E0,0E0,0E0,0E0,0E0,0E0,0E0,0E0,0E0,0E0,0E0,0E0,0E0,0E0,0E0,0E0,0E0,0E0,0E0,0E0,0E0,0E0,0E0,0E0,0E0,0E0,0E0,0E0],"parents":[2147483647,0,0,1,1,2,2,3,3,4,4,5,5,6,6,7,7,8,8,9,9,10,10,11,11,12,12,13,13,14,14,15,15,16,16,17,17,18,18,19,19,21,21,22,22,23,23,24,24,25,25,26,26,27,27,28,28,29,29,30,30,31,31,33,33,34,34,35,35,36,36,37,37,38,38,39,39,41,41,42,42,43,43,44,44,45,45,46,46,49,49,50,50,51,51,52,52,53,53,54,54,55,55,56,56,57,57,58,58,59,59,60,60],"right_children":[2,4,6,8,10,12,14,16,18,20,22,24,26,28,30,32,34,36,38,40,-1,42,44,46,48,50,52,54,56,58,60,62,-1,64,66,68,70,72,74,76,-1,78,80,82,84,86,88,-1,-1,90,92,94,96,98,100,102,104,106,108,110,112,-1,-1,-1,-1,-1,-1,-1,-1,-1,-1,-1,-1,-1,-1,-1,-1,-1,-1,-1,-1,-1,-1,-1,-1,-1,-1,-1,-1,-1,-1,-1,-1,-1,-1,-1,-1,-1,-1,-1,-1,-1,-1,-1,-1,-1,-1,-1,-1,-1,-1,-1,-1],"split_conditions":[4.793757E-2,1.5706806E-2,4.2154565E-2,-2.4271844E-2,5.376344E-2,5.6163853E-1,8.363434E-2,8.39E-4,7.3E-2,4.60092E-2,6.5E-3,1.6209598E-1,2.0647774E-2,1.0895E0,1.0613297E0,1.0566038E-1,7.7E-3,3.389E-1,2.1167245E0,8.769E-1,-2.9262935E-4,9.7444654E-1,-4.06E-2,5.8183E0,1.453E-2,8.045977E-1,3.7034E0,1.7315868E-1,1.7316017E-2,2.6490065E-1,8.831266E-1,5.296992E-2,3.1375594E-2,3.2979637E-2,9.6E-3,-5.5E-2,-6.5E-3,7.97E-2,6.688963E-3,3.846E-1,-2.8216604E-3,1.633E-1,1E1,9.6642137E-1,1.4E-1,9.2E-3,6.408431E-2,7.3807165E-3,-2.3968771E-2,-3.24E-2,9.392265E-1,3.117E-1,4.5E-1,4.039E-3,1.02E-2,7.1158394E-2,-9.039548E-1,6.3646275E-1,1E1,1.4682922E0,6.1E-3,1.027497E-2,-1.6259553E-2,-8.4432475E-3,1.0820455E-2,-2.0036386E-2,-8.152402E-3,-2.9662158E-3,-1.2304869E-2,-1.5542096E-2,-1.9956335E-2,-9.154064E-3,-1.0587962E-3,8.157202E-5,2.3058057E-2,-9.93801E-3,-1.6063482E-2,2.154396E-2,-9.908498E-3,-1.5266478E-2,-3.5607566E-3,1.0735849E-2,-1.6036483E-3,1.3573065E-2,-8.409796E-3,2.9653354E-2,2.1698862E-2,1.5782787E-2,-1.0084566E-2,1.26489895E-5,-2.2676772E-2,2.2950303E-2,-1.0348973E-3,1.255737E-2,2.3093395E-2,2.1695152E-3,1.7607938E-2,-5.8501493E-4,8.505961E-3,-3.1393494E-2,6.775487E-3,-1.4565565E-2,-3.9444574E-5,1.8282393E-2,-5.754621E-3,-2.6262108E-2,6.945688E-3,7.444984E-3,1.7973484E-2,3.2303107E-3,-8.884202E-3,-1.0014798E-2,1.1995698E-2],"split_indices":[1,5,8,5,8,3,1,6,27,1,28,18,5,3,3,8,28,29,3,29,0,3,27,6,6,9,6,8,5,9,9,4,0,1,28,27,27,27,1,29,0,29,20,3,6,28,4,0,0,27,9,29,29,6,28,4,9,3,7,3,28,0,0,0,0,0,0,0,0,0,0,0,0,0,0,0,0,0,0,0,0,0,0,0,0,0,0,0,0,0,0,0,0,0,0,0,0,0,0,0,0,0,0,0,0,0,0,0,0,0,0,0,0],"split_type":[0,0,0,0,0,0,0,0,0,0,0,0,0,0,0,0,0,0,0,0,0,0,0,0,0,0,0,0,0,0,0,0,0,0,0,0,0,0,0,0,0,0,0,0,0,0,0,0,0,0,0,0,0,0,0,0,0,0,0,0,0,0,0,0,0,0,0,0,0,0,0,0,0,0,0,0,0,0,0,0,0,0,0,0,0,0,0,0,0,0,0,0,0,0,0,0,0,0,0,0,0,0,0,0,0,0,0,0,0,0,0,0,0],"sum_hessian":[3.7027244E3,1.9180775E3,1.7846469E3,1.5699524E3,3.4812515E2,5.020158E2,1.2826311E3,7.598193E1,1.4939705E3,3.8183994E1,3.0994116E2,2.223737E2,2.796421E2,4.688271E2,8.13804E2,3.325785E1,4.2724087E1,1.4548159E3,3.9154556E1,3.713427E1,1.049727E0,1.4638334E1,2.9530283E2,2.1936829E2,3.0054238E0,2.0176819E1,2.5946527E2,3.5666644E2,1.1216065E2,4.2989044E2,3.8391354E2,2.6587048E1,6.6708026E0,2.1794312E1,2.0929775E1,3.9003687E2,1.064779E3,3.0829628E1,8.324927E0,3.542834E1,1.7059284E0,5.5737176E0,9.064617E0,6.1515617E1,2.337872E2,2.1158328E2,7.7849936E0,1.0367577E0,1.9686662E0,4.268694E0,1.5908125E1,1.8467897E2,7.4786316E1,3.496499E2,7.0165296E0,8.27403E1,2.942035E1,2.9120415E1,4.0077005E2,6.14892E1,3.2242435E2,2.1379822E1,5.207225E0,1.5350432E1,6.4438787E0,1.48983755E1,6.0313993E0,3.1945438E1,3.5809143E2,5.850414E2,4.7973764E2,1.554589E1,1.5283737E1,2.3679755E0,5.956952E0,9.162601E0,2.6265738E1,1.9674271E0,3.6062903E0,7.454772E0,1.6098452E0,2.0176216E1,4.13394E1,2.2557036E2,8.2168455E0,1.4894406E2,6.2639225E1,5.871525E0,1.9134688E0,1.0141796E0,3.2545142E0,4.684118E0,1.1224008E1,3.326389E1,1.5141507E2,3.1659224E1,4.312709E1,1.3324219E2,2.1640771E2,5.9734473E0,1.043082E0,7.998478E1,2.7555194E0,5.597013E0,2.3823336E1,5.920584E0,2.3199831E1,4.950967E1,3.5126038E2,4.26312E1,1.8858002E1,9.952452E0,3.124719E2],"tree_param":{"num_deleted":"0","num_feature":"30","num_nodes":"113","size_leaf_vector":"1"}},{"base_weights":[-1.3780172E-3,-2.0698014E-1,2.5119358E-1,-3.2212195E-1,2.3335395E-2,4.8871106E-1,2.0245957E-1,-3.2525557E-1,2.32018E-1,7.2212204E-2,-2.5405794E-1,5.144847E-1,2.1466646E-1,2.776805E-1,1.111361E-1,-3.2015443E-1,-5.835261E-1,-1.3027139E-2,3.745885E-1,-3.5516657E-2,1.4757681E-1,1.5059141E-3,-2.5976923E-1,5.286264E-1,1.265577E-1,3.0145833E-1,-1.7222416E-1,2.2147653E-1,3.5573858E-1,-6.371971E-2,1.5402879E-1,-3.6987737E-1,-2.9295686E-1,-3.0456638E-2,-1.0509438E-2,5.25138E-2,2.76934E-2,5.5967983E-2,-2.0406394E-1,-1.4192763E-1,1.907345E-1,-2.3179424E-1,-3.158055E-1,4.5471057E-1,6.0593796E-1,3.0413395E-2,-1.9353977E-1,-1.7174597E-1,4.0885773E-1,4.005436E-2,-2.299623E-2,2.4985278E-1,-7.831286E-2,4.5240325E-1,3.0809483E-1,2.8141734E-1,-1.6749729E-1,1.924445E-1,2.814644E-2,-1.8893272E-2,-1.2831211E-2,-1.3433001E-2,-1.7248426E-2,-8.791461E-3,1.2040655E-2,9.499404E-3,-2.39294E-3,-3.7529897E-3,-1.5095929E-2,-9.587626E-3,5.5147307E-3,4.8635113E-3,1.1907723E-2,-7.5500356E-3,-1.2783224E-2,-1.676194E-2,-6.9700317E-3,2.4923159E-2,1.1809632E-2,2.2062814E-2,3.2083225E-2,-2.84154E-2,1.0855384E-2,1.11502055E-2,-1.883751E-2,2.2818092E-2,-7.887801E-3,1.579887E-2,-1.3230498E-2,1.3085666E-2,-8.281671E-3,-2.2322385E-2,3.3673698E-3,-5.05143E-3,2.3492502E-2,-6.261714E-3,1.6244767E-2,1.8294869E-2,-1.3344513E-2,-2.608377E-4,-1.3749014E-2,1.5533959E-2,7.2222585E-3,4.803521E-3,-1.005591E-2],"categories":[],"categories_nodes":[],"categories_segments":[],"categories_sizes":[],"default_left":[0,0,0,0,0,0,0,0,0,0,0,0,0,0,0,0,0,0,0,0,0,0,0,0,0,0,0,0,0,0,0,0,0,0,0,0,0,0,0,0,0,0,0,0,0,0,0,0,0,0,0,0,0,0,0,0,0,0,0,0,0,0,0,0,0,0,0,0,0,0,0,0,0,0,0,0,0,0,0,0,0,0,0,0,0,0,0,0,0,0,0,0,0,0,0,0,0,0,0,0,0,0,0,0,0],"id":5,"left_children":[1,3,5,7,9,11,13,15,17,19,21,23,25,27,29,31,33,-1,35,37,39,-1,41,43,45,47,49,51,53,55,57,59,61,-1,-1,63,-1,65,67,69,71,73,75,77,79,-1,81,83,85,87,-1,89,91,93,95,97,99,101,103,-1,-1,-1,-1,-1,-1,-1,-1,-1,-1,-1,-1,-1,-1,-1,-1,-1,-1,-1,-1,-1,-1,-1,-1,-1,-1,-1,-1,-1,-1,-1,-1,-1,-1,-1,-1,-1,-1,-1,-1,-1,-1,-1,-1,-1,-1],"loss_changes":[1.9002174E2,5.3501038E1,1.890821E1,2.4108582E0,9.146526E0,1.8591232E0,9.340481E0,1.5756531E0,6.696666E-1,4.6588936E0,1.7187738E-1,1.3274384E0,9.1446996E-1,3.2001305E0,4.6435E0,1.6687317E0,1.0805225E-1,0E0,3.5939133E-1,3.6618178E0,4.2432275E0,0E0,8.229303E-2,1.1240234E0,1.6988835E0,1.1549727E0,3.4473535E-1,3.7385292E0,1.2939186E0,4.4314675E0,2.3951712E0,3.199196E-1,9.8685455E-1,0E0,0E0,1.9328529E-1,0E0,2.155242E0,1.031476E0,5.785133E-1,1.2802801E0,9.6241236E-2,5.7039976E-2,1.1176243E0,4.0345383E-1,0E0,1.188236E0,4.6051627E-1,5.481949E-1,4.193962E-1,0E0,2.0125694E0,2.0979252E0,1.018959E0,1.5811901E0,1.4257066E0,1.6510041E0,2.1126747E0,1.8450719E0,0E0,0E0,0E0,0E0,0E0,0E0,0E0,0E0,0E0,0E0,0E0,0E0,0E0,0E0,0E0,0E0,0E0,0E0,0E0,0E0,0E0,0E0,0E0,0E0,0E0,0E0,0E0,0E0,0E0,0E0,0E0,0E0,0E0,0E0,0E0,0E0,0E0,0E0,0E0,0E0,0E0,0E0,0E0,0E0,0E0,0E0],"parents":[2147483647,0,0,1,1,2,2,3,3,4,4,5,5,6,6,7,7,8,8,9,9,10,10,11,11,12,12,13,13,14,14,15,15,16,16,18,18,19,19,20,20,22,22,23,23,24,24,25,25,26,26,27,27,28,28,29,29,30,30,31,31,32,32,35,35,37,37,38,38,39,39,40,40,41,41,42,42,43,43,44,44,46,46,47,47,48,48,49,49,51,51,52,52,53,53,54,54,55,55,56,56,57,57,58,58],"right_children":[2,4,6,8,10,12,14,16,18,20,22,24,26,28,30,32,34,-1,36,38,40,-1,42,44,46,48,50,52,54,56,58,60,62,-1,-1,64,-1,66,68,70,72,74,76,78,80,-1,82,84,86,88,-1,90,92,94,96,98,100,102,104,-1,-1,-1,-1,-1,-1,-1,-1,-1,-1,-1,-1,-1,-1,-1,-1,-1,-1,-1,-1,-1,-1,-1,-1,-1,-1,-1,-1,-1,-1,-1,-1,-1,-1,-1,-1,-1,-1,-1,-1,-1,-1,-1,-1,-1,-1],"split_conditions":[4.863222E-2,5.421687E-2,9.9502485E-3,2.3970144E0,1.4E-1,1.04E-2,1.0289223E0,1.15E-2,1.03E-2,3.9E-3,-1.6306196E-1,1E1,8.16E-1,2.4236006E-1,8.770458E-2,2.2270504E-2,5.14E-3,-1.3027139E-2,2.4916517E-2,8.9E-3,8.2E-3,1.5059141E-3,9.1E-3,4.2724375E-2,1E-1,3.518428E-2,5.87986E-1,9.312E0,6.163256E-2,3.436426E-2,7.1475E0,1.03E-2,9.1E-3,-3.0456638E-2,-1.0509438E-2,3.1746032E-3,2.76934E-2,9.56E-4,-2.7777778E-2,1.0261313E-1,3.4413565E-2,-5.8488082E-2,1E-2,1.2983E0,9.9671416E-2,3.0413395E-2,8.2E-3,7.2383075E-3,1.7114229E0,3.3433735E-1,-2.299623E-2,1.5184166E-1,9.975865E-2,7.7737246E0,6.1E-3,9.7E-3,1.0895E0,8.306709E-2,1E1,-1.8893272E-2,-1.2831211E-2,-1.3433001E-2,-1.7248426E-2,-8.791461E-3,1.2040655E-2,9.499404E-3,-2.39294E-3,-3.7529897E-3,-1.5095929E-2,-9.587626E-3,5.5147307E-3,4.8635113E-3,1.1907723E-2,-7.5500356E-3,-1.2783224E-2,-1.676194E-2,-6.9700317E-3,2.4923159E-2,1.1809632E-2,2.2062814E-2,3.2083225E-2,-2.84154E-2,1.0855384E-2,1.11502055E-2,-1.883751E-2,2.2818092E-2,-7.887801E-3,1.579887E-2,-1.3230498E-2,1.3085666E-2,-8.281671E-3,-2.2322385E-2,3.3673698E-3,-5.05143E-3,2.3492502E-2,-6.261714E-3,1.6244767E-2,1.8294869E-2,-1.3344513E-2,-2.608377E-4,-1.3749014E-2,1.5533959E-2,7.2222585E-3,4.803521E-3,-1.005591E-2],"split_indices":[0,8,8,3,6,28,3,28,28,6,10,19,6,10,0,8,6,0,10,28,28,0,28,4,0,4,3,6,8,8,6,28,28,0,0,0,0,6,0,8,4,2,28,6,1,0,28,10,3,2,0,18,0,7,28,28,3,8,19,0,0,0,0,0,0,0,0,0,0,0,0,0,0,0,0,0,0,0,0,0,0,0,0,0,0,0,0,0,0,0,0,0,0,0,0,0,0,0,0,0,0,0,0,0,0],"split_type":[0,0,0,0,0,0,0,0,0,0,0,0,0,0,0,0,0,0,0,0,0,0,0,0,0,0,0,0,0,0,0,0,0,0,0,0,0,0,0,0,0,0,0,0,0,0,0,0,0,0,0,0,0,0,0,0,0,0,0,0,0,0,0,0,0,0,0,0,0,0,0,0,0,0,0,0,0,0,0,0,0,0,0,0,0,0,0,0,0,0,0,0,0,0,0,0,0,0,0,0,0,0,0,0,0],"sum_hessian":[3.6572415E3,2.0161805E3,1.6410608E3,1.3439166E3,6.722639E2,2.778519E2,1.363209E3,1.3367703E3,7.146289E0,5.7218445E2,1.0007944E2,2.5316463E2,2.4687263E1,7.463873E2,6.1682166E2,1.3130752E3,2.369513E1,1.4184119E0,5.727877E0,2.3573918E2,3.3644528E2,1.887547E0,9.819189E1,2.439103E2,9.254336E0,2.0344225E1,4.343038E0,4.361702E2,3.1021713E2,1.2140754E2,4.954141E2,4.5982248E2,8.532527E2,2.158318E1,2.111949E0,2.5105689E0,3.217308E0,1.5323418E2,8.2505005E1,4.3351585E1,2.930937E2,6.892095E1,2.9270937E1,1.2821162E2,1.1569868E2,3.335113E0,5.9192233E0,3.6524246E0,1.6691801E1,2.994406E0,1.3486321E0,3.9860703E2,3.756317E1,9.96141E1,2.1060303E2,2.7670607E1,9.373693E1,3.7917264E2,1.1624147E2,4.2734427E2,3.2478207E1,5.8577673E2,2.6747598E2,1.1645684E0,1.3460006E0,6.6528725E1,8.6705444E1,3.6350418E1,4.615459E1,3.6400623E1,6.9509645E0,9.967886E1,1.9341483E2,1.7389307E1,5.1531643E1,2.5555294E1,3.7156432E0,1.05755646E2,2.2455969E1,2.3005505E1,9.269318E1,2.894077E0,3.0251465E0,1.2184362E0,2.433988E0,1.5580162E1,1.1116387E0,1.5518347E0,1.4425714E0,3.8790396E2,1.0703064E1,1.0063688E1,2.7499485E1,2.8979263E0,9.671617E1,7.6196E0,2.0298343E2,2.426472E1,3.405887E0,3.776576E1,5.5971172E1,1.0790423E2,2.712684E2,9.012207E1,2.61194E1],"tree_param":{"num_deleted":"0","num_feature":"30","num_nodes":"105","size_leaf_vector":"1"}},{"base_weights":[2.2572062E-3,-2.0560609E-1,2.4698214E-1,-2.784468E-1,1.3337159E-1,1.7509058E-1,3.985613E-1,-2.7693123E-2,-2.9652596E-1,-8.4358834E-2,2.216067E-1,2.0149748E-1,-4.572813E-2,4.4602615E-1,2.2924148E-1,1.4636995E-1,-2.2638413E-1,-3.339045E-1,-2.6324084E-1,2.0467153E-1,-1.8696833E-1,-1.21974036E-1,2.5164798E-1,1.2560992E-1,2.5800803E-1,-3.402579E-1,-1.4294811E-3,-3.625461E-1,4.5254013E-1,-4.888584E-1,2.5798154E-1,-1.0398803E-1,2.1121468E-1,-2.4619082E-1,1.1946884E-2,-3.354952E-1,9.121217E-2,-2.666981E-1,1.1523877E-1,2.677007E-1,-1.1349704E-2,-2.5560397E-1,-8.5101E-2,5.3205676E-2,-2.3772143E-1,2.730581E-1,-1.0757833E-2,2.800897E-1,7.067035E-2,2.1231729E-1,3.346928E-1,-4.5297745E-1,-7.357435E-2,-2.9264095E-1,5.682047E-2,-2.4130458E-2,-2.840401E-3,4.7543788E-1,2.7359834E-1,-3.0230928E-2,-3.205802E-3,3.2852426E-1,-6.947491E-4,1.0848452E-2,-1.2825399E-2,-1.8284805E-3,1.34936515E-2,-1.2707363E-2,1.4556786E-3,-1.5059917E-2,-1.7785227E-2,-6.2597515E-3,1.34783005E-2,-1.5609625E-2,-1.2383649E-2,1.7023254E-2,-8.872743E-3,1.5201916E-2,-1.3731601E-2,-1.4017455E-2,2.008209E-3,9.036201E-3,-1.0590247E-2,-6.7716325E-3,1.6639996E-2,1.181708E-3,-1.823509E-2,8.223574E-3,1.549901E-2,6.1336732E-3,1.7189061E-2,-5.010264E-3,5.797501E-3,6.596985E-3,1.3741905E-2,-1.234365E-3,1.8447464E-2,-9.309301E-3,-2.600188E-2,-2.5257869E-2,8.720366E-3,-2.5542553E-3,-1.7101126E-2,8.227131E-3,-3.7369765E-3,2.7064174E-2,2.0828852E-2,-6.141969E-3,1.63579E-2,1.8627403E-2,5.4475577E-3,7.4219615E-3,-2.3265295E-2],"categories":[],"categories_nodes":[],"categories_segments":[],"categories_sizes":[],"default_left":[0,0,0,0,0,0,0,0,0,0,0,0,0,0,0,0,0,0,0,0,0,0,0,0,0,0,0,0,0,0,0,0,0,0,0,0,0,0,0,0,0,0,0,0,0,0,0,0,0,0,0,0,0,0,0,0,0,0,0,0,0,0,0,0,0,0,0,0,0,0,0,0,0,0,0,0,0,0,0,0,0,0,0,0,0,0,0,0,0,0,0,0,0,0,0,0,0,0,0,0,0,0,0,0,0,0,0,0,0,0,0,0,0],"id":6,"left_children":[1,3,5,7,9,11,13,15,17,19,21,23,25,27,29,31,33,35,37,39,41,43,45,47,49,51,53,55,57,59,61,63,65,67,-1,69,71,73,75,77,-1,79,81,83,85,87,-1,89,91,93,95,97,99,101,103,-1,-1,105,107,-1,-1,109,111,-1,-1,-1,-1,-1,-1,-1,-1,-1,-1,-1,-1,-1,-1,-1,-1,-1,-1,-1,-1,-1,-1,-1,-1,-1,-1,-1,-1,-1,-1,-1,-1,-1,-1,-1,-1,-1,-1,-1,-1,-1,-1,-1,-1,-1,-1,-1,-1,-1,-1],"loss_changes":[1.8382053E2,4.828292E1,1.801564E1,7.284569E0,6.6713023E0,6.583843E0,4.182358E0,3.8128033E0,1.7788086E0,3.021381E0,2.5770044E0,4.287155E0,1.5814562E0,2.3516846E0,2.5776377E0,9.775392E-1,5.327902E-1,5.059967E-1,1.0754089E0,7.9077077E-1,5.009165E-1,4.2850772E-1,2.329339E0,3.6454973E0,1.9484787E0,4.4306135E-1,1.8214853E0,1.14809155E-1,1.5599518E0,2.0297265E-1,2.096322E0,6.812281E-1,6.941867E-1,1.1652422E-1,0E0,3.7846375E-1,1.6524687E-1,6.07708E-1,5.828557E-1,5.539317E-1,0E0,3.3448553E-1,1.1023214E0,5.1853347E-1,4.2453384E-1,8.216877E-1,0E0,1.090373E0,2.486814E0,1.7925339E0,2.6371326E0,9.900236E-2,7.197868E-1,1.9601953E-1,1.2807076E0,0E0,0E0,1.1865158E0,1.083751E0,0E0,0E0,8.3188057E-1,1.8436494E0,0E0,0E0,0E0,0E0,0E0,0E0,0E0,0E0,0E0,0E0,0E0,0E0,0E0,0E0,0E0,0E0,0E0,0E0,0E0,0E0,0E0,0E0,0E0,0E0,0E0,0E0,0E0,0E0,0E0,0E0,0E0,0E0,0E0,0E0,0E0,0E0,0E0,0E0,0E0,0E0,0E0,0E0,0E0,0E0,0E0,0E0,0E0,0E0,0E0,0E0],"parents":[2147483647,0,0,1,1,2,2,3,3,4,4,5,5,6,6,7,7,8,8,9,9,10,10,11,11,12,12,13,13,14,14,15,15,16,16,17,17,18,18,19,19,20,20,21,21,22,22,23,23,24,24,25,25,26,26,27,27,28,28,29,29,30,30,31,31,32,32,33,33,35,35,36,36,37,37,38,38,39,39,41,41,42,42,43,43,44,44,45,45,47,47,48,48,49,49,50,50,51,51,52,52,53,53,54,54,57,57,58,58,61,61,62,62],"right_children":[2,4,6,8,10,12,14,16,18,20,22,24,26,28,30,32,34,36,38,40,42,44,46,48,50,52,54,56,58,60,62,64,66,68,-1,70,72,74,76,78,-1,80,82,84,86,88,-1,90,92,94,96,98,100,102,104,-1,-1,106,108,-1,-1,110,112,-1,-1,-1,-1,-1,-1,-1,-1,-1,-1,-1,-1,-1,-1,-1,-1,-1,-1,-1,-1,-1,-1,-1,-1,-1,-1,-1,-1,-1,-1,-1,-1,-1,-1,-1,-1,-1,-1,-1,-1,-1,-1,-1,-1,-1,-1,-1,-1,-1,-1],"split_conditions":[4.863222E-2,1.5706806E-2,4.9309663E-2,-2.4271844E-2,3.3343814E-2,1.785338E0,3.7034E0,9.56E-4,1.5901208E-2,-7.50589E-1,2.92E-3,9.9671416E-2,-3.215434E-3,0E0,8.135579E0,3.0579964E-2,3.884857E-1,2.3970144E0,2.3970144E0,-1.7699115E-2,2.2146508E-2,2.631579E-2,1.4E-1,7.822565E-1,2.0833333E-1,1.627907E-1,8.264463E-1,1E1,9.392265E-1,5.5703416E-2,1E1,1.4091167E-2,1.2307692E-2,2.3970144E0,1.1946884E-2,-4.761905E-3,1.4104373E-3,2.106E-3,1E-3,1.3493501E0,-1.1349704E-2,1.6935563E-1,4.310345E-3,2.0833334E-2,1.8099548E-2,8.843639E-1,-1.0757833E-2,1.951E-3,2.75E-2,8.814103E-3,8.384078E0,4.1054767E-2,-2.2435898E-2,5.1282052E-2,9.746589E-3,-2.4130458E-2,-2.840401E-3,4.819039E-1,4.819039E-1,-3.0230928E-2,-3.205802E-3,9.189641E-1,1.00323625E-1,1.0848452E-2,-1.2825399E-2,-1.8284805E-3,1.34936515E-2,-1.2707363E-2,1.4556786E-3,-1.5059917E-2,-1.7785227E-2,-6.2597515E-3,1.34783005E-2,-1.5609625E-2,-1.2383649E-2,1.7023254E-2,-8.872743E-3,1.5201916E-2,-1.3731601E-2,-1.4017455E-2,2.008209E-3,9.036201E-3,-1.0590247E-2,-6.7716325E-3,1.6639996E-2,1.181708E-3,-1.823509E-2,8.223574E-3,1.549901E-2,6.1336732E-3,1.7189061E-2,-5.010264E-3,5.797501E-3,6.596985E-3,1.3741905E-2,-1.234365E-3,1.8447464E-2,-9.309301E-3,-2.600188E-2,-2.5257869E-2,8.720366E-3,-2.5542553E-3,-1.7101126E-2,8.227131E-3,-3.7369765E-3,2.7064174E-2,2.0828852E-2,-6.141969E-3,1.63579E-2,1.8627403E-2,5.4475577E-3,7.4219615E-3,-2.3265295E-2],"split_indices":[0,5,5,5,4,3,6,6,4,9,6,1,5,9,7,4,10,3,3,0,5,1,6,3,2,2,9,20,9,4,19,4,1,3,0,0,5,6,6,3,0,10,0,1,5,3,0,6,2,5,7,4,5,1,5,0,0,3,3,0,0,9,0,0,0,0,0,0,0,0,0,0,0,0,0,0,0,0,0,0,0,0,0,0,0,0,0,0,0,0,0,0,0,0,0,0,0,0,0,0,0,0,0,0,0,0,0,0,0,0,0,0,0],"split_type":[0,0,0,0,0,0,0,0,0,0,0,0,0,0,0,0,0,0,0,0,0,0,0,0,0,0,0,0,0,0,0,0,0,0,0,0,0,0,0,0,0,0,0,0,0,0,0,0,0,0,0,0,0,0,0,0,0,0,0,0,0,0,0,0,0,0,0,0,0,0,0,0,0,0,0,0,0,0,0,0,0,0,0,0,0,0,0,0,0,0,0,0,0,0,0,0,0,0,0,0,0,0,0,0,0,0,0,0,0,0,0,0,0],"sum_hessian":[3.6115842E3,1.9529536E3,1.6586305E3,1.6076704E3,3.452832E2,1.1265032E3,5.321274E2,1.0828705E2,1.4993833E3,9.9586296E1,2.4569691E2,1.00625616E3,1.2024702E2,4.14342E2,1.1778537E2,5.786116E1,5.0425888E1,7.0200885E2,7.973745E2,2.5830969E1,7.3755325E1,1.9509342E1,2.2618756E2,4.3086865E2,5.753875E2,1.4847694E1,1.0539932E2,2.8745162E0,4.1146747E2,3.9165576E0,1.1386881E2,1.177924E1,4.608192E1,4.881881E1,1.607076E0,6.9960187E2,2.4069586E0,7.904494E2,6.9250655E0,2.2871286E1,2.9596832E0,4.31636E1,3.0591728E1,7.976903E0,1.153244E1,2.166652E2,9.522353E0,1.1195997E2,3.189087E2,3.6291956E2,2.1246793E2,9.94547E0,4.9022245E0,1.6897758E1,8.8501564E1,1.6486051E0,1.2259111E0,3.6331946E2,4.814803E1,2.744949E0,1.1716086E0,8.925765E1,2.4611162E1,3.6582973E0,8.120942E0,8.892947E0,3.7188976E1,4.7522243E1,1.2965674E0,2.652887E2,4.3431317E2,1.2221295E0,1.1848291E0,2.2853897E2,5.6191046E2,3.8213456E0,3.1037197E0,2.184688E1,1.0244057E0,3.9879272E1,3.284326E0,9.737045E0,2.0854683E1,5.0711074E0,2.9057956E0,4.0370703E0,7.49537E0,5.636175E1,1.6030347E2,3.309365E1,7.886632E1,6.6550095E1,2.523586E2,1.6014514E2,2.0277441E2,1.851447E1,1.9395346E2,2.7562866E0,7.189183E0,1.4104413E0,3.4917831E0,3.2134209E0,1.3684338E1,4.852131E1,3.998026E1,1.6761656E2,1.957029E2,5.5767245E0,4.2571304E1,7.377023E1,1.5487419E1,1.9146046E1,5.465117E0],"tree_param":{"num_deleted":"0","num_feature":"30","num_nodes":"113","size_leaf_vector":"1"}},{"base_weights":[3.4167278E-3,-2.04227E-1,2.4516858E-1,-2.7557656E-1,1.5964575E-1,4.9150878E-1,1.967791E-1,-3.0326366E-1,-9.3991466E-2,-2.7297568E-1,2.126688E-1,5.088338E-1,1.7231144E-1,2.728361E-1,1.3948098E-1,-3.1259847E-1,5.7752218E-2,1.3160326E-1,-1.9711025E-1,-8.716031E-3,-3.0155325E-1,2.3142038E-1,-2.4491552E-1,4.7536975E-1,6.5732193E-1,-2.2569399E-1,3.5189518E-1,3.2665205E-1,1.5435715E-1,-1.8151741E-2,1.8157087E-1,-2.3477559E-1,-3.4082344E-1,-1.0976853E-2,3.3066773E-1,2.1682833E-1,-2.8317428E-1,-2.1525204E-1,1.7126001E-2,-4.145908E-3,-3.0704954E-1,5.2650493E-2,2.6106995E-1,-3.9233183E-3,-1.2765548E-2,4.8391366E-1,3.7579473E-2,9.147644E-3,3.3422336E-2,-3.3062268E-2,2.1047044E-1,5.118508E-1,-1.8101454E-2,3.59937E-1,2.1862619E-1,-5.293451E-2,2.2341245E-1,3.036718E-1,-9.785683E-2,2.4501184E-1,1.340072E-1,-1.5012132E-2,-8.853319E-3,-1.9134806E-2,-1.5525634E-2,-1.130001E-3,7.800512E-3,2.4861233E-2,-8.325794E-3,1.6607232E-2,-3.55131E-3,-5.577245E-4,-1.5372324E-2,-1.1052016E-2,7.54656E-3,-2.1277254E-2,1.9266034E-2,-1.57007E-2,-4.58543E-3,1.5988542E-2,-1.0996425E-2,1.3632587E-2,-1.0254827E-2,2.1575209E-2,2.7259102E-2,-1.6778642E-2,1.4348364E-2,-1.0826344E-2,2.5530046E-2,2.8822312E-2,-6.6418265E-4,1.3644904E-2,2.2031566E-2,-1.18499E-2,1.2801847E-2,6.008324E-3,-1.3245049E-2,3.4549094E-3,1.6252564E-2,2.0556217E-2,-1.2409001E-3,1.8975943E-3,-1.3508685E-2,1.4003197E-2,6.0143217E-4,3.6491256E-3,1.0998105E-2],"categories":[],"categories_nodes":[],"categories_segments":[],"categories_sizes":[],"default_left":[0,0,0,0,0,0,0,0,0,0,0,0,0,0,0,0,0,0,0,0,0,0,0,0,0,0,0,0,0,0,0,0,0,0,0,0,0,0,0,0,0,0,0,0,0,0,0,0,0,0,0,0,0,0,0,0,0,0,0,0,0,0,0,0,0,0,0,0,0,0,0,0,0,0,0,0,0,0,0,0,0,0,0,0,0,0,0,0,0,0,0,0,0,0,0,0,0,0,0,0,0,0,0,0,0,0,0],"id":7,"left_children":[1,3,5,7,9,11,13,15,17,19,21,23,25,27,29,31,33,35,37,-1,39,41,43,45,47,49,51,53,55,57,59,61,63,65,67,69,71,73,75,-1,77,79,81,-1,-1,83,85,-1,-1,-1,87,89,-1,91,93,95,97,99,101,103,105,-1,-1,-1,-1,-1,-1,-1,-1,-1,-1,-1,-1,-1,-1,-1,-1,-1,-1,-1,-1,-1,-1,-1,-1,-1,-1,-1,-1,-1,-1,-1,-1,-1,-1,-1,-1,-1,-1,-1,-1,-1,-1,-1,-1,-1,-1],"loss_changes":[1.801265E2,5.0159584E1,1.9666763E1,8.087196E0,7.3317146E0,1.4139786E0,6.008259E0,4.736847E0,5.0278826E0,4.6272755E-2,2.4852028E0,9.6481323E-1,1.1866959E0,3.7438812E0,5.2669373E0,2.9184723E0,6.8146276E-1,2.4669738E0,5.7877254E-1,0E0,5.5594444E-3,1.4301138E0,8.6307526E-5,7.799797E-1,1.1340523E-1,1.1699466E0,1.448976E0,1.3894615E0,2.6996703E0,4.341645E0,1.8568516E0,1.3316307E0,1.1497879E0,6.1433703E-2,6.874604E-1,1.9162748E0,7.601833E-2,3.2265663E-1,2.1977468E0,0E0,8.4114075E-3,2.9831026E0,1.3160467E0,0E0,0E0,4.3655777E-1,5.773194E-1,0E0,0E0,0E0,5.552065E-1,3.2836914E-1,0E0,2.0612106E0,1.7434473E0,1.7831035E0,2.1896567E0,1.1966169E0,3.1809561E0,2.1781502E0,1.8728905E0,0E0,0E0,0E0,0E0,0E0,0E0,0E0,0E0,0E0,0E0,0E0,0E0,0E0,0E0,0E0,0E0,0E0,0E0,0E0,0E0,0E0,0E0,0E0,0E0,0E0,0E0,0E0,0E0,0E0,0E0,0E0,0E0,0E0,0E0,0E0,0E0,0E0,0E0,0E0,0E0,0E0,0E0,0E0,0E0,0E0,0E0],"parents":[2147483647,0,0,1,1,2,2,3,3,4,4,5,5,6,6,7,7,8,8,9,9,10,10,11,11,12,12,13,13,14,14,15,15,16,16,17,17,18,18,20,20,21,21,22,22,23,23,24,24,25,25,26,26,27,27,28,28,29,29,30,30,31,31,32,32,33,33,34,34,35,35,36,36,37,37,38,38,40,40,41,41,42,42,45,45,46,46,50,50,51,51,53,53,54,54,55,55,56,56,57,57,58,58,59,59,60,60],"right_children":[2,4,6,8,10,12,14,16,18,20,22,24,26,28,30,32,34,36,38,-1,40,42,44,46,48,50,52,54,56,58,60,62,64,66,68,70,72,74,76,-1,78,80,82,-1,-1,84,86,-1,-1,-1,88,90,-1,92,94,96,98,100,102,104,106,-1,-1,-1,-1,-1,-1,-1,-1,-1,-1,-1,-1,-1,-1,-1,-1,-1,-1,-1,-1,-1,-1,-1,-1,-1,-1,-1,-1,-1,-1,-1,-1,-1,-1,-1,-1,-1,-1,-1,-1,-1,-1,-1,-1,-1,-1],"split_conditions":[4.863222E-2,1.6483517E-2,8.908686E-3,6.528662E-2,5.421687E-2,4.9004E0,9.379631E-1,7.3E-2,9.56E-4,-3.9032817E-2,1.4E-1,5.4242764E-2,4.217578E-2,9.263158E-2,8.770458E-2,3.389E-1,2.3970144E0,-2.4271844E-2,1.5706806E-2,-8.716031E-3,-5.5E-2,3.9E-3,-7.8175895E-2,8.831266E-1,-5.67E-2,6.0375E0,1E1,4.7467E0,3.302E-1,3.4782607E-2,9.263158E-2,-1.19E-2,2.4305556E-2,5.5737704E-2,1.5527951E-3,-1.05E-2,1.094E-1,2.6741471E0,1E1,-4.145908E-3,4.7270276E-2,1.858E-1,4.6647232E-2,-3.9233183E-3,-1.2765548E-2,5.247E-1,2.2886E0,9.147644E-3,3.3422336E-2,-3.3062268E-2,1E-1,7.685E-1,-1.8101454E-2,9.975865E-2,-1.658267E-1,5.911216E-2,4.195E-3,6.863E-1,1.0646019E0,2.48E-2,2.3349614E-1,-1.5012132E-2,-8.853319E-3,-1.9134806E-2,-1.5525634E-2,-1.130001E-3,7.800512E-3,2.4861233E-2,-8.325794E-3,1.6607232E-2,-3.55131E-3,-5.577245E-4,-1.5372324E-2,-1.1052016E-2,7.54656E-3,-2.1277254E-2,1.9266034E-2,-1.57007E-2,-4.58543E-3,1.5988542E-2,-1.0996425E-2,1.3632587E-2,-1.0254827E-2,2.1575209E-2,2.7259102E-2,-1.6778642E-2,1.4348364E-2,-1.0826344E-2,2.5530046E-2,2.8822312E-2,-6.6418265E-4,1.3644904E-2,2.2031566E-2,-1.18499E-2,1.2801847E-2,6.008324E-3,-1.3245049E-2,3.4549094E-3,1.6252564E-2,2.0556217E-2,-1.2409001E-3,1.8975943E-3,-1.3508685E-2,1.4003197E-2,6.0143217E-4,3.6491256E-3,1.0998105E-2],"split_indices":[0,5,8,8,8,6,3,27,6,2,6,4,4,8,0,29,3,5,5,0,27,6,2,9,27,6,19,6,29,8,8,27,8,8,5,27,29,3,25,0,4,29,0,0,0,29,6,0,0,0,0,29,0,0,18,4,6,29,3,27,2,0,0,0,0,0,0,0,0,0,0,0,0,0,0,0,0,0,0,0,0,0,0,0,0,0,0,0,0,0,0,0,0,0,0,0,0,0,0,0,0,0,0,0,0,0,0],"split_type":[0,0,0,0,0,0,0,0,0,0,0,0,0,0,0,0,0,0,0,0,0,0,0,0,0,0,0,0,0,0,0,0,0,0,0,0,0,0,0,0,0,0,0,0,0,0,0,0,0,0,0,0,0,0,0,0,0,0,0,0,0,0,0,0,0,0,0,0,0,0,0,0,0,0,0,0,0,0,0,0,0,0,0,0,0,0,0,0,0,0,0,0,0,0,0,0,0,0,0,0,0,0,0,0,0,0,0],"sum_hessian":[3.5863044E3,1.929332E3,1.6569724E3,1.6132437E3,3.1608835E2,2.7054254E2,1.3864299E3,1.399227E3,2.1401659E2,3.4057873E1,2.820305E2,2.560508E2,1.4491718E1,5.9408514E2,7.923448E2,1.3640898E3,3.5137165E1,6.705123E1,1.4696535E2,9.2444E0,2.481347E1,2.7140277E2,1.06277E1,2.1238748E2,4.3663345E1,4.4259257E0,1.0065793E1,4.0731558E2,1.8676955E2,1.671E2,6.252448E2,3.6553683E2,9.9855304E2,2.8835276E1,6.3018885E0,5.601829E1,1.1032938E1,1.3548737E2,1.1477981E1,1.0029694E0,2.3810503E1,3.90044E1,2.3239838E2,1.1272129E0,9.500486E0,2.0821852E2,4.1689534E0,1.4002723E0,4.2263073E1,1.9563148E0,2.469611E0,8.45458E0,1.6112127E0,3.09592E2,9.7723564E1,4.6729473E1,1.4004007E2,3.2612255E1,1.3448775E2,2.6612848E2,3.5911633E2,1.6928838E2,1.9624847E2,4.144234E2,5.8412964E2,2.7767195E1,1.068081E0,4.720451E0,1.5814375E0,3.988589E1,1.61324E1,1.0233841E0,1.0009554E1,1.3376924E2,1.7181333E0,5.1411476E0,6.3368325E0,2.2620699E1,1.1898043E0,1.9612007E1,1.9392391E1,2.2716954E2,5.2288427E0,1.1655726E2,9.166127E1,1.5316299E0,2.6373236E0,1.1343386E0,1.3352723E0,7.441507E0,1.0130734E0,1.5104875E2,1.5854326E2,7.010303E0,9.071326E1,2.5961378E1,2.0768095E1,5.62769E1,8.3763176E1,2.4384323E1,8.227931E0,7.5647316E1,5.884043E1,2.3115009E2,3.4978382E1,2.1109561E2,1.4802072E2],"tree_param":{"num_deleted":"0","num_feature":"30","num_nodes":"107","size_leaf_vector":"1"}},{"base_weights":[-2.391245E-3,-1.9248877E-1,2.227738E-1,-2.6693365E-1,1.3703927E-1,3.666456E-1,1.435015E-1,-2.2495752E-2,-2.846915E-1,-2.0848967E-1,2.0558846E-1,4.845536E-1,2.9831314E-1,-4.016221E-3,1.8379226E-1,1.3604207E-1,-2.5187317E-1,-2.929979E-1,4.8385255E-2,3.016776E-2,-2.600311E-1,2.479246E-1,1.944732E-2,4.188883E-1,5.6134665E-1,2.3380712E-1,4.432463E-1,9.287914E-2,-1.997743E-1,2.0601463E-1,-1.1626539E-2,4.455404E-2,3.5494807E-1,-1.4451128E-2,-2.9647633E-1,-2.6176476E-1,-3.4671247E-1,1.9678752E-1,-3.277218E-2,2.0993023E-1,-4.05901E-1,-3.0794722E-1,5.8534397E-3,2.6873156E-1,-1.7229682E-1,-1.8969618E-1,1.7498134E-1,4.3429884E-1,9.228299E-2,5.74689E-1,-1.7533233E-2,1.4787696E-1,3.1461996E-1,1.494761E-1,4.9821255E-1,-8.283297E-2,1.3903442E-1,-2.616751E-1,9.606247E-2,2.6499888E-1,1.5587448E-1,-2.8623104E-1,5.314329E-2,1.0859656E-2,-5.9021236E-3,-1.6182931E-2,2.2278925E-2,9.094319E-3,-5.0333366E-3,-1.26090795E-2,-2.5046432E-2,-1.0672561E-2,-1.6619964E-2,-1.6752396E-2,-2.6691733E-2,2.1059285E-3,1.7004406E-2,-6.672901E-5,-1.8076034E-2,-2.2592277E-3,2.6139943E-2,-3.0675367E-2,3.344973E-4,-1.1870253E-2,-1.8787837E-2,-1.2147248E-2,1.41778635E-2,8.914094E-3,1.7201284E-2,-2.276808E-2,2.8543605E-3,-2.1226479E-2,3.1024138E-3,2.167171E-2,-2.4045077E-4,5.052857E-3,2.2661082E-2,-7.896863E-3,2.4552101E-2,2.9239967E-2,9.961286E-3,-8.182884E-3,6.7604072E-3,1.7115602E-2,4.633021E-3,1.3063832E-2,2.9109001E-2,-1.0626595E-2,1.1163688E-2,-8.020616E-3,2.564207E-2,1.3984493E-2,-9.799259E-3,1.0925781E-2,-1.4506837E-3,-1.754463E-2,-9.521424E-3,-8.872137E-3,1.7311217E-2,1.649581E-2,7.316702E-3,5.772283E-3,1.3465871E-2,-2.6222859E-2,1.09097175E-2,7.4751712E-3,-8.717322E-3],"categories":[],"categories_nodes":[],"categories_segments":[],"categories_sizes":[],"default_left":[0,0,0,0,0,0,0,0,0,0,0,0,0,0,0,0,0,0,0,0,0,0,0,0,0,0,0,0,0,0,0,0,0,0,0,0,0,0,0,0,0,0,0,0,0,0,0,0,0,0,0,0,0,0,0,0,0,0,0,0,0,0,0,0,0,0,0,0,0,0,0,0,0,0,0,0,0,0,0,0,0,0,0,0,0,0,0,0,0,0,0,0,0,0,0,0,0,0,0,0,0,0,0,0,0,0,0,0,0,0,0,0,0,0,0,0,0,0,0,0,0,0,0,0,0,0,0],"id":8,"left_children":[1,3,5,7,9,11,13,15,17,19,21,23,25,27,29,31,33,35,37,39,41,43,45,47,49,51,53,55,57,59,61,63,65,67,69,71,73,75,77,79,81,83,85,87,89,91,93,95,97,99,101,103,105,107,109,111,113,115,117,119,121,123,125,-1,-1,-1,-1,-1,-1,-1,-1,-1,-1,-1,-1,-1,-1,-1,-1,-1,-1,-1,-1,-1,-1,-1,-1,-1,-1,-1,-1,-1,-1,-1,-1,-1,-1,-1,-1,-1,-1,-1,-1,-1,-1,-1,-1,-1,-1,-1,-1,-1,-1,-1,-1,-1,-1,-1,-1,-1,-1,-1,-1,-1,-1,-1,-1],"loss_changes":[1.5215662E2,4.7320915E1,1.8506844E1,6.8198624E0,8.47168E0,4.508011E0,6.2465363E0,3.9469733E0,4.0701675E0,7.3860717E-1,2.3392534E0,8.2518005E-1,3.338581E0,4.313249E0,3.5869522E0,1.2713662E0,4.6509767E-1,2.3091507E0,4.4640154E-1,9.825537E-1,6.255684E-1,2.164424E0,1.8613896E0,5.50251E-1,7.359638E-1,1.7374897E0,1.7386189E0,1.2453369E0,1.4037488E0,2.150774E0,1.5310704E0,1.3301038E0,1.3004799E0,1.5476528E-1,2.1113372E-1,3.029808E0,9.6242523E-1,2.7507377E-1,2.524362E-1,7.232176E-1,3.1952494E-1,1.0932088E-1,6.5323246E-1,1.5132961E0,8.0764747E-1,1.471771E0,1.5239948E0,6.587753E-1,7.315541E-1,2.3232841E-1,9.104417E-2,1.3252852E0,1.7248402E0,5.5841655E-1,9.894638E-1,1.3787608E0,1.6206188E0,3.306141E-1,1.0027585E0,2.5642204E0,1.8175058E0,2.0878537E0,1.5562563E0,0E0,0E0,0E0,0E0,0E0,0E0,0E0,0E0,0E0,0E0,0E0,0E0,0E0,0E0,0E0,0E0,0E0,0E0,0E0,0E0,0E0,0E0,0E0,0E0,0E0,0E0,0E0,0E0,0E0,0E0,0E0,0E0,0E0,0E0,0E0,0E0,0E0,0E0,0E0,0E0,0E0,0E0,0E0,0E0,0E0,0E0,0E0,0E0,0E0,0E0,0E0,0E0,0E0,0E0,0E0,0E0,0E0,0E0,0E0,0E0,0E0,0E0,0E0,0E0],"parents":[2147483647,0,0,1,1,2,2,3,3,4,4,5,5,6,6,7,7,8,8,9,9,10,10,11,11,12,12,13,13,14,14,15,15,16,16,17,17,18,18,19,19,20,20,21,21,22,22,23,23,24,24,25,25,26,26,27,27,28,28,29,29,30,30,31,31,32,32,33,33,34,34,35,35,36,36,37,37,38,38,39,39,40,40,41,41,42,42,43,43,44,44,45,45,46,46,47,47,48,48,49,49,50,50,51,51,52,52,53,53,54,54,55,55,56,56,57,57,58,58,59,59,60,60,61,61,62,62],"right_children":[2,4,6,8,10,12,14,16,18,20,22,24,26,28,30,32,34,36,38,40,42,44,46,48,50,52,54,56,58,60,62,64,66,68,70,72,74,76,78,80,82,84,86,88,90,92,94,96,98,100,102,104,106,108,110,112,114,116,118,120,122,124,126,-1,-1,-1,-1,-1,-1,-1,-1,-1,-1,-1,-1,-1,-1,-1,-1,-1,-1,-1,-1,-1,-1,-1,-1,-1,-1,-1,-1,-1,-1,-1,-1,-1,-1,-1,-1,-1,-1,-1,-1,-1,-1,-1,-1,-1,-1,-1,-1,-1,-1,-1,-1,-1,-1,-1,-1,-1,-1,-1,-1,-1,-1,-1,-1],"split_conditions":[4.863222E-2,1.5706806E-2,4.8699755E-2,-2.4271844E-2,5.7341907E-2,5.061755E-1,9.160015E-2,9.56E-4,7.3E-2,2.684E-1,5.657E-1,4.2724375E-2,2.3349614E-1,1.010925E0,2.24E-2,8.3333336E-2,-5.29E-2,8.8E-3,1.383E-3,5.6277055E-2,4.394897E-2,1.7457972E0,6.52E-1,3.55E-2,8.7894E0,5.14E-1,2.63E-1,4.195E-3,2.0833333E-1,9.263158E-2,7.1E-3,9.256468E-1,6.1E-3,-5.40987E-2,9.368E-1,5.215E-1,1.15E-2,2.3970144E0,2.3970144E0,5.52369E-2,1.482E-1,8.3E-3,8.9E-3,3.15E-1,-6.2E-3,1.0546057E0,6.929E-1,-6.1728396E-3,6E-2,1E1,5E-1,-3.05E-2,5.5703416E-2,6.942616E-1,6.1E-3,8.2E-4,3.7034E0,7.861015E-2,7.033426E-2,1.0857987E0,1.2826982E-1,4.5297095E-3,5.08E-2,1.0859656E-2,-5.9021236E-3,-1.6182931E-2,2.2278925E-2,9.094319E-3,-5.0333366E-3,-1.26090795E-2,-2.5046432E-2,-1.0672561E-2,-1.6619964E-2,-1.6752396E-2,-2.6691733E-2,2.1059285E-3,1.7004406E-2,-6.672901E-5,-1.8076034E-2,-2.2592277E-3,2.6139943E-2,-3.0675367E-2,3.344973E-4,-1.1870253E-2,-1.8787837E-2,-1.2147248E-2,1.41778635E-2,8.914094E-3,1.7201284E-2,-2.276808E-2,2.8543605E-3,-2.1226479E-2,3.1024138E-3,2.167171E-2,-2.4045077E-4,5.052857E-3,2.2661082E-2,-7.896863E-3,2.4552101E-2,2.9239967E-2,9.961286E-3,-8.182884E-3,6.7604072E-3,1.7115602E-2,4.633021E-3,1.3063832E-2,2.9109001E-2,-1.0626595E-2,1.1163688E-2,-8.020616E-3,2.564207E-2,1.3984493E-2,-9.799259E-3,1.0925781E-2,-1.4506837E-3,-1.754463E-2,-9.521424E-3,-8.872137E-3,1.7311217E-2,1.649581E-2,7.316702E-3,5.772283E-3,1.3465871E-2,-2.6222859E-2,1.09097175E-2,7.4751712E-3,-8.717322E-3],"split_indices":[0,5,8,5,8,3,1,6,27,29,29,4,2,3,27,2,27,28,6,8,4,3,29,27,6,29,29,6,2,8,28,3,28,5,29,29,28,3,3,8,29,28,28,29,27,3,29,2,27,20,22,27,4,3,28,6,6,8,1,3,1,5,27,0,0,0,0,0,0,0,0,0,0,0,0,0,0,0,0,0,0,0,0,0,0,0,0,0,0,0,0,0,0,0,0,0,0,0,0,0,0,0,0,0,0,0,0,0,0,0,0,0,0,0,0,0,0,0,0,0,0,0,0,0,0,0,0],"split_type":[0,0,0,0,0,0,0,0,0,0,0,0,0,0,0,0,0,0,0,0,0,0,0,0,0,0,0,0,0,0,0,0,0,0,0,0,0,0,0,0,0,0,0,0,0,0,0,0,0,0,0,0,0,0,0,0,0,0,0,0,0,0,0,0,0,0,0,0,0,0,0,0,0,0,0,0,0,0,0,0,0,0,0,0,0,0,0,0,0,0,0,0,0,0,0,0,0,0,0,0,0,0,0,0,0,0,0,0,0,0,0,0,0,0,0,0,0,0,0,0,0,0,0,0,0,0,0],"sum_hessian":[3.5527837E3,1.9264808E3,1.6263029E3,1.5716202E3,3.5486053E2,5.7645886E2,1.049844E3,1.0659544E2,1.4650249E3,5.840797E1,2.9645258E2,2.0927051E2,3.6718835E2,2.254173E2,8.244267E2,6.3271355E1,4.332409E1,1.429496E3,3.552892E1,1.0447335E1,4.7960636E1,2.412504E2,5.5202168E1,1.1628801E2,9.298249E1,2.5590489E2,1.1128345E2,1.5113486E2,7.428243E1,7.4019946E2,8.422725E1,4.547104E1,1.7800314E1,7.061234E0,3.6262856E1,9.076201E2,5.218758E2,1.205702E1,2.34719E1,7.7649446E0,2.6823912E0,4.0503197E1,7.45744E0,2.3021213E2,1.1038283E1,2.3449903E1,3.1752262E1,1.1073343E2,5.554581E0,9.089474E1,2.0877523E0,1.2539712E2,1.3050778E2,1.8126223E1,9.315723E1,3.1275415E1,1.19859436E2,6.1524536E1,1.2757902E1,3.3813574E2,4.0206372E2,1.5422271E1,6.880498E1,2.1891577E1,2.3579464E1,1.7942731E0,1.600604E1,1.8160049E0,5.2452292E0,3.164121E1,4.621643E0,5.413571E2,3.66263E2,4.9387952E2,2.7996294E1,6.420781E0,5.636239E0,2.233966E1,1.13224E0,4.748539E0,3.016405E0,1.4605255E0,1.2218657E0,2.205767E1,1.8445524E1,3.9994483E0,3.4579918E0,1.06110725E2,1.241014E2,4.500017E0,6.538266E0,1.1777351E1,1.1672553E1,1.244767E1,1.9304592E1,6.2907195E0,1.0444271E2,3.7840364E0,1.7705449E0,8.7968414E1,2.926329E0,1.030462E0,1.0572903E0,2.6584648E1,9.881247E1,1.1046162E2,2.0046162E1,2.751086E0,1.5375136E1,1.8076394E0,9.134959E1,7.089597E0,2.4185818E1,8.116891E1,3.869053E1,2.5574375E1,3.595016E1,6.2334633E0,6.5244384E0,2.1741533E2,1.2072042E2,2.9791162E2,1.04152115E2,1.0448175E1,4.974096E0,4.857316E1,2.0231815E1],"tree_param":{"num_deleted":"0","num_feature":"30","num_nodes":"127","size_leaf_vector":"1"}},{"base_weights":[-2.5527335E-3,-1.8928859E-1,2.1667339E-1,-2.6553228E-1,1.4096856E-1,3.2665807E-1,1.3863227E-1,1.4508895E-2,-2.8588504E-1,-2.8135142E-1,1.9184102E-1,4.4780096E-1,2.6776055E-1,-1.1323226E-2,1.751529E-1,1.819843E-1,-2.2712141E-1,-2.936118E-1,2.7960591E-2,-2.2161618E-1,-3.4355736E-1,2.0905317E-1,-2.4479106E-1,4.6016037E-1,2.222319E-2,5.0467044E-1,2.4554755E-1,-2.9957706E-1,3.3213567E-2,6.6802666E-2,2.0570114E-1,2.4892934E-1,-8.485986E-2,5.34715E-2,-2.8708696E-1,-2.5962302E-1,-3.5220265E-1,-3.7288263E-2,3.119785E-1,-2.3606458E-1,-6.5636545E-2,-1.7676622E-2,-5.0524115E-3,2.5531626E-1,6.456138E-2,-1.2671758E-2,-3.6749311E-3,4.7412777E-1,1.1094544E-1,-1.9304937E-2,2.260685E-1,2.2915031E-1,6.215903E-1,2.2777148E-1,5.333851E-1,-3.1675497E-1,2.1288048E-3,1.1847658E-1,-7.397686E-2,4.4482055E-1,3.9669473E-2,1.6596644E-1,3.043839E-1,-2.0445336E-4,1.7403621E-2,-2.97689E-2,5.894363E-3,-1.9107678E-3,1.7655471E-2,-1.0740275E-2,-1.6958453E-2,-1.3313386E-2,1.3816439E-3,-1.703376E-2,-2.6761353E-2,1.100045E-3,-2.8519677E-3,-1.3162413E-3,2.0478234E-2,-1.2589079E-2,-4.6165125E-3,3.8475898E-4,-5.037955E-3,-4.2422363E-3,1.4004131E-2,2.5806952E-2,1.5993979E-3,1.9084463E-2,2.6529854E-2,-3.3691186E-2,1.7955055E-2,-1.0136244E-2,2.5016863E-2,2.0488773E-2,-5.3983997E-3,1.8696798E-2,3.5000544E-2,1.2216513E-2,2.6000076E-4,3.009004E-2,8.931606E-3,-6.520296E-3,-1.8023947E-2,-2.9594137E-4,1.2515701E-2,-1.3741844E-3,-1.4061536E-2,2.8751915E-2,-1.3613422E-2,-1.9719738E-3,9.422006E-3,4.8291287E-3,1.0784657E-2,1.7478578E-2,3.7514754E-3],"categories":[],"categories_nodes":[],"categories_segments":[],"categories_sizes":[],"default_left":[0,0,0,0,0,0,0,0,0,0,0,0,0,0,0,0,0,0,0,0,0,0,0,0,0,0,0,0,0,0,0,0,0,0,0,0,0,0,0,0,0,0,0,0,0,0,0,0,0,0,0,0,0,0,0,0,0,0,0,0,0,0,0,0,0,0,0,0,0,0,0,0,0,0,0,0,0,0,0,0,0,0,0,0,0,0,0,0,0,0,0,0,0,0,0,0,0,0,0,0,0,0,0,0,0,0,0,0,0,0,0,0,0,0,0],"id":9,"left_children":[1,3,5,7,9,11,13,15,17,19,21,23,25,27,29,31,33,35,37,39,41,43,45,47,49,51,53,55,57,59,61,63,65,67,69,71,73,75,77,79,81,-1,-1,83,85,-1,-1,87,89,-1,91,93,95,97,99,101,-1,103,105,107,109,111,113,-1,-1,-1,-1,-1,-1,-1,-1,-1,-1,-1,-1,-1,-1,-1,-1,-1,-1,-1,-1,-1,-1,-1,-1,-1,-1,-1,-1,-1,-1,-1,-1,-1,-1,-1,-1,-1,-1,-1,-1,-1,-1,-1,-1,-1,-1,-1,-1,-1,-1,-1,-1],"loss_changes":[1.4527895E2,4.8292633E1,1.3966141E1,8.8802185E0,7.790452E0,4.7090683E0,5.240776E0,4.349664E0,3.5289536E0,6.9224596E-2,2.4709558E0,1.1465187E0,2.2856712E0,2.4271448E0,2.5326214E0,1.1543493E0,7.5616765E-1,2.7305222E0,6.750398E-1,3.582859E-2,6.236315E-3,2.0577984E0,1.3548136E-4,9.8955154E-1,6.913361E-1,1.0914698E0,2.030447E0,1.6217327E-1,1.5075133E0,1.7329705E0,2.3007374E0,1.2799559E0,1.4642766E0,2.4963722E-1,6.429863E-2,1.7263756E0,9.0934753E-1,3.6390066E-2,2.3509222E-1,2.2967815E-2,9.315465E-3,0E0,0E0,2.00109E0,1.1101704E0,0E0,0E0,8.682785E-1,2.096432E0,0E0,7.4488693E-1,8.3558035E-1,2.4917126E-1,1.4650459E0,4.68143E-1,1.5022707E-1,0E0,1.5056952E0,6.982687E-1,1.214767E0,1.8945532E0,1.4617367E0,1.7453413E0,0E0,0E0,0E0,0E0,0E0,0E0,0E0,0E0,0E0,0E0,0E0,0E0,0E0,0E0,0E0,0E0,0E0,0E0,0E0,0E0,0E0,0E0,0E0,0E0,0E0,0E0,0E0,0E0,0E0,0E0,0E0,0E0,0E0,0E0,0E0,0E0,0E0,0E0,0E0,0E0,0E0,0E0,0E0,0E0,0E0,0E0,0E0,0E0,0E0,0E0,0E0,0E0],"parents":[2147483647,0,0,1,1,2,2,3,3,4,4,5,5,6,6,7,7,8,8,9,9,10,10,11,11,12,12,13,13,14,14,15,15,16,16,17,17,18,18,19,19,20,20,21,21,22,22,23,23,24,24,25,25,26,26,27,27,28,28,29,29,30,30,31,31,32,32,33,33,34,34,35,35,36,36,37,37,38,38,39,39,40,40,43,43,44,44,47,47,48,48,50,50,51,51,52,52,53,53,54,54,55,55,57,57,58,58,59,59,60,60,61,61,62,62],"right_children":[2,4,6,8,10,12,14,16,18,20,22,24,26,28,30,32,34,36,38,40,42,44,46,48,50,52,54,56,58,60,62,64,66,68,70,72,74,76,78,80,82,-1,-1,84,86,-1,-1,88,90,-1,92,94,96,98,100,102,-1,104,106,108,110,112,114,-1,-1,-1,-1,-1,-1,-1,-1,-1,-1,-1,-1,-1,-1,-1,-1,-1,-1,-1,-1,-1,-1,-1,-1,-1,-1,-1,-1,-1,-1,-1,-1,-1,-1,-1,-1,-1,-1,-1,-1,-1,-1,-1,-1,-1,-1,-1,-1,-1,-1,-1,-1],"split_conditions":[4.863222E-2,1.5706806E-2,5.904602E-2,-2.4271844E-2,5.421687E-2,5.061755E-1,1.0441547E-1,9.56E-4,7.3E-2,8.2E-3,1.4E-1,8.7894E0,1.6427584E-2,3.6380142E-2,9.975865E-2,-1.05E-2,-5.29E-2,8.8E-3,2.3970144E0,1.56E-2,1.1541304E-1,1.0566038E-1,1.9254036E-2,4.833739E-2,2.713622E-1,7.5856304E-1,7.6464295E-2,6E-2,1.0932333E0,5.67E-4,9.947644E-1,2.8508771E-2,9E0,1.2446067E-1,7.7E-3,8.6E-3,1.15E-2,1.5748031E-2,-3.8781163E-1,7.8E-3,-2.1801768E-2,-1.7676622E-2,-5.0524115E-3,6.6E-3,5.6338026E-3,-1.2671758E-2,-3.6749311E-3,2.965E-3,9.400635E0,-1.9304937E-2,8.384078E0,1.502E0,-1.6E-2,1E1,2.16E-2,5.1282052E-2,2.1288048E-3,1.7316017E-2,1.1326415E-1,9.3E-3,3.12636E-1,9.746589E-3,9.312E0,-2.0445336E-4,1.7403621E-2,-2.97689E-2,5.894363E-3,-1.9107678E-3,1.7655471E-2,-1.0740275E-2,-1.6958453E-2,-1.3313386E-2,1.3816439E-3,-1.703376E-2,-2.6761353E-2,1.100045E-3,-2.8519677E-3,-1.3162413E-3,2.0478234E-2,-1.2589079E-2,-4.6165125E-3,3.8475898E-4,-5.037955E-3,-4.2422363E-3,1.4004131E-2,2.5806952E-2,1.5993979E-3,1.9084463E-2,2.6529854E-2,-3.3691186E-2,1.7955055E-2,-1.0136244E-2,2.5016863E-2,2.0488773E-2,-5.3983997E-3,1.8696798E-2,3.5000544E-2,1.2216513E-2,2.6000076E-4,3.009004E-2,8.931606E-3,-6.520296E-3,-1.8023947E-2,-2.9594137E-4,1.2515701E-2,-1.3741844E-3,-1.4061536E-2,2.8751915E-2,-1.3613422E-2,-1.9719738E-3,9.422006E-3,4.8291287E-3,1.0784657E-2,1.7478578E-2,3.7514754E-3],"split_indices":[0,5,8,5,8,3,10,6,27,28,6,6,4,4,0,27,27,28,3,27,10,8,18,8,10,3,4,27,3,6,9,1,25,8,28,28,28,8,9,28,10,0,0,28,1,0,0,6,7,0,7,6,27,6,27,1,0,5,18,28,10,5,6,0,0,0,0,0,0,0,0,0,0,0,0,0,0,0,0,0,0,0,0,0,0,0,0,0,0,0,0,0,0,0,0,0,0,0,0,0,0,0,0,0,0,0,0,0,0,0,0,0,0,0,0],"split_type":[0,0,0,0,0,0,0,0,0,0,0,0,0,0,0,0,0,0,0,0,0,0,0,0,0,0,0,0,0,0,0,0,0,0,0,0,0,0,0,0,0,0,0,0,0,0,0,0,0,0,0,0,0,0,0,0,0,0,0,0,0,0,0,0,0,0,0,0,0,0,0,0,0,0,0,0,0,0,0,0,0,0,0,0,0,0,0,0,0,0,0,0,0,0,0,0,0,0,0,0,0,0,0,0,0,0,0,0,0,0,0,0,0,0,0],"sum_hessian":[3.5468071E3,1.9154078E3,1.6313994E3,1.5563113E3,3.5909656E2,6.757989E2,9.556005E2,1.05464966E2,1.4508463E3,3.8119045E1,3.209775E2,2.1891743E2,4.5688144E2,1.872858E2,7.6831476E2,6.2436623E1,4.3028347E1,1.4160481E3,3.4798203E1,2.1773228E1,1.6345816E1,3.0930582E2,1.16717005E1,2.1266022E2,6.257223E0,3.7303696E1,4.1957773E2,2.4297768E1,1.6298804E2,1.6967804E2,5.986367E2,4.9967953E1,1.2468669E1,7.5955024E0,3.5432846E1,8.996112E2,5.164369E2,2.9003738E1,5.7944627E0,1.945745E1,2.3157768E0,1.5260307E1,1.0855086E0,2.3371002E2,7.5595795E1,1.0654487E1,1.0172142E0,2.041377E2,8.522515E0,1.7858719E0,4.471351E0,1.1995752E1,2.5307943E1,3.9686005E2,2.2717691E1,2.3206888E1,1.0908788E0,9.07205E1,7.226754E1,1.0332492E1,1.5934555E2,4.2870145E2,1.6993524E2,1.433726E1,3.563069E1,2.9937754E0,9.474894E0,6.4839315E0,1.1115706E0,1.6984915E1,1.8447931E1,8.793436E2,2.02676E1,4.8852908E2,2.7907803E1,7.219178E0,2.1784561E1,1.4607394E0,4.3337235E0,1.6861925E1,2.5955257E0,1.0028499E0,1.3129268E0,1.5696463E1,2.1801355E2,4.087254E0,7.1508545E1,8.035623E1,1.2378146E2,1.6353971E0,6.887118E0,1.8460612E0,2.62529E0,7.6704607E0,4.3252916E0,7.4738E0,1.7834145E1,3.6928815E2,2.7571898E1,1.846101E1,4.256681E0,5.167176E0,1.8039713E1,4.716912E1,4.355138E1,5.9951298E1,1.2316242E1,8.9122E0,1.420292E0,1.0450813E2,5.4837418E1,1.8020412E2,2.4849733E2,1.4152724E2,2.840801E1],"tree_param":{"num_deleted":"0","num_feature":"30","num_nodes":"115","size_leaf_vector":"1"}},{"base_weights":[-6.0412614E-3,-1.8467206E-1,2.0568587E-1,-2.571548E-1,1.3298275E-1,4.3954346E-1,1.5992282E-1,3.1585544E-2,-2.789682E-1,-2.8741348E-1,1.8393385E-1,4.6189222E-1,2.0051001E-1,2.2260201E-1,7.496326E-2,1.9229028E-1,-2.251084E-1,-2.4334672E-1,-3.2736945E-1,-2.2258355E-1,-3.5701463E-1,2.0044252E-1,-2.3729476E-1,3.8777825E-1,5.38942E-1,3.109563E-1,-3.4562144E-1,1.7789614E-1,2.888539E-1,1.4500311E-2,1.6507164E-1,1.1645026E-1,4.894277E-1,-2.5599244E-1,5.1186327E-2,-1.9076973E-1,-3.0019197E-1,-4.5314837E-1,-3.0063877E-1,-3.3061502E-3,-2.271792E-1,-5.8017075E-3,-1.8854525E-2,1.7310537E-1,4.1402867E-1,-2.4939854E-1,-3.0055E-3,4.854878E-1,2.5799674E-1,5.588633E-1,2.2686774E-1,-6.5328844E-2,4.2154732E-1,-2.6733408E-2,-2.8246946E-3,6.3997015E-2,2.1204755E-1,2.254349E-1,4.0343615E-1,-9.4679765E-2,9.4408706E-2,2.9282007E-1,6.9324374E-2,1.5127966E-2,5.671407E-4,-1.2704454E-2,3.1203905E-2,-1.3425416E-2,-4.3753054E-4,-4.874946E-3,7.615021E-3,-1.0666109E-2,4.486528E-3,-1.3183573E-2,-2.5313322E-2,-2.4390059E-2,-1.55681E-2,-1.5298209E-2,6.5072225E-3,-5.007621E-3,-1.1812287E-2,-2.504138E-3,9.490463E-3,-8.488296E-3,2.242211E-2,-3.7715111E-3,-1.2996114E-2,2.6309347E-2,1.4588616E-2,8.466869E-3,2.7267784E-2,2.1079212E-2,3.2027192E-2,-1.2087103E-2,2.2457236E-2,1.1890083E-2,-2.783892E-2,-5.10309E-3,2.319577E-2,1.3090752E-2,-2.5461207E-3,1.2119665E-2,1.8041012E-3,-1.9080112E-3,1.2482227E-2,2.1276288E-3,2.2079855E-2,3.999151E-3,-9.476742E-3,-2.7261367E-3,7.3597864E-3,1.9135656E-2,6.2086172E-3,-3.1187216E-2,4.229409E-3],"categories":[],"categories_nodes":[],"categories_segments":[],"categories_sizes":[],"default_left":[0,0,0,0,0,0,0,0,0,0,0,0,0,0,0,0,0,0,0,0,0,0,0,0,0,0,0,0,0,0,0,0,0,0,0,0,0,0,0,0,0,0,0,0,0,0,0,0,0,0,0,0,0,0,0,0,0,0,0,0,0,0,0,0,0,0,0,0,0,0,0,0,0,0,0,0,0,0,0,0,0,0,0,0,0,0,0,0,0,0,0,0,0,0,0,0,0,0,0,0,0,0,0,0,0,0,0,0,0,0,0,0,0,0,0],"id":10,"left_children":[1,3,5,7,9,11,13,15,17,19,21,23,25,27,29,31,33,35,37,39,41,43,45,47,49,51,53,55,57,59,61,63,65,67,69,71,73,75,77,-1,79,-1,-1,81,83,85,-1,87,89,91,93,95,97,-1,-1,99,101,103,105,107,109,111,113,-1,-1,-1,-1,-1,-1,-1,-1,-1,-1,-1,-1,-1,-1,-1,-1,-1,-1,-1,-1,-1,-1,-1,-1,-1,-1,-1,-1,-1,-1,-1,-1,-1,-1,-1,-1,-1,-1,-1,-1,-1,-1,-1,-1,-1,-1,-1,-1,-1,-1,-1,-1],"loss_changes":[1.3267513E2,4.3842453E1,1.7109589E1,9.768387E0,7.638718E0,1.3078308E0,7.1411133E0,4.570179E0,2.4044266E0,9.503651E-2,2.2483454E0,1.1556358E0,1.566069E0,2.238079E0,3.1148267E0,1.4759738E0,3.7756348E-1,2.4349442E0,1.9077148E0,1.2850761E-3,3.84624E-2,1.7096834E0,1.1587918E-2,1.4645634E0,5.856705E-1,8.8646257E-1,2.1801722E-1,1.7918682E0,2.160553E0,3.005754E0,2.7887535E0,1.0823522E0,1.5121281E0,1.1704588E-1,9.193844E-2,2.7768698E0,2.8687973E0,3.6195374E-1,1.1968346E0,0E0,1.2401342E-3,0E0,0E0,1.0242529E0,7.571802E-1,1.0517836E-3,0E0,4.014225E-1,1.3339097E0,9.3019104E-1,1.0001798E0,9.5982426E-1,4.0420914E-1,0E0,0E0,2.4798436E0,1.8956795E0,1.2967787E0,1.4840317E0,2.4284172E0,1.5712135E0,1.4393377E0,1.4553055E0,0E0,0E0,0E0,0E0,0E0,0E0,0E0,0E0,0E0,0E0,0E0,0E0,0E0,0E0,0E0,0E0,0E0,0E0,0E0,0E0,0E0,0E0,0E0,0E0,0E0,0E0,0E0,0E0,0E0,0E0,0E0,0E0,0E0,0E0,0E0,0E0,0E0,0E0,0E0,0E0,0E0,0E0,0E0,0E0,0E0,0E0,0E0,0E0,0E0,0E0,0E0,0E0],"parents":[2147483647,0,0,1,1,2,2,3,3,4,4,5,5,6,6,7,7,8,8,9,9,10,10,11,11,12,12,13,13,14,14,15,15,16,16,17,17,18,18,19,19,20,20,21,21,22,22,23,23,24,24,25,25,26,26,27,27,28,28,29,29,30,30,31,31,32,32,33,33,34,34,35,35,36,36,37,37,38,38,40,40,43,43,44,44,45,45,47,47,48,48,49,49,50,50,51,51,52,52,55,55,56,56,57,57,58,58,59,59,60,60,61,61,62,62],"right_children":[2,4,6,8,10,12,14,16,18,20,22,24,26,28,30,32,34,36,38,40,42,44,46,48,50,52,54,56,58,60,62,64,66,68,70,72,74,76,78,-1,80,-1,-1,82,84,86,-1,88,90,92,94,96,98,-1,-1,100,102,104,106,108,110,112,114,-1,-1,-1,-1,-1,-1,-1,-1,-1,-1,-1,-1,-1,-1,-1,-1,-1,-1,-1,-1,-1,-1,-1,-1,-1,-1,-1,-1,-1,-1,-1,-1,-1,-1,-1,-1,-1,-1,-1,-1,-1,-1,-1,-1,-1,-1,-1,-1,-1,-1,-1,-1],"split_conditions":[4.863222E-2,1.5706806E-2,8.908686E-3,-2.4271844E-2,5.421687E-2,1.04E-2,1.0447433E0,9.56E-4,5.14E-1,8.2E-3,1.4E-1,2.048157E-1,9.151E-1,2.9272899E-2,2.0833333E-1,1.128655E-1,1.13E-2,8.2E-3,6.3E-3,2.248E-1,3.087E-1,1.7E-2,2.2152272E-1,3.185E-1,3.6063E0,9.184397E-2,2.528E-1,1.0796686E-1,9.1E-3,9.0047395E-1,1.0261313E-1,8.484308E-1,9.528869E0,1.334733E-1,2.635E-3,5.049E-1,4.751E-1,1E1,2.3970144E0,-3.3061502E-3,-8.891032E-2,-5.8017075E-3,-1.8854525E-2,1.6E-3,1.6483517E-2,-8.411215E-2,-3.0055E-3,1.8954249E-1,1.1083935E0,5.41E-3,4.284E-1,4.819039E-1,9.741957E0,-2.6733408E-2,-2.8246946E-3,7.2085774E-1,1E1,2.579E-1,9.741957E0,3.436426E-2,3.5587188E-3,1.649173E0,-5.40987E-2,1.5127966E-2,5.671407E-4,-1.2704454E-2,3.1203905E-2,-1.3425416E-2,-4.3753054E-4,-4.874946E-3,7.615021E-3,-1.0666109E-2,4.486528E-3,-1.3183573E-2,-2.5313322E-2,-2.4390059E-2,-1.55681E-2,-1.5298209E-2,6.5072225E-3,-5.007621E-3,-1.1812287E-2,-2.504138E-3,9.490463E-3,-8.488296E-3,2.242211E-2,-3.7715111E-3,-1.2996114E-2,2.6309347E-2,1.4588616E-2,8.466869E-3,2.7267784E-2,2.1079212E-2,3.2027192E-2,-1.2087103E-2,2.2457236E-2,1.1890083E-2,-2.783892E-2,-5.10309E-3,2.319577E-2,1.3090752E-2,-2.5461207E-3,1.2119665E-2,1.8041012E-3,-1.9080112E-3,1.2482227E-2,2.1276288E-3,2.2079855E-2,3.999151E-3,-9.476742E-3,-2.7261367E-3,7.3597864E-3,1.9135656E-2,6.2086172E-3,-3.1187216E-2,4.229409E-3],"split_indices":[0,5,8,5,8,28,3,6,29,28,6,10,6,5,2,8,28,28,28,29,29,6,10,6,6,2,29,10,28,9,8,3,7,8,6,29,29,20,3,0,2,0,0,6,5,2,0,2,3,6,29,3,7,0,0,3,17,29,7,8,5,3,5,0,0,0,0,0,0,0,0,0,0,0,0,0,0,0,0,0,0,0,0,0,0,0,0,0,0,0,0,0,0,0,0,0,0,0,0,0,0,0,0,0,0,0,0,0,0,0,0,0,0,0,0],"split_type":[0,0,0,0,0,0,0,0,0,0,0,0,0,0,0,0,0,0,0,0,0,0,0,0,0,0,0,0,0,0,0,0,0,0,0,0,0,0,0,0,0,0,0,0,0,0,0,0,0,0,0,0,0,0,0,0,0,0,0,0,0,0,0,0,0,0,0,0,0,0,0,0,0,0,0,0,0,0,0,0,0,0,0,0,0,0,0,0,0,0,0,0,0,0,0,0,0,0,0,0,0,0,0,0,0,0,0,0,0,0,0,0,0,0,0],"sum_hessian":[3.505972E3,1.9016815E3,1.6042904E3,1.5485277E3,3.531538E2,2.611519E2,1.3431385E3,1.0873772E2,1.4397899E3,3.7673103E1,3.154807E2,2.3797018E2,2.3181692E1,7.7198444E2,5.711541E2,6.702637E1,4.171135E1,8.328627E2,6.069273E2,2.1678585E1,1.5994518E1,3.0408716E2,1.1393542E1,1.2437094E2,1.1359925E2,1.9640366E1,3.541327E0,4.6314542E2,3.0883902E2,3.4249802E2,2.286561E2,5.4506325E1,1.2520042E1,3.7583744E1,4.1276064E0,4.3493814E2,3.9792453E2,1.0358146E2,5.0334586E2,1.0576798E0,2.0620905E1,1.7513995E0,1.4243118E1,2.7118796E2,3.2899208E1,1.0283498E1,1.1100441E0,6.9388855E1,5.4982082E1,1.0603941E2,7.559837E0,4.5541573E0,1.5086207E1,1.6277633E0,1.9135637E0,1.0749853E2,3.556469E2,2.0071481E2,1.08124214E2,1.4466084E2,1.9783719E2,9.707624E1,1.3157985E2,1.8994694E1,3.551163E1,1.7837037E0,1.073634E1,3.5690983E1,1.8927622E0,1.6852499E0,2.442356E0,4.027928E2,3.2145355E1,3.3995682E2,5.796769E1,8.127688E1,2.2304586E1,4.9748563E2,5.8602276E0,2.176293E0,1.8444613E1,1.8743912E1,2.5244405E2,1.6124432E0,3.1286764E1,1.0524824E0,9.231015E0,5.5923244E1,1.3465613E1,4.3232708E1,1.1749373E1,4.1855316E1,6.41841E1,2.40403E0,5.1558065E0,3.1359792E0,1.4181782E0,1.0238565E0,1.4062351E1,3.9032017E1,6.846651E1,3.0301382E2,5.263308E1,1.6835308E1,1.838795E2,1.05422735E1,9.758194E1,5.0967625E1,9.3693214E1,5.176274E1,1.4607445E2,6.2495457E1,3.458078E1,1.9763722E0,1.2960349E2],"tree_param":{"num_deleted":"0","num_feature":"30","num_nodes":"115","size_leaf_vector":"1"}},{"base_weights":[3.4319372E-3,-1.7488876E-1,2.190916E-1,-2.4653661E-1,1.1853351E-1,4.033945E-1,1.8126416E-1,8.618448E-3,-2.6691267E-1,-2.8381687E-1,1.6352983E-1,4.4354713E-1,2.5963345E-1,2.3289259E-1,1.0922182E-1,1.3407436E-1,-2.1524198E-1,-2.4385937E-1,-3.5706726E-1,-1.5937349E-1,-1.5065628E-2,-5.3969465E-2,2.0089898E-1,5.2360576E-1,3.362519E-1,3.958806E-1,1.1331573E-1,2.750439E-1,1.3782749E-1,-9.250998E-2,1.4786708E-1,-1.7855687E-2,1.8015562E-1,-2.588323E-1,7.954289E-2,-2.3792824E-1,-4.680985E-1,-4.7886044E-1,-3.204629E-1,-3.1131234E-3,-9.217351E-3,7.130205E-2,-2.9916218E-1,-4.4244137E-2,2.2788598E-1,4.560559E-1,5.9097E-1,1.2240099E-1,3.8810065E-1,2.4657597E-1,5.0739527E-1,-9.25191E-2,3.4023508E-1,2.9081312E-1,1.5580058E-2,2.6589108E-1,4.50218E-2,2.8275907E-1,-2.670335E-1,1.1860264E-1,3.4143764E-1,-1.1482259E-2,1.1590096E-2,-1.0884977E-2,-2.1940732E-2,-2.8597198E-3,7.829856E-3,-1.2518162E-2,-5.990717E-3,-1.1422667E-2,-2.6367432E-2,-2.5175104E-2,-1.1410218E-2,-1.5088247E-2,-2.1953514E-2,1.2814348E-2,-3.2963443E-3,-3.0630393E-2,-1.104665E-2,-1.171707E-2,6.608385E-3,1.2974267E-2,3.435129E-3,2.4467347E-2,2.18992E-3,3.1159533E-2,1.9106846E-2,1.6096076E-2,-1.179753E-2,1.5069227E-2,2.8383384E-2,6.670091E-3,2.6382346E-2,2.78722E-2,3.0939744E-3,-2.5832927E-2,6.4323023E-3,2.311743E-2,-1.276281E-2,1.2916773E-2,2.0510497E-2,-5.2526784E-3,9.816497E-3,-1.1282622E-2,1.6116178E-2,-4.7923676E-3,5.167142E-3,-9.794902E-4,2.0502036E-2,-2.8546408E-2,-1.2318199E-2,-4.844727E-4,8.205192E-3,3.6262579E-3,2.0117223E-2],"categories":[],"categories_nodes":[],"categories_segments":[],"categories_sizes":[],"default_left":[0,0,0,0,0,0,0,0,0,0,0,0,0,0,0,0,0,0,0,0,0,0,0,0,0,0,0,0,0,0,0,0,0,0,0,0,0,0,0,0,0,0,0,0,0,0,0,0,0,0,0,0,0,0,0,0,0,0,0,0,0,0,0,0,0,0,0,0,0,0,0,0,0,0,0,0,0,0,0,0,0,0,0,0,0,0,0,0,0,0,0,0,0,0,0,0,0,0,0,0,0,0,0,0,0,0,0,0,0,0,0,0,0,0,0],"id":11,"left_children":[1,3,5,7,9,11,13,15,17,19,21,23,25,27,29,31,33,35,37,39,-1,41,43,45,47,49,51,53,55,57,59,-1,61,63,65,67,69,71,73,-1,-1,75,77,79,81,83,85,87,89,91,93,95,97,99,101,103,105,107,109,111,113,-1,-1,-1,-1,-1,-1,-1,-1,-1,-1,-1,-1,-1,-1,-1,-1,-1,-1,-1,-1,-1,-1,-1,-1,-1,-1,-1,-1,-1,-1,-1,-1,-1,-1,-1,-1,-1,-1,-1,-1,-1,-1,-1,-1,-1,-1,-1,-1,-1,-1,-1,-1,-1,-1],"loss_changes":[1.3494489E2,4.041038E1,1.0999489E1,8.030441E0,6.8834543E0,1.4413528E0,4.8826256E0,3.263136E0,2.8849792E0,3.5478115E-2,2.7766895E0,1.6223755E0,1.1768246E0,3.038803E0,4.3229904E0,1.748756E0,5.5698717E-1,1.4073944E0,1.1351471E0,5.13494E-3,0E0,1.5780914E0,1.9326887E0,2.6792145E-1,9.7546005E-1,3.965578E-1,1.4770927E0,2.1678543E0,2.8150916E0,5.9359865E0,2.5895214E0,0E0,1.5072446E0,1.754365E-1,7.3674716E-2,1.6070061E0,2.8267097E-1,2.8517342E-1,3.6709404E-1,0E0,0E0,8.889359E-1,2.8961587E-1,1.0255455E0,1.2998352E0,8.480444E-1,1.3701248E-1,1.4676206E0,9.780054E-1,4.1762686E-1,3.4435225E-1,1.6625774E0,1.2040445E0,1.8347054E0,7.069568E-1,2.8395376E0,1.1528913E0,1.1198387E0,2.4622297E-1,2.364811E0,9.6075106E-1,0E0,0E0,0E0,0E0,0E0,0E0,0E0,0E0,0E0,0E0,0E0,0E0,0E0,0E0,0E0,0E0,0E0,0E0,0E0,0E0,0E0,0E0,0E0,0E0,0E0,0E0,0E0,0E0,0E0,0E0,0E0,0E0,0E0,0E0,0E0,0E0,0E0,0E0,0E0,0E0,0E0,0E0,0E0,0E0,0E0,0E0,0E0,0E0,0E0,0E0,0E0,0E0,0E0,0E0],"parents":[2147483647,0,0,1,1,2,2,3,3,4,4,5,5,6,6,7,7,8,8,9,9,10,10,11,11,12,12,13,13,14,14,15,15,16,16,17,17,18,18,19,19,21,21,22,22,23,23,24,24,25,25,26,26,27,27,28,28,29,29,30,30,32,32,33,33,34,34,35,35,36,36,37,37,38,38,41,41,42,42,43,43,44,44,45,45,46,46,47,47,48,48,49,49,50,50,51,51,52,52,53,53,54,54,55,55,56,56,57,57,58,58,59,59,60,60],"right_children":[2,4,6,8,10,12,14,16,18,20,22,24,26,28,30,32,34,36,38,40,-1,42,44,46,48,50,52,54,56,58,60,-1,62,64,66,68,70,72,74,-1,-1,76,78,80,82,84,86,88,90,92,94,96,98,100,102,104,106,108,110,112,114,-1,-1,-1,-1,-1,-1,-1,-1,-1,-1,-1,-1,-1,-1,-1,-1,-1,-1,-1,-1,-1,-1,-1,-1,-1,-1,-1,-1,-1,-1,-1,-1,-1,-1,-1,-1,-1,-1,-1,-1,-1,-1,-1,-1,-1,-1,-1,-1,-1,-1,-1,-1,-1,-1],"split_conditions":[4.863222E-2,1.5706806E-2,9.9502485E-3,-2.4271844E-2,5.421687E-2,1.7469E0,1.0351349E0,9.56E-4,6.664E-1,3.587E-1,8.1E-3,8.5E-3,7.359765E-1,9.748201E-2,8.770458E-2,6.528662E-2,1.11E-2,1.15E-2,6.3E-3,1E1,-1.5065628E-2,-5.590062E-1,2.5733074E-2,5.208E-1,4.6857893E-2,4.5836367E-2,1.1286054E0,7.84455E-2,6.7E-3,3.3962265E-2,7.585E-1,-1.7855687E-2,-4.7130264E-2,9.119E-1,2.635E-3,1.01E-2,3.297E-1,7.331E-1,9.9E-3,-3.1131234E-3,-9.217351E-3,1.809E-1,-2.6741294E-2,3.0942187E-2,1.0566038E-1,5.049E-1,1.00323625E-1,-4.856512E-3,4.7270276E-2,7.326E-1,1.0084034E-1,6.6E-3,1E1,1E1,9.0047395E-1,5.179283E-1,6.3646275E-1,4.972973E-2,1.0415344E0,8.831266E-1,-7.4738415E-4,-1.1482259E-2,1.1590096E-2,-1.0884977E-2,-2.1940732E-2,-2.8597198E-3,7.829856E-3,-1.2518162E-2,-5.990717E-3,-1.1422667E-2,-2.6367432E-2,-2.5175104E-2,-1.1410218E-2,-1.5088247E-2,-2.1953514E-2,1.2814348E-2,-3.2963443E-3,-3.0630393E-2,-1.104665E-2,-1.171707E-2,6.608385E-3,1.2974267E-2,3.435129E-3,2.4467347E-2,2.18992E-3,3.1159533E-2,1.9106846E-2,1.6096076E-2,-1.179753E-2,1.5069227E-2,2.8383384E-2,6.670091E-3,2.6382346E-2,2.78722E-2,3.0939744E-3,-2.5832927E-2,6.4323023E-3,2.311743E-2,-1.276281E-2,1.2916773E-2,2.0510497E-2,-5.2526784E-3,9.816497E-3,-1.1282622E-2,1.6116178E-2,-4.7923676E-3,5.167142E-3,-9.794902E-4,2.0502036E-2,-2.8546408E-2,-1.2318199E-2,-4.844727E-4,8.205192E-3,3.6262579E-3,2.0117223E-2],"split_indices":[0,5,8,5,8,6,3,6,29,29,28,28,3,8,0,8,28,28,28,25,0,9,4,29,10,4,3,18,28,8,29,0,18,29,6,28,29,29,28,0,0,29,0,10,8,29,0,10,4,29,1,28,19,19,9,9,3,1,3,9,5,0,0,0,0,0,0,0,0,0,0,0,0,0,0,0,0,0,0,0,0,0,0,0,0,0,0,0,0,0,0,0,0,0,0,0,0,0,0,0,0,0,0,0,0,0,0,0,0,0,0,0,0,0,0],"split_type":[0,0,0,0,0,0,0,0,0,0,0,0,0,0,0,0,0,0,0,0,0,0,0,0,0,0,0,0,0,0,0,0,0,0,0,0,0,0,0,0,0,0,0,0,0,0,0,0,0,0,0,0,0,0,0,0,0,0,0,0,0,0,0,0,0,0,0,0,0,0,0,0,0,0,0,0,0,0,0,0,0,0,0,0,0,0,0,0,0,0,0,0,0,0,0,0,0,0,0,0,0,0,0,0,0,0,0,0,0,0,0,0,0,0,0],"sum_hessian":[3.507023E3,1.9198016E3,1.5872213E3,1.543154E3,3.766476E2,2.6864835E2,1.318573E3,1.14161896E2,1.4289922E3,3.7351204E1,3.3929642E2,2.0836609E2,6.0282234E1,7.66812E2,5.517609E2,7.341803E1,4.0743866E1,1.140947E3,2.8804514E2,5.850078E0,3.1501127E1,4.9682953E1,2.8961346E2,1.171066E2,9.12595E1,3.0332134E1,2.9950102E1,5.299445E2,2.3686751E2,8.848216E1,4.6327878E2,5.718106E0,6.769992E1,3.5601395E1,5.1424727E0,1.1135546E3,2.73925E1,6.3772724E1,2.2427243E2,1.911241E0,3.938837E0,3.3352177E1,1.6330776E1,2.8657404E1,2.6095605E2,6.2352383E1,5.4754215E1,1.8464228E1,7.279527E1,1.4341606E1,1.5990527E1,1.6015232E1,1.3934872E1,4.9946793E2,3.0476583E1,9.8744225E1,1.3812329E2,2.7890486E1,6.0591675E1,4.038383E2,5.9440495E1,7.1914E0,6.0508522E1,3.0777203E1,4.824191E0,1.9463311E0,3.1961417E0,1.0064737E3,1.07080826E2,6.3925834E0,2.0999916E1,5.7146038E1,6.6266866E0,1.9679301E2,2.7479408E1,1.3834991E1,1.9517187E1,1.8974025E0,1.44333725E1,1.3635612E1,1.5021792E1,2.1720818E2,4.374789E1,5.7520447E1,4.8319387E0,4.57165E1,9.037714E0,1.1925879E1,6.538349E0,5.0895382E1,2.1899889E1,1.1275933E1,3.0656729E0,1.4149729E1,1.8407983E0,5.030985E0,1.0984246E1,1.1749137E1,2.185734E0,3.9514606E2,1.0432187E2,1.8529001E1,1.1947583E1,9.86021E0,8.888402E1,4.0252823E1,9.787047E1,8.513451E0,1.9377035E1,2.16334E0,5.8428337E1,1.0593582E2,2.9790247E2,1.1381272E1,4.805922E1],"tree_param":{"num_deleted":"0","num_feature":"30","num_nodes":"115","size_leaf_vector":"1"}},{"base_weights":[-5.665415E-4,-1.3551097E-1,2.0111044E-1,-2.4499221E-1,7.011833E-2,4.220898E-1,1.6139801E-1,-2.6624537E-1,-1.1854785E-1,2.617299E-1,4.5523588E-2,4.6546566E-1,2.931525E-1,1.1119161E-1,2.1066445E-1,-2.7565342E-1,7.1482055E-2,8.1934266E-2,-1.7802833E-1,2.8225893E-1,-2.5258705E-2,-4.3510415E-2,8.5290216E-2,4.7590938E-1,-6.0673248E-2,5.1577234E-1,1.770705E-1,1.3756359E-1,-4.01225E-2,2.7174073E-1,1.3382423E-1,1.505916E-1,-2.806834E-1,1.4829723E-2,2.8815937E-1,1.3489647E-1,-1.9577959E-1,-4.3100707E-2,-2.0926629E-1,-3.6636304E-2,3.3073556E-1,-9.600289E-2,1.3503511E-1,1.4792871E-1,-2.6419269E-2,4.8338956E-1,-8.9852335E-3,-1.6812986E-2,1.4097228E-2,5.559044E-1,3.4602613E-3,5.050354E-2,4.773753E-1,3.4407873E-2,1.9277588E-1,-3.809946E-1,1.1580354E-2,-3.3907756E-1,2.8617397E-1,-7.9299174E-2,1.695925E-1,-1.0347679E-2,2.0371612E-2,-1.6952123E-2,-1.2808387E-2,6.550409E-3,-1.4656753E-3,2.3071604E-2,6.0469685E-3,1.9891672E-3,1.48438355E-2,-1.5724497E-3,-1.1821085E-2,-4.5202384E-3,1.4137069E-2,-1.0910763E-2,1.3988628E-2,-9.998492E-3,1.1261304E-2,1.748071E-2,-1.8535754E-2,-6.759374E-3,1.0402112E-2,1.0227043E-2,-1.055603E-2,2.3598343E-3,9.0719E-3,3.1539437E-3,-5.619842E-3,2.0934427E-2,2.8086463E-2,3.1525303E-2,1.7592397E-2,-1.5931021E-2,9.326186E-3,2.633223E-2,1.9523733E-3,7.8915684E-5,2.0312354E-2,7.720092E-3,1.7799197E-2,-2.7021516E-2,8.124102E-4,2.5230478E-3,-2.8990982E-2,-2.5892733E-2,5.5553424E-3,-1.9576164E-2,1.4831902E-2,8.389035E-3,-1.241767E-2,2.3870976E-3,1.1367148E-2],"categories":[],"categories_nodes":[],"categories_segments":[],"categories_sizes":[],"default_left":[0,0,0,0,0,0,0,0,0,0,0,0,0,0,0,0,0,0,0,0,0,0,0,0,0,0,0,0,0,0,0,0,0,0,0,0,0,0,0,0,0,0,0,0,0,0,0,0,0,0,0,0,0,0,0,0,0,0,0,0,0,0,0,0,0,0,0,0,0,0,0,0,0,0,0,0,0,0,0,0,0,0,0,0,0,0,0,0,0,0,0,0,0,0,0,0,0,0,0,0,0,0,0,0,0,0,0,0,0,0,0,0,0],"id":12,"left_children":[1,3,5,7,9,11,13,15,17,19,21,23,25,27,29,31,33,35,37,39,-1,41,43,45,47,49,51,53,55,57,59,61,63,65,67,69,71,73,75,77,79,81,83,85,87,89,-1,-1,-1,91,-1,93,95,97,99,101,103,105,107,109,111,-1,-1,-1,-1,-1,-1,-1,-1,-1,-1,-1,-1,-1,-1,-1,-1,-1,-1,-1,-1,-1,-1,-1,-1,-1,-1,-1,-1,-1,-1,-1,-1,-1,-1,-1,-1,-1,-1,-1,-1,-1,-1,-1,-1,-1,-1,-1,-1,-1,-1,-1,-1],"loss_changes":[9.500369E1,4.7100597E1,1.2212521E1,3.6366959E0,3.4161463E0,1.0523376E0,2.9146976E0,3.7301865E0,2.378349E0,1.4420457E0,2.2905064E0,8.9348984E-1,1.3612094E0,2.3615947E0,2.7720718E0,2.4785995E0,3.9397904E-1,7.035674E-1,6.3663006E-1,1.2647152E0,0E0,1.8881274E0,3.1303504E0,8.440666E-1,4.6772164E-1,2.9740143E-1,1.4379653E0,2.8583164E0,1.5624644E0,3.027834E0,2.0486436E0,1.361158E0,1.5204697E0,1.4114669E-1,1.3746196E-1,5.9300494E-1,4.453674E-2,4.8884743E-1,6.042805E-1,5.4084975E-1,1.0623412E0,1.8771833E0,1.146882E0,9.582763E-1,1.248834E0,5.3996277E-1,0E0,0E0,0E0,3.776455E-2,0E0,1.4742903E0,2.2319245E-1,2.1550198E0,1.9957476E0,7.480606E-1,1.8166332E0,7.119934E-1,2.4230423E0,1.6727409E0,1.6001081E0,0E0,0E0,0E0,0E0,0E0,0E0,0E0,0E0,0E0,0E0,0E0,0E0,0E0,0E0,0E0,0E0,0E0,0E0,0E0,0E0,0E0,0E0,0E0,0E0,0E0,0E0,0E0,0E0,0E0,0E0,0E0,0E0,0E0,0E0,0E0,0E0,0E0,0E0,0E0,0E0,0E0,0E0,0E0,0E0,0E0,0E0,0E0,0E0,0E0,0E0,0E0,0E0],"parents":[2147483647,0,0,1,1,2,2,3,3,4,4,5,5,6,6,7,7,8,8,9,9,10,10,11,11,12,12,13,13,14,14,15,15,16,16,17,17,18,18,19,19,21,21,22,22,23,23,24,24,25,25,26,26,27,27,28,28,29,29,30,30,31,31,32,32,33,33,34,34,35,35,36,36,37,37,38,38,39,39,40,40,41,41,42,42,43,43,44,44,45,45,49,49,51,51,52,52,53,53,54,54,55,55,56,56,57,57,58,58,59,59,60,60],"right_children":[2,4,6,8,10,12,14,16,18,20,22,24,26,28,30,32,34,36,38,40,-1,42,44,46,48,50,52,54,56,58,60,62,64,66,68,70,72,74,76,78,80,82,84,86,88,90,-1,-1,-1,92,-1,94,96,98,100,102,104,106,108,110,112,-1,-1,-1,-1,-1,-1,-1,-1,-1,-1,-1,-1,-1,-1,-1,-1,-1,-1,-1,-1,-1,-1,-1,-1,-1,-1,-1,-1,-1,-1,-1,-1,-1,-1,-1,-1,-1,-1,-1,-1,-1,-1,-1,-1,-1,-1,-1,-1,-1,-1,-1,-1],"split_conditions":[9.488256E-2,3.1737037E-2,9.9502485E-3,5.376344E-2,5.5090475E-1,1.3799E0,2.0833333E-1,7.3E-2,-7.50589E-1,9.184397E-2,5.4739654E-2,8.606E-1,4.819039E-1,7.1475E0,1E-1,5.841548E-3,2.3970144E0,1.4E-1,2.34E-1,0E0,-2.5258705E-2,7.7348065E-1,1.0820951E0,1.17E-2,1.155E-3,2.8E-2,1.1083935E0,2.92E-3,2.2675738E-2,7.7737246E0,3.861153E-2,3.661972E-2,1.9936204E-2,7.46E-2,8.547009E-2,2.7594103E-2,1.086E-1,1E-1,9.677419E-1,5.52369E-2,1.5184166E-1,1.3396698E0,8.229E-1,2.652E-1,1.4234875E-1,5.41E-3,-8.9852335E-3,-1.6812986E-2,1.4097228E-2,3.3433735E-1,3.4602613E-3,6.4E-3,3.3433735E-1,7.6464295E-2,9.947644E-1,1.598689E0,1.7276311E-1,7.928389E-1,1.086E-1,8.771459E-1,7.928389E-1,-1.0347679E-2,2.0371612E-2,-1.6952123E-2,-1.2808387E-2,6.550409E-3,-1.4656753E-3,2.3071604E-2,6.0469685E-3,1.9891672E-3,1.48438355E-2,-1.5724497E-3,-1.1821085E-2,-4.5202384E-3,1.4137069E-2,-1.0910763E-2,1.3988628E-2,-9.998492E-3,1.1261304E-2,1.748071E-2,-1.8535754E-2,-6.759374E-3,1.0402112E-2,1.0227043E-2,-1.055603E-2,2.3598343E-3,9.0719E-3,3.1539437E-3,-5.619842E-3,2.0934427E-2,2.8086463E-2,3.1525303E-2,1.7592397E-2,-1.5931021E-2,9.326186E-3,2.633223E-2,1.9523733E-3,7.8915684E-5,2.0312354E-2,7.720092E-3,1.7799197E-2,-2.7021516E-2,8.124102E-4,2.5230478E-3,-2.8990982E-2,-2.5892733E-2,5.5553424E-3,-1.9576164E-2,1.4831902E-2,8.389035E-3,-1.241767E-2,2.3870976E-3,1.1367148E-2],"split_indices":[2,4,8,8,3,6,2,27,9,2,8,29,3,6,8,8,3,6,29,9,0,9,3,28,6,27,3,6,9,7,4,2,8,27,9,4,29,8,9,8,18,3,29,29,9,6,0,0,0,2,0,28,2,4,9,3,18,9,29,3,9,0,0,0,0,0,0,0,0,0,0,0,0,0,0,0,0,0,0,0,0,0,0,0,0,0,0,0,0,0,0,0,0,0,0,0,0,0,0,0,0,0,0,0,0,0,0,0,0,0,0,0,0],"split_type":[0,0,0,0,0,0,0,0,0,0,0,0,0,0,0,0,0,0,0,0,0,0,0,0,0,0,0,0,0,0,0,0,0,0,0,0,0,0,0,0,0,0,0,0,0,0,0,0,0,0,0,0,0,0,0,0,0,0,0,0,0,0,0,0,0,0,0,0,0,0,0,0,0,0,0,0,0,0,0,0,0,0,0,0,0,0,0,0,0,0,0,0,0,0,0,0,0,0,0,0,0,0,0,0,0,0,0,0,0,0,0,0,0],"sum_hessian":[3.488833E3,2.09043E3,1.3984031E3,1.3640111E3,7.264188E2,2.1155869E2,1.1868444E3,1.1667882E3,1.9722292E2,8.153763E1,6.4488116E2,1.5635063E2,5.520805E1,5.8942786E2,5.974165E2,1.1353447E3,3.1443459E1,4.5039017E1,1.5218391E2,8.002735E1,1.5102792E0,1.9907516E2,4.4580603E2,1.5340114E2,2.9495003E0,1.7741182E1,3.746687E1,5.0202298E2,8.7404854E1,3.314376E2,2.659789E2,1.2904049E1,1.1224407E3,2.5773243E1,5.6702156E0,3.825731E1,6.7817073E0,2.905688E1,1.2312702E2,1.0592257E1,6.94351E1,1.5420201E2,4.4873158E1,2.8543228E2,1.6037375E2,1.5193039E2,1.4707463E0,1.6449407E0,1.3045595E0,1.6053638E1,1.6875452E0,2.7179798E1,1.0287069E1,1.7558762E2,3.2643536E2,1.0672584E1,7.673227E1,7.1316447E0,3.2430594E2,3.804898E1,2.2792993E2,5.4756656E0,7.428383E0,3.2824054E2,7.9420013E2,6.5546293E0,1.9218613E1,1.9206327E0,3.749583E0,2.488859E1,1.3368718E1,1.696391E0,5.085316E0,2.6004269E1,3.0526137E0,1.2145823E2,1.6687926E0,6.66894E0,3.9233162E0,6.810375E1,1.3313427E0,1.370896E2,1.71124E1,3.7710293E1,7.1628647E0,7.185069E1,2.1358157E2,7.870859E1,8.166517E1,8.668306E1,6.524732E1,1.0225431E1,5.828206E0,6.9572234E0,2.0222574E1,9.066485E0,1.2205839E0,1.6226549E2,1.3322122E1,2.658693E2,6.056606E1,7.3586802E0,3.3139033E0,7.285708E1,3.875192E0,4.9969435E0,2.1347013E0,4.3776174E0,3.199283E2,1.5460436E1,2.2588545E1,7.387791E1,1.5405203E2],"tree_param":{"num_deleted":"0","num_feature":"30","num_nodes":"113","size_leaf_vector":"1"}},{"base_weights":[-3.4169755E-3,-1.6702352E-1,1.9108576E-1,-2.6556495E-1,3.205445E-2,3.7968215E-1,1.5436463E-1,-2.3463896E-1,-3.3954534E-1,-1.120723E-1,1.6375728E-1,3.5298207E-1,5.3102005E-1,2.0712422E-1,6.7309216E-2,-2.454051E-1,7.2293747E-3,-3.4649953E-1,-2.7210737E-2,7.0549175E-2,-1.9227974E-1,-4.6909064E-2,1.8736611E-1,4.0045205E-1,2.7797034E-1,5.5410075E-1,2.9187414E-3,1.5646327E-1,2.5975722E-1,-1.0057052E-2,1.5987915E-1,-2.2436075E-1,-3.4307712E-1,-1.5223956E-1,1.369404E-1,-6.26323E-2,-3.5047492E-1,-9.490525E-2,9.6542975E-3,9.3424045E-2,-2.5392288E-1,-1.5200125E-1,-2.672231E-1,1.0692917E-1,-2.3364313E-1,2.1468917E-1,4.3996397E-2,4.1483098E-1,7.479638E-2,1.4520085E-1,4.0484387E-1,2.2452298E-1,5.852514E-1,8.163768E-2,2.0774275E-1,1.6038415E-1,2.8846923E-1,-1.6242951E-1,3.4169704E-2,3.311706E-1,1.1966375E-1,-1.1632421E-2,6.359773E-3,-8.423701E-3,-1.928105E-2,-9.535885E-3,-2.2344876E-3,9.873069E-3,-6.647369E-4,-5.365555E-3,4.1613868E-4,-1.9501863E-2,-1.5924236E-2,-1.2562894E-3,-6.9609503E-3,-1.8382551E-3,8.730022E-3,-2.3752462E-2,2.9461007E-3,-9.895869E-4,-8.301622E-3,-1.4548416E-2,-7.879454E-3,1.5511043E-2,-2.055791E-3,-1.621321E-2,-7.0843357E-4,7.957787E-3,1.4664291E-2,5.341512E-3,-1.6021518E-2,1.5832234E-2,2.4886718E-2,-1.3659748E-2,1.4806519E-2,3.8357046E-3,2.1644767E-2,3.1494517E-2,1.4517148E-2,-4.2191013E-3,1.7058572E-2,1.446141E-2,3.0213127E-2,1.3957897E-2,2.5497251E-3,1.227589E-2,2.3447657E-3,9.771015E-3,-1.0482817E-2,1.9367259E-2,1.2789312E-2,2.3749722E-3,-1.1224927E-2,-1.4236793E-2,2.5522641E-3,6.052745E-3,2.644946E-2,6.529079E-3,-2.058444E-2],"categories":[],"categories_nodes":[],"categories_segments":[],"categories_sizes":[],"default_left":[0,0,0,0,0,0,0,0,0,0,0,0,0,0,0,0,0,0,0,0,0,0,0,0,0,0,0,0,0,0,0,0,0,0,0,0,0,0,0,0,0,0,0,0,0,0,0,0,0,0,0,0,0,0,0,0,0,0,0,0,0,0,0,0,0,0,0,0,0,0,0,0,0,0,0,0,0,0,0,0,0,0,0,0,0,0,0,0,0,0,0,0,0,0,0,0,0,0,0,0,0,0,0,0,0,0,0,0,0,0,0,0,0,0,0,0,0,0,0],"id":13,"left_children":[1,3,5,7,9,11,13,15,17,19,21,23,25,27,29,31,33,35,37,39,41,43,45,47,49,51,-1,53,55,57,59,61,63,65,67,69,71,73,-1,75,77,79,81,83,85,87,89,91,93,95,97,99,101,103,105,107,109,111,113,115,117,-1,-1,-1,-1,-1,-1,-1,-1,-1,-1,-1,-1,-1,-1,-1,-1,-1,-1,-1,-1,-1,-1,-1,-1,-1,-1,-1,-1,-1,-1,-1,-1,-1,-1,-1,-1,-1,-1,-1,-1,-1,-1,-1,-1,-1,-1,-1,-1,-1,-1,-1,-1,-1,-1,-1,-1,-1,-1],"loss_changes":[1.10517944E2,3.7013138E1,1.0930008E1,2.807373E0,1.1890555E1,8.5469437E-1,6.093794E0,2.3274193E0,7.9369354E-1,4.3966007E0,1.6362286E0,6.7993546E-1,3.6796188E-1,2.1658554E0,3.6060023E0,1.6805878E0,8.2821196E-1,3.861313E-1,1.546079E-1,7.069279E-1,5.878067E-1,9.952223E-1,1.1439705E0,5.955944E-1,1.4470105E0,2.2658157E-1,0E0,1.6105814E0,1.107399E0,1.8593982E0,1.5391331E0,2.0877228E0,1.0469418E0,6.5888345E-2,2.031168E-1,2.058598E-2,3.2684708E-1,2.01912E-2,0E0,9.228727E-1,4.6595073E-1,2.5220704E-1,1.4016819E-1,5.907397E-1,3.0508047E-1,1.031642E0,1.1422702E0,8.8383293E-1,6.107206E-1,8.581669E-1,9.805789E-1,1.9574963E-1,1.0156631E-3,1.0397211E0,1.5137901E0,1.2452769E0,9.1062164E-1,8.192961E-1,1.1664155E0,1.7237129E0,1.1396015E0,0E0,0E0,0E0,0E0,0E0,0E0,0E0,0E0,0E0,0E0,0E0,0E0,0E0,0E0,0E0,0E0,0E0,0E0,0E0,0E0,0E0,0E0,0E0,0E0,0E0,0E0,0E0,0E0,0E0,0E0,0E0,0E0,0E0,0E0,0E0,0E0,0E0,0E0,0E0,0E0,0E0,0E0,0E0,0E0,0E0,0E0,0E0,0E0,0E0,0E0,0E0,0E0,0E0,0E0,0E0,0E0,0E0,0E0],"parents":[2147483647,0,0,1,1,2,2,3,3,4,4,5,5,6,6,7,7,8,8,9,9,10,10,11,11,12,12,13,13,14,14,15,15,16,16,17,17,18,18,19,19,20,20,21,21,22,22,23,23,24,24,25,25,27,27,28,28,29,29,30,30,31,31,32,32,33,33,34,34,35,35,36,36,37,37,39,39,40,40,41,41,42,42,43,43,44,44,45,45,46,46,47,47,48,48,49,49,50,50,51,51,52,52,53,53,54,54,55,55,56,56,57,57,58,58,59,59,60,60],"right_children":[2,4,6,8,10,12,14,16,18,20,22,24,26,28,30,32,34,36,38,40,42,44,46,48,50,52,-1,54,56,58,60,62,64,66,68,70,72,74,-1,76,78,80,82,84,86,88,90,92,94,96,98,100,102,104,106,108,110,112,114,116,118,-1,-1,-1,-1,-1,-1,-1,-1,-1,-1,-1,-1,-1,-1,-1,-1,-1,-1,-1,-1,-1,-1,-1,-1,-1,-1,-1,-1,-1,-1,-1,-1,-1,-1,-1,-1,-1,-1,-1,-1,-1,-1,-1,-1,-1,-1,-1,-1,-1,-1,-1,-1,-1,-1,-1,-1,-1,-1],"split_conditions":[4.863222E-2,5.421687E-2,8.908686E-3,6.182E-1,1.5706806E-2,5.7246547E-2,1.0895E0,5.989E-1,7.3E-2,-2.4271844E-2,2.6131906E-2,5.6163853E-1,4.14E-2,2.0647774E-2,2.048157E-1,5.14E-1,7.8E-3,-6.76E-2,2.3970144E0,1.4735226E-1,5.14E-1,-7.246377E-3,1.0566038E-1,8.19E-1,9.7723323E-1,-4.52E-2,2.9187414E-3,1.9076046E-1,3.584E-1,7.862408E-2,5.0258175E-2,5.096E-1,-2.79E-2,-3.5E-2,7.4074073E-3,-2.0408163E-2,1.447881E-2,1.8018018E-2,9.6542975E-3,7.727273E-2,-2.7173914E-3,1.086E-1,1.48E-2,-2.65E-2,1.5363116E0,1E1,5.7142857E-3,4.782E-1,3.4053538E-2,7.072E-1,2.3118952E-2,1.527629E-1,2.523E-1,4.519774E-2,6.699389E-2,1.0289223E0,3.861153E-2,3.4782607E-2,1.903E-1,4.651E-1,2.3765227E-1,-1.1632421E-2,6.359773E-3,-8.423701E-3,-1.928105E-2,-9.535885E-3,-2.2344876E-3,9.873069E-3,-6.647369E-4,-5.365555E-3,4.1613868E-4,-1.9501863E-2,-1.5924236E-2,-1.2562894E-3,-6.9609503E-3,-1.8382551E-3,8.730022E-3,-2.3752462E-2,2.9461007E-3,-9.895869E-4,-8.301622E-3,-1.4548416E-2,-7.879454E-3,1.5511043E-2,-2.055791E-3,-1.621321E-2,-7.0843357E-4,7.957787E-3,1.4664291E-2,5.341512E-3,-1.6021518E-2,1.5832234E-2,2.4886718E-2,-1.3659748E-2,1.4806519E-2,3.8357046E-3,2.1644767E-2,3.1494517E-2,1.4517148E-2,-4.2191013E-3,1.7058572E-2,1.446141E-2,3.0213127E-2,1.3957897E-2,2.5497251E-3,1.227589E-2,2.3447657E-3,9.771015E-3,-1.0482817E-2,1.9367259E-2,1.2789312E-2,2.3749722E-3,-1.1224927E-2,-1.4236793E-2,2.5522641E-3,6.052745E-3,2.644946E-2,6.529079E-3,-2.058444E-2],"split_indices":[0,8,8,29,5,4,3,29,27,5,4,3,27,5,10,29,27,27,3,8,29,0,8,29,3,27,0,10,29,2,8,29,27,27,0,2,4,8,0,8,0,29,27,27,3,19,0,29,4,29,4,10,29,8,4,3,4,8,29,29,18,0,0,0,0,0,0,0,0,0,0,0,0,0,0,0,0,0,0,0,0,0,0,0,0,0,0,0,0,0,0,0,0,0,0,0,0,0,0,0,0,0,0,0,0,0,0,0,0,0,0,0,0,0,0,0,0,0,0],"split_type":[0,0,0,0,0,0,0,0,0,0,0,0,0,0,0,0,0,0,0,0,0,0,0,0,0,0,0,0,0,0,0,0,0,0,0,0,0,0,0,0,0,0,0,0,0,0,0,0,0,0,0,0,0,0,0,0,0,0,0,0,0,0,0,0,0,0,0,0,0,0,0,0,0,0,0,0,0,0,0,0,0,0,0,0,0,0,0,0,0,0,0,0,0,0,0,0,0,0,0,0,0,0,0,0,0,0,0,0,0,0,0,0,0,0,0,0,0,0,0],"sum_hessian":[3.47101E3,1.885314E3,1.585696E3,1.2608654E3,6.2444867E2,2.569067E2,1.3287894E3,8.921089E2,3.687564E2,2.982323E2,3.2621637E2,2.2121147E2,3.569522E1,8.2650824E2,5.022812E2,8.540773E2,3.8031616E1,3.606178E2,8.138616E0,9.1048225E1,2.0718405E2,3.277465E1,2.934417E2,1.3281999E2,8.839149E1,3.3868958E1,1.826264E0,4.2316815E2,4.0334006E2,