{"learner":{"attributes":{"scikit_learn":"{\"_estimator_type\": \"ranker\"}"},"feature_names":[],"feature_types":[],"gradient_booster":{"model":{"cats":{"enc":[],"feature_segments":[],"sorted_idx":[]},"gbtree_model_param":{"num_parallel_tree":"1","num_trees":"200"},"iteration_indptr":[0,1,2,3,4,5,6,7,8,9,10,11,12,13,14,15,16,17,18,19,20,21,22,23,24,25,26,27,28,29,30,31,32,33,34,35,36,37,38,39,40,41,42,43,44,45,46,47,48,49,50,51,52,53,54,55,56,57,58,59,60,61,62,63,64,65,66,67,68,69,70,71,72,73,74,75,76,77,78,79,80,81,82,83,84,85,86,87,88,89,90,91,92,93,94,95,96,97,98,99,100,101,102,103,104,105,106,107,108,109,110,111,112,113,114,115,116,117,118,119,120,121,122,123,124,125,126,127,128,129,130,131,132,133,134,135,136,137,138,139,140,141,142,143,144,145,146,147,148,149,150,151,152,153,154,155,156,157,158,159,160,161,162,163,164,165,166,167,168,169,170,171,172,173,174,175,176,177,178,179,180,181,182,183,184,185,186,187,188,189,190,191,192,193,194,195,196,197,198,199,200],"tree_info":[0,0,0,0,0,0,0,0,0,0,0,0,0,0,0,0,0,0,0,0,0,0,0,0,0,0,0,0,0,0,0,0,0,0,0,0,0,0,0,0,0,0,0,0,0,0,0,0,0,0,0,0,0,0,0,0,0,0,0,0,0,0,0,0,0,0,0,0,0,0,0,0,0,0,0,0,0,0,0,0,0,0,0,0,0,0,0,0,0,0,0,0,0,0,0,0,0,0,0,0,0,0,0,0,0,0,0,0,0,0,0,0,0,0,0,0,0,0,0,0,0,0,0,0,0,0,0,0,0,0,0,0,0,0,0,0,0,0,0,0,0,0,0,0,0,0,0,0,0,0,0,0,0,0,0,0,0,0,0,0,0,0,0,0,0,0,0,0,0,0,0,0,0,0,0,0,0,0,0,0,0,0,0,0,0,0,0,0,0,0,0,0,0,0,0,0,0,0,0,0],"trees":[{"base_weights":[5.0165197E-3,-8.829308E-2,2.1751054E-2,-6.4649165E-2,-2.5923732E-1,-3.467417E-3,6.08783E-2,-4.2481158E-2,-1.3079359E-1,-2.8005132E-1,1.4916717E-1,-1.1533323E-2,1.2862974E-1,5.408331E-2,2.2111425E-1,-5.0288178E-2,2.691157E-1,-1.4751251E-1,6.180437E-2,-2.956636E-1,5.4137562E-3,1.3202201E-2,-1.6299995E-3,2.1445116E-2,-3.509675E-2,-1.375253E-1,1.7295223E-1,-1.867577E-1,5.926099E-2,2.727121E-1,-1.4457753E-1,9.407863E-3,-7.149556E-2,2.2427974E-2,5.252738E-2,-1.7198366E-1,-8.501002E-3,1.5029351E-1,-1.47023E-1,-2.1741162E-1,-3.554936E-1,1.5475879E-2,2.603068E-1,-3.873036E-2,1.5248042E-1,-2.0394973E-1,7.926292E-2,1.3948095E-1,2.4157487E-2,-9.8107055E-2,-1.980208E-2,5.551615E-2,2.887196E-1,-8.95575E-3,2.9235837E-1,-3.0282983E-1,1.3335215E-2,7.3530446E-3,-9.912055E-4,-1.2858735E-2,-2.714858E-3,-4.7365148E-3,1.2147553E-2,-1.033608E-2,-2.3214982E-3,1.2674405E-2,-3.818962E-3,1.9945665E-3,1.34231895E-2,-9.972116E-3,-1.3894498E-3,-1.686037E-2,-5.8955005E-3,-3.2162115E-3,-1.989214E-2,-3.7405908E-4,2.581107E-3,1.6473802E-2,-1.902855E-3,-2.544982E-3,4.6634606E-5,-7.825199E-3,1.0372443E-2,-1.3033834E-2,6.508297E-4,1.0406893E-2,-4.0908135E-3,1.5197642E-2,4.8922E-3,-7.6652765E-3,1.2911654E-2,3.8555737E-3,1.4275538E-3,9.249759E-3,2.8404055E-2,-5.8249156E-3,1.5562773E-2,-1.9950401E-2,-9.951493E-4],"categories":[],"categories_nodes":[],"categories_segments":[],"categories_sizes":[],"default_left":[0,0,0,0,0,0,0,0,0,0,0,0,0,0,0,0,0,0,0,0,0,0,0,0,0,0,0,0,0,0,0,0,0,0,0,0,0,0,0,0,0,0,0,0,0,0,0,0,0,0,0,0,0,0,0,0,0,0,0,0,0,0,0,0,0,0,0,0,0,0,0,0,0,0,0,0,0,0,0,0,0,0,0,0,0,0,0,0,0,0,0,0,0,0,0,0,0,0,0],"id":0,"left_children":[1,3,5,7,9,11,13,15,17,19,21,23,25,27,29,31,33,35,37,39,-1,-1,-1,41,43,45,47,49,51,53,55,57,59,-1,61,63,65,67,69,71,73,75,77,79,81,83,85,87,-1,89,-1,91,93,-1,95,97,-1,-1,-1,-1,-1,-1,-1,-1,-1,-1,-1,-1,-1,-1,-1,-1,-1,-1,-1,-1,-1,-1,-1,-1,-1,-1,-1,-1,-1,-1,-1,-1,-1,-1,-1,-1,-1,-1,-1,-1,-1,-1,-1],"loss_changes":[4.7470565E0,1.851835E0,2.5435333E0,5.91921E-1,5.1646876E-1,1.6724652E0,1.0879953E0,7.595586E-1,3.369243E-1,3.562584E-1,7.877677E-2,1.1500254E0,1.0893979E0,1.2212396E0,8.087876E-1,3.8049644E-1,2.7388656E-1,3.1819057E-1,1.8537827E-1,1.646843E-1,0E0,0E0,0E0,8.756528E-1,5.941038E-1,2.0988125E-1,7.412081E-1,3.4455097E-1,8.009832E-1,3.726251E-1,4.5144713E-1,3.229275E-1,6.9334245E-1,0E0,1.5201539E-1,3.3866143E-1,2.882015E-1,7.671018E-2,1.4054149E-2,2.578622E-1,3.1615448E-1,5.0075054E-1,3.216704E-1,4.0905643E-1,3.1444272E-1,1.335755E-1,9.7475685E-2,4.612707E-1,0E0,3.5126206E-1,0E0,5.432999E-1,3.3043158E-1,0E0,3.0633187E-1,1.1671448E-1,0E0,0E0,0E0,0E0,0E0,0E0,0E0,0E0,0E0,0E0,0E0,0E0,0E0,0E0,0E0,0E0,0E0,0E0,0E0,0E0,0E0,0E0,0E0,0E0,0E0,0E0,0E0,0E0,0E0,0E0,0E0,0E0,0E0,0E0,0E0,0E0,0E0,0E0,0E0,0E0,0E0,0E0,0E0],"parents":[2147483647,0,0,1,1,2,2,3,3,4,4,5,5,6,6,7,7,8,8,9,9,10,10,11,11,12,12,13,13,14,14,15,15,16,16,17,17,18,18,19,19,23,23,24,24,25,25,26,26,27,27,28,28,29,29,30,30,31,31,32,32,34,34,35,35,36,36,37,37,38,38,39,39,40,40,41,41,42,42,43,43,44,44,45,45,46,46,47,47,49,49,51,51,52,52,54,54,55,55],"right_children":[2,4,6,8,10,12,14,16,18,20,22,24,26,28,30,32,34,36,38,40,-1,-1,-1,42,44,46,48,50,52,54,56,58,60,-1,62,64,66,68,70,72,74,76,78,80,82,84,86,88,-1,90,-1,92,94,-1,96,98,-1,-1,-1,-1,-1,-1,-1,-1,-1,-1,-1,-1,-1,-1,-1,-1,-1,-1,-1,-1,-1,-1,-1,-1,-1,-1,-1,-1,-1,-1,-1,-1,-1,-1,-1,-1,-1,-1,-1,-1,-1,-1,-1],"split_conditions":[9.79E-4,1.05E-2,1.1952192E-2,1.05E-2,4.85E-2,1.04E-2,9.975669E-2,1.24087594E-1,8.830022E-3,4.4554457E-2,0E0,-9.803922E-3,1.327E-3,9.387786E0,1.7221244E-1,-3.267974E-3,-2.8694405E-3,7.326E-1,1.8099548E-2,-2.99E-2,5.4137562E-3,1.3202201E-2,-1.6299995E-3,1.369863E-2,5.0044682E-2,2.9354207E-3,1.4341591E-2,8.3E-3,1.15E-2,-5.872056E-1,9.138381E-3,2.412E-1,1.809E-1,2.2427974E-2,5.61E-1,3.2E-2,-9.996924E-3,2.7210885E-1,-3.984064E-2,-5.85034E-2,-5.882353E-1,-1.4974544E-4,5.134E-1,3.7974683E-3,3.846E-1,1.218E-3,1.13E-2,-1.2863268E-2,2.4157487E-2,1.6483517E-2,-1.980208E-2,3.514E-1,7.137E-3,-8.95575E-3,6.1E-3,9.392265E-1,1.3335215E-2,7.3530446E-3,-9.912055E-4,-1.2858735E-2,-2.714858E-3,-4.7365148E-3,1.2147553E-2,-1.033608E-2,-2.3214982E-3,1.2674405E-2,-3.818962E-3,1.9945665E-3,1.34231895E-2,-9.972116E-3,-1.3894498E-3,-1.686037E-2,-5.8955005E-3,-3.2162115E-3,-1.989214E-2,-3.7405908E-4,2.581107E-3,1.6473802E-2,-1.902855E-3,-2.544982E-3,4.6634606E-5,-7.825199E-3,1.0372443E-2,-1.3033834E-2,6.508297E-4,1.0406893E-2,-4.0908135E-3,1.5197642E-2,4.8922E-3,-7.6652765E-3,1.2911654E-2,3.8555737E-3,1.4275538E-3,9.249759E-3,2.8404055E-2,-5.8249156E-3,1.5562773E-2,-1.9950401E-2,-9.951493E-4],"split_indices":[5,27,1,26,26,27,0,1,4,0,0,0,5,6,17,4,4,28,4,26,0,0,0,4,0,4,4,27,27,17,4,28,28,0,28,26,4,8,8,1,8,4,28,4,28,5,27,4,0,4,0,5,5,0,27,8,0,0,0,0,0,0,0,0,0,0,0,0,0,0,0,0,0,0,0,0,0,0,0,0,0,0,0,0,0,0,0,0,0,0,0,0,0,0,0,0,0,0,0],"split_type":[0,0,0,0,0,0,0,0,0,0,0,0,0,0,0,0,0,0,0,0,0,0,0,0,0,0,0,0,0,0,0,0,0,0,0,0,0,0,0,0,0,0,0,0,0,0,0,0,0,0,0,0,0,0,0,0,0,0,0,0,0,0,0,0,0,0,0,0,0,0,0,0,0,0,0,0,0,0,0,0,0,0,0,0,0,0,0,0,0,0,0,0,0,0,0,0,0,0,0],"sum_hessian":[3.0378462E3,4.6131833E2,2.5765278E3,4.0647543E2,5.484291E1,1.5672854E3,1.0092425E3,3.0567282E2,1.0080262E2,5.2482464E1,2.360446E0,1.4779536E3,8.933176E1,9.6946857E2,3.9773903E1,2.9901953E2,6.6532836E0,9.296653E1,7.8360863E0,5.068341E1,1.7990545E0,1.1689928E0,1.1914532E0,6.159643E2,8.619893E2,1.2452441E1,7.687931E1,1.9665249E1,9.4980334E2,3.5078674E1,4.6952252E0,7.852847E1,2.2049106E2,3.0529146E0,3.600369E0,7.8849014E1,1.4117521E1,5.700737E0,2.1353498E0,2.3968592E1,2.6714817E1,6.019853E2,1.3979033E1,8.463872E2,1.5602081E1,9.577189E0,2.8752522E0,7.0700195E1,6.1791196E0,1.4845579E1,4.81967E0,9.3577313E2,1.4030187E1,1.1234889E0,3.395519E1,3.5810194E0,1.1142058E0,1.3049185E1,6.547929E1,1.7508686E1,2.0298238E2,2.3136866E0,1.2866821E0,6.125471E1,1.7594301E1,2.3423436E0,1.1775178E1,3.6387553E0,2.0619814E0,1.0159898E0,1.1193599E0,9.791306E0,1.4177286E1,3.712008E0,2.300281E1,3.6864563E2,2.3333963E2,1.1263547E1,2.715486E0,6.474543E2,1.989329E2,2.0774295E0,1.3524652E1,7.432471E0,2.1447186E0,1.4350015E0,1.4402506E0,1.3009749E1,5.769044E1,1.3347739E1,1.4978393E0,5.185922E2,4.1718088E2,1.1443519E1,2.5866687E0,1.2718841E0,3.2683304E1,2.3663242E0,1.2146951E0],"tree_param":{"num_deleted":"0","num_feature":"29","num_nodes":"99","size_leaf_vector":"1"}},{"base_weights":[-1.5100429E-3,-8.537752E-2,2.1723387E-1,-1.4997199E-1,6.359039E-2,6.847692E-1,1.9694538E-1,-1.7800534E-1,7.510386E-3,9.640024E-2,-6.6542916E-2,1.5356159E-2,7.4117017E-1,9.954149E-2,2.4598953E-1,-1.1853563E-1,-2.5445783E-1,-9.668394E-3,4.2778894E-1,1.3730243E-1,2.2611024E-2,-8.65027E-2,2.1027267E-1,2.3266652E-1,-1.727875E-2,8.40702E-1,4.6055534E-1,2.3494112E-1,1.8857924E-2,1.9786441E-1,3.2428357E-1,-1.2882796E-1,4.4070654E-2,-2.8405324E-1,-1.9152734E-1,1.330277E-1,-4.7402896E-2,4.863209E-1,-2.22661E-3,1.0734699E-1,3.62459E-1,1.189101E-1,-8.464755E-2,-2.5451314E-1,-6.2340073E-2,-3.3324692E-1,3.0902034E-2,-2.6106345E-5,1.744637E-2,1.2747854E-2,8.7032515E-1,-9.04468E-3,5.331942E-1,-5.2338373E-2,2.864145E-1,-1.3774924E-1,6.440383E-2,-2.066385E-2,2.1150564E-1,1.979405E-1,3.7907413E-1,-9.646524E-3,-4.961656E-3,1.5353808E-2,-7.070053E-3,-1.3854632E-2,-3.0183116E-2,-1.0352467E-2,1.8060366E-3,1.7566657E-2,-4.356037E-4,1.4002292E-2,-3.280174E-3,2.7294005E-3,2.6580984E-2,4.546763E-3,2.0832568E-2,2.6588125E-2,1.0560633E-2,7.33822E-3,-1.9013356E-2,1.0320285E-3,-1.14420345E-2,-1.5637085E-2,-5.487979E-4,-2.5759996E-3,-1.9841623E-2,-1.9257125E-2,-2.0845735E-3,4.462862E-2,9.072245E-3,1.6965063E-2,3.833046E-2,1.4779734E-2,-1.1132151E-2,-1.3567616E-2,1.5704567E-2,-1.0948039E-2,3.259346E-2,-9.31098E-3,4.464825E-3,4.841065E-3,-2.1971948E-2,2.1169838E-2,9.927766E-3,4.825116E-3,2.8977785E-2,1.392899E-2,2.2771379E-2],"categories":[],"categories_nodes":[],"categories_segments":[],"categories_sizes":[],"default_left":[0,0,0,0,0,0,0,0,0,0,0,0,0,0,0,0,0,0,0,0,0,0,0,0,0,0,0,0,0,0,0,0,0,0,0,0,0,0,0,0,0,0,0,0,0,0,0,0,0,0,0,0,0,0,0,0,0,0,0,0,0,0,0,0,0,0,0,0,0,0,0,0,0,0,0,0,0,0,0,0,0,0,0,0,0,0,0,0,0,0,0,0,0,0,0,0,0,0,0,0,0,0,0,0,0,0,0,0,0],"id":1,"left_children":[1,3,5,7,9,11,13,15,17,19,21,23,25,27,29,31,33,35,37,39,41,43,45,47,-1,49,51,53,55,57,59,61,63,65,67,69,71,73,-1,75,77,79,81,83,85,87,-1,-1,-1,-1,89,-1,91,93,95,97,99,101,103,105,107,-1,-1,-1,-1,-1,-1,-1,-1,-1,-1,-1,-1,-1,-1,-1,-1,-1,-1,-1,-1,-1,-1,-1,-1,-1,-1,-1,-1,-1,-1,-1,-1,-1,-1,-1,-1,-1,-1,-1,-1,-1,-1,-1,-1,-1,-1,-1,-1],"loss_changes":[7.338111E1,2.7831738E1,1.0380585E1,8.906509E0,3.7433472E0,1.7141037E0,5.0577126E0,7.7553024E0,2.211756E0,2.1077971E0,9.951848E-1,4.390431E-1,7.894802E-1,3.9061162E0,2.599411E0,1.6207504E0,1.3393364E0,1.5933548E0,3.5422516E-1,2.994708E0,2.5987425E0,6.565697E-1,2.9063E0,9.376092E-2,0E0,2.966938E-1,7.134483E-1,1.9901524E0,1.616525E0,1.3171082E0,1.7769909E0,1.7031212E0,2.8820117E0,9.604225E-1,8.64131E-1,1.9185132E0,1.4119835E0,1.8194246E-1,0E0,1.984415E0,1.2292814E0,1.8977717E0,1.8136325E0,2.8730786E-1,5.08469E-1,7.27939E-2,0E0,0E0,0E0,0E0,2.6768875E-1,0E0,2.8968835E-1,1.3185558E0,1.836276E0,3.419547E0,1.1102009E0,1.360369E0,1.0535736E0,3.157817E0,1.2966404E0,0E0,0E0,0E0,0E0,0E0,0E0,0E0,0E0,0E0,0E0,0E0,0E0,0E0,0E0,0E0,0E0,0E0,0E0,0E0,0E0,0E0,0E0,0E0,0E0,0E0,0E0,0E0,0E0,0E0,0E0,0E0,0E0,0E0,0E0,0E0,0E0,0E0,0E0,0E0,0E0,0E0,0E0,0E0,0E0,0E0,0E0,0E0,0E0],"parents":[2147483647,0,0,1,1,2,2,3,3,4,4,5,5,6,6,7,7,8,8,9,9,10,10,11,11,12,12,13,13,14,14,15,15,16,16,17,17,18,18,19,19,20,20,21,21,22,22,23,23,25,25,26,26,27,27,28,28,29,29,30,30,31,31,32,32,33,33,34,34,35,35,36,36,37,37,39,39,40,40,41,41,42,42,43,43,44,44,45,45,50,50,52,52,53,53,54,54,55,55,56,56,57,57,58,58,59,59,60,60],"right_children":[2,4,6,8,10,12,14,16,18,20,22,24,26,28,30,32,34,36,38,40,42,44,46,48,-1,50,52,54,56,58,60,62,64,66,68,70,72,74,-1,76,78,80,82,84,86,88,-1,-1,-1,-1,90,-1,92,94,96,98,100,102,104,106,108,-1,-1,-1,-1,-1,-1,-1,-1,-1,-1,-1,-1,-1,-1,-1,-1,-1,-1,-1,-1,-1,-1,-1,-1,-1,-1,-1,-1,-1,-1,-1,-1,-1,-1,-1,-1,-1,-1,-1,-1,-1,-1,-1,-1,-1,-1,-1,-1],"split_conditions":[8.7673895E-2,1.369863E-2,1.0899182E-2,8.956363E-2,-1.00334445E-2,0E0,8.045977E-1,5.134E-1,1.15E-2,1.7951E0,1.15E-2,5.323E0,2.0046E0,1.00307696E-1,2.0442441E-1,1.06E-2,3.6538463E-2,3.15E-1,2.7069014E-1,7.237382E-2,1.898734E-2,1.2635179E-2,8.18E-3,1.0526316E-1,-1.727875E-2,6.820461E-2,2.1369E0,1.5649452E-3,4.724518E-2,3.087E-1,-4.137931E-3,2.3391813E-2,1.12E-2,1.13E-2,1.16E-2,7.7E-4,3.84E-4,7.777E-3,-2.22661E-3,5.088E-1,-7.1611255E-1,1.17810115E-1,-7.490637E-1,6.578E-1,1.2441111E-1,4.4521734E-2,3.0902034E-2,-2.6106345E-5,1.744637E-2,1.2747854E-2,7.709E-1,-9.04468E-3,5.0643828E-2,2.569E-3,2.0618556E-2,6.8922795E-2,1.977E-3,9.5E-3,5.970149E-2,7.475E-1,7.777E-3,-9.646524E-3,-4.961656E-3,1.5353808E-2,-7.070053E-3,-1.3854632E-2,-3.0183116E-2,-1.0352467E-2,1.8060366E-3,1.7566657E-2,-4.356037E-4,1.4002292E-2,-3.280174E-3,2.7294005E-3,2.6580984E-2,4.546763E-3,2.0832568E-2,2.6588125E-2,1.0560633E-2,7.33822E-3,-1.9013356E-2,1.0320285E-3,-1.14420345E-2,-1.5637085E-2,-5.487979E-4,-2.5759996E-3,-1.9841623E-2,-1.9257125E-2,-2.0845735E-3,4.462862E-2,9.072245E-3,1.6965063E-2,3.833046E-2,1.4779734E-2,-1.1132151E-2,-1.3567616E-2,1.5704567E-2,-1.0948039E-2,3.259346E-2,-9.31098E-3,4.464825E-3,4.841065E-3,-2.1971948E-2,2.1169838E-2,9.927766E-3,4.825116E-3,2.8977785E-2,1.392899E-2,2.2771379E-2],"split_indices":[0,4,7,9,0,16,8,28,27,5,27,5,5,0,9,27,7,28,9,9,4,3,5,1,0,1,5,4,3,28,4,7,27,27,27,5,5,5,0,28,8,7,8,28,7,3,0,0,0,0,28,0,3,5,7,17,5,27,7,28,5,0,0,0,0,0,0,0,0,0,0,0,0,0,0,0,0,0,0,0,0,0,0,0,0,0,0,0,0,0,0,0,0,0,0,0,0,0,0,0,0,0,0,0,0,0,0,0,0],"split_type":[0,0,0,0,0,0,0,0,0,0,0,0,0,0,0,0,0,0,0,0,0,0,0,0,0,0,0,0,0,0,0,0,0,0,0,0,0,0,0,0,0,0,0,0,0,0,0,0,0,0,0,0,0,0,0,0,0,0,0,0,0,0,0,0,0,0,0,0,0,0,0,0,0,0,0,0,0,0,0,0,0,0,0,0,0,0,0,0,0,0,0,0,0,0,0,0,0,0,0,0,0,0,0,0,0,0,0,0,0],"sum_hessian":[3.9979404E3,2.8903687E3,1.1075717E3,2.0161378E3,8.7423083E2,4.470152E1,1.0628701E3,1.7113679E3,3.0476993E2,6.9840485E2,1.7582602E2,3.5724943E0,4.1129025E1,3.5696033E2,7.0590985E2,9.6403186E2,7.47336E2,2.937404E2,1.1029568E1,4.487802E2,2.4962463E2,1.6464201E2,1.1184006E1,2.4517248E0,1.1207695E0,2.8887081E1,1.2241944E1,1.3257196E2,2.2438837E2,4.393693E2,2.6654056E2,9.068403E2,5.71916E1,5.059026E2,2.4143341E2,6.0903492E1,2.3283688E2,9.787073E0,1.2424945E0,3.9738748E2,5.139273E1,1.3147495E2,1.1814968E2,1.9502386E1,1.4513962E2,4.8723445E0,6.3116612E0,1.146885E0,1.3048397E0,1.8530471E0,2.7034033E1,1.0936837E0,1.114826E1,2.0141706E1,1.1243025E2,5.00995E1,1.7428886E2,2.5785076E1,4.135842E2,8.202031E1,1.8452025E2,2.8468738E2,6.221529E2,2.3380941E1,3.3810658E1,4.969468E2,8.955767E0,2.2610696E2,1.5326437E1,2.3393879E1,3.7509613E1,1.1502763E1,2.2133412E2,1.1387696E0,8.648304E0,3.7859326E2,1.8794216E1,2.3061773E1,2.8330957E1,1.25195E2,6.279946E0,6.8782425E1,4.936726E1,1.5509885E1,3.992501E0,1.4170966E2,3.429968E0,3.8636415E0,1.008703E0,2.5901852E1,1.1321821E0,7.4299755E0,3.7182848E0,6.3772593E0,1.3764448E1,4.898911E0,1.0753134E2,4.608264E1,4.016857E0,1.5161319E1,1.5912755E2,2.073639E1,5.048686E0,2.1995941E1,3.9158826E2,6.578634E1,1.6233969E1,8.167298E1,1.0284726E2],"tree_param":{"num_deleted":"0","num_feature":"29","num_nodes":"109","size_leaf_vector":"1"}},{"base_weights":[1.9696665E-4,-2.0143051E-1,2.049789E-1,-2.6247832E-1,8.933289E-2,6.289477E-1,1.7232214E-1,-2.8195092E-1,2.4987472E-2,-3.770605E-2,1.7111054E-1,-1.2862687E-2,6.374555E-1,7.101227E-2,2.5805268E-1,-1.9670638E-1,-3.3891952E-1,-1.7499654E-1,1.2333213E-1,-1.1959748E-1,4.6090493E-1,1.0468728E-1,3.4647775E-1,5.9129137E-1,4.160024E-2,-2.3233928E-2,1.817175E-1,2.8360933E-1,6.0838774E-2,-2.0795186E-1,2.9284984E-2,-3.4713888E-1,-9.1677275E-4,9.330571E-2,-2.5379887E-1,-1.6943073E-1,2.4037166E-1,1.6301832E-1,-1.6706637E-1,5.5793154E-1,-2.1761313E-1,2.0879881E-1,-7.1124695E-2,-1.7656038E-2,4.27331E-1,6.5438545E-1,3.941893E-1,-1.1907857E-1,8.3810315E-2,1.11827105E-1,3.1063786E-1,-4.186507E-1,2.9243553E-1,-2.0997465E-1,1.4413871E-1,-6.6574267E-3,-1.2990013E-2,8.557519E-3,-6.3930685E-3,-1.6960455E-2,-3.5764676E-2,1.8806698E-3,-2.6504383E-3,-3.727081E-3,2.0345343E-2,-2.6198837E-3,-1.9726882E-2,-1.2796297E-2,1.3220263E-2,1.7729083E-2,2.2110052E-3,-1.095528E-2,1.7128685E-2,-9.555041E-3,1.3369232E-2,-1.273252E-3,3.3205595E-2,-3.0615886E-3,-1.3274081E-2,3.4991954E-3,1.4172739E-2,-6.7214235E-3,2.675888E-2,1.0236494E-2,-1.5389872E-2,1.0616191E-3,2.4717003E-2,3.568278E-2,1.9124186E-2,2.200997E-2,-1.7349688E-2,1.3108625E-3,-1.0123803E-2,7.83272E-3,-5.5407207E-3,-8.086263E-3,7.3054223E-3,3.196476E-2,1.3236277E-2,3.9895202E-4,-2.8876105E-2,-1.4984873E-2,1.4898747E-2,-1.4872508E-2,7.291624E-3,9.236458E-3,-2.0150373E-2],"categories":[],"categories_nodes":[],"categories_segments":[],"categories_sizes":[],"default_left":[0,0,0,0,0,0,0,0,0,0,0,0,0,0,0,0,0,0,0,0,0,0,0,0,0,0,0,0,0,0,0,0,0,0,0,0,0,0,0,0,0,0,0,0,0,0,0,0,0,0,0,0,0,0,0,0,0,0,0,0,0,0,0,0,0,0,0,0,0,0,0,0,0,0,0,0,0,0,0,0,0,0,0,0,0,0,0,0,0,0,0,0,0,0,0,0,0,0,0,0,0,0,0,0,0,0,0],"id":2,"left_children":[1,3,5,7,9,11,13,15,17,19,21,-1,23,25,27,29,31,33,35,37,39,41,43,45,-1,47,49,51,53,55,57,59,61,63,65,67,69,71,73,75,77,79,81,83,85,87,89,91,93,95,97,99,101,103,105,-1,-1,-1,-1,-1,-1,-1,-1,-1,-1,-1,-1,-1,-1,-1,-1,-1,-1,-1,-1,-1,-1,-1,-1,-1,-1,-1,-1,-1,-1,-1,-1,-1,-1,-1,-1,-1,-1,-1,-1,-1,-1,-1,-1,-1,-1,-1,-1,-1,-1,-1,-1],"loss_changes":[1.5812442E2,3.427619E1,2.6197342E1,8.935883E0,3.4929066E0,1.1856346E0,1.5315247E1,7.1884613E0,2.0298784E0,5.4549747E0,2.3440576E0,0E0,7.160263E-1,8.46145E0,4.800461E0,1.5330753E0,2.4837112E0,7.4412787E-1,2.4062986E0,1.5617455E0,1.3631749E0,2.753924E0,1.6475492E0,1.1369133E0,0E0,4.511124E0,3.3248034E0,5.365799E0,2.5327668E0,2.1857758E0,6.763784E-1,2.3057022E0,4.66106E-2,4.7602075E-1,7.3353016E-1,8.2956195E-1,1.0984879E0,1.2384145E0,1.078865E0,1.0565214E0,6.7940205E-3,9.568114E-1,2.2367363E0,7.780398E-1,1.2309942E0,1.0718956E0,1.1660199E0,2.8151212E0,2.9639633E0,2.3056438E0,1.8001146E0,7.4416554E-1,2.831543E0,8.6824656E-1,1.9717606E0,0E0,0E0,0E0,0E0,0E0,0E0,0E0,0E0,0E0,0E0,0E0,0E0,0E0,0E0,0E0,0E0,0E0,0E0,0E0,0E0,0E0,0E0,0E0,0E0,0E0,0E0,0E0,0E0,0E0,0E0,0E0,0E0,0E0,0E0,0E0,0E0,0E0,0E0,0E0,0E0,0E0,0E0,0E0,0E0,0E0,0E0,0E0,0E0,0E0,0E0,0E0,0E0],"parents":[2147483647,0,0,1,1,2,2,3,3,4,4,5,5,6,6,7,7,8,8,9,9,10,10,12,12,13,13,14,14,15,15,16,16,17,17,18,18,19,19,20,20,21,21,22,22,23,23,25,25,26,26,27,27,28,28,29,29,30,30,31,31,32,32,33,33,34,34,35,35,36,36,37,37,38,38,39,39,40,40,41,41,42,42,43,43,44,44,45,45,46,46,47,47,48,48,49,49,50,50,51,51,52,52,53,53,54,54],"right_children":[2,4,6,8,10,12,14,16,18,20,22,-1,24,26,28,30,32,34,36,38,40,42,44,46,-1,48,50,52,54,56,58,60,62,64,66,68,70,72,74,76,78,80,82,84,86,88,90,92,94,96,98,100,102,104,106,-1,-1,-1,-1,-1,-1,-1,-1,-1,-1,-1,-1,-1,-1,-1,-1,-1,-1,-1,-1,-1,-1,-1,-1,-1,-1,-1,-1,-1,-1,-1,-1,-1,-1,-1,-1,-1,-1,-1,-1,-1,-1,-1,-1,-1,-1,-1,-1,-1,-1,-1,-1],"split_conditions":[7.06185E-2,1.369863E-2,1.4469453E-2,8.842975E-2,5.1066026E-2,4.9479168E-2,1.9061583E-1,3.908E-1,3.885E-1,6.7961164E-2,6.0240966E-1,-1.2862687E-2,7.072E-1,6.7209774E-1,2.1154983E0,3.868E-1,7.3E-2,1.1007916E0,7.7348065E-1,-8.69329E-1,1.9491987E0,-6.786133E-3,1.8099548E-2,1.8357E0,4.160024E-2,1.5728978E-2,1.6483517E-2,-5.448718E-2,3.122E-1,2.601E-1,6.7E-3,1.13E-2,2.1686748E-2,6.374502E-1,7.4410164E-1,8.830022E-3,5.0080404E-2,6.4E-3,1.16E-2,-5.214839E-3,6.374502E-1,3.496E-3,1.15E-2,7.9E-3,-6.1045006E-2,9.8E-3,1.04E-2,3.389E-1,1.5764397E0,8.3084576E-2,-4.2E-2,7.6E-3,1.083E-1,1.05E-2,3.26E-2,-6.6574267E-3,-1.2990013E-2,8.557519E-3,-6.3930685E-3,-1.6960455E-2,-3.5764676E-2,1.8806698E-3,-2.6504383E-3,-3.727081E-3,2.0345343E-2,-2.6198837E-3,-1.9726882E-2,-1.2796297E-2,1.3220263E-2,1.7729083E-2,2.2110052E-3,-1.095528E-2,1.7128685E-2,-9.555041E-3,1.3369232E-2,-1.273252E-3,3.3205595E-2,-3.0615886E-3,-1.3274081E-2,3.4991954E-3,1.4172739E-2,-6.7214235E-3,2.675888E-2,1.0236494E-2,-1.5389872E-2,1.0616191E-3,2.4717003E-2,3.568278E-2,1.9124186E-2,2.200997E-2,-1.7349688E-2,1.3108625E-3,-1.0123803E-2,7.83272E-3,-5.5407207E-3,-8.086263E-3,7.3054223E-3,3.196476E-2,1.3236277E-2,3.9895202E-4,-2.8876105E-2,-1.4984873E-2,1.4898747E-2,-1.4872508E-2,7.291624E-3,9.236458E-3,-2.0150373E-2],"split_indices":[9,4,7,7,7,4,9,28,28,4,8,0,28,8,2,28,26,2,8,8,2,9,4,5,0,4,4,4,28,28,27,27,7,8,8,4,9,27,27,9,8,5,27,27,9,27,27,28,2,7,26,27,28,26,26,0,0,0,0,0,0,0,0,0,0,0,0,0,0,0,0,0,0,0,0,0,0,0,0,0,0,0,0,0,0,0,0,0,0,0,0,0,0,0,0,0,0,0,0,0,0,0,0,0,0,0,0],"split_type":[0,0,0,0,0,0,0,0,0,0,0,0,0,0,0,0,0,0,0,0,0,0,0,0,0,0,0,0,0,0,0,0,0,0,0,0,0,0,0,0,0,0,0,0,0,0,0,0,0,0,0,0,0,0,0,0,0,0,0,0,0,0,0,0,0,0,0,0,0,0,0,0,0,0,0,0,0,0,0,0,0,0,0,0,0,0,0,0,0,0,0,0,0,0,0,0,0,0,0,0,0,0,0,0,0,0,0],"sum_hessian":[3.8276365E3,1.928681E3,1.8989554E3,1.5940884E3,3.345927E2,1.3450285E2,1.7644526E3,1.4929752E3,1.0111314E2,1.3124568E2,2.0334703E2,1.0009762E0,1.3350188E2,8.0958026E2,9.548724E2,5.99849E2,8.931263E2,3.3075214E1,6.803792E1,1.1338377E2,1.7861914E1,1.4864297E2,5.4704052E1,1.1116345E2,2.2338427E1,4.3772437E2,3.7185587E2,8.4493976E2,1.0993265E2,5.71491E2,2.8357939E1,8.718969E2,2.1229319E1,7.4672046E0,2.560801E1,1.9303778E1,4.8734142E1,1.5955457E1,9.742832E1,1.5782737E1,2.0791764E0,9.324057E1,5.54024E1,1.0081636E1,4.4622417E1,8.245035E1,2.87131E1,2.3088422E2,2.0684016E2,2.4234373E2,1.2951215E2,9.911265E0,8.350285E2,2.5502308E1,8.4430336E1,2.3541643E2,3.3607462E2,1.485675E1,1.3501189E1,8.553937E2,1.6503233E1,1.2362937E1,8.866382E0,5.3604565E0,2.106748E0,1.1098311E1,1.4509698E1,1.6436808E1,2.86697E0,3.0289986E1,1.8444155E1,5.030162E0,1.0925295E1,9.285176E1,4.576557E0,2.547259E0,1.3235477E1,1.0214319E0,1.0577445E0,3.328606E1,5.9954514E1,5.0869427E1,4.5329747E0,5.8738556E0,4.2077804E0,6.5066543E0,3.811576E1,6.636023E1,1.6090118E1,2.741722E1,1.2958821E0,8.444649E1,1.4643773E2,1.5065002E2,5.6190144E1,2.6574163E1,2.1576956E2,1.4290591E1,1.1522156E2,2.947063E0,6.964202E0,7.247159E0,8.277813E2,2.0601439E1,4.90087E0,7.921602E1,5.2143207E0],"tree_param":{"num_deleted":"0","num_feature":"29","num_nodes":"107","size_leaf_vector":"1"}},{"base_weights":[8.701394E-4,-2.0324811E-1,2.768023E-1,-2.7641E-1,6.681676E-2,5.963683E-1,2.3871057E-1,-1.761704E-1,-3.24761E-1,6.1149704E-1,4.579629E-2,-6.802577E-3,6.0247046E-1,3.4691262E-1,1.901134E-1,-2.0101799E-1,1.5532368E-1,-2.850682E-1,-3.7470633E-1,5.3586485E-3,6.4338744E-1,1.1958886E-2,4.3487844E-1,6.7180246E-1,5.3013164E-1,1.6146004E-1,3.8218984E-1,1.09144844E-1,2.2966634E-1,-2.1494292E-1,-1.0076175E-3,-1.3658074E-1,3.1207645E-1,-2.3312648E-1,-3.2546544E-1,-2.627539E-1,-4.0426818E-1,8.173385E-3,6.6914874E-1,1.1459895E-1,-2.611154E-1,-4.213219E-1,5.9291816E-1,4.8392338E-1,7.282553E-1,2.4047264E-1,5.7536787E-1,-3.187207E-1,2.2537182E-1,2.514032E-1,4.1493058E-1,-1.0006998E-1,1.3767797E-1,1.2043417E-2,2.4352053E-1,-1.0447944E-2,-2.528191E-2,-2.2902454E-3,2.2238953E-2,-1.3682231E-2,6.3122287E-3,1.805135E-2,-1.9503718E-2,-7.840711E-3,-1.5801456E-2,-1.4622442E-2,-1.9748298E-2,-2.1743502E-2,-1.1506094E-2,-2.0831069E-2,-5.11538E-3,3.4874685E-2,9.276604E-3,-5.9350836E-3,7.4117966E-3,-1.3462043E-2,5.755736E-3,-2.554204E-2,-1.4248433E-3,-1.7875772E-4,3.0878311E-2,3.1509925E-2,-2.212908E-3,3.765817E-2,1.2149638E-2,2.5219428E-3,2.3208825E-2,2.9572217E-2,7.939665E-3,-2.8475916E-2,1.6064977E-2,3.3277355E-3,1.8024892E-2,1.7434582E-2,-6.048142E-4,2.2213291E-2,1.1677164E-2,-1.0577138E-2,2.0107372E-2,2.1641051E-2,5.520919E-3,1.1231826E-2,-1.2063342E-2,2.8706893E-2,1.1734473E-2],"categories":[],"categories_nodes":[],"categories_segments":[],"categories_sizes":[],"default_left":[0,0,0,0,0,0,0,0,0,0,0,0,0,0,0,0,0,0,0,0,0,0,0,0,0,0,0,0,0,0,0,0,0,0,0,0,0,0,0,0,0,0,0,0,0,0,0,0,0,0,0,0,0,0,0,0,0,0,0,0,0,0,0,0,0,0,0,0,0,0,0,0,0,0,0,0,0,0,0,0,0,0,0,0,0,0,0,0,0,0,0,0,0,0,0,0,0,0,0,0,0,0,0,0,0],"id":3,"left_children":[1,3,5,7,9,11,13,15,17,19,21,-1,23,25,27,29,31,33,35,-1,37,39,41,43,45,47,49,51,53,55,57,59,61,63,65,67,69,-1,71,73,75,77,79,81,83,85,87,89,91,93,95,97,99,101,103,-1,-1,-1,-1,-1,-1,-1,-1,-1,-1,-1,-1,-1,-1,-1,-1,-1,-1,-1,-1,-1,-1,-1,-1,-1,-1,-1,-1,-1,-1,-1,-1,-1,-1,-1,-1,-1,-1,-1,-1,-1,-1,-1,-1,-1,-1,-1,-1,-1,-1],"loss_changes":[2.1059596E2,4.2483833E1,1.92108E1,8.139954E0,5.22651E0,8.357582E-1,7.4124527E0,4.5823E0,2.1527328E0,2.0401144E-1,5.8266E0,0E0,4.8368073E-1,2.8141098E0,3.1250572E0,1.4325542E0,1.831336E0,1.2654533E0,1.553566E0,0E0,8.549833E-2,1.1480836E1,5.0416093E0,5.1475143E-1,9.975414E-1,2.2809873E0,1.4740105E0,1.9521835E0,1.9867058E0,7.309685E-1,7.091213E-1,5.5161536E-1,1.025466E0,1.7420177E0,7.038231E-1,5.0439024E-1,1.4304123E0,0E0,7.1232796E-2,2.3532767E0,3.7312078E-1,2.0004201E-1,4.4783592E-1,1.7176514E0,5.529442E-1,5.4741734E-1,4.034176E-1,1.606744E0,1.3519344E0,1.961103E0,1.4566727E0,2.2991962E0,2.2545495E0,2.237834E0,1.6765556E0,0E0,0E0,0E0,0E0,0E0,0E0,0E0,0E0,0E0,0E0,0E0,0E0,0E0,0E0,0E0,0E0,0E0,0E0,0E0,0E0,0E0,0E0,0E0,0E0,0E0,0E0,0E0,0E0,0E0,0E0,0E0,0E0,0E0,0E0,0E0,0E0,0E0,0E0,0E0,0E0,0E0,0E0,0E0,0E0,0E0,0E0,0E0,0E0,0E0,0E0],"parents":[2147483647,0,0,1,1,2,2,3,3,4,4,5,5,6,6,7,7,8,8,9,9,10,10,12,12,13,13,14,14,15,15,16,16,17,17,18,18,20,20,21,21,22,22,23,23,24,24,25,25,26,26,27,27,28,28,29,29,30,30,31,31,32,32,33,33,34,34,35,35,36,36,38,38,39,39,40,40,41,41,42,42,43,43,44,44,45,45,46,46,47,47,48,48,49,49,50,50,51,51,52,52,53,53,54,54],"right_children":[2,4,6,8,10,12,14,16,18,20,22,-1,24,26,28,30,32,34,36,-1,38,40,42,44,46,48,50,52,54,56,58,60,62,64,66,68,70,-1,72,74,76,78,80,82,84,86,88,90,92,94,96,98,100,102,104,-1,-1,-1,-1,-1,-1,-1,-1,-1,-1,-1,-1,-1,-1,-1,-1,-1,-1,-1,-1,-1,-1,-1,-1,-1,-1,-1,-1,-1,-1,-1,-1,-1,-1,-1,-1,-1,-1,-1,-1,-1,-1,-1,-1,-1,-1,-1,-1,-1,-1],"split_conditions":[8.7673895E-2,1.369863E-2,1.0141988E-2,3.562E-1,1.2406948E-2,8.421823E-3,1.0681446E0,9.738418E-2,-6E-3,7.608843E-2,1.15E-2,-6.802577E-3,5.0731474E-1,1.5940958E-1,4.284E-1,1.1145038E-1,8.4674E-3,7.6E-3,4.794E-1,5.3586485E-3,5.93E-4,-1.0752688E-2,7.777E-3,1.977E-3,9.975669E-2,9.975669E-2,3.537E-1,-5.593364E-3,9.975669E-2,1.15E-2,1.15E-2,2.73E-1,1.7284596E-1,5.14E-1,-2.75E-2,6.3E-3,7.3E-2,8.173385E-3,3.6764514E-2,1.709E-3,7.3E-2,8.3084576E-2,2.3089051E-2,1.373E-3,1.06E-2,9.663089E-1,1E1,5.7225276E-2,4.8836093E-2,6.1295275E-2,6.105709E-2,3.738E-1,5.1502146E-2,7.8E-3,3.0534837E-2,-1.0447944E-2,-2.528191E-2,-2.2902454E-3,2.2238953E-2,-1.3682231E-2,6.3122287E-3,1.805135E-2,-1.9503718E-2,-7.840711E-3,-1.5801456E-2,-1.4622442E-2,-1.9748298E-2,-2.1743502E-2,-1.1506094E-2,-2.0831069E-2,-5.11538E-3,3.4874685E-2,9.276604E-3,-5.9350836E-3,7.4117966E-3,-1.3462043E-2,5.755736E-3,-2.554204E-2,-1.4248433E-3,-1.7875772E-4,3.0878311E-2,3.1509925E-2,-2.212908E-3,3.765817E-2,1.2149638E-2,2.5219428E-3,2.3208825E-2,2.9572217E-2,7.939665E-3,-2.8475916E-2,1.6064977E-2,3.3277355E-3,1.8024892E-2,1.7434582E-2,-6.048142E-4,2.2213291E-2,1.1677164E-2,-1.0577138E-2,2.0107372E-2,2.1641051E-2,5.520919E-3,1.1231826E-2,-1.2063342E-2,2.8706893E-2,1.1734473E-2],"split_indices":[0,4,7,28,7,9,2,7,26,1,27,0,2,2,28,9,8,27,28,0,5,0,5,5,0,0,28,17,0,27,27,28,7,28,26,27,26,0,3,5,26,7,3,5,27,2,18,3,3,3,17,28,7,27,3,0,0,0,0,0,0,0,0,0,0,0,0,0,0,0,0,0,0,0,0,0,0,0,0,0,0,0,0,0,0,0,0,0,0,0,0,0,0,0,0,0,0,0,0,0,0,0,0,0,0],"split_type":[0,0,0,0,0,0,0,0,0,0,0,0,0,0,0,0,0,0,0,0,0,0,0,0,0,0,0,0,0,0,0,0,0,0,0,0,0,0,0,0,0,0,0,0,0,0,0,0,0,0,0,0,0,0,0,0,0,0,0,0,0,0,0,0,0,0,0,0,0,0,0,0,0,0,0,0,0,0,0,0,0,0,0,0,0,0,0,0,0,0,0,0,0,0,0,0,0,0,0,0,0,0,0,0,0],"sum_hessian":[3.7370906E3,2.1482246E3,1.5888657E3,1.6902926E3,4.5793204E2,1.676586E2,1.4212072E3,5.5152783E2,1.1387648E3,1.5972176E1,4.4195984E2,1.2093493E0,1.6644925E2,4.385757E2,9.826315E2,5.1343616E2,3.8091705E1,6.38244E2,5.0052075E2,1.2092581E0,1.47629175E1,4.0754733E2,3.4412533E1,8.075962E1,8.568963E1,7.0984825E1,3.6759088E2,3.237154E2,6.589161E2,4.7994708E2,3.3489086E1,1.3353519E1,2.4738186E1,2.821865E2,3.5605753E2,1.066227E2,3.9389807E2,1.1262847E0,1.3636633E1,2.9663272E2,1.10914604E2,5.1026034E0,2.9309929E1,2.087113E1,5.988849E1,1.2427725E1,7.32619E1,7.869908E0,6.311492E1,7.53351E1,2.922558E2,3.8549545E1,2.8516583E2,3.954884E1,6.1936725E2,4.7195062E2,7.9964385E0,3.1246374E1,2.2427118E0,8.749482E0,4.6040373E0,2.3580122E1,1.158065E0,1.484391E2,1.3374738E2,2.4491653E2,1.1114099E2,1.50286045E1,9.15941E1,3.7805225E2,1.584583E1,1.2463875E1,1.1727582E0,3.7060204E1,2.595725E2,1.0884818E2,2.0664222E0,3.9109333E0,1.1916703E0,1.1969985E0,2.811293E1,1.6193373E1,4.677757E0,5.6439423E1,3.449069E0,7.382148E0,5.045577E0,7.013546E1,3.126446E0,5.7333856E0,2.1365225E0,2.970013E1,3.341479E1,5.478445E1,2.0550646E1,2.5032262E2,4.1933167E1,3.2020924E1,6.5286202E0,2.2853228E1,2.6231262E2,2.156413E1,1.7984709E1,1.444809E1,6.049191E2],"tree_param":{"num_deleted":"0","num_feature":"29","num_nodes":"105","size_leaf_vector":"1"}},{"base_weights":[-2.8400484E-3,-2.3193443E-1,2.531689E-1,-2.94332E-1,4.8045862E-2,5.4886866E-1,2.0860066E-1,-3.044515E-1,-1.2912528E-2,1.2806298E-1,-1.8911175E-1,5.921779E-1,3.7787354E-1,-1.2000171E-1,2.273952E-1,-2.981624E-1,-6.774332E-1,3.3358932E-1,-1.1983713E-1,-3.634092E-1,1.395182E-1,-2.8470492E-1,3.205474E-1,4.2686015E-1,6.404454E-1,3.1582394E-1,3.5735432E-2,-2.4666426E-1,3.543296E-1,3.0736315E-1,1.7745708E-1,-3.5581848E-1,-2.645781E-1,-3.5612207E-2,3.3852388E-3,4.7203872E-1,-1.5435146E-1,-1.7814271E-1,4.1518697E-1,-4.7818288E-1,5.0342684E-3,2.6370886E-1,7.728068E-2,-2.9818845E-1,-1.7677593E-1,-2.3730328E-2,5.150787E-1,-1.5708396E-2,4.8167953E-1,6.7081887E-1,4.7552782E-1,3.4253183E-1,-1.8799588E-2,-2.587198E-1,5.3175413E-3,-2.773713E-1,5.0642395E-1,3.861788E-1,2.3438509E-1,6.036145E-2,2.3761483E-1,-1.8170683E-2,-4.9972604E-3,-1.405363E-2,-1.0279183E-2,2.7181566E-2,-2.5076263E-3,1.1022071E-3,-1.4461437E-2,3.6697264E-4,-9.370869E-3,-2.7085873E-3,2.852784E-2,-3.406919E-2,-4.1109915E-3,1.12809605E-4,1.5985621E-2,-2.5642032E-2,4.5829928E-3,-1.0860783E-2,-1.6260799E-2,-9.31714E-3,-2.930699E-3,5.661108E-3,3.1106517E-2,-1.6423091E-2,9.328692E-3,2.6237208E-2,-1.1289764E-5,2.7193433E-2,3.668592E-2,2.570924E-2,-2.7884596E-3,-1.0337772E-2,1.8649016E-2,-1.3934824E-2,-3.2478718E-3,-2.0583127E-2,1.9639197E-3,-1.553581E-3,2.7675075E-2,-1.4484996E-2,2.0189883E-2,9.030637E-3,1.7649522E-2,8.580775E-3,-3.6194694E-4,1.2175682E-2,-1.6883561E-2],"categories":[],"categories_nodes":[],"categories_segments":[],"categories_sizes":[],"default_left":[0,0,0,0,0,0,0,0,0,0,0,0,0,0,0,0,0,0,0,0,0,0,0,0,0,0,0,0,0,0,0,0,0,0,0,0,0,0,0,0,0,0,0,0,0,0,0,0,0,0,0,0,0,0,0,0,0,0,0,0,0,0,0,0,0,0,0,0,0,0,0,0,0,0,0,0,0,0,0,0,0,0,0,0,0,0,0,0,0,0,0,0,0,0,0,0,0,0,0,0,0,0,0,0,0,0,0,0,0],"id":4,"left_children":[1,3,5,7,9,11,13,15,17,19,21,23,25,27,29,31,33,35,37,39,41,43,45,47,49,51,-1,53,55,57,59,61,63,-1,-1,65,67,69,71,73,-1,75,77,79,81,-1,83,85,87,89,91,93,-1,95,-1,97,99,101,103,105,107,-1,-1,-1,-1,-1,-1,-1,-1,-1,-1,-1,-1,-1,-1,-1,-1,-1,-1,-1,-1,-1,-1,-1,-1,-1,-1,-1,-1,-1,-1,-1,-1,-1,-1,-1,-1,-1,-1,-1,-1,-1,-1,-1,-1,-1,-1,-1,-1],"loss_changes":[2.1580855E2,3.3938667E1,2.2786644E1,4.5187073E0,6.756375E0,1.4572678E0,9.363632E0,3.3938599E0,2.1209898E0,1.5474563E0,4.471323E0,1.157795E0,7.908125E-1,5.040446E0,5.657242E0,2.8283691E0,6.871805E-1,9.855033E-1,1.4358921E0,3.85471E-1,1.9932933E0,5.8227062E-2,2.5135865E0,1.063683E0,3.663826E-1,9.20763E-1,0E0,3.0693126E-1,1.8492415E0,3.0641327E0,6.204481E0,1.0377045E0,8.740921E-1,0E0,0E0,4.2990232E-1,9.534698E-2,7.0304155E-2,3.6566788E-1,3.6648536E-1,0E0,1.2667046E0,1.5316627E0,7.448006E-2,1.4245212E-3,0E0,4.5722485E-1,4.260748E-1,8.0460453E-1,5.041504E-1,5.362878E-1,7.760997E-1,0E0,2.287674E-1,0E0,1.9040093E-1,3.8886118E-1,3.2386017E0,1.7686892E0,2.2647214E0,2.0601807E0,0E0,0E0,0E0,0E0,0E0,0E0,0E0,0E0,0E0,0E0,0E0,0E0,0E0,0E0,0E0,0E0,0E0,0E0,0E0,0E0,0E0,0E0,0E0,0E0,0E0,0E0,0E0,0E0,0E0,0E0,0E0,0E0,0E0,0E0,0E0,0E0,0E0,0E0,0E0,0E0,0E0,0E0,0E0,0E0,0E0,0E0,0E0,0E0],"parents":[2147483647,0,0,1,1,2,2,3,3,4,4,5,5,6,6,7,7,8,8,9,9,10,10,11,11,12,12,13,13,14,14,15,15,16,16,17,17,18,18,19,19,20,20,21,21,22,22,23,23,24,24,25,25,27,27,28,28,29,29,30,30,31,31,32,32,35,35,36,36,37,37,38,38,39,39,41,41,42,42,43,43,44,44,46,46,47,47,48,48,49,49,50,50,51,51,53,53,55,55,56,56,57,57,58,58,59,59,60,60],"right_children":[2,4,6,8,10,12,14,16,18,20,22,24,26,28,30,32,34,36,38,40,42,44,46,48,50,52,-1,54,56,58,60,62,64,-1,-1,66,68,70,72,74,-1,76,78,80,82,-1,84,86,88,90,92,94,-1,96,-1,98,100,102,104,106,108,-1,-1,-1,-1,-1,-1,-1,-1,-1,-1,-1,-1,-1,-1,-1,-1,-1,-1,-1,-1,-1,-1,-1,-1,-1,-1,-1,-1,-1,-1,-1,-1,-1,-1,-1,-1,-1,-1,-1,-1,-1,-1,-1,-1,-1,-1,-1,-1],"split_conditions":[4.8571866E-2,1.369863E-2,1.2406948E-2,1.6035861E-1,-9.803922E-3,2.0046E0,7.7071294E-2,1.15E-2,9.79E-4,5.515265E-1,1.15E-2,1.129E-3,9.3E-3,1.11E-2,9.267044E-2,2.4336284E-2,9.124E-3,9.3E-3,1.13E-2,9E-4,8.653655E-1,1.2386609E-1,8.18E-3,5.0044682E-2,9.5E-3,3.46E-2,3.5735432E-2,1E1,6.42E-3,1.0681446E0,2.0442441E-1,7.3E-2,5.4255318E-2,-3.5612207E-2,3.3852388E-3,-2.8694405E-3,1.5558239E0,6.1E-3,9.124E-3,-4.383117E-2,5.0342684E-3,-8.294027E-2,-3.8040268E-1,-3.3579964E-2,2.16E-2,-2.3730328E-2,-1.7825311E-2,1.5940958E-1,1.066E-3,2.0442441E-1,1.5558E0,-4.52E-2,-1.8799588E-2,1.2441111E-1,5.3175413E-3,7E0,8.270955E-1,7.643055E0,2.4205914E-1,7.237382E-2,7.97E-2,-1.8170683E-2,-4.9972604E-3,-1.405363E-2,-1.0279183E-2,2.7181566E-2,-2.5076263E-3,1.1022071E-3,-1.4461437E-2,3.6697264E-4,-9.370869E-3,-2.7085873E-3,2.852784E-2,-3.406919E-2,-4.1109915E-3,1.12809605E-4,1.5985621E-2,-2.5642032E-2,4.5829928E-3,-1.0860783E-2,-1.6260799E-2,-9.31714E-3,-2.930699E-3,5.661108E-3,3.1106517E-2,-1.6423091E-2,9.328692E-3,2.6237208E-2,-1.1289764E-5,2.7193433E-2,3.668592E-2,2.570924E-2,-2.7884596E-3,-1.0337772E-2,1.8649016E-2,-1.3934824E-2,-3.2478718E-3,-2.0583127E-2,1.9639197E-3,-1.553581E-3,2.7675075E-2,-1.4484996E-2,2.0189883E-2,9.030637E-3,1.7649522E-2,8.580775E-3,-3.6194694E-4,1.2175682E-2,-1.6883561E-2],"split_indices":[0,4,7,9,0,5,0,27,5,2,27,5,27,27,7,7,5,27,27,26,2,9,5,0,27,26,0,20,5,2,9,26,7,0,0,4,2,27,5,0,0,17,17,1,26,0,1,2,5,9,5,26,0,7,0,24,2,6,9,9,26,0,0,0,0,0,0,0,0,0,0,0,0,0,0,0,0,0,0,0,0,0,0,0,0,0,0,0,0,0,0,0,0,0,0,0,0,0,0,0,0,0,0,0,0,0,0,0,0],"split_type":[0,0,0,0,0,0,0,0,0,0,0,0,0,0,0,0,0,0,0,0,0,0,0,0,0,0,0,0,0,0,0,0,0,0,0,0,0,0,0,0,0,0,0,0,0,0,0,0,0,0,0,0,0,0,0,0,0,0,0,0,0,0,0,0,0,0,0,0,0,0,0,0,0,0,0,0,0,0,0,0,0,0,0,0,0,0,0,0,0,0,0,0,0,0,0,0,0,0,0,0,0,0,0,0,0,0,0,0,0],"sum_hessian":[3.677586E3,1.9408628E3,1.7367231E3,1.587103E3,3.537597E2,2.2599364E2,1.5107295E3,1.5319347E3,5.5168346E1,2.6485687E2,8.8902855E1,1.7835674E2,4.763691E1,8.144082E1,1.4292887E3,1.5083015E3,2.363314E1,1.2509612E1,4.2658737E1,5.332858E0,2.59524E2,7.523326E1,1.3669591E1,4.253085E1,1.3582588E2,4.186283E1,5.7740774E0,6.465556E1,1.6785255E1,5.474615E2,8.818272E2,5.5165265E2,9.566489E2,2.2620512E1,1.0126283E0,9.770031E0,2.7395804E0,3.906822E1,3.5905178E0,4.251161E0,1.081697E0,8.555928E1,1.7396472E2,6.531114E1,9.922121E0,2.403884E0,1.1265707E1,4.76615E0,3.7764698E1,1.1211051E2,2.3715378E1,4.079288E1,1.069948E0,6.277877E1,1.8767936E0,3.0973215E0,1.3687933E1,2.6114053E2,2.8632095E2,2.9996188E2,5.818653E2,5.353417E2,1.6310991E1,7.446774E2,2.1197148E2,8.55595E0,1.2140813E0,1.5495738E0,1.1900066E0,1.8704346E0,3.7197784E1,1.054948E0,2.5355697E0,2.3330543E0,1.9181068E0,1.5277336E1,7.0281944E1,3.313493E0,1.7065123E2,1.8605873E1,4.6705265E1,8.645162E0,1.2769599E0,2.8026388E0,8.463068E0,1.626932E0,3.139218E0,3.4585163E1,3.1795359E0,4.033963E1,7.1770874E1,2.2136913E1,1.5784643E0,1.8383784E0,3.8954502E1,5.6513905E1,6.264865E0,1.9642332E0,1.1330884E0,1.1297128E0,1.255822E1,6.2421494E0,2.5489839E2,1.987404E2,8.758055E1,1.1279298E2,1.871689E2,5.7653046E2,5.33485E0],"tree_param":{"num_deleted":"0","num_feature":"29","num_nodes":"109","size_leaf_vector":"1"}},{"base_weights":[-1.109792E-4,-2.1945189E-1,2.0346965E-1,-2.84872E-1,7.689238E-2,1.2727515E-1,3.8844478E-1,-3.1377175E-1,8.2905546E-2,-3.86158E-2,1.6309698E-1,-1.8821264E-2,2.1180183E-1,5.1679116E-1,2.9510775E-1,-2.412513E-1,-3.608812E-1,-2.0551579E-1,1.7530319E-1,-1.349022E-1,1.4512247E-1,1.0887816E-1,5.2059996E-1,-1.8232882E-1,1.434566E-1,1.546391E-1,2.578946E-1,5.651473E-1,3.1547242E-1,3.5556102E-1,2.0126717E-1,-2.1263976E-1,-3.0235362E-1,-3.5365868E-1,-3.451737E-2,8.082501E-2,-2.3823676E-1,-5.5015698E-2,2.700798E-1,1.6038221E-1,-2.2402292E-1,3.5815609E-1,2.438384E-2,2.4559717E-1,-1.0223582E-2,-8.940227E-3,5.605525E-1,-2.2211932E-1,8.830306E-2,-3.399515E-2,1.8690981E-1,-5.2540433E-2,1.804433E-1,-3.1620756E-1,2.6693296E-1,4.8383033E-1,6.226814E-1,8.480875E-2,4.0987822E-1,6.194039E-2,3.922095E-1,1.0947698E-1,3.6751863E-1,8.316915E-3,-1.097615E-2,-1.6173784E-2,-2.4843903E-3,-1.7957546E-2,-1.3969131E-3,9.912698E-4,5.4130023E-3,-5.0271004E-3,-1.36279585E-2,-9.276344E-3,1.757986E-2,-1.0722665E-2,1.641153E-2,1.2216891E-2,-1.0166048E-2,-1.3396705E-2,9.395882E-3,6.325586E-4,2.9365703E-2,5.0086468E-3,-1.9001124E-2,-2.099202E-2,1.3474017E-2,-5.520798E-3,1.3223368E-2,2.9428324E-2,1.4291491E-3,-6.313398E-3,-1.40383085E-2,2.0043679E-2,-7.6225447E-3,1.7302534E-2,-9.763361E-3,1.1723316E-2,6.4562244E-4,1.2949362E-2,-1.034472E-2,8.445267E-3,2.928074E-2,-2.4467336E-2,1.0938122E-2,1.1158631E-2,1.6949864E-2,1.6132459E-2,2.9166957E-2,3.228214E-2,9.46576E-3,1.128361E-2,-1.5331464E-2,-9.02324E-3,2.2680128E-2,-4.087401E-3,1.1400678E-2,1.8286841E-2,3.718557E-2,-1.4116587E-2,7.709703E-3,2.1391662E-2,-5.294803E-3],"categories":[],"categories_nodes":[],"categories_segments":[],"categories_sizes":[],"default_left":[0,0,0,0,0,0,0,0,0,0,0,0,0,0,0,0,0,0,0,0,0,0,0,0,0,0,0,0,0,0,0,0,0,0,0,0,0,0,0,0,0,0,0,0,0,0,0,0,0,0,0,0,0,0,0,0,0,0,0,0,0,0,0,0,0,0,0,0,0,0,0,0,0,0,0,0,0,0,0,0,0,0,0,0,0,0,0,0,0,0,0,0,0,0,0,0,0,0,0,0,0,0,0,0,0,0,0,0,0,0,0,0,0,0,0,0,0,0,0,0,0,0,0],"id":5,"left_children":[1,3,5,7,9,11,13,15,17,19,21,23,25,27,29,31,33,35,37,39,41,43,45,47,49,51,53,55,57,59,61,63,65,67,-1,69,71,73,75,77,79,81,83,85,87,-1,89,91,93,95,97,99,101,103,105,107,109,111,113,115,117,119,121,-1,-1,-1,-1,-1,-1,-1,-1,-1,-1,-1,-1,-1,-1,-1,-1,-1,-1,-1,-1,-1,-1,-1,-1,-1,-1,-1,-1,-1,-1,-1,-1,-1,-1,-1,-1,-1,-1,-1,-1,-1,-1,-1,-1,-1,-1,-1,-1,-1,-1,-1,-1,-1,-1,-1,-1,-1,-1,-1,-1],"loss_changes":[1.6183098E2,3.3843185E1,2.644181E1,1.5217384E1,3.1554496E0,1.6461887E1,6.410721E0,4.4408875E0,2.8321052E0,2.4250598E0,3.4574513E0,1.3011244E1,2.1847878E0,2.0543709E0,1.7411194E0,8.5341454E-1,1.6629257E0,2.6208174E-1,1.7612431E0,2.3973632E0,1.2062011E0,2.5864704E0,7.599635E-1,2.6493826E0,1.9045653E0,2.0378408E0,2.5021248E0,5.57991E-1,9.817858E-1,2.0528698E0,1.905416E0,9.779377E-1,8.6472416E-1,1.3965759E0,0E0,3.5513453E-3,8.371699E-2,1.3470545E0,1.6721663E0,7.027212E-1,1.304755E0,1.3396175E0,9.94976E-1,1.2879152E0,2.3896768E0,0E0,3.196211E-1,1.1629658E0,2.4705896E0,3.0873632E0,1.6345725E0,2.1114569E0,1.4793777E0,8.183601E-1,1.3726349E0,1.1043091E0,9.133949E-1,8.86261E-1,9.3015194E-1,5.581147E-1,1.3231316E0,1.5077055E0,1.3282037E0,0E0,0E0,0E0,0E0,0E0,0E0,0E0,0E0,0E0,0E0,0E0,0E0,0E0,0E0,0E0,0E0,0E0,0E0,0E0,0E0,0E0,0E0,0E0,0E0,0E0,0E0,0E0,0E0,0E0,0E0,0E0,0E0,0E0,0E0,0E0,0E0,0E0,0E0,0E0,0E0,0E0,0E0,0E0,0E0,0E0,0E0,0E0,0E0,0E0,0E0,0E0,0E0,0E0,0E0,0E0,0E0,0E0,0E0,0E0,0E0],"parents":[2147483647,0,0,1,1,2,2,3,3,4,4,5,5,6,6,7,7,8,8,9,9,10,10,11,11,12,12,13,13,14,14,15,15,16,16,17,17,18,18,19,19,20,20,21,21,22,22,23,23,24,24,25,25,26,26,27,27,28,28,29,29,30,30,31,31,32,32,33,33,35,35,36,36,37,37,38,38,39,39,40,40,41,41,42,42,43,43,44,44,46,46,47,47,48,48,49,49,50,50,51,51,52,52,53,53,54,54,55,55,56,56,57,57,58,58,59,59,60,60,61,61,62,62],"right_children":[2,4,6,8,10,12,14,16,18,20,22,24,26,28,30,32,34,36,38,40,42,44,46,48,50,52,54,56,58,60,62,64,66,68,-1,70,72,74,76,78,80,82,84,86,88,-1,90,92,94,96,98,100,102,104,106,108,110,112,114,116,118,120,122,-1,-1,-1,-1,-1,-1,-1,-1,-1,-1,-1,-1,-1,-1,-1,-1,-1,-1,-1,-1,-1,-1,-1,-1,-1,-1,-1,-1,-1,-1,-1,-1,-1,-1,-1,-1,-1,-1,-1,-1,-1,-1,-1,-1,-1,-1,-1,-1,-1,-1,-1,-1,-1,-1,-1,-1,-1,-1,-1,-1],"split_conditions":[5.9885472E-2,1.369863E-2,4.9479168E-2,8.842975E-2,6.42E-3,1.9061583E-1,1.4469453E-2,3.906E-1,6.4412236E-1,4.4521734E-2,1.06E-2,8.830022E-3,8.6656034E-1,2.0046E0,1.2893105E0,9.2E-3,1.13E-2,1.086E-1,-2.0415764E-3,-8.910891E-1,6.098219E-2,3.16E-1,3.6538463E-2,9.182644E-1,3.474364E-2,-1.6460905E-2,1.287E-1,3.213E-3,3.511E-1,9.528494E0,5.418E-1,-6.38E-2,3.01E-2,7.46E-2,-3.451737E-2,-7.633588E-3,-5.29E-2,2.2815257E-2,4.0483657E-2,2.4038462E-3,9.79021E-2,6.243779E-3,3.9306358E-2,1.002E-1,3.9306358E-2,-8.940227E-3,1.2441111E-1,3.908E-1,1.028991E0,-7.658881E-1,8.3548E0,2.795E-1,1.15E-2,2.2201316E-2,3.1126067E-1,4.154534E-2,1.06E-2,2.7069014E-1,2.1369E0,1.2441111E-1,1.2284616E0,-9.1064975E-2,2.14E-2,8.316915E-3,-1.097615E-2,-1.6173784E-2,-2.4843903E-3,-1.7957546E-2,-1.3969131E-3,9.912698E-4,5.4130023E-3,-5.0271004E-3,-1.36279585E-2,-9.276344E-3,1.757986E-2,-1.0722665E-2,1.641153E-2,1.2216891E-2,-1.0166048E-2,-1.3396705E-2,9.395882E-3,6.325586E-4,2.9365703E-2,5.0086468E-3,-1.9001124E-2,-2.099202E-2,1.3474017E-2,-5.520798E-3,1.3223368E-2,2.9428324E-2,1.4291491E-3,-6.313398E-3,-1.40383085E-2,2.0043679E-2,-7.6225447E-3,1.7302534E-2,-9.763361E-3,1.1723316E-2,6.4562244E-4,1.2949362E-2,-1.034472E-2,8.445267E-3,2.928074E-2,-2.4467336E-2,1.0938122E-2,1.1158631E-2,1.6949864E-2,1.6132459E-2,2.9166957E-2,3.228214E-2,9.46576E-3,1.128361E-2,-1.5331464E-2,-9.02324E-3,2.2680128E-2,-4.087401E-3,1.1400678E-2,1.8286841E-2,3.718557E-2,-1.4116587E-2,7.709703E-3,2.1391662E-2,-5.294803E-3],"split_indices":[9,4,4,7,5,9,7,28,8,3,27,4,8,5,2,27,27,28,9,8,7,28,7,8,3,4,28,5,28,6,28,26,26,26,0,4,26,17,3,9,1,9,4,28,4,0,7,28,2,8,5,28,27,4,9,3,27,9,5,7,2,17,26,0,0,0,0,0,0,0,0,0,0,0,0,0,0,0,0,0,0,0,0,0,0,0,0,0,0,0,0,0,0,0,0,0,0,0,0,0,0,0,0,0,0,0,0,0,0,0,0,0,0,0,0,0,0,0,0,0,0,0,0],"split_type":[0,0,0,0,0,0,0,0,0,0,0,0,0,0,0,0,0,0,0,0,0,0,0,0,0,0,0,0,0,0,0,0,0,0,0,0,0,0,0,0,0,0,0,0,0,0,0,0,0,0,0,0,0,0,0,0,0,0,0,0,0,0,0,0,0,0,0,0,0,0,0,0,0,0,0,0,0,0,0,0,0,0,0,0,0,0,0,0,0,0,0,0,0,0,0,0,0,0,0,0,0,0,0,0,0,0,0,0,0,0,0,0,0,0,0,0,0,0,0,0,0,0,0],"sum_hessian":[3.622145E3,1.7435449E3,1.8786001E3,1.4282805E3,3.152644E2,1.3317267E3,5.468734E2,1.3243599E3,1.0392065E2,1.3496829E2,1.802961E2,4.883818E2,8.433449E2,2.2834402E2,3.185294E2,5.239344E2,8.004255E2,2.4917099E1,7.900355E1,8.873389E1,4.623441E1,1.5768602E2,2.2610077E1,2.4320764E2,2.4517415E2,3.784092E2,4.6493567E2,1.82662E2,4.568202E1,1.9203143E2,1.26497955E2,3.598925E2,1.640419E2,7.8528394E2,1.5141503E1,2.4045732E0,2.2512526E1,2.3154577E1,5.584897E1,2.038674E1,6.8347145E1,1.60135E1,3.0220911E1,7.291897E1,8.476706E1,1.0339751E0,2.1576103E1,2.1218913E2,3.1018513E1,4.8269913E1,1.9690424E2,4.179611E1,3.366131E2,6.6795163E0,4.5825616E2,7.958645E1,1.03075554E2,1.3818161E1,3.1863857E1,2.1607378E1,1.7042406E2,8.256884E1,4.392912E1,6.0067463E0,3.5388574E2,1.5112787E2,1.2914034E1,7.7216125E2,1.3122681E1,1.2803804E0,1.1241928E0,5.2759204E0,1.7236605E1,1.7940054E1,5.2145214E0,5.6964297E0,5.015254E1,1.6829979E1,3.5567615E0,6.207933E1,6.267819E0,6.806479E0,9.207021E0,2.6084715E1,4.1361957E0,1.9520363E0,7.096693E1,6.255018E1,2.221688E1,2.0395655E1,1.1804475E0,8.174294E1,1.3044618E2,1.3206917E1,1.7811596E1,1.4039458E1,3.4230453E1,1.5436584E2,4.253839E1,1.3623121E1,2.8172987E1,3.286705E2,7.942587E0,5.1107435E0,1.5687728E0,2.8766882E2,1.7058733E2,3.1998594E1,4.7587852E1,9.7423836E1,5.651716E0,1.0472861E1,3.3452997E0,1.9816266E0,2.988223E1,1.1856637E1,9.75074E0,1.6038544E2,1.0038617E1,7.9139023E0,7.465494E1,3.905027E1,4.8788495E0],"tree_param":{"num_deleted":"0","num_feature":"29","num_nodes":"123","size_leaf_vector":"1"}},{"base_weights":[6.1832066E-3,-2.376676E-1,2.6638004E-1,-3.051317E-1,7.825211E-2,4.613578E-1,2.1533954E-1,-3.108719E-1,1.3966884E-3,1.8254645E-1,-1.8278971E-1,5.523209E-1,3.995657E-1,-5.0178107E-2,2.3392081E-1,-3.1642267E-1,-3.150452E-2,-2.3601657E-1,1.515152E-1,2.0402677E-1,-2.0702617E-1,-2.9886097E-1,2.8542367E-1,4.2537048E-1,6.041594E-1,-8.975896E-3,4.071345E-1,-1.7911153E-1,4.7859398E-1,2.994635E-1,1.9270834E-1,-3.700257E-1,-2.870513E-1,-1.4129895E-2,-1.0159048E-1,-1.4100529E-2,-1.4401232E-1,2.9937832E-2,7.342899E-3,2.6248333E-1,8.55415E-2,2.6931903E-1,-4.382884E-1,-3.0090606E-1,-4.4196714E-3,-2.1128481E-2,4.0924174E-1,1.1827599E-1,4.6818635E-1,6.239745E-1,1.6836105E-1,4.1707823E-1,6.1889682E-2,1.5695542E-1,-2.591965E-1,-1.6789246E-2,5.864151E-1,-1.9332325E-1,3.109205E-1,-1.3192098E-1,2.0130202E-1,-1.694701E-2,-2.0368496E-2,-1.4006555E-2,-2.8421888E-2,1.9737969E-4,-2.2877927E-3,-7.7291706E-4,-5.890237E-3,-8.166089E-3,-2.0511388E-3,-5.5471733E-3,2.385563E-2,5.7640052E-3,1.5781492E-2,-2.117666E-3,1.1613527E-2,-7.97044E-3,2.1353072E-2,-3.3431575E-2,-9.454883E-3,-8.952786E-3,-1.5358142E-2,2.4710212E-2,-8.504967E-3,1.409293E-2,-4.9996483E-3,3.2636452E-2,1.6758412E-2,3.1880535E-2,9.596569E-3,-9.9369725E-3,1.5971543E-2,2.116976E-2,-1.0990475E-3,1.5024026E-2,-1.9268656E-2,-1.8849866E-2,1.3798261E-2,2.9946694E-3,-1.34076895E-2,3.178063E-2,6.7474536E-4,2.1116376E-2,-1.6958354E-2,1.7410118E-2,9.443401E-3,7.1944743E-3,-2.3814041E-2,1.3501786E-2,8.916299E-3],"categories":[],"categories_nodes":[],"categories_segments":[],"categories_sizes":[],"default_left":[0,0,0,0,0,0,0,0,0,0,0,0,0,0,0,0,0,0,0,0,0,0,0,0,0,0,0,0,0,0,0,0,0,0,0,0,0,0,0,0,0,0,0,0,0,0,0,0,0,0,0,0,0,0,0,0,0,0,0,0,0,0,0,0,0,0,0,0,0,0,0,0,0,0,0,0,0,0,0,0,0,0,0,0,0,0,0,0,0,0,0,0,0,0,0,0,0,0,0,0,0,0,0,0,0,0,0,0,0,0,0],"id":6,"left_children":[1,3,5,7,9,11,13,15,17,19,21,23,25,27,29,31,33,35,37,39,41,43,45,47,49,-1,51,53,55,57,59,61,63,65,67,-1,69,-1,71,73,75,77,79,81,-1,-1,83,85,87,89,91,93,95,97,99,-1,101,103,105,107,109,-1,-1,-1,-1,-1,-1,-1,-1,-1,-1,-1,-1,-1,-1,-1,-1,-1,-1,-1,-1,-1,-1,-1,-1,-1,-1,-1,-1,-1,-1,-1,-1,-1,-1,-1,-1,-1,-1,-1,-1,-1,-1,-1,-1,-1,-1,-1,-1,-1,-1],"loss_changes":[2.289553E2,3.9725418E1,1.7273643E1,2.701645E0,8.979205E0,1.8101273E0,6.8469086E0,2.326889E0,1.0770062E0,2.0111265E0,5.2103033E0,6.8761444E-1,1.0319252E0,6.3194613E0,3.4402618E0,2.2199402E0,3.5667486E-2,8.932054E-3,1.1889526E0,1.5255079E0,1.5271629E0,6.1392784E-3,1.8600205E0,5.362663E-1,7.545166E-1,0E0,7.165756E-1,2.0387325E0,1.7947297E0,2.872406E0,2.2524033E0,4.650421E-1,1.7080688E0,1.4803968E-2,6.406639E-3,0E0,5.1244646E-3,0E0,8.868933E-1,1.1306477E0,1.4232639E0,3.9269164E-1,3.8967407E-1,2.110958E-3,0E0,0E0,9.1535735E-1,2.7254653E-1,7.423315E-1,4.3637466E-1,3.7951776E-1,5.918045E-1,8.8714606E-1,1.0514673E0,1.8849277E-1,0E0,4.5462036E-1,1.2148159E0,2.151085E0,2.0802298E0,1.1799831E0,0E0,0E0,0E0,0E0,0E0,0E0,0E0,0E0,0E0,0E0,0E0,0E0,0E0,0E0,0E0,0E0,0E0,0E0,0E0,0E0,0E0,0E0,0E0,0E0,0E0,0E0,0E0,0E0,0E0,0E0,0E0,0E0,0E0,0E0,0E0,0E0,0E0,0E0,0E0,0E0,0E0,0E0,0E0,0E0,0E0,0E0,0E0,0E0,0E0,0E0],"parents":[2147483647,0,0,1,1,2,2,3,3,4,4,5,5,6,6,7,7,8,8,9,9,10,10,11,11,12,12,13,13,14,14,15,15,16,16,17,17,18,18,19,19,20,20,21,21,22,22,23,23,24,24,26,26,27,27,28,28,29,29,30,30,31,31,32,32,33,33,34,34,36,36,38,38,39,39,40,40,41,41,42,42,43,43,46,46,47,47,48,48,49,49,50,50,51,51,52,52,53,53,54,54,56,56,57,57,58,58,59,59,60,60],"right_children":[2,4,6,8,10,12,14,16,18,20,22,24,26,28,30,32,34,36,38,40,42,44,46,48,50,-1,52,54,56,58,60,62,64,66,68,-1,70,-1,72,74,76,78,80,82,-1,-1,84,86,88,90,92,94,96,98,100,-1,102,104,106,108,110,-1,-1,-1,-1,-1,-1,-1,-1,-1,-1,-1,-1,-1,-1,-1,-1,-1,-1,-1,-1,-1,-1,-1,-1,-1,-1,-1,-1,-1,-1,-1,-1,-1,-1,-1,-1,-1,-1,-1,-1,-1,-1,-1,-1,-1,-1,-1,-1,-1,-1],"split_conditions":[4.8571866E-2,1.369863E-2,4.2735044E-2,1.0555903E-1,-1.0752688E-2,5.0731474E-1,8.7673895E-2,7.3E-2,8.4674E-3,1.5764397E0,1.15E-2,3.62E-3,4.9479168E-2,1.15E-2,1.0415976E0,2.4336284E-2,2.6955E0,6.209E-3,6.45E-4,-4.4E-3,-3.45E-2,2.6934096E-1,8.18E-3,8.539729E0,6.1304E0,-8.975896E-3,6.105709E-2,-9.487666E-3,7.777E-3,6.8830824E0,-6.1E-2,7.9E-3,1.15E-2,1.0526316E-2,-1.6666668E-2,-1.4100529E-2,9.3E-3,2.9937832E-2,1.13E-2,4.5E-3,2.2E-2,2.2201316E-2,-8.5910654E-1,-8.89371E-2,-4.4196714E-3,-2.1128481E-2,1.0242597E-1,1.5940958E-1,1.8906431E-1,1E1,1.0933527E-1,7.3E-2,3.6764707E-2,-2.631579E-2,6.1E-3,-1.6789246E-2,1.9573587E-1,-9.852217E-3,9.3768E0,-6.49E-2,8.148148E-2,-1.694701E-2,-2.0368496E-2,-1.4006555E-2,-2.8421888E-2,1.9737969E-4,-2.2877927E-3,-7.7291706E-4,-5.890237E-3,-8.166089E-3,-2.0511388E-3,-5.5471733E-3,2.385563E-2,5.7640052E-3,1.5781492E-2,-2.117666E-3,1.1613527E-2,-7.97044E-3,2.1353072E-2,-3.3431575E-2,-9.454883E-3,-8.952786E-3,-1.5358142E-2,2.4710212E-2,-8.504967E-3,1.409293E-2,-4.9996483E-3,3.2636452E-2,1.6758412E-2,3.1880535E-2,9.596569E-3,-9.9369725E-3,1.5971543E-2,2.116976E-2,-1.0990475E-3,1.5024026E-2,-1.9268656E-2,-1.8849866E-2,1.3798261E-2,2.9946694E-3,-1.34076895E-2,3.178063E-2,6.7474536E-4,2.1116376E-2,-1.6958354E-2,1.7410118E-2,9.443401E-3,7.1944743E-3,-2.3814041E-2,1.3501786E-2,8.916299E-3],"split_indices":[0,4,7,7,0,2,0,26,8,2,27,5,4,27,2,7,5,5,5,26,26,1,5,6,5,0,17,4,5,6,26,27,27,1,0,0,27,0,27,5,26,4,8,1,0,0,17,2,1,18,1,26,7,4,27,0,17,4,5,26,7,0,0,0,0,0,0,0,0,0,0,0,0,0,0,0,0,0,0,0,0,0,0,0,0,0,0,0,0,0,0,0,0,0,0,0,0,0,0,0,0,0,0,0,0,0,0,0,0,0,0],"split_type":[0,0,0,0,0,0,0,0,0,0,0,0,0,0,0,0,0,0,0,0,0,0,0,0,0,0,0,0,0,0,0,0,0,0,0,0,0,0,0,0,0,0,0,0,0,0,0,0,0,0,0,0,0,0,0,0,0,0,0,0,0,0,0,0,0,0,0,0,0,0,0,0,0,0,0,0,0,0,0,0,0,0,0,0,0,0,0,0,0,0,0,0,0,0,0,0,0,0,0,0,0,0,0,0,0,0,0,0,0,0,0],"sum_hessian":[3.606484E3,1.8617649E3,1.744719E3,1.5341781E3,3.275868E2,3.6030264E2,1.3844163E3,1.5059625E3,2.8215557E1,2.3428381E2,9.330299E1,1.4253743E2,2.1776521E2,9.043547E1,1.2939808E3,1.4764933E3,2.9469265E1,1.070823E1,1.7507328E1,2.2249228E2,1.17915325E1,7.50577E1,1.824529E1,4.399681E1,9.854062E1,2.5164323E0,2.1524878E2,7.323858E1,1.7196898E1,4.9711774E2,7.968631E2,5.185454E2,9.579479E2,2.45779E1,4.891365E0,5.7623663E0,4.9458637E0,3.499221E0,1.4008107E1,1.4817334E2,7.431895E1,3.7999592E0,7.991573E0,7.390983E1,1.1478771E0,2.3567178E0,1.5888573E1,5.8439326E0,3.8152878E1,9.384197E1,4.6986427E0,2.0902051E2,6.2282686E0,1.3909435E1,5.932914E1,1.7634194E0,1.5433477E1,1.09344015E1,4.8618335E2,2.0180662E1,7.7668243E2,2.8848532E2,2.3006007E2,9.36902E2,2.1045925E1,1.6195618E1,8.382283E0,1.0843812E0,3.806984E0,3.6716573E0,1.2742064E0,1.1800593E1,2.2075138E0,4.014641E1,1.08026924E2,4.0088005E1,3.4230938E1,1.0192304E0,2.7807288E0,3.2781532E0,4.71342E0,5.0563116E0,6.8853516E1,1.3984631E1,1.9039423E0,3.173902E0,2.6700306E0,1.4344694E1,2.3808184E1,9.050951E1,3.3324702E0,1.2778684E0,3.4207745E0,2.0609105E2,2.9294522E0,4.275628E0,1.9526404E0,2.1400485E0,1.1769387E1,1.4647087E0,5.786443E1,1.4112215E1,1.3212627E0,1.7311103E0,9.203291E0,3.710044E2,1.15178955E2,1.1528897E1,8.651764E0,1.9188832E2,5.847941E2],"tree_param":{"num_deleted":"0","num_feature":"29","num_nodes":"111","size_leaf_vector":"1"}},{"base_weights":[3.4689163E-3,-2.337058E-1,2.533336E-1,-2.931742E-1,4.319775E-2,4.77264E-1,2.1679056E-1,-2.2411236E-1,-3.3817977E-1,1.2696497E-1,-1.7562124E-1,-2.5489733E-2,4.8455635E-1,-4.412214E-2,2.3435643E-1,-2.3424676E-1,1.152161E-1,-3.283772E-1,-6.2836343E-1,1.5655133E-1,-1.24607265E-1,-2.8292468E-1,2.5688058E-1,5.057619E-1,2.1171202E-1,-1.9578387E-1,4.9439538E-1,3.0358294E-1,1.7789102E-1,-2.630893E-1,-1.7149867E-1,3.3327377E-1,-6.1647348E-2,-3.359897E-1,-3.2325942E-2,-2.0502424E-2,-3.3773344E-2,1.9118707E-1,-2.868946E-2,1.7465924E-1,-2.6663962E-1,-1.7707917E-1,-3.1554383E-1,-2.2230096E-2,3.880881E-1,4.6554956E-1,6.267325E-1,-1.9060774E-2,2.9699567E-1,2.4464367E-2,-2.5600857E-1,-1.6905E-2,5.851239E-1,3.555478E-1,2.110447E-1,1.5370984E-1,3.0109927E-1,-1.36390915E-2,-3.94054E-4,-3.7565425E-3,-1.1170142E-2,-1.1934516E-2,2.2652669E-2,-7.7895443E-3,1.8729916E-2,-1.4847735E-2,-1.896421E-2,2.1460399E-3,-8.350208E-3,-4.7034197E-3,1.0653655E-2,7.2197313E-3,-1.5197845E-2,1.9344006E-2,-4.516331E-3,-1.9863626E-2,-2.483466E-3,-1.0887074E-2,-5.8005294E-3,-6.182984E-3,-1.6014619E-2,1.10641624E-4,2.5420234E-2,2.63952E-2,1.9185722E-2,1.3128594E-2,3.2732595E-2,-4.6701687E-3,2.3167705E-2,9.617581E-3,-1.0916404E-2,6.5455013E-3,-1.3469216E-2,3.2216884E-2,1.1836336E-2,-1.8092578E-2,1.8016795E-2,6.5509276E-3,1.5660485E-2,5.3772866E-3,9.542973E-3,1.7183166E-2,5.144478E-3],"categories":[],"categories_nodes":[],"categories_segments":[],"categories_sizes":[],"default_left":[0,0,0,0,0,0,0,0,0,0,0,0,0,0,0,0,0,0,0,0,0,0,0,0,0,0,0,0,0,0,0,0,0,0,0,0,0,0,0,0,0,0,0,0,0,0,0,0,0,0,0,0,0,0,0,0,0,0,0,0,0,0,0,0,0,0,0,0,0,0,0,0,0,0,0,0,0,0,0,0,0,0,0,0,0,0,0,0,0,0,0,0,0,0,0,0,0,0,0,0,0,0,0],"id":7,"left_children":[1,3,5,7,9,11,13,15,17,19,21,-1,23,25,27,29,31,33,35,37,39,41,43,45,47,49,51,53,55,57,59,61,63,65,67,-1,-1,69,71,73,75,77,79,-1,81,83,85,-1,87,89,91,-1,93,95,97,99,101,-1,-1,-1,-1,-1,-1,-1,-1,-1,-1,-1,-1,-1,-1,-1,-1,-1,-1,-1,-1,-1,-1,-1,-1,-1,-1,-1,-1,-1,-1,-1,-1,-1,-1,-1,-1,-1,-1,-1,-1,-1,-1,-1,-1,-1,-1],"loss_changes":[2.1148715E2,3.0161324E1,1.4117569E1,4.609146E0,5.971334E0,1.9959908E0,6.8661804E0,2.0823174E0,2.3839798E0,1.7707665E0,4.26194E0,0E0,1.2914162E0,7.8718877E0,5.4250183E0,1.005785E0,7.148484E-1,1.979065E0,1.7763138E-2,1.3590579E0,1.1226405E0,1.9547415E-1,1.872321E0,7.957344E-1,1.0816317E0,1.0010335E0,1.7993021E0,2.9461403E0,2.2609253E0,9.7724724E-1,9.1221523E-1,6.711894E-1,5.0126386E-1,1.34198E0,2.4269849E-1,0E0,0E0,1.1304908E0,1.6686727E0,5.271293E-1,4.780867E-1,2.2985756E-2,9.9339485E-3,0E0,7.459712E-1,6.7345047E-1,3.6580467E-1,0E0,1.1671697E0,7.35608E-1,3.4050322E-1,0E0,2.4944925E-1,1.5073853E0,1.8262749E0,1.0931778E0,1.0277271E0,0E0,0E0,0E0,0E0,0E0,0E0,0E0,0E0,0E0,0E0,0E0,0E0,0E0,0E0,0E0,0E0,0E0,0E0,0E0,0E0,0E0,0E0,0E0,0E0,0E0,0E0,0E0,0E0,0E0,0E0,0E0,0E0,0E0,0E0,0E0,0E0,0E0,0E0,0E0,0E0,0E0,0E0,0E0,0E0,0E0,0E0],"parents":[2147483647,0,0,1,1,2,2,3,3,4,4,5,5,6,6,7,7,8,8,9,9,10,10,12,12,13,13,14,14,15,15,16,16,17,17,18,18,19,19,20,20,21,21,22,22,23,23,24,24,25,25,26,26,27,27,28,28,29,29,30,30,31,31,32,32,33,33,34,34,37,37,38,38,39,39,40,40,41,41,42,42,44,44,45,45,46,46,48,48,49,49,50,50,52,52,53,53,54,54,55,55,56,56],"right_children":[2,4,6,8,10,12,14,16,18,20,22,-1,24,26,28,30,32,34,36,38,40,42,44,46,48,50,52,54,56,58,60,62,64,66,68,-1,-1,70,72,74,76,78,80,-1,82,84,86,-1,88,90,92,-1,94,96,98,100,102,-1,-1,-1,-1,-1,-1,-1,-1,-1,-1,-1,-1,-1,-1,-1,-1,-1,-1,-1,-1,-1,-1,-1,-1,-1,-1,-1,-1,-1,-1,-1,-1,-1,-1,-1,-1,-1,-1,-1,-1,-1,-1,-1,-1,-1,-1],"split_conditions":[4.8571866E-2,1.369863E-2,1.0141988E-2,3.906E-1,-1.0752688E-2,4.9479168E-2,8.7673895E-2,1.5266359E-1,1.11E-2,1.2893105E0,1.15E-2,-2.5489733E-2,4.7024E0,1.15E-2,9.267044E-2,-6.1E-3,9.57E-4,7.3E-2,-6.03E-2,5.323E0,-4.9242426E-2,3.923E-1,8.18E-3,5.0643828E-2,-4.5E-2,-9.487666E-3,7.777E-3,1.2819625E0,7.475E-1,3.885E-1,7.6E-3,4.24E-4,1.12E-2,6.182E-1,7.97E-2,-2.0502424E-2,-3.3773344E-2,1.4460288E-2,3.7201613E-2,6.209E-3,-2.1533161E-2,-7.9E-3,-6.1E-2,-2.2230096E-2,3.2964148E-2,4.8358834E-1,2.523E-1,-1.9060774E-2,3.587E-1,3.234E-1,-5.593364E-3,-1.6905E-2,1.6136089E-1,7.963559E0,2.0798533E-1,7.137E-3,8.769E-1,-1.36390915E-2,-3.94054E-4,-3.7565425E-3,-1.1170142E-2,-1.1934516E-2,2.2652669E-2,-7.7895443E-3,1.8729916E-2,-1.4847735E-2,-1.896421E-2,2.1460399E-3,-8.350208E-3,-4.7034197E-3,1.0653655E-2,7.2197313E-3,-1.5197845E-2,1.9344006E-2,-4.516331E-3,-1.9863626E-2,-2.483466E-3,-1.0887074E-2,-5.8005294E-3,-6.182984E-3,-1.6014619E-2,1.10641624E-4,2.5420234E-2,2.63952E-2,1.9185722E-2,1.3128594E-2,3.2732595E-2,-4.6701687E-3,2.3167705E-2,9.617581E-3,-1.0916404E-2,6.5455013E-3,-1.3469216E-2,3.2216884E-2,1.1836336E-2,-1.8092578E-2,1.8016795E-2,6.5509276E-3,1.5660485E-2,5.3772866E-3,9.542973E-3,1.7183166E-2,5.144478E-3],"split_indices":[0,4,7,28,0,4,0,1,27,2,27,0,5,27,7,26,5,26,26,5,0,28,5,3,26,4,5,2,28,28,27,5,27,28,26,0,0,3,3,5,0,26,26,0,3,2,28,0,28,28,17,0,17,6,1,5,28,0,0,0,0,0,0,0,0,0,0,0,0,0,0,0,0,0,0,0,0,0,0,0,0,0,0,0,0,0,0,0,0,0,0,0,0,0,0,0,0,0,0,0,0,0,0],"split_type":[0,0,0,0,0,0,0,0,0,0,0,0,0,0,0,0,0,0,0,0,0,0,0,0,0,0,0,0,0,0,0,0,0,0,0,0,0,0,0,0,0,0,0,0,0,0,0,0,0,0,0,0,0,0,0,0,0,0,0,0,0,0,0,0,0,0,0,0,0,0,0,0,0,0,0,0,0,0,0,0,0,0,0,0,0,0,0,0,0,0,0,0,0,0,0,0,0,0,0,0,0,0,0],"sum_hessian":[3.5667065E3,1.8298523E3,1.7368544E3,1.5062979E3,3.235544E2,2.419795E2,1.4948749E3,5.9667285E2,9.09625E2,2.3428598E2,8.926844E1,1.269272E0,2.4071024E2,9.419843E1,1.4006764E3,5.796701E2,1.7002777E1,8.819634E2,2.7661638E1,2.0996999E2,2.4315987E1,7.18006E1,1.7467842E1,2.2255916E2,1.8151072E1,7.399562E1,2.0202816E1,6.2726917E2,7.734072E2,3.9494043E2,1.8472964E2,7.218554E0,9.784224E0,8.59722E2,2.2241392E1,6.631452E0,2.1030188E1,1.7686772E2,3.310228E1,7.7521844E0,1.6563803E1,1.8429066E1,5.3371536E1,2.376056E0,1.5091786E1,1.7067331E2,5.1885853E1,1.8461177E0,1.6304955E1,1.6016247E1,5.7979374E1,1.7174602E0,1.8485355E1,3.9987637E2,2.273928E2,6.483984E2,1.2500884E2,3.8042358E2,1.4516874E1,6.552333E1,1.1920632E2,1.078036E0,6.1405177E0,8.576305E0,1.2079178E0,4.5623334E2,4.0348865E2,1.4706153E1,7.5352397E0,1.2368072E1,1.6449965E2,2.061519E1,1.2487087E1,4.049241E0,3.7029436E0,9.820252E0,6.7435503E0,9.52281E0,8.906256E0,1.9419142E0,5.142962E1,3.8292224E0,1.1262564E1,9.377241E1,7.6900894E1,4.435602E0,4.745025E1,5.0029354E0,1.1302018E1,9.591574E0,6.4246736E0,1.6437515E0,5.633562E1,1.5073945E1,3.4114094E0,2.1567595E0,3.9771964E2,1.2879202E2,9.860078E1,2.908578E2,3.575406E2,1.0230564E2,2.2703203E1],"tree_param":{"num_deleted":"0","num_feature":"29","num_nodes":"103","size_leaf_vector":"1"}},{"base_weights":[-3.2643776E-3,-2.2573513E-1,2.263946E-1,-2.8638923E-1,6.01127E-2,1.6223522E-1,3.3864138E-1,-2.226975E-1,-3.2780653E-1,1.5994623E-1,-1.6178027E-1,-5.7373974E-2,1.8083277E-1,4.6379003E-1,2.6259112E-1,-3.9807096E-1,-2.0861903E-1,-3.3662346E-1,2.1467343E-2,3.3260692E-2,1.9634442E-1,-2.54111E-1,2.796508E-1,-1.8701233E-1,4.3000242E-1,2.113397E-1,1.24886625E-1,3.1296933E-1,4.9417806E-1,4.2565465E-1,2.4323595E-1,-7.573678E-2,-4.1853648E-1,-1.4995755E-1,-2.4099907E-1,-3.2616952E-1,-6.3733274E-1,1.0480675E-1,-1.3647047E-1,-4.0299445E-2,3.0209142E-1,2.7342546E-1,5.4926444E-2,-4.190115E-2,-2.8148E-1,-2.3418328E-2,4.3177685E-1,3.7358E-2,-2.614158E-1,-1.7327053E-2,5.257413E-1,1.16494475E-2,2.2444181E-1,2.4471304E-1,8.259842E-2,5.531915E-1,1.9345805E-1,5.136506E-1,3.2109162E-1,6.3773507E-1,1.3161872E-1,2.8456405E-1,1.5955149E-1,-1.2647969E-2,1.0380317E-2,-2.3424463E-2,-1.449532E-2,-9.341903E-3,7.67671E-4,-1.25894165E-2,-3.6247794E-3,-1.3776131E-2,-1.7720608E-2,-1.9854408E-2,-3.4507785E-2,6.0797543E-3,2.463223E-4,-7.4557005E-3,-1.9828042E-3,1.4764574E-2,-3.6651962E-3,2.6637611E-3,2.5714392E-2,-1.9908252E-6,1.5742641E-2,-1.0032511E-2,5.1110936E-3,1.904199E-2,-1.2846189E-2,-9.955683E-3,-1.5368824E-2,2.9498855E-2,1.4333503E-2,6.475135E-3,-1.1544984E-2,-1.108674E-2,-1.5344943E-2,1.8524928E-2,3.2553505E-2,7.899334E-3,-1.4307313E-2,1.1584294E-2,-9.436385E-4,1.33851385E-2,-1.3938638E-2,4.822401E-3,-1.9661369E-2,2.9453907E-2,1.1050716E-2,1.3823913E-2,-3.7221552E-3,2.1466987E-2,2.8641347E-2,-1.7961191E-2,2.0714147E-2,3.371841E-2,-5.1452266E-4,-2.1161666E-2,1.1778248E-2,1.1085331E-2,2.057967E-2,-3.3828713E-2,8.864128E-3],"categories":[],"categories_nodes":[],"categories_segments":[],"categories_sizes":[],"default_left":[0,0,0,0,0,0,0,0,0,0,0,0,0,0,0,0,0,0,0,0,0,0,0,0,0,0,0,0,0,0,0,0,0,0,0,0,0,0,0,0,0,0,0,0,0,0,0,0,0,0,0,0,0,0,0,0,0,0,0,0,0,0,0,0,0,0,0,0,0,0,0,0,0,0,0,0,0,0,0,0,0,0,0,0,0,0,0,0,0,0,0,0,0,0,0,0,0,0,0,0,0,0,0,0,0,0,0,0,0,0,0,0,0,0,0,0,0,0,0,0,0,0,0],"id":8,"left_children":[1,3,5,7,9,11,13,15,17,19,21,23,25,27,29,31,33,35,37,39,41,43,45,47,49,51,53,55,57,59,61,63,65,67,69,71,73,75,77,79,81,83,85,87,89,-1,91,93,95,-1,97,99,101,103,105,107,109,111,113,115,117,119,121,-1,-1,-1,-1,-1,-1,-1,-1,-1,-1,-1,-1,-1,-1,-1,-1,-1,-1,-1,-1,-1,-1,-1,-1,-1,-1,-1,-1,-1,-1,-1,-1,-1,-1,-1,-1,-1,-1,-1,-1,-1,-1,-1,-1,-1,-1,-1,-1,-1,-1,-1,-1,-1,-1,-1,-1,-1,-1,-1,-1],"loss_changes":[1.816476E2,3.1327515E1,1.2543556E1,3.8573914E0,7.0469003E0,4.5644474E0,5.9250793E0,1.3742027E0,2.7810364E0,1.0037498E0,4.099801E0,5.628765E0,1.7285385E0,9.399872E-1,1.1510029E0,2.5037098E-1,1.00564E0,2.554123E0,3.1859013E-1,1.0029805E0,1.8380132E0,4.660368E-1,2.2020955E0,1.1793599E0,1.5764201E0,1.7345295E0,1.830751E0,1.1211662E0,4.9925613E-1,2.462926E0,1.1915417E0,2.4201137E-1,1.21105194E-1,1.2082834E0,6.212292E-1,1.1198273E0,8.724308E-2,2.5724307E-2,4.3928474E-3,4.67138E-1,5.471505E-1,1.2436152E0,7.605222E-1,1.0589601E0,9.386158E-2,0E0,1.7807484E-1,4.8280016E-1,2.7133226E-2,0E0,9.13353E-2,1.8727137E0,1.1024952E0,1.2152271E0,1.8271426E0,3.281784E-2,6.901629E-1,6.2950134E-1,1.5813591E0,5.640421E-1,1.1594263E0,1.8102188E0,1.906595E0,0E0,0E0,0E0,0E0,0E0,0E0,0E0,0E0,0E0,0E0,0E0,0E0,0E0,0E0,0E0,0E0,0E0,0E0,0E0,0E0,0E0,0E0,0E0,0E0,0E0,0E0,0E0,0E0,0E0,0E0,0E0,0E0,0E0,0E0,0E0,0E0,0E0,0E0,0E0,0E0,0E0,0E0,0E0,0E0,0E0,0E0,0E0,0E0,0E0,0E0,0E0,0E0,0E0,0E0,0E0,0E0,0E0,0E0,0E0,0E0],"parents":[2147483647,0,0,1,1,2,2,3,3,4,4,5,5,6,6,7,7,8,8,9,9,10,10,11,11,12,12,13,13,14,14,15,15,16,16,17,17,18,18,19,19,20,20,21,21,22,22,23,23,24,24,25,25,26,26,27,27,28,28,29,29,30,30,31,31,32,32,33,33,34,34,35,35,36,36,37,37,38,38,39,39,40,40,41,41,42,42,43,43,44,44,46,46,47,47,48,48,50,50,51,51,52,52,53,53,54,54,55,55,56,56,57,57,58,58,59,59,60,60,61,61,62,62],"right_children":[2,4,6,8,10,12,14,16,18,20,22,24,26,28,30,32,34,36,38,40,42,44,46,48,50,52,54,56,58,60,62,64,66,68,70,72,74,76,78,80,82,84,86,88,90,-1,92,94,96,-1,98,100,102,104,106,108,110,112,114,116,118,120,122,-1,-1,-1,-1,-1,-1,-1,-1,-1,-1,-1,-1,-1,-1,-1,-1,-1,-1,-1,-1,-1,-1,-1,-1,-1,-1,-1,-1,-1,-1,-1,-1,-1,-1,-1,-1,-1,-1,-1,-1,-1,-1,-1,-1,-1,-1,-1,-1,-1,-1,-1,-1,-1,-1,-1,-1,-1,-1,-1,-1],"split_conditions":[4.8571866E-2,1.369863E-2,4.9479168E-2,3.906E-1,-1.2698413E-2,8.7673895E-2,6.759936E-1,6.2E-3,7.3E-2,4.302E-3,1.15E-2,1.15E-2,1.00307696E-1,2.808E-1,1.066E-3,-1.8867925E-2,7.6E-3,1.11E-2,7.97E-2,3.3009343E-2,1.8771E0,-1.09756095E-2,8.18E-3,3.234E-1,7.777E-3,1.066E-3,-2.4937657E-3,-2.73E-2,4.7024E0,-1.09E-2,1.5558239E0,-1.793722E-2,2.73E-1,6.7E-3,3.34E-2,5.363E-1,-6.03E-2,2.6388E0,8.77193E-3,-7.9325594E-2,3.834E-1,-1.1594288E-1,-4.52E-2,-3.05E-2,3.923E-1,-2.3418328E-2,1.5415216E-2,1.7119693E0,6.695E-1,-1.7327053E-2,2.2201316E-2,1.2675345E0,1.8354096E-1,9.368E-1,7.3E-2,1E1,2.1829E0,5.14E-3,-2.602988E-1,9.8E-3,-6.1E-3,8.3E-3,1.5764397E0,-1.2647969E-2,1.0380317E-2,-2.3424463E-2,-1.449532E-2,-9.341903E-3,7.67671E-4,-1.25894165E-2,-3.6247794E-3,-1.3776131E-2,-1.7720608E-2,-1.9854408E-2,-3.4507785E-2,6.0797543E-3,2.463223E-4,-7.4557005E-3,-1.9828042E-3,1.4764574E-2,-3.6651962E-3,2.6637611E-3,2.5714392E-2,-1.9908252E-6,1.5742641E-2,-1.0032511E-2,5.1110936E-3,1.904199E-2,-1.2846189E-2,-9.955683E-3,-1.5368824E-2,2.9498855E-2,1.4333503E-2,6.475135E-3,-1.1544984E-2,-1.108674E-2,-1.5344943E-2,1.8524928E-2,3.2553505E-2,7.899334E-3,-1.4307313E-2,1.1584294E-2,-9.436385E-4,1.33851385E-2,-1.3938638E-2,4.822401E-3,-1.9661369E-2,2.9453907E-2,1.1050716E-2,1.3823913E-2,-3.7221552E-3,2.1466987E-2,2.8641347E-2,-1.7961191E-2,2.0714147E-2,3.371841E-2,-5.1452266E-4,-2.1161666E-2,1.1778248E-2,1.1085331E-2,2.057967E-2,-3.3828713E-2,8.864128E-3],"split_indices":[0,4,4,28,0,0,2,27,26,5,27,27,0,28,5,4,27,27,26,4,5,0,5,28,5,5,4,26,5,26,2,0,28,27,26,28,26,5,0,0,28,17,26,26,28,0,0,2,28,0,4,2,17,28,26,20,5,5,17,27,26,26,2,0,0,0,0,0,0,0,0,0,0,0,0,0,0,0,0,0,0,0,0,0,0,0,0,0,0,0,0,0,0,0,0,0,0,0,0,0,0,0,0,0,0,0,0,0,0,0,0,0,0,0,0,0,0,0,0,0,0,0,0],"split_type":[0,0,0,0,0,0,0,0,0,0,0,0,0,0,0,0,0,0,0,0,0,0,0,0,0,0,0,0,0,0,0,0,0,0,0,0,0,0,0,0,0,0,0,0,0,0,0,0,0,0,0,0,0,0,0,0,0,0,0,0,0,0,0,0,0,0,0,0,0,0,0,0,0,0,0,0,0,0,0,0,0,0,0,0,0,0,0,0,0,0,0,0,0,0,0,0,0,0,0,0,0,0,0,0,0,0,0,0,0,0,0,0,0,0,0,0,0,0,0,0,0,0,0],"sum_hessian":[3.5532756E3,1.8048925E3,1.7483832E3,1.48895E3,3.159425E2,1.1140477E3,6.3433545E2,5.8922046E2,8.9972955E2,2.1809631E2,9.784618E1,8.681441E1,1.0272333E3,2.3784247E2,3.9649298E2,4.1759037E1,5.474614E2,8.7761176E2,2.2117828E1,4.9103416E1,1.6899289E2,8.1271576E1,1.6574602E1,6.9061005E1,1.7753405E1,6.629533E2,3.6428E2,4.178014E1,1.9606233E2,3.9841793E1,3.5665118E2,2.773696E0,3.898534E1,1.9671425E2,3.5074716E2,8.5014185E2,2.746991E1,1.4698332E1,7.4194975E0,3.9221367E1,9.882047E0,1.08772224E2,6.022067E1,9.573437E0,7.169814E1,2.4498193E0,1.41247835E1,1.7322212E1,5.173879E1,1.6610311E0,1.6092375E1,4.093587E1,6.220174E2,9.3775154E1,2.7050485E2,1.2674714E1,2.9105427E1,1.744669E2,2.1595428E1,2.2467598E1,1.7374193E1,2.3713841E2,1.19512764E2,1.7723669E0,1.0013291E0,2.617736E1,1.2807981E1,1.6072633E2,3.598791E1,3.2917587E2,2.1571308E1,3.0820337E2,5.419385E2,6.4863963E0,2.0983513E1,1.2397154E1,2.3011777E0,6.0846615E0,1.3348361E0,2.8003438E0,3.6421024E1,5.1243863E0,4.757661E0,1.4441531E1,9.4330696E1,8.89751E0,5.1323162E1,2.9676955E0,6.6057415E0,1.9228558E1,5.2469585E1,5.290784E0,8.834E0,1.3278412E1,4.0438E0,3.0769514E1,2.0969275E1,8.955529E0,7.1368456E0,2.7762714E1,1.3173158E1,6.0408026E2,1.7937157E1,9.029818E1,3.4769735E0,2.6362885E2,6.8759975E0,1.0740933E1,1.9337804E0,2.2195288E1,6.9101386E0,7.535745E1,9.910945E1,2.257865E0,1.9337563E1,2.1226978E1,1.2406194E0,2.2566764E0,1.51175165E1,1.60476E2,7.6662415E1,1.7101766E0,1.1780258E2],"tree_param":{"num_deleted":"0","num_feature":"29","num_nodes":"123","size_leaf_vector":"1"}},{"base_weights":[-5.2889006E-4,-2.2472198E-1,2.3003797E-1,-2.8186935E-1,4.835125E-2,3.8286388E-1,1.9198096E-1,-2.4109323E-1,-3.460809E-1,1.2382909E-1,-1.5287982E-1,4.2736104E-1,1.6901316E-1,-6.469744E-2,2.0600033E-1,-2.4893253E-1,4.715567E-2,-3.3947322E-1,-3.3157777E-2,5.2901477E-2,2.2725968E-1,-2.7148584E-1,3.6699584E-1,4.8130506E-1,3.228217E-1,2.8720014E-2,3.1482658E-1,-2.116656E-1,3.9508972E-1,2.4111226E-1,1.319272E-1,-1.9586422E-1,-2.841512E-1,5.180733E-1,-9.391617E-2,-3.489671E-1,-1.5333073E-1,1.0843539E-1,-1.6279496E-1,2.6549062E-1,-1.9088179E-1,-1.8691115E-1,-2.9680225E-1,-4.3251243E-1,5.7253975E-1,4.0128523E-1,5.3517264E-1,5.950819E-1,2.6345724E-1,3.7190208E-1,-1.4668417E-1,-1.807112E-1,4.2939636E-1,1.1757497E-1,-2.2760475E-1,-1.6903324E-2,4.808866E-1,2.980149E-1,1.7921972E-1,-5.140995E-3,1.797882E-1,-1.1639036E-2,-2.0162542E-3,-1.3803676E-2,-2.7868966E-2,3.1443737E-2,1.2238466E-3,-8.4646875E-3,2.25431E-2,-1.9706579E-2,-1.5861189E-2,9.510946E-3,-1.3907294E-2,1.0531115E-2,-8.215263E-4,-1.6266244E-2,-1.2235624E-3,1.55121405E-2,-1.6453756E-3,7.057673E-3,-1.7635215E-2,-2.5273105E-3,-9.5928395E-3,-1.5416577E-2,-7.528197E-3,-2.4568506E-2,-6.713079E-3,-2.2599064E-3,3.1560134E-2,2.4914613E-2,1.996857E-3,2.9783184E-2,2.1502437E-2,6.552163E-3,3.270844E-2,1.8389191E-2,4.6659345E-3,2.5970864E-3,2.8907E-2,1.7115422E-2,-1.4435991E-2,1.0079434E-2,-2.5448417E-2,-1.2015639E-2,2.3645777E-2,-7.1964497E-3,1.583504E-2,-6.7224964E-3,-1.2869335E-2,8.647316E-3,2.8376132E-2,1.2815654E-2,1.913295E-2,1.1077812E-3,1.0432456E-2,-8.306607E-3,2.8112445E-3,3.5845228E-3,1.1034495E-2],"categories":[],"categories_nodes":[],"categories_segments":[],"categories_sizes":[],"default_left":[0,0,0,0,0,0,0,0,0,0,0,0,0,0,0,0,0,0,0,0,0,0,0,0,0,0,0,0,0,0,0,0,0,0,0,0,0,0,0,0,0,0,0,0,0,0,0,0,0,0,0,0,0,0,0,0,0,0,0,0,0,0,0,0,0,0,0,0,0,0,0,0,0,0,0,0,0,0,0,0,0,0,0,0,0,0,0,0,0,0,0,0,0,0,0,0,0,0,0,0,0,0,0,0,0,0,0,0,0,0,0,0,0,0,0,0,0,0,0],"id":9,"left_children":[1,3,5,7,9,11,13,15,17,19,21,23,25,27,29,31,33,35,-1,37,39,41,43,45,47,49,51,53,55,57,59,61,63,65,67,69,71,73,75,77,79,81,83,85,87,89,91,93,95,97,99,101,103,105,107,-1,109,111,113,115,117,-1,-1,-1,-1,-1,-1,-1,-1,-1,-1,-1,-1,-1,-1,-1,-1,-1,-1,-1,-1,-1,-1,-1,-1,-1,-1,-1,-1,-1,-1,-1,-1,-1,-1,-1,-1,-1,-1,-1,-1,-1,-1,-1,-1,-1,-1,-1,-1,-1,-1,-1,-1,-1,-1,-1,-1,-1,-1],"loss_changes":[1.8169452E2,2.7824348E1,1.0004974E1,3.7755585E0,4.7161827E0,3.205761E0,5.0129623E0,2.0561104E0,9.6938324E-1,1.6419604E0,5.3287663E0,1.4489594E0,1.2385379E0,4.9973803E0,3.3952293E0,1.5907936E0,1.6958236E0,9.371033E-1,0E0,1.6353106E0,1.5119767E0,9.360409E-2,2.9063706E0,5.853615E-1,1.4574099E0,1.9917679E0,1.7697108E0,3.193488E-1,1.2924418E0,3.0906067E0,2.7952118E0,2.026888E0,1.0098915E0,3.055836E-1,8.9454794E-1,6.3848114E-1,1.2958341E0,1.381462E0,6.2266165E-1,1.1342402E0,4.924953E-1,2.9416084E-3,4.1056156E-2,2.1108985E-3,5.105157E-1,2.7380714E0,4.3024635E-1,3.826871E-1,1.4529171E0,7.069206E-1,1.6278054E0,8.9329267E-1,8.2781696E-1,2.1397926E-1,1.13877535E-1,0E0,3.418672E-1,1.5383377E0,1.9835138E0,1.1080208E0,1.3801622E0,0E0,0E0,0E0,0E0,0E0,0E0,0E0,0E0,0E0,0E0,0E0,0E0,0E0,0E0,0E0,0E0,0E0,0E0,0E0,0E0,0E0,0E0,0E0,0E0,0E0,0E0,0E0,0E0,0E0,0E0,0E0,0E0,0E0,0E0,0E0,0E0,0E0,0E0,0E0,0E0,0E0,0E0,0E0,0E0,0E0,0E0,0E0,0E0,0E0,0E0,0E0,0E0,0E0,0E0,0E0,0E0,0E0,0E0],"parents":[2147483647,0,0,1,1,2,2,3,3,4,4,5,5,6,6,7,7,8,8,9,9,10,10,11,11,12,12,13,13,14,14,15,15,16,16,17,17,19,19,20,20,21,21,22,22,23,23,24,24,25,25,26,26,27,27,28,28,29,29,30,30,31,31,32,32,33,33,34,34,35,35,36,36,37,37,38,38,39,39,40,40,41,41,42,42,43,43,44,44,45,45,46,46,47,47,48,48,49,49,50,50,51,51,52,52,53,53,54,54,56,56,57,57,58,58,59,59,60,60],"right_children":[2,4,6,8,10,12,14,16,18,20,22,24,26,28,30,32,34,36,-1,38,40,42,44,46,48,50,52,54,56,58,60,62,64,66,68,70,72,74,76,78,80,82,84,86,88,90,92,94,96,98,100,102,104,106,108,-1,110,112,114,116,118,-1,-1,-1,-1,-1,-1,-1,-1,-1,-1,-1,-1,-1,-1,-1,-1,-1,-1,-1,-1,-1,-1,-1,-1,-1,-1,-1,-1,-1,-1,-1,-1,-1,-1,-1,-1,-1,-1,-1,-1,-1,-1,-1,-1,-1,-1,-1,-1,-1,-1,-1,-1,-1,-1,-1,-1,-1,-1],"split_conditions":[4.8571866E-2,1.369863E-2,1.16959065E-1,5.363E-1,-1.0752688E-2,3.5256E0,7.7071294E-2,1.691991E-1,1.13E-2,8.2411215E-2,1.15E-2,7.694546E-1,4.6484932E-2,1.15E-2,1.00307696E-1,7.6E-3,9.37E-4,1.03E-2,-3.3157777E-2,-8.8495575E-3,3.27E-2,3.906E-1,8.62E-3,2.0442441E-1,2.6372967E-3,3.4367926E-2,1.2998523E-1,-2.4216523E-2,7.777E-3,1.0646951E0,8.045977E-1,6.7E-3,1.15E-2,2.795E-1,1.13E-2,1.4562464E-2,1.05E-2,9.012E-1,7.7E-3,5.599E-1,1.1145038E-1,1.281E-1,1.3946487E-1,3.400904E-2,-1.7316017E-2,1.8906431E-1,3.367647E-1,2.34E-1,3.437E-3,3.471E-1,1.4584616E-1,5.5633772E-2,-1.525553E-2,-2.631579E-2,1.1329005E0,-1.6903324E-2,4.2118303E-2,3.3009343E-2,9.975669E-2,9.744015E-1,1.4412238E-1,-1.1639036E-2,-2.0162542E-3,-1.3803676E-2,-2.7868966E-2,3.1443737E-2,1.2238466E-3,-8.4646875E-3,2.25431E-2,-1.9706579E-2,-1.5861189E-2,9.510946E-3,-1.3907294E-2,1.0531115E-2,-8.215263E-4,-1.6266244E-2,-1.2235624E-3,1.55121405E-2,-1.6453756E-3,7.057673E-3,-1.7635215E-2,-2.5273105E-3,-9.5928395E-3,-1.5416577E-2,-7.528197E-3,-2.4568506E-2,-6.713079E-3,-2.2599064E-3,3.1560134E-2,2.4914613E-2,1.996857E-3,2.9783184E-2,2.1502437E-2,6.552163E-3,3.270844E-2,1.8389191E-2,4.6659345E-3,2.5970864E-3,2.8907E-2,1.7115422E-2,-1.4435991E-2,1.0079434E-2,-2.5448417E-2,-1.2015639E-2,2.3645777E-2,-7.1964497E-3,1.583504E-2,-6.7224964E-3,-1.2869335E-2,8.647316E-3,2.8376132E-2,1.2815654E-2,1.913295E-2,1.1077812E-3,1.0432456E-2,-8.306607E-3,2.8112445E-3,3.5845228E-3,1.1034495E-2],"split_indices":[0,4,8,28,0,5,0,9,27,9,27,2,3,27,0,27,5,27,0,1,5,28,5,9,3,3,1,4,5,2,8,27,27,28,27,3,27,2,27,28,9,28,9,3,1,1,1,28,5,28,9,3,8,4,2,0,3,4,0,2,1,0,0,0,0,0,0,0,0,0,0,0,0,0,0,0,0,0,0,0,0,0,0,0,0,0,0,0,0,0,0,0,0,0,0,0,0,0,0,0,0,0,0,0,0,0,0,0,0,0,0,0,0,0,0,0,0,0,0],"split_type":[0,0,0,0,0,0,0,0,0,0,0,0,0,0,0,0,0,0,0,0,0,0,0,0,0,0,0,0,0,0,0,0,0,0,0,0,0,0,0,0,0,0,0,0,0,0,0,0,0,0,0,0,0,0,0,0,0,0,0,0,0,0,0,0,0,0,0,0,0,0,0,0,0,0,0,0,0,0,0,0,0,0,0,0,0,0,0,0,0,0,0,0,0,0,0,0,0,0,0,0,0,0,0,0,0,0,0,0,0,0,0,0,0,0,0,0,0,0,0],"sum_hessian":[3.5129785E3,1.7811204E3,1.731858E3,1.4728564E3,3.08264E2,3.4348035E2,1.3883777E3,9.0372235E2,5.691341E2,2.244586E2,8.380539E1,2.8349374E2,5.9986595E1,7.171654E1,1.3166611E3,8.79928E2,2.379434E1,5.5954407E2,9.589996E0,1.3404713E2,9.0411476E1,6.862652E1,1.5178874E1,1.8462183E2,9.887192E1,3.1182034E1,2.8804564E1,5.47543E1,1.6962236E1,8.917169E2,4.2494418E2,3.5363068E2,5.2629736E2,4.8688903E0,1.892545E1,5.3155804E2,2.7985996E1,1.0699669E2,2.7050442E1,8.3172066E1,7.239409E0,1.7741253E1,5.088526E1,2.878414E0,1.230046E1,7.767937E1,1.0694246E2,1.6083725E1,8.278819E1,1.0167954E1,2.101408E1,5.30069E0,2.3503872E1,2.2339106E0,5.252039E1,1.4689946E0,1.5493241E1,4.625988E2,4.2911813E2,1.102096E2,3.147346E2,2.853965E2,6.823416E1,5.1313745E2,1.3159895E1,3.7524765E0,1.1164141E0,1.72306E1,1.6948488E0,2.1468628E2,3.168718E2,7.318382E0,2.0667614E1,5.8464294E1,4.85324E1,1.1815435E1,1.5235007E1,7.229061E1,1.08814535E1,2.4139915E0,4.8254175E0,1.0136089E0,1.6727644E1,4.6139263E1,4.745999E0,1.8632157E0,1.0151983E0,1.0867021E0,1.12137575E1,6.094041E1,1.6738956E1,6.491971E1,4.202275E1,2.1801016E0,1.3903623E1,5.0599575E1,3.218862E1,4.4758735E0,5.6920805E0,4.4126005E0,1.6601479E1,2.6270344E0,2.6736555E0,1.1582196E0,2.2345654E1,1.0855271E0,1.1483835E0,1.4059191E1,3.84612E1,4.0596843E0,1.1433557E1,3.126117E2,1.4998708E2,6.79931E1,3.6112503E2,2.994438E1,8.026522E1,8.715317E1,2.2758142E2],"tree_param":{"num_deleted":"0","num_feature":"29","num_nodes":"119","size_leaf_vector":"1"}},{"base_weights":[4.6842857E-3,-1.6928501E-1,2.0672978E-1,-2.5099856E-1,1.3627405E-1,4.3979803E-1,1.7370375E-1,-2.7790818E-1,2.1072337E-2,2.71947E-2,2.7635428E-1,5.0438374E-1,3.5335097E-1,5.5486646E-2,2.2787066E-1,-2.3717026E-1,-3.4068432E-1,-1.8556665E-1,1.150811E-1,-2.7037105E-1,6.925765E-2,3.7559244E-1,9.159778E-2,4.3706623E-1,5.942317E-1,2.7333868E-1,5.741128E-1,-8.209245E-2,1.4103857E-1,1.6216947E-1,2.6238766E-1,-1.7839289E-1,-2.7667543E-1,-3.4848306E-1,-5.0890304E-2,4.650049E-2,-2.0636809E-1,1.4820302E-1,-2.3575747E-1,1.2950077E-2,-3.025309E-1,1.0883765E-1,-1.8467556E-1,6.0300547E-1,3.173197E-1,3.7408596E-1,1.4109353E-2,4.4785354E-1,-1.0076539E-3,6.406474E-1,3.7353513E-1,5.076762E-1,1.937018E-1,3.7663192E-1,3.204991E-2,-1.6326982E-1,4.332175E-2,7.975872E-2,3.1652868E-1,2.728915E-1,1.0507463E-1,3.513886E-1,2.4107128E-1,-1.0836707E-2,-9.94197E-4,-1.4114489E-2,5.688177E-3,-1.679006E-2,-2.7439183E-2,-7.6273764E-3,2.8609498E-3,-3.2039278E-3,1.0172293E-2,5.436761E-3,-1.1057007E-2,1.1447694E-2,-2.942076E-3,-1.9379647E-2,9.865618E-3,-1.2049067E-2,-2.016987E-2,1.3127316E-3,9.775826E-3,-1.1275694E-2,1.8724928E-2,3.177039E-2,7.193493E-4,1.1967666E-2,2.7128136E-2,4.4336496E-3,2.6605835E-2,6.1890995E-3,-1.0378638E-2,2.4757078E-2,1.5480286E-2,1.55911045E-2,3.3604242E-2,2.4190169E-2,-1.2692734E-2,3.6137253E-2,1.7195728E-2,3.2977422E-3,1.9246724E-2,2.5250828E-2,8.771994E-3,1.6159326E-2,-9.149539E-3,6.649802E-3,-1.029867E-2,7.91281E-3,-4.2662076E-3,6.797223E-3,2.1029288E-2,1.4935166E-2,-3.121358E-3,6.8691634E-3,-8.733478E-3,7.929124E-3,2.0141141E-2,8.953109E-3,1.5816297E-2],"categories":[],"categories_nodes":[],"categories_segments":[],"categories_sizes":[],"default_left":[0,0,0,0,0,0,0,0,0,0,0,0,0,0,0,0,0,0,0,0,0,0,0,0,0,0,0,0,0,0,0,0,0,0,0,0,0,0,0,0,0,0,0,0,0,0,0,0,0,0,0,0,0,0,0,0,0,0,0,0,0,0,0,0,0,0,0,0,0,0,0,0,0,0,0,0,0,0,0,0,0,0,0,0,0,0,0,0,0,0,0,0,0,0,0,0,0,0,0,0,0,0,0,0,0,0,0,0,0,0,0,0,0,0,0,0,0,0,0,0,0],"id":10,"left_children":[1,3,5,7,9,11,13,15,17,19,21,23,25,27,29,31,33,35,37,39,41,43,45,47,49,51,53,55,57,59,61,63,65,67,69,71,73,75,77,-1,79,81,83,85,87,89,91,93,-1,95,97,99,101,103,-1,105,107,109,111,113,115,117,119,-1,-1,-1,-1,-1,-1,-1,-1,-1,-1,-1,-1,-1,-1,-1,-1,-1,-1,-1,-1,-1,-1,-1,-1,-1,-1,-1,-1,-1,-1,-1,-1,-1,-1,-1,-1,-1,-1,-1,-1,-1,-1,-1,-1,-1,-1,-1,-1,-1,-1,-1,-1,-1,-1,-1,-1,-1,-1],"loss_changes":[1.2309288E2,4.7017998E1,1.239502E1,1.0878365E1,6.06913E0,9.408798E-1,9.0853E0,3.3753738E0,2.6358945E0,2.8311145E0,3.155779E0,4.2003632E-1,1.4160786E0,5.281842E0,2.1663475E0,1.8613853E0,1.1791229E0,2.1460116E-1,1.1170704E0,5.555935E-1,2.00674E0,1.3044357E0,1.3545631E0,3.4456062E-1,2.2532272E-1,1.157085E0,5.948782E-2,1.7613484E0,2.94773E0,2.108612E0,1.1236649E0,2.0229807E0,1.1068916E0,1.1252441E0,1.7411906E-1,8.782847E-2,2.0631528E-1,1.4463569E0,6.3008E-1,0E0,6.971812E-2,1.223479E0,7.015996E-1,4.0878487E-1,1.4850788E0,5.5420315E-1,1.2361984E0,2.8147507E-1,0E0,1.6337109E-1,8.339989E-1,3.3066607E-1,1.2406875E0,1.2290585E-1,0E0,1.064662E0,1.5586926E0,2.686073E0,1.2810016E0,1.0087929E0,2.0547843E0,1.1349449E0,2.3561344E0,0E0,0E0,0E0,0E0,0E0,0E0,0E0,0E0,0E0,0E0,0E0,0E0,0E0,0E0,0E0,0E0,0E0,0E0,0E0,0E0,0E0,0E0,0E0,0E0,0E0,0E0,0E0,0E0,0E0,0E0,0E0,0E0,0E0,0E0,0E0,0E0,0E0,0E0,0E0,0E0,0E0,0E0,0E0,0E0,0E0,0E0,0E0,0E0,0E0,0E0,0E0,0E0,0E0,0E0,0E0,0E0,0E0,0E0],"parents":[2147483647,0,0,1,1,2,2,3,3,4,4,5,5,6,6,7,7,8,8,9,9,10,10,11,11,12,12,13,13,14,14,15,15,16,16,17,17,18,18,19,19,20,20,21,21,22,22,23,23,24,24,25,25,26,26,27,27,28,28,29,29,30,30,31,31,32,32,33,33,34,34,35,35,36,36,37,37,38,38,40,40,41,41,42,42,43,43,44,44,45,45,46,46,47,47,49,49,50,50,51,51,52,52,53,53,55,55,56,56,57,57,58,58,59,59,60,60,61,61,62,62],"right_children":[2,4,6,8,10,12,14,16,18,20,22,24,26,28,30,32,34,36,38,40,42,44,46,48,50,52,54,56,58,60,62,64,66,68,70,72,74,76,78,-1,80,82,84,86,88,90,92,94,-1,96,98,100,102,104,-1,106,108,110,112,114,116,118,120,-1,-1,-1,-1,-1,-1,-1,-1,-1,-1,-1,-1,-1,-1,-1,-1,-1,-1,-1,-1,-1,-1,-1,-1,-1,-1,-1,-1,-1,-1,-1,-1,-1,-1,-1,-1,-1,-1,-1,-1,-1,-1,-1,-1,-1,-1,-1,-1,-1,-1,-1,-1,-1,-1,-1,-1,-1,-1],"split_conditions":[9.498183E-2,1.369863E-2,8.645534E-3,8.6521566E-2,2.9363785E-2,5.0731474E-1,2.0442441E-1,5.363E-1,7.7348065E-1,3.542601E-2,1.2224513E0,3.1126067E-1,5.0643828E-2,1.2048192E-2,3.906E-1,7.6E-3,7.3E-2,1.083E-1,2.2317104E0,-9.1767883E-1,1.4688404E0,9.838081E0,1.8229166E-2,8.606E-1,1.77E-2,2.6372967E-3,3.885E-1,9.002433E-1,9.667674E-1,8.478261E-2,6.1643835E-2,6.7E-3,9.01E-2,1.01E-2,7.46E-2,4.8013292E-2,-7.56E-2,5.9042264E-2,6.933E-1,1.2950077E-2,8.5E-3,8.3E-3,1.6226819E-1,2.6E-2,9.4E-3,4.485E-1,5.6E-3,2.4205914E-1,-1.0076539E-3,2.248E-1,6.387E-1,9.931623E0,6.2E-3,2.684E-1,3.204991E-2,1.094E-1,1.1371974E0,1.2893105E0,4.82E-1,2.39675E0,3.72E-1,2.4205914E-1,9.182644E-1,-1.0836707E-2,-9.94197E-4,-1.4114489E-2,5.688177E-3,-1.679006E-2,-2.7439183E-2,-7.6273764E-3,2.8609498E-3,-3.2039278E-3,1.0172293E-2,5.436761E-3,-1.1057007E-2,1.1447694E-2,-2.942076E-3,-1.9379647E-2,9.865618E-3,-1.2049067E-2,-2.016987E-2,1.3127316E-3,9.775826E-3,-1.1275694E-2,1.8724928E-2,3.177039E-2,7.193493E-4,1.1967666E-2,2.7128136E-2,4.4336496E-3,2.6605835E-2,6.1890995E-3,-1.0378638E-2,2.4757078E-2,1.5480286E-2,1.55911045E-2,3.3604242E-2,2.4190169E-2,-1.2692734E-2,3.6137253E-2,1.7195728E-2,3.2977422E-3,1.9246724E-2,2.5250828E-2,8.771994E-3,1.6159326E-2,-9.149539E-3,6.649802E-3,-1.029867E-2,7.91281E-3,-4.2662076E-3,6.797223E-3,2.1029288E-2,1.4935166E-2,-3.121358E-3,6.8691634E-3,-8.733478E-3,7.929124E-3,2.0141141E-2,8.953109E-3,1.5816297E-2],"split_indices":[9,4,7,7,4,2,9,28,8,7,2,9,3,4,28,27,26,28,2,8,2,6,7,28,26,3,28,8,8,7,7,27,26,27,26,3,26,3,28,0,27,27,1,26,27,28,26,9,0,28,28,6,26,28,0,28,2,2,28,2,28,9,8,0,0,0,0,0,0,0,0,0,0,0,0,0,0,0,0,0,0,0,0,0,0,0,0,0,0,0,0,0,0,0,0,0,0,0,0,0,0,0,0,0,0,0,0,0,0,0,0,0,0,0,0,0,0,0,0,0,0],"split_type":[0,0,0,0,0,0,0,0,0,0,0,0,0,0,0,0,0,0,0,0,0,0,0,0,0,0,0,0,0,0,0,0,0,0,0,0,0,0,0,0,0,0,0,0,0,0,0,0,0,0,0,0,0,0,0,0,0,0,0,0,0,0,0,0,0,0,0,0,0,0,0,0,0,0,0,0,0,0,0,0,0,0,0,0,0,0,0,0,0,0,0,0,0,0,0,0,0,0,0,0,0,0,0,0,0,0,0,0,0,0,0,0,0,0,0,0,0,0,0,0,0],"sum_hessian":[3.499964E3,1.8807366E3,1.6192277E3,1.4840468E3,3.9668982E2,1.9944019E2,1.4197875E3,1.3504562E3,1.3359055E2,2.2369469E2,1.7299513E2,1.1138697E2,8.805321E1,4.46765E2,9.7302246E2,8.218823E2,5.285739E2,4.1467545E1,9.212299E1,2.7032316E1,1.9666237E2,1.1187232E2,6.1122814E1,6.703006E1,4.435691E1,6.627194E1,2.1781261E1,1.713122E2,2.7545282E2,3.3708966E2,6.359328E2,3.3257678E2,4.893055E2,5.1452484E2,1.404905E1,3.3095663E0,3.8157978E1,8.4703865E1,7.4191337E0,1.1442156E0,2.5888102E1,1.7063696E2,2.602541E1,2.0912401E1,9.095992E1,1.2333339E1,4.8789474E1,6.5505066E1,1.5249947E0,3.5076897E1,9.280012E0,1.5446007E1,5.082594E1,7.1883836E0,1.4592878E1,1.0381413E2,6.749806E1,2.0523929E2,7.021354E1,1.13399124E2,2.2369054E2,1.1988796E2,5.1604486E2,2.6750375E2,6.507302E1,4.826423E2,6.6632113E0,4.86405E2,2.8119864E1,7.028742E0,7.0203085E0,2.288718E0,1.0208484E0,1.4238973E0,3.673408E1,6.0861164E1,2.3842701E1,5.570953E0,1.8481808E0,1.8182251E1,7.7058496E0,8.8050255E1,8.258671E1,2.4810144E1,1.2152644E0,1.9745935E1,1.1664655E0,6.910302E1,2.18569E1,4.951588E0,7.3817506E0,3.2936466E1,1.585301E1,4.6886036E1,1.8619032E1,4.013699E0,3.1063198E1,8.087449E0,1.1925637E0,5.2014823E0,1.0244525E1,3.1277128E1,1.9548811E1,3.4663281E0,3.7220557E0,3.4451332E0,1.00369E2,4.998456E1,1.7513498E1,1.3912582E2,6.6113464E1,2.6511318E1,4.370222E1,1.0539531E2,8.003816E0,2.0098677E2,2.2703766E1,2.6106909E1,9.378105E1,2.847736E2,2.3127124E2],"tree_param":{"num_deleted":"0","num_feature":"29","num_nodes":"121","size_leaf_vector":"1"}},{"base_weights":[1.4348436E-3,-1.628118E-1,1.8748298E-1,-2.3731433E-1,9.503064E-2,8.7012306E-2,2.2447826E-1,-1.6532059E-1,-2.8579438E-1,-5.3764194E-2,1.5465699E-1,2.4543487E-1,5.676269E-2,3.4164512E-1,1.8903854E-1,3.2635756E-2,-1.8874985E-1,-2.9517412E-1,3.2959813E-1,-2.4887827E-1,3.5227824E-2,-1.2613904E-2,1.9356565E-1,2.814183E-1,-2.0520246E-1,1.2488866E-2,1.7872083E-1,3.758942E-1,4.060671E-2,4.8534628E-2,2.0061323E-1,2.2011225E-1,-1.15875885E-1,-1.9206841E-1,2.75529E-2,-3.0241066E-1,-1.3314771E-2,5.3890336E-1,1.3148075E-1,-1.6007303E-1,-3.760561E-1,-2.031298E-2,5.3767E-1,-2.3817612E-1,8.147706E-2,3.9648366E-1,1.6319127E-1,-1.4915381E-1,3.207248E-1,-4.5392638E-1,1.8159643E-2,1.257385E-1,-6.566931E-2,3.4888414E-1,1.7465238E-2,4.8755476E-1,2.950171E-1,3.9894894E-1,-1.2635128E-1,-2.2463737E-1,1.3719277E-1,2.2753048E-1,1.2926804E-1,1.4046134E-2,-8.115168E-3,-8.60776E-3,1.0532561E-2,-8.437028E-4,-1.0166562E-2,-1.3605217E-2,-1.7868927E-2,-5.6086234E-3,7.7114305E-3,3.1926855E-2,2.2615904E-3,1.6394326E-2,-6.950594E-3,-3.1428097E-4,-1.1842791E-2,-2.4831368E-2,-1.0981368E-2,2.1544755E-3,-1.0609329E-2,2.861755E-2,9.001657E-3,-1.3804169E-2,-4.9792617E-3,2.5675585E-2,9.989201E-4,2.2392176E-2,-2.0919139E-2,-3.67298E-4,9.813619E-3,1.172836E-2,-1.7595988E-2,2.184481E-3,1.9234782E-2,-3.1847592E-2,-4.5669354E-3,2.6064795E-3,1.4480918E-2,-9.244977E-3,3.4431668E-4,-4.661038E-3,1.8983878E-2,1.542393E-2,-7.55023E-3,-4.915375E-3,2.545166E-2,1.5487636E-2,-1.2324971E-2,-1.2173436E-2,2.7025787E-2,-1.3607301E-2,1.05930455E-2,3.695294E-3,-2.1964943E-2,1.5508251E-2,-2.4400065E-4,-7.311217E-4,1.1951605E-2,-1.832035E-2,7.5004124E-3],"categories":[],"categories_nodes":[],"categories_segments":[],"categories_sizes":[],"default_left":[0,0,0,0,0,0,0,0,0,0,0,0,0,0,0,0,0,0,0,0,0,0,0,0,0,0,0,0,0,0,0,0,0,0,0,0,0,0,0,0,0,0,0,0,0,0,0,0,0,0,0,0,0,0,0,0,0,0,0,0,0,0,0,0,0,0,0,0,0,0,0,0,0,0,0,0,0,0,0,0,0,0,0,0,0,0,0,0,0,0,0,0,0,0,0,0,0,0,0,0,0,0,0,0,0,0,0,0,0,0,0,0,0,0,0,0,0,0,0,0,0,0,0],"id":11,"left_children":[1,3,5,7,9,11,13,15,17,19,21,23,25,27,29,31,33,35,37,39,41,43,45,47,49,51,53,55,57,59,61,63,65,67,-1,69,71,73,75,77,79,81,83,85,87,89,91,93,95,97,-1,99,101,103,105,107,109,111,113,115,117,119,121,-1,-1,-1,-1,-1,-1,-1,-1,-1,-1,-1,-1,-1,-1,-1,-1,-1,-1,-1,-1,-1,-1,-1,-1,-1,-1,-1,-1,-1,-1,-1,-1,-1,-1,-1,-1,-1,-1,-1,-1,-1,-1,-1,-1,-1,-1,-1,-1,-1,-1,-1,-1,-1,-1,-1,-1,-1,-1,-1,-1],"loss_changes":[1.0656112E2,3.560167E1,6.0579605E0,4.969002E0,3.6982946E0,2.1026518E0,4.895027E0,2.699541E0,5.046913E0,2.0876691E0,1.9365807E0,1.2011294E0,2.0072603E0,2.8317986E0,1.4852676E0,1.7603861E0,1.3810501E0,1.7198029E0,4.825636E-1,3.6476398E-1,2.329934E0,1.2295754E0,1.4216919E0,1.1600914E0,9.8374605E-1,2.434547E0,2.7116747E0,2.094078E0,1.8050554E0,1.757258E0,1.6009903E0,6.941049E-1,6.872333E-1,1.0183506E0,0E0,1.2753372E0,3.850206E-1,2.7445245E-1,4.8009807E-1,2.806933E-1,1.6874313E-1,9.3117976E-1,4.7683716E-6,6.2022746E-2,1.0786014E0,1.4721785E0,1.1944127E0,5.633997E-1,1.0560803E0,2.3870766E-1,0E0,1.3392535E0,1.4099836E0,6.907501E-1,2.591382E0,1.3406277E0,1.2433491E0,1.0012144E0,1.0816269E0,1.1761308E0,1.3393303E0,1.7166595E0,2.4696267E0,0E0,0E0,0E0,0E0,0E0,0E0,0E0,0E0,0E0,0E0,0E0,0E0,0E0,0E0,0E0,0E0,0E0,0E0,0E0,0E0,0E0,0E0,0E0,0E0,0E0,0E0,0E0,0E0,0E0,0E0,0E0,0E0,0E0,0E0,0E0,0E0,0E0,0E0,0E0,0E0,0E0,0E0,0E0,0E0,0E0,0E0,0E0,0E0,0E0,0E0,0E0,0E0,0E0,0E0,0E0,0E0,0E0,0E0,0E0,0E0],"parents":[2147483647,0,0,1,1,2,2,3,3,4,4,5,5,6,6,7,7,8,8,9,9,10,10,11,11,12,12,13,13,14,14,15,15,16,16,17,17,18,18,19,19,20,20,21,21,22,22,23,23,24,24,25,25,26,26,27,27,28,28,29,29,30,30,31,31,32,32,33,33,35,35,36,36,37,37,38,38,39,39,40,40,41,41,42,42,43,43,44,44,45,45,46,46,47,47,48,48,49,49,51,51,52,52,53,53,54,54,55,55,56,56,57,57,58,58,59,59,60,60,61,61,62,62],"right_children":[2,4,6,8,10,12,14,16,18,20,22,24,26,28,30,32,34,36,38,40,42,44,46,48,50,52,54,56,58,60,62,64,66,68,-1,70,72,74,76,78,80,82,84,86,88,90,92,94,96,98,-1,100,102,104,106,108,110,112,114,116,118,120,122,-1,-1,-1,-1,-1,-1,-1,-1,-1,-1,-1,-1,-1,-1,-1,-1,-1,-1,-1,-1,-1,-1,-1,-1,-1,-1,-1,-1,-1,-1,-1,-1,-1,-1,-1,-1,-1,-1,-1,-1,-1,-1,-1,-1,-1,-1,-1,-1,-1,-1,-1,-1,-1,-1,-1,-1,-1,-1,-1,-1],"split_conditions":[9.498183E-2,3.763778E-2,1.9061583E-1,3.906E-1,0E0,6.1503255E-1,7.968128E-2,-8.69329E-1,1.24087594E-1,3.744E-3,-1.4925373E-2,8.8514E0,9.667674E-1,8.8514E0,2.34E-1,8.5831493E-1,2.6934096E-1,7.3E-2,-7.9E-3,5.0643828E-2,1.15E-2,4.724518E-2,8.4674E-3,0E0,6.121E-1,8.4674E-3,4.724518E-2,5.623123E-1,6.4E-3,2.0798533E-1,1.4140949E0,-1.6366612E-2,2.6E-2,-1.0471645E-1,2.75529E-2,8.8E-3,6.03E-1,8.4674E-3,5.9885472E-2,2.795E-1,-7.084785E-1,4.8477E0,-1.9607843E-1,-1.0419907E-2,9.395597E0,8.8514E0,5.839416E-1,-7.490637E-1,2.9208506E-2,7.3E-3,1.8159643E-2,0E0,3.9983355E-2,6.477733E-2,1.286877E-1,-4.4673538E-1,1.529356E-2,0E0,8.5E-3,2.4205914E-1,-1.19E-2,3.1936127E-1,1.4269025E0,1.4046134E-2,-8.115168E-3,-8.60776E-3,1.0532561E-2,-8.437028E-4,-1.0166562E-2,-1.3605217E-2,-1.7868927E-2,-5.6086234E-3,7.7114305E-3,3.1926855E-2,2.2615904E-3,1.6394326E-2,-6.950594E-3,-3.1428097E-4,-1.1842791E-2,-2.4831368E-2,-1.0981368E-2,2.1544755E-3,-1.0609329E-2,2.861755E-2,9.001657E-3,-1.3804169E-2,-4.9792617E-3,2.5675585E-2,9.989201E-4,2.2392176E-2,-2.0919139E-2,-3.67298E-4,9.813619E-3,1.172836E-2,-1.7595988E-2,2.184481E-3,1.9234782E-2,-3.1847592E-2,-4.5669354E-3,2.6064795E-3,1.4480918E-2,-9.244977E-3,3.4431668E-4,-4.661038E-3,1.8983878E-2,1.542393E-2,-7.55023E-3,-4.915375E-3,2.545166E-2,1.5487636E-2,-1.2324971E-2,-1.2173436E-2,2.7025787E-2,-1.3607301E-2,1.05930455E-2,3.695294E-3,-2.1964943E-2,1.5508251E-2,-2.4400065E-4,-7.311217E-4,1.1951605E-2,-1.832035E-2,7.5004124E-3],"split_indices":[9,3,9,28,8,2,8,8,1,5,1,5,8,5,28,2,1,26,26,3,27,3,8,8,28,8,3,2,27,1,2,1,26,1,0,27,28,8,9,28,8,5,8,9,6,5,8,8,3,27,0,8,3,1,9,8,17,8,27,9,26,8,2,0,0,0,0,0,0,0,0,0,0,0,0,0,0,0,0,0,0,0,0,0,0,0,0,0,0,0,0,0,0,0,0,0,0,0,0,0,0,0,0,0,0,0,0,0,0,0,0,0,0,0,0,0,0,0,0,0,0,0,0],"split_type":[0,0,0,0,0,0,0,0,0,0,0,0,0,0,0,0,0,0,0,0,0,0,0,0,0,0,0,0,0,0,0,0,0,0,0,0,0,0,0,0,0,0,0,0,0,0,0,0,0,0,0,0,0,0,0,0,0,0,0,0,0,0,0,0,0,0,0,0,0,0,0,0,0,0,0,0,0,0,0,0,0,0,0,0,0,0,0,0,0,0,0,0,0,0,0,0,0,0,0,0,0,0,0,0,0,0,0,0,0,0,0,0,0,0,0,0,0,0,0,0,0,0,0],"sum_hessian":[3.4852017E3,1.8511224E3,1.6340792E3,1.4362139E3,4.1490863E2,4.406707E2,1.1934086E3,5.797237E2,8.564902E2,1.187276E2,2.9618103E2,6.951176E1,3.7115894E2,2.7513788E2,9.182707E2,6.131064E1,5.18413E2,8.4414417E2,1.234601E1,3.662689E1,8.210071E1,5.602061E1,2.4016042E2,6.471941E1,4.7923393E0,2.7311414E2,9.804479E1,2.4680972E2,2.8328154E1,7.028473E1,8.4798596E2,2.6887089E1,3.442355E1,5.16835E2,1.5779905E0,8.229428E2,2.1201382E1,5.1670504E0,7.17896E0,2.2897068E1,1.372982E1,7.479258E1,7.308126E0,1.6039095E1,3.9981514E1,2.9699274E1,2.1046114E2,5.180161E0,5.9539257E1,3.4736817E0,1.3186575E0,1.1127301E2,1.6184113E2,4.7138664E1,5.090613E1,1.0156236E2,1.4524736E2,8.562E0,1.9766153E1,1.6845844E1,5.3438885E1,6.1410583E2,2.3388014E2,2.342718E1,3.4599104E0,2.9765944E1,4.6576066E0,3.1370008E1,4.8546503E2,5.3430585E2,2.8863696E2,1.3541696E1,7.6596866E0,4.0551805E0,1.1118698E0,4.0361285E0,3.1428316E0,7.985287E0,1.491178E1,6.525417E0,7.204404E0,5.6799313E1,1.799327E1,6.1147904E0,1.1933354E0,1.1815309E1,4.223788E0,4.0661826E0,3.5915333E1,2.8362062E1,1.3372109E0,3.4319218E1,1.7614192E2,1.736712E0,3.443449E0,1.1484952E1,4.8054302E1,1.8055832E0,1.6680984E0,7.769383E1,3.3579174E1,6.06413E1,1.0119983E2,2.9374905E0,4.420117E1,1.836006E1,3.2546074E1,3.4652297E0,9.809713E1,1.4181627E2,3.431086E0,1.4160903E0,7.1459103E0,1.3948603E1,5.8175507E0,7.320488E0,9.525356E0,2.3565262E1,2.9873623E1,2.7833445E1,5.8627234E2,8.723706E0,2.2515645E2],"tree_param":{"num_deleted":"0","num_feature":"29","num_nodes":"123","size_leaf_vector":"1"}},{"base_weights":[1.2960242E-3,-2.029772E-1,2.0404752E-1,-2.5846797E-1,7.9078645E-2,3.310939E-1,1.4524111E-1,-2.5312918E-1,-5.6454057E-1,1.8060315E-1,-1.7515002E-1,4.4986126E-1,2.7253178E-1,1.6792027E-2,1.6719842E-1,-2.5826645E-1,-4.3528695E-3,-2.9711023E-2,2.0768836E-3,-1.6620803E-1,1.9728436E-1,-2.5644377E-1,2.2051643E-1,4.6694824E-1,3.495896E-2,-9.731812E-2,2.8353378E-1,-3.4767717E-2,3.3875892E-1,1.8288234E-1,2.8723795E-2,-3.110433E-1,-2.2899438E-1,1.20183416E-1,-1.3013932E-1,-3.281022E-1,2.1184914E-2,2.741897E-1,1.2723617E-1,-2.6814988E-1,-1.4771883E-1,-3.6931193E-1,4.9440867E-1,3.976927E-1,5.328829E-1,2.627635E-2,-1.6136484E-1,-2.2938295E-1,1.9605717E-2,3.3951828E-1,2.2205622E-1,-1.2835102E-1,1.6341537E-1,5.3588116E-1,-1.6924825E-1,1.8761489E-1,-1.4535137E-1,-3.4292597E-2,5.1271673E-2,-1.503504E-2,-2.131632E-2,-1.1886309E-2,-2.649485E-3,-2.1323098E-3,1.3396448E-2,-1.288819E-2,8.093884E-4,-2.0380951E-2,-6.578687E-3,1.6817033E-2,4.2203795E-3,2.4940611E-3,1.4620744E-2,-1.1584858E-2,-1.5306423E-2,-7.875788E-3,-2.1170385E-3,-1.7864736E-3,-2.299509E-2,-5.4144314E-3,2.976211E-2,2.1201877E-2,-1.3219646E-2,1.0074198E-2,2.6853029E-2,-1.980555E-2,1.2102759E-2,-1.2328513E-2,-2.1587906E-3,1.9145897E-2,1.052632E-2,5.871331E-3,1.5099992E-2,1.7337365E-2,-8.47448E-3,-6.8781124E-3,1.362613E-2,2.873804E-2,6.1569232E-3,-2.1078857E-2,9.684858E-3,-4.799262E-3,9.651644E-3,-2.67698E-2,6.105909E-3,-1.3536013E-2,4.552613E-3],"categories":[],"categories_nodes":[],"categories_segments":[],"categories_sizes":[],"default_left":[0,0,0,0,0,0,0,0,0,0,0,0,0,0,0,0,0,0,0,0,0,0,0,0,0,0,0,0,0,0,0,0,0,0,0,0,0,0,0,0,0,0,0,0,0,0,0,0,0,0,0,0,0,0,0,0,0,0,0,0,0,0,0,0,0,0,0,0,0,0,0,0,0,0,0,0,0,0,0,0,0,0,0,0,0,0,0,0,0,0,0,0,0,0,0,0,0,0,0,0,0,0,0,0,0,0,0],"id":12,"left_children":[1,3,5,7,9,11,13,15,17,19,21,23,25,27,29,31,33,-1,-1,35,37,39,41,43,45,47,49,51,53,55,57,59,61,63,65,67,-1,69,71,73,75,77,79,81,83,-1,85,87,-1,89,91,93,95,97,99,101,103,-1,105,-1,-1,-1,-1,-1,-1,-1,-1,-1,-1,-1,-1,-1,-1,-1,-1,-1,-1,-1,-1,-1,-1,-1,-1,-1,-1,-1,-1,-1,-1,-1,-1,-1,-1,-1,-1,-1,-1,-1,-1,-1,-1,-1,-1,-1,-1,-1,-1],"loss_changes":[1.4431789E2,2.718763E1,1.3017281E1,2.2275162E0,7.416368E0,3.7205734E0,3.3738308E0,1.8233643E0,4.5742226E-1,1.2185059E0,2.699201E0,1.266449E0,1.5437927E0,2.9316428E0,2.2150726E0,2.0895844E0,4.8402962E-1,0E0,0E0,1.0891185E0,1.0210195E0,4.772234E-2,2.5316653E0,5.812683E-1,8.781976E-1,8.3381706E-1,1.1709003E0,2.8496654E0,2.5313003E0,1.4534836E0,1.7301202E0,4.6343994E-1,1.3758926E0,3.8539162E-1,2.9093808E-1,7.716435E-2,0E0,1.0634232E0,1.3199161E0,1.3134956E-2,2.5150925E-3,1.4020741E-1,6.93902E-1,1.6585722E0,1.0915756E-2,0E0,7.2550094E-1,2.037853E-2,0E0,9.6977234E-1,1.4323044E0,2.0945296E0,1.6584005E0,2.1484613E-1,7.7523255E-1,1.4098969E0,1.4855771E0,0E0,1.3428241E0,0E0,0E0,0E0,0E0,0E0,0E0,0E0,0E0,0E0,0E0,0E0,0E0,0E0,0E0,0E0,0E0,0E0,0E0,0E0,0E0,0E0,0E0,0E0,0E0,0E0,0E0,0E0,0E0,0E0,0E0,0E0,0E0,0E0,0E0,0E0,0E0,0E0,0E0,0E0,0E0,0E0,0E0,0E0,0E0,0E0,0E0,0E0,0E0],"parents":[2147483647,0,0,1,1,2,2,3,3,4,4,5,5,6,6,7,7,8,8,9,9,10,10,11,11,12,12,13,13,14,14,15,15,16,16,19,19,20,20,21,21,22,22,23,23,24,24,25,25,26,26,27,27,28,28,29,29,30,30,31,31,32,32,33,33,34,34,35,35,37,37,38,38,39,39,40,40,41,41,42,42,43,43,44,44,46,46,47,47,49,49,50,50,51,51,52,52,53,53,54,54,55,55,56,56,58,58],"right_children":[2,4,6,8,10,12,14,16,18,20,22,24,26,28,30,32,34,-1,-1,36,38,40,42,44,46,48,50,52,54,56,58,60,62,64,66,68,-1,70,72,74,76,78,80,82,84,-1,86,88,-1,90,92,94,96,98,100,102,104,-1,106,-1,-1,-1,-1,-1,-1,-1,-1,-1,-1,-1,-1,-1,-1,-1,-1,-1,-1,-1,-1,-1,-1,-1,-1,-1,-1,-1,-1,-1,-1,-1,-1,-1,-1,-1,-1,-1,-1,-1,-1,-1,-1,-1,-1,-1,-1,-1,-1],"split_conditions":[4.8571866E-2,1.369863E-2,6.0344826E-2,1.15E-2,-8.896797E-3,5.0731474E-1,9.975669E-2,7.3E-2,9.124E-3,1.583E-3,1.15E-2,9.9502486E-1,3.3009343E-2,1.11E-2,2.02431E0,2.4336284E-2,7.97E-2,-2.9711023E-2,2.0768836E-3,2.4205914E-1,8.606271E-1,1.3946487E-1,9.665E-3,4.2686064E-2,-3.46E-2,1.16E-2,1.1218E0,8.826825E-1,1.1998596E0,2.3696367E-1,-2.3159854E-1,2.8E-2,1.6035861E-1,7.46E-2,9.01E-2,-2E-2,2.1184914E-2,5.2898247E-2,2.9363785E-2,8.1E-3,3.1126067E-1,2.4509805E-3,3.3648495E-2,1.05E-2,-6.04E-2,2.627635E-2,7.9E-3,1.18694365E-1,1.9605717E-2,1.6233113E0,2.0618556E-1,7.7E-4,4.327877E-2,2.6934096E-1,1.5007899E-2,5.43E-4,1.0050251E-2,-3.4292597E-2,6.9547825E-2,-1.503504E-2,-2.131632E-2,-1.1886309E-2,-2.649485E-3,-2.1323098E-3,1.3396448E-2,-1.288819E-2,8.093884E-4,-2.0380951E-2,-6.578687E-3,1.6817033E-2,4.2203795E-3,2.4940611E-3,1.4620744E-2,-1.1584858E-2,-1.5306423E-2,-7.875788E-3,-2.1170385E-3,-1.7864736E-3,-2.299509E-2,-5.4144314E-3,2.976211E-2,2.1201877E-2,-1.3219646E-2,1.0074198E-2,2.6853029E-2,-1.980555E-2,1.2102759E-2,-1.2328513E-2,-2.1587906E-3,1.9145897E-2,1.052632E-2,5.871331E-3,1.5099992E-2,1.7337365E-2,-8.47448E-3,-6.8781124E-3,1.362613E-2,2.873804E-2,6.1569232E-3,-2.1078857E-2,9.684858E-3,-4.799262E-3,9.651644E-3,-2.67698E-2,6.105909E-3,-1.3536013E-2,4.552613E-3],"split_indices":[0,4,7,27,0,2,0,26,5,5,27,8,4,27,2,7,26,0,0,9,2,9,5,3,26,27,5,8,2,17,17,26,9,26,26,0,0,3,4,27,9,0,3,27,26,0,27,1,0,2,8,5,3,1,4,5,4,0,7,0,0,0,0,0,0,0,0,0,0,0,0,0,0,0,0,0,0,0,0,0,0,0,0,0,0,0,0,0,0,0,0,0,0,0,0,0,0,0,0,0,0,0,0,0,0,0,0],"split_type":[0,0,0,0,0,0,0,0,0,0,0,0,0,0,0,0,0,0,0,0,0,0,0,0,0,0,0,0,0,0,0,0,0,0,0,0,0,0,0,0,0,0,0,0,0,0,0,0,0,0,0,0,0,0,0,0,0,0,0,0,0,0,0,0,0,0,0,0,0,0,0,0,0,0,0,0,0,0,0,0,0,0,0,0,0,0,0,0,0,0,0,0,0,0,0,0,0,0,0,0,0,0,0,0,0,0,0],"sum_hessian":[3.4825334E3,1.7347561E3,1.7477772E3,1.4496418E3,2.851143E2,5.515559E2,1.1962213E3,1.4265852E3,2.3056644E1,2.0395561E2,8.115868E1,1.7994186E2,3.7161404E2,1.7488985E2,1.0213315E3,1.3976848E3,2.8900396E1,2.1998915E1,1.0577312E0,8.948464E0,1.9500714E2,6.761778E1,1.3540901E1,1.7270393E2,7.237925E0,1.0508497E1,3.6110556E2,1.5151782E2,2.3372032E1,9.171343E2,1.04197235E2,4.9520874E2,9.024761E2,1.4544749E1,1.4355647E1,7.369721E0,1.5787437E0,9.1564674E1,1.0344247E2,5.9721436E1,7.89635E0,4.1834455E0,9.357455E0,8.7660255E1,8.504368E1,1.5894405E0,5.6484847E0,8.693922E0,1.814575E0,1.8662914E2,1.7447641E2,1.03158226E2,4.83596E1,1.679874E1,6.573292E0,9.0452106E2,1.2613179E1,2.2874355E0,1.01909805E2,4.5775055E2,3.7458206E1,8.594854E2,4.2990665E1,7.257571E0,7.287178E0,7.2610765E0,7.0945706E0,4.4821243E0,2.8875968E0,6.839427E1,2.3170403E1,7.133671E1,3.210576E1,3.4096027E1,2.5625408E1,6.7719946E0,1.124355E0,1.1912539E0,2.9921913E0,1.3305601E0,8.0268955E0,8.465146E1,3.0087938E0,1.6715876E0,8.337209E1,3.5821714E0,2.066313E0,7.662487E0,1.0314354E0,1.381722E2,4.8456947E1,7.663974E1,9.783667E1,7.628621E0,9.55296E1,1.2797173E1,3.5562424E1,1.4993811E1,1.8049299E0,3.782239E0,2.791053E0,1.6642935E1,8.878782E2,4.723419E0,7.88976E0,1.0567667E1,9.134213E1],"tree_param":{"num_deleted":"0","num_feature":"29","num_nodes":"107","size_leaf_vector":"1"}},{"base_weights":[-2.5725397E-3,-2.0298788E-1,1.97633E-1,-2.593277E-1,-4.3636117E-2,2.6577863E-1,1.20601475E-1,-2.5187016E-1,-5.004904E-1,6.335198E-2,-1.3099527E-1,3.6350313E-1,2.2596799E-1,2.1160871E-1,9.423152E-2,-6.336086E-2,-2.6072076E-1,-5.476137E-1,1.3966014E-2,-3.8882892E-4,2.644107E-1,-1.6740473E-1,9.127333E-2,4.130867E-1,2.2891526E-1,-7.671974E-2,2.5119495E-1,2.5818536E-1,-1.4667832E-2,-1.4535317E-1,1.0969168E-1,2.0966941E-1,-1.4236307E-1,-2.6632246E-1,-2.4885193E-2,-3.832788E-1,-3.2634832E-2,6.0142074E-2,-1.7191584E-1,3.1190333E-1,-1.2355321E-1,-1.9231664E-1,7.9345666E-2,1.5562755E-1,-1.9836822E-1,4.8816818E-1,3.2018372E-1,4.2877227E-1,1.4035675E-1,-2.2161354E-1,4.0740883E-1,2.0910269E-1,3.1898853E-1,5.316504E-1,2.3377566E-1,1.385443E-1,-3.0009142E-1,-1.9341801E-1,1.6200612E-1,5.35832E-2,1.6775171E-1,1.8126888E-2,-8.4554665E-3,7.7177742E-3,-9.63153E-3,-1.5606045E-2,-1.2012959E-2,3.3638885E-3,-5.9849247E-3,-2.5278626E-2,-9.398147E-3,-6.639641E-3,5.506682E-3,-1.3276537E-2,-3.4815061E-3,4.062458E-3,1.9435031E-2,2.1189274E-3,-2.2402955E-2,-1.0350785E-2,1.2315454E-2,-1.5387574E-2,2.5489911E-2,-1.09497E-2,1.0812851E-2,-1.988163E-3,-1.12310145E-2,2.471879E-2,-5.8054685E-4,-2.0563895E-2,1.7042784E-2,2.399802E-2,-1.5753495E-2,2.5207684E-3,2.1024613E-2,6.9276406E-3,-1.2118688E-2,-1.7886369E-2,2.6290854E-2,1.2457467E-2,4.189967E-3,1.4533475E-2,2.4609795E-2,7.3656454E-3,3.0732682E-2,7.631223E-3,1.5783744E-2,1.4652039E-2,-1.1588571E-3,-3.76772E-2,4.1156895E-3,-1.680612E-2,-2.8623356E-3,-1.5935864E-2,1.9763539E-2,1.3797259E-3,1.5526392E-2,1.3828669E-4,1.12496875E-2],"categories":[],"categories_nodes":[],"categories_segments":[],"categories_sizes":[],"default_left":[0,0,0,0,0,0,0,0,0,0,0,0,0,0,0,0,0,0,0,0,0,0,0,0,0,0,0,0,0,0,0,0,0,0,0,0,0,0,0,0,0,0,0,0,0,0,0,0,0,0,0,0,0,0,0,0,0,0,0,0,0,0,0,0,0,0,0,0,0,0,0,0,0,0,0,0,0,0,0,0,0,0,0,0,0,0,0,0,0,0,0,0,0,0,0,0,0,0,0,0,0,0,0,0,0,0,0,0,0,0,0,0,0,0,0,0,0,0,0],"id":13,"left_children":[1,3,5,7,9,11,13,15,17,19,21,23,25,27,29,31,33,35,-1,37,39,41,43,45,47,49,51,53,55,57,59,61,63,65,67,69,-1,71,73,75,77,79,81,83,85,87,89,91,93,95,97,99,101,103,105,107,109,111,113,115,117,-1,-1,-1,-1,-1,-1,-1,-1,-1,-1,-1,-1,-1,-1,-1,-1,-1,-1,-1,-1,-1,-1,-1,-1,-1,-1,-1,-1,-1,-1,-1,-1,-1,-1,-1,-1,-1,-1,-1,-1,-1,-1,-1,-1,-1,-1,-1,-1,-1,-1,-1,-1,-1,-1,-1,-1,-1,-1],"loss_changes":[1.3960347E2,1.5598671E1,9.104759E0,2.183838E0,4.264327E0,3.50766E0,1.9451628E0,2.0654068E0,1.5314264E0,2.631939E0,2.0465808E0,1.6768417E0,5.045761E0,1.9341278E0,2.3742309E0,1.2653918E0,1.5675354E0,3.6654282E-1,0E0,1.6396581E0,9.493921E-1,1.3431897E0,7.014628E-1,1.1880951E0,1.244365E0,3.6964028E0,1.6678848E0,8.8998604E-1,1.4502071E0,6.0784626E-1,1.9412394E0,8.290579E-1,7.0124257E-1,1.3142014E0,2.5927052E-1,2.95547E-1,0E0,1.1405382E0,3.7594855E-1,7.536073E-1,3.478683E-1,1.3179679E0,3.5757573E0,7.2867566E-1,2.0130843E-2,3.3052063E-1,1.486701E0,9.9442244E-1,1.3031389E0,3.3426535E-1,1.2928545E0,1.8755188E0,9.897194E-1,2.816329E-1,8.907957E-1,5.475901E-1,2.0678048E0,6.4539254E-1,7.787806E-1,2.0342295E0,2.7735329E0,0E0,0E0,0E0,0E0,0E0,0E0,0E0,0E0,0E0,0E0,0E0,0E0,0E0,0E0,0E0,0E0,0E0,0E0,0E0,0E0,0E0,0E0,0E0,0E0,0E0,0E0,0E0,0E0,0E0,0E0,0E0,0E0,0E0,0E0,0E0,0E0,0E0,0E0,0E0,0E0,0E0,0E0,0E0,0E0,0E0,0E0,0E0,0E0,0E0,0E0,0E0,0E0,0E0,0E0,0E0,0E0,0E0,0E0],"parents":[2147483647,0,0,1,1,2,2,3,3,4,4,5,5,6,6,7,7,8,8,9,9,10,10,11,11,12,12,13,13,14,14,15,15,16,16,17,17,19,19,20,20,21,21,22,22,23,23,24,24,25,25,26,26,27,27,28,28,29,29,30,30,31,31,32,32,33,33,34,34,35,35,37,37,38,38,39,39,40,40,41,41,42,42,43,43,44,44,45,45,46,46,47,47,48,48,49,49,50,50,51,51,52,52,53,53,54,54,55,55,56,56,57,57,58,58,59,59,60,60],"right_children":[2,4,6,8,10,12,14,16,18,20,22,24,26,28,30,32,34,36,-1,38,40,42,44,46,48,50,52,54,56,58,60,62,64,66,68,70,-1,72,74,76,78,80,82,84,86,88,90,92,94,96,98,100,102,104,106,108,110,112,114,116,118,-1,-1,-1,-1,-1,-1,-1,-1,-1,-1,-1,-1,-1,-1,-1,-1,-1,-1,-1,-1,-1,-1,-1,-1,-1,-1,-1,-1,-1,-1,-1,-1,-1,-1,-1,-1,-1,-1,-1,-1,-1,-1,-1,-1,-1,-1,-1,-1,-1,-1,-1,-1,-1,-1,-1,-1,-1,-1],"split_conditions":[4.8571866E-2,5.2380953E-2,9.045226E-2,1.12E-2,-5.950096E-1,1.2135922E-2,8.7494713E-1,-8.69329E-1,1.13E-2,1.5273584E-1,2.2150032E-1,1.36E0,8.7673895E-2,1.4746478E-1,3.3648495E-2,-7.20572E-2,7.3E-2,-2.99E-2,1.3966014E-2,1.1244048E0,9.7E-3,1.13E-2,2.2612E-2,8.1E-3,4.8358834E-1,1.15E-2,2.7069014E-1,3.2634933E-2,9.392265E-1,2.26E-2,9.182644E-1,9.1336703E-1,-4.14E-2,2.2462562E-2,7.97E-2,1.13E-2,-3.2634832E-2,3.808E-3,5.858E-3,6.3E-3,-3.2983508E-2,1.3333334E-1,9.665E-3,-3.65416E-2,8.342971E-1,1.0899182E-2,-1.1594203E-2,6.1304E0,5.0643828E-2,6.873703E-1,8.18E-3,1.5558239E0,1.786141E0,3.367647E-1,7.014479E-1,8.62E-3,4.395E-3,1.241099E0,2.4205914E-1,1.03E-2,1.5273584E-1,1.8126888E-2,-8.4554665E-3,7.7177742E-3,-9.63153E-3,-1.5606045E-2,-1.2012959E-2,3.3638885E-3,-5.9849247E-3,-2.5278626E-2,-9.398147E-3,-6.639641E-3,5.506682E-3,-1.3276537E-2,-3.4815061E-3,4.062458E-3,1.9435031E-2,2.1189274E-3,-2.2402955E-2,-1.0350785E-2,1.2315454E-2,-1.5387574E-2,2.5489911E-2,-1.09497E-2,1.0812851E-2,-1.988163E-3,-1.12310145E-2,2.471879E-2,-5.8054685E-4,-2.0563895E-2,1.7042784E-2,2.399802E-2,-1.5753495E-2,2.5207684E-3,2.1024613E-2,6.9276406E-3,-1.2118688E-2,-1.7886369E-2,2.6290854E-2,1.2457467E-2,4.189967E-3,1.4533475E-2,2.4609795E-2,7.3656454E-3,3.0732682E-2,7.631223E-3,1.5783744E-2,1.4652039E-2,-1.1588571E-3,-3.76772E-2,4.1156895E-3,-1.680612E-2,-2.8623356E-3,-1.5935864E-2,1.9763539E-2,1.3797259E-3,1.5526392E-2,1.3828669E-4,1.12496875E-2],"split_indices":[0,7,7,27,8,7,2,8,5,9,9,5,0,7,3,9,26,26,0,2,27,27,5,27,2,27,9,3,8,26,8,2,26,7,26,27,0,5,5,27,0,7,5,0,2,7,1,5,3,2,5,2,2,1,2,5,5,2,9,27,9,0,0,0,0,0,0,0,0,0,0,0,0,0,0,0,0,0,0,0,0,0,0,0,0,0,0,0,0,0,0,0,0,0,0,0,0,0,0,0,0,0,0,0,0,0,0,0,0,0,0,0,0,0,0,0,0,0,0],"split_type":[0,0,0,0,0,0,0,0,0,0,0,0,0,0,0,0,0,0,0,0,0,0,0,0,0,0,0,0,0,0,0,0,0,0,0,0,0,0,0,0,0,0,0,0,0,0,0,0,0,0,0,0,0,0,0,0,0,0,0,0,0,0,0,0,0,0,0,0,0,0,0,0,0,0,0,0,0,0,0,0,0,0,0,0,0,0,0,0,0,0,0,0,0,0,0,0,0,0,0,0,0,0,0,0,0,0,0,0,0,0,0,0,0,0,0,0,0,0,0],"sum_hessian":[3.4772783E3,1.7377218E3,1.7395566E3,1.2833557E3,4.54366E2,9.2171497E2,8.178417E2,1.2468436E3,3.6512154E1,2.0436119E2,2.500048E2,2.644442E2,6.5727075E2,1.8215813E2,6.3568353E2,5.6280624E1,1.190563E3,3.4712284E1,1.7998703E0,1.5592653E2,4.8434673E1,2.1502823E2,3.497659E1,1.9173703E2,7.270719E1,5.0407806E1,6.068629E2,1.5094638E2,3.1211744E1,3.8024193E1,5.9765936E2,1.225917E1,4.4021454E1,1.1628138E3,2.7749094E1,1.5351732E1,1.9360552E1,1.15734024E2,4.01925E1,4.3326862E1,5.107812E0,1.9551015E2,1.9518084E1,2.8996637E1,5.9799504E0,1.0368623E2,8.80508E1,2.1145279E1,5.1561913E1,3.9213825E1,1.1193979E1,3.7692114E2,2.2994179E2,1.0666612E1,1.4027977E2,2.0644573E1,1.0567172E1,3.320267E1,4.821522E0,3.0491565E2,2.927437E2,8.7647505E0,3.4944198E0,6.0773687E0,3.7944084E1,4.177565E2,7.450574E2,1.4218483E1,1.3530611E1,