{"learner":{"attributes":{"scikit_learn":"{\"_estimator_type\": \"classifier\"}"},"feature_names":[],"feature_types":[],"gradient_booster":{"model":{"cats":{"enc":[],"feature_segments":[],"sorted_idx":[]},"gbtree_model_param":{"num_parallel_tree":"1","num_trees":"100"},"iteration_indptr":[0,1,2,3,4,5,6,7,8,9,10,11,12,13,14,15,16,17,18,19,20,21,22,23,24,25,26,27,28,29,30,31,32,33,34,35,36,37,38,39,40,41,42,43,44,45,46,47,48,49,50,51,52,53,54,55,56,57,58,59,60,61,62,63,64,65,66,67,68,69,70,71,72,73,74,75,76,77,78,79,80,81,82,83,84,85,86,87,88,89,90,91,92,93,94,95,96,97,98,99,100],"tree_info":[0,0,0,0,0,0,0,0,0,0,0,0,0,0,0,0,0,0,0,0,0,0,0,0,0,0,0,0,0,0,0,0,0,0,0,0,0,0,0,0,0,0,0,0,0,0,0,0,0,0,0,0,0,0,0,0,0,0,0,0,0,0,0,0,0,0,0,0,0,0,0,0,0,0,0,0,0,0,0,0,0,0,0,0,0,0,0,0,0,0,0,0,0,0,0,0,0,0,0,0],"trees":[{"base_weights":[-9.094109E-3,-6.5492743E-1,6.495438E-1,-7.409311E-1,1.8449891E0,1.8248859E-1,1.0055364E0,-1.0112683E0,-3.2747546E-1,1.8554882E0,-1.5294118E-1,-3.0357444E-1,3.982572E-1,9.0032905E-1,1.5140907E0,-1.5428376E0,-8.7736404E-1,-7.5954205E-1,-6.8320766E-2,1.9322293E-1,1.7042763E0,-5.474315E-1,2.5309438E-1,2.4953334E-1,7.589476E-1,5.303197E-1,1.0590326E0,-1.962963E-1,1.5693996E0,-1.9977729E-1,-1.4193723E-1,-5.479012E-2,-9.6854776E-2,-8.314424E-2,2.212949E-2,-4.1080568E-2,2.8595826E-2,-1.4666668E-1,1.7293411E-1,-9.04142E-2,-3.2257583E-2,-6.318532E-3,7.5742655E-2,1.7540688E-2,7.220524E-2,8.113124E-2,-9.691772E-2,4.1238554E-2,9.3180425E-2,9.4076015E-2,1.3044232E-1,1.5773673E-1,-1.764706E-1],"categories":[],"categories_nodes":[],"categories_segments":[],"categories_sizes":[],"default_left":[0,0,0,0,0,0,0,0,0,0,0,0,0,0,0,0,0,0,0,0,0,0,0,0,0,0,0,0,0,0,0,0,0,0,0,0,0,0,0,0,0,0,0,0,0,0,0,0,0,0,0,0,0],"id":0,"left_children":[1,3,5,7,9,11,13,15,17,19,-1,21,23,25,27,29,31,33,35,-1,37,39,41,43,45,47,49,-1,51,-1,-1,-1,-1,-1,-1,-1,-1,-1,-1,-1,-1,-1,-1,-1,-1,-1,-1,-1,-1,-1,-1,-1,-1],"loss_changes":[3.022444E4,7.7147627E3,5.848881E3,3.8763262E3,4.512036E1,1.5960322E3,1.0667051E3,1.4913418E3,1.5354855E3,1.0518555E1,0E0,6.352767E2,5.651649E2,9.7088086E2,6.608633E2,2.3410547E2,5.0277246E2,3.627705E2,1.0403411E3,0E0,3.5056396E1,2.6069568E2,2.2750113E2,2.6129904E2,2.7918066E2,2.3483228E2,3.347539E2,0E0,9.223926E1,0E0,0E0,0E0,0E0,0E0,0E0,0E0,0E0,0E0,0E0,0E0,0E0,0E0,0E0,0E0,0E0,0E0,0E0,0E0,0E0,0E0,0E0,0E0,0E0],"parents":[2147483647,0,0,1,1,2,2,3,3,4,4,5,5,6,6,7,7,8,8,9,9,11,11,12,12,13,13,14,14,15,15,16,16,17,17,18,18,20,20,21,21,22,22,23,23,24,24,25,25,26,26,28,28],"right_children":[2,4,6,8,10,12,14,16,18,20,-1,22,24,26,28,30,32,34,36,-1,38,40,42,44,46,48,50,-1,52,-1,-1,-1,-1,-1,-1,-1,-1,-1,-1,-1,-1,-1,-1,-1,-1,-1,-1,-1,-1,-1,-1,-1,-1],"split_conditions":[4.8076924E-2,8.6713284E-2,3.4600288E-2,2.183524E-2,1.5275102E1,1.1903604E1,1E0,1.9657258E-2,1.1798248E1,5.7670125E-3,-1.5294118E-1,6.827363E-2,7.8890584E-2,1.2923832E1,8.6713284E-2,1.065638E0,7.4112403E-1,4.656161E-2,3.809524E-2,1.9322293E-1,1.0464497E1,3.701843E0,1.01815E1,1.381509E-2,5.829E1,1.01168886E-1,1.0869565E-2,-1.962963E-1,1.6840538E1,-1.9977729E-1,-1.4193723E-1,-5.479012E-2,-9.6854776E-2,-8.314424E-2,2.212949E-2,-4.1080568E-2,2.8595826E-2,-1.4666668E-1,1.7293411E-1,-9.04142E-2,-3.2257583E-2,-6.318532E-3,7.5742655E-2,1.7540688E-2,7.220524E-2,8.113124E-2,-9.691772E-2,4.1238554E-2,9.3180425E-2,9.4076015E-2,1.3044232E-1,1.5773673E-1,-1.764706E-1],"split_indices":[7,0,3,3,6,6,8,7,6,7,0,7,7,6,0,5,2,3,7,0,6,5,5,4,5,7,4,0,6,0,0,0,0,0,0,0,0,0,0,0,0,0,0,0,0,0,0,0,0,0,0,0,0],"split_type":[0,0,0,0,0,0,0,0,0,0,0,0,0,0,0,0,0,0,0,0,0,0,0,0,0,0,0,0,0,0,0,0,0,0,0,0,0,0,0,0,0,0,0,0,0,0,0,0,0,0,0,0,0],"sum_hessian":[7.1052414E4,3.5874934E4,3.5177484E4,3.468247E4,1.1924642E3,1.5215961E4,1.9961521E4,2.0969898E4,1.3712571E4,1.1892142E3,3.25E0,4.6778154E3,1.05381455E4,1.654213E4,3.419391E3,4.21737E3,1.6752527E4,5.1404326E3,8.572139E3,7.810485E2,4.0816568E2,3.2528657E3,1.42495E3,7.462724E3,3.0754214E3,4.966747E3,1.1575384E4,5.3E1,3.366391E3,8.97E2,3.3203699E3,3.6329714E3,1.3119557E4,4.789491E3,3.509414E2,4.3585386E3,4.2135996E3,2.75E0,4.0541568E2,1.2565143E3,1.9963513E3,8.7628424E2,5.486657E2,6.4519453E3,1.0107785E3,2.985487E3,8.993428E1,3.8406128E3,1.1261343E3,7.814038E3,3.7613455E3,3.358891E3,7.5E0],"tree_param":{"num_deleted":"0","num_feature":"10","num_nodes":"53","size_leaf_vector":"1"}},{"base_weights":[-9.3241725E-3,-4.9623966E-1,7.1123475E-1,-6.247765E-1,7.4638695E-1,2.7990833E-1,9.66869E-1,-8.648138E-1,-2.1069737E-1,4.1212818E-1,1.7097566E0,-2.9818335E-1,3.848239E-1,8.7224776E-1,1.3883557E0,-1.0940442E0,-6.153322E-1,-5.9415793E-1,5.5400077E-2,1.1846656E-1,8.9790386E-1,1.7167832E0,-1.2623498E-1,-7.749505E-1,1.4388229E-1,3.152226E-1,9.3530047E-1,5.5945385E-1,9.9498576E-1,-1.7443529E-1,1.4104711E0,-1.4338322E-1,-9.972914E-2,-6.403852E-2,1.4896873E-1,-6.356419E-2,6.1897576E-2,-3.1153321E-2,3.125871E-2,2.0526161E-2,-1.1700946E-1,9.372314E-2,-1.9490062E-1,1.7817132E-1,1.5955843E-1,1.5603934E-1,-9.407721E-2,-4.2174485E-2,5.962641E-2,4.44141E-2,-4.2207544E-3,-1.8632601E-1,9.735712E-2,3.623615E-2,8.849483E-2,8.769544E-2,1.1210877E-1,-1.8092483E-1,1.4169028E-1],"categories":[],"categories_nodes":[],"categories_segments":[],"categories_sizes":[],"default_left":[0,0,0,0,0,0,0,0,0,0,0,0,0,0,0,0,0,0,0,0,0,0,0,0,0,0,0,0,0,0,0,0,0,0,0,0,0,0,0,0,0,0,0,0,0,0,0,0,0,0,0,0,0,0,0,0,0,0,0],"id":1,"left_children":[1,3,5,7,9,11,13,15,17,19,21,23,25,27,29,31,33,35,37,39,41,43,-1,45,47,49,51,53,55,-1,57,-1,-1,-1,-1,-1,-1,-1,-1,-1,-1,-1,-1,-1,-1,-1,-1,-1,-1,-1,-1,-1,-1,-1,-1,-1,-1,-1,-1],"loss_changes":[2.4904104E4,6.766085E3,3.1558154E3,3.8153838E3,1.2780972E3,6.462222E2,7.1552734E2,1.3890566E3,1.4375824E3,4.206659E2,2.3523926E1,3.4511646E2,3.451803E2,5.630137E2,2.3061426E2,4.14875E2,6.147427E2,2.9084863E2,7.850581E2,2.0596695E2,1.2623273E2,5.188965E0,0E0,3.0651062E2,2.1780617E2,3.689464E2,1.1016028E2,2.652151E2,1.5591309E2,0E0,7.0291504E1,0E0,0E0,0E0,0E0,0E0,0E0,0E0,0E0,0E0,0E0,0E0,0E0,0E0,0E0,0E0,0E0,0E0,0E0,0E0,0E0,0E0,0E0,0E0,0E0,0E0,0E0,0E0,0E0],"parents":[2147483647,0,0,1,1,2,2,3,3,4,4,5,5,6,6,7,7,8,8,9,9,10,10,11,11,12,12,13,13,14,14,15,15,16,16,17,17,18,18,19,19,20,20,21,21,23,23,24,24,25,25,26,26,27,27,28,28,30,30],"right_children":[2,4,6,8,10,12,14,16,18,20,22,24,26,28,30,32,34,36,38,40,42,44,-1,46,48,50,52,54,56,-1,58,-1,-1,-1,-1,-1,-1,-1,-1,-1,-1,-1,-1,-1,-1,-1,-1,-1,-1,-1,-1,-1,-1,-1,-1,-1,-1,-1,-1],"split_conditions":[5.5979643E-2,9.912616E-2,3.4600288E-2,3.8304094E-2,9.939759E-2,1.1411568E1,1E0,1.7539226E-2,1.1903604E1,4.0927254E-2,1.5506465E1,6.6945605E-2,1.6889672E-1,1.2923832E1,5.3380784E-2,1.0544078E1,8.6713284E-2,5.153144E-2,2.4794286E-2,3.4542315E-2,5.5172414E-2,5.7670125E-3,-1.2623498E-1,6.7038704E-3,-4.293994E-2,6.692913E-1,1.2079534E1,1.3911425E1,1.05575845E-1,-1.7443529E-1,1.8588E0,-1.4338322E-1,-9.972914E-2,-6.403852E-2,1.4896873E-1,-6.356419E-2,6.1897576E-2,-3.1153321E-2,3.125871E-2,2.0526161E-2,-1.1700946E-1,9.372314E-2,-1.9490062E-1,1.7817132E-1,1.5955843E-1,1.5603934E-1,-9.407721E-2,-4.2174485E-2,5.962641E-2,4.44141E-2,-4.2207544E-3,-1.8632601E-1,9.735712E-2,3.623615E-2,8.849483E-2,8.769544E-2,1.1210877E-1,-1.8092483E-1,1.4169028E-1],"split_indices":[7,9,3,7,0,6,8,3,6,3,6,7,9,6,0,6,0,3,3,0,7,7,0,3,9,8,6,5,9,0,5,0,0,0,0,0,0,0,0,0,0,0,0,0,0,0,0,0,0,0,0,0,0,0,0,0,0,0,0],"split_type":[0,0,0,0,0,0,0,0,0,0,0,0,0,0,0,0,0,0,0,0,0,0,0,0,0,0,0,0,0,0,0,0,0,0,0,0,0,0,0,0,0,0,0,0,0,0,0,0,0,0,0,0,0,0,0,0,0,0,0],"sum_hessian":[7.097993E4,4.2357375E4,2.8622557E4,3.8387125E4,3.9702522E3,1.0651908E4,1.7970648E4,2.4299734E4,1.4087389E4,2.948607E3,1.0216454E3,1.635938E3,9.01597E3,1.4678486E4,3.2921624E3,1.2662084E4,1.163765E4,5.7705244E3,8.316864E3,1.8384618E3,1.110145E3,1.0196571E3,1.9882574E0,7.867145E2,8.4922345E2,8.005359E3,1.01061096E3,4.1381357E3,1.0540351E4,2.2532248E1,3.2696301E3,2.8033015E3,9.858782E3,1.1501461E4,1.3618954E2,5.580182E3,1.9034229E2,3.4271199E3,4.8897446E3,1.7232291E3,1.15232765E2,1.0956799E3,1.4465064E1,6.55034E2,3.646231E2,5.1599796E1,7.351147E2,3.774072E2,4.7181625E2,5.883167E3,2.122192E3,1.299046E1,9.976205E2,2.5787644E3,1.5593715E3,5.4485073E3,5.0918438E3,5.959456E0,3.2636707E3],"tree_param":{"num_deleted":"0","num_feature":"10","num_nodes":"59","size_leaf_vector":"1"}},{"base_weights":[5.7121166E-3,-4.2742082E-1,6.4890385E-1,-5.365771E-1,6.965824E-1,4.6477297E-1,1.0121605E0,-9.5021254E-1,-3.1671345E-1,3.4682918E-1,1.561175E0,2.2673866E-1,6.9946504E-1,9.137715E-1,1.3433971E0,-9.7608674E-1,1.4369206E0,-6.5567774E-1,-1.4735024E-1,-8.942369E-1,4.3438378E-1,1.5706433E0,-1.4044194E-1,-4.9733035E-2,4.5230064E-1,5.777617E-1,1.0967888E0,6.803777E-1,1.0340992E0,1.4679791E-1,1.3782107E0,-1.067875E-1,-5.5958122E-2,1.4696033E-1,-1.3177346E-1,-2.6012847E-2,-7.1652085E-2,-3.8531173E-2,-4.766299E-5,-3.1571615E-2,-1.9126175E-1,-6.850352E-2,5.021583E-2,1.6572493E-1,1.4401782E-1,5.385252E-3,-5.181864E-2,-3.582624E-3,5.08514E-2,4.9383298E-2,1.0462701E-1,-1.9979921E-1,1.1308678E-1,1.0589623E-1,4.9547624E-2,1.2373952E-1,9.62779E-2,-1.8716064E-1,1.0949691E-1,-1.3686901E-1,1.3817571E-1],"categories":[],"categories_nodes":[],"categories_segments":[],"categories_sizes":[],"default_left":[0,0,0,0,0,0,0,0,0,0,0,0,0,0,0,0,0,0,0,0,0,0,0,0,0,0,0,0,0,0,0,0,0,0,0,0,0,0,0,0,0,0,0,0,0,0,0,0,0,0,0,0,0,0,0,0,0,0,0,0,0],"id":2,"left_children":[1,3,5,7,9,11,13,15,17,19,21,23,25,27,29,31,33,35,37,39,41,43,-1,45,47,49,51,53,55,57,59,-1,-1,-1,-1,-1,-1,-1,-1,-1,-1,-1,-1,-1,-1,-1,-1,-1,-1,-1,-1,-1,-1,-1,-1,-1,-1,-1,-1,-1,-1],"loss_changes":[1.972656E4,5.1919995E3,1.9054609E3,3.5073213E3,1.1322244E3,1.0563345E3,3.1112695E2,8.281543E2,1.4457168E3,2.903359E2,3.2492676E1,5.8562415E2,4.5981738E2,2.0690625E2,9.114404E1,5.0566797E2,1.4894775E1,2.0174878E2,5.869933E2,1.0318704E2,1.8949808E2,9.76709E0,0E0,2.0480296E2,1.4191895E2,2.8619482E2,2.376289E2,1.7571545E2,6.950391E1,1.2283209E2,2.264795E1,0E0,0E0,0E0,0E0,0E0,0E0,0E0,0E0,0E0,0E0,0E0,0E0,0E0,0E0,0E0,0E0,0E0,0E0,0E0,0E0,0E0,0E0,0E0,0E0,0E0,0E0,0E0,0E0,0E0,0E0],"parents":[2147483647,0,0,1,1,2,2,3,3,4,4,5,5,6,6,7,7,8,8,9,9,10,10,11,11,12,12,13,13,14,14,15,15,16,16,17,17,18,18,19,19,20,20,21,21,23,23,24,24,25,25,26,26,27,27,28,28,29,29,30,30],"right_children":[2,4,6,8,10,12,14,16,18,20,22,24,26,28,30,32,34,36,38,40,42,44,-1,46,48,50,52,54,56,58,60,-1,-1,-1,-1,-1,-1,-1,-1,-1,-1,-1,-1,-1,-1,-1,-1,-1,-1,-1,-1,-1,-1,-1,-1,-1,-1,-1,-1,-1,-1],"split_conditions":[5.5979643E-2,1.02298275E-1,1.1614701E-1,2.8118081E-2,5.818182E-2,7.600918E-2,9.876543E-1,6.775701E-2,1.14256115E1,1.1411568E1,1.5767365E1,1.252535E1,1.438849E-2,1.6889672E-1,7.223989E-2,1.2965456E1,1.008547E-1,9.9843445E0,3.8304094E-2,1.0766106E1,3.0050084E-2,1E-1,-1.4044194E-1,2.8171256E-2,4.1701E0,8.6713284E-2,2.8486E0,-9.9502485E-3,3.243243E-1,1.37964525E1,9.675E-1,-1.067875E-1,-5.5958122E-2,1.4696033E-1,-1.3177346E-1,-2.6012847E-2,-7.1652085E-2,-3.8531173E-2,-4.766299E-5,-3.1571615E-2,-1.9126175E-1,-6.850352E-2,5.021583E-2,1.6572493E-1,1.4401782E-1,5.385252E-3,-5.181864E-2,-3.582624E-3,5.08514E-2,4.9383298E-2,1.0462701E-1,-1.9979921E-1,1.1308678E-1,1.0589623E-1,4.9547624E-2,1.2373952E-1,9.62779E-2,-1.8716064E-1,1.0949691E-1,-1.3686901E-1,1.3817571E-1],"split_indices":[7,9,9,7,0,7,8,0,6,6,6,6,4,9,0,6,0,6,7,6,7,8,0,0,5,0,5,4,8,6,5,0,0,0,0,0,0,0,0,0,0,0,0,0,0,0,0,0,0,0,0,0,0,0,0,0,0,0,0,0,0],"split_type":[0,0,0,0,0,0,0,0,0,0,0,0,0,0,0,0,0,0,0,0,0,0,0,0,0,0,0,0,0,0,0,0,0,0,0,0,0,0,0,0,0,0,0,0,0,0,0,0,0,0,0,0,0,0,0,0,0,0,0,0,0],"sum_hessian":[7.080721E4,4.2313277E4,2.8493928E4,3.8568285E4,3.7449934E3,1.891062E4,9.58331E3,1.3384446E4,2.518384E4,2.6673665E3,1.077627E3,9.389436E3,9.521184E3,7.391524E3,2.1917852E3,1.3241513E4,1.4293376E2,8.389729E3,1.6794111E4,1.7516927E2,2.492197E3,1.0746663E3,2.9607062E0,4.2189907E3,5.170445E3,7.2905015E3,2.2306824E3,2.5166865E3,4.8748374E3,6.211172E1,2.1296733E3,1.0849063E4,2.392449E3,1.4171884E2,1.2149221E0,1.1191646E3,7.270564E3,6.4089097E3,1.0385201E4,1.1254488E2,6.2624382E1,1.4175464E2,2.3504424E3,6.388673E2,4.3579898E2,3.4557354E3,7.632557E2,5.339831E2,4.6364614E3,6.1846377E3,1.1058638E3,2.3668617E1,2.207014E3,8.2427057E2,1.692416E3,1.2617931E3,3.6130444E3,1.9540749E1,4.2570972E1,2.2496977E0,2.1274236E3],"tree_param":{"num_deleted":"0","num_feature":"10","num_nodes":"61","size_leaf_vector":"1"}},{"base_weights":[-7.2484283E-4,-4.2623267E-1,5.7272613E-1,-6.9780266E-1,-7.165553E-3,4.3767306E-1,1.1546024E0,-1.1266865E0,-5.994442E-1,-7.584769E-1,1.06026426E-1,-4.169182E-1,5.533444E-1,1.061155E0,1.450846E0,-1.32351E0,-6.92055E-1,-7.9704976E-1,-4.4499865E-1,-1.0062354E0,-3.3634332E-1,-3.8311583E-1,2.1325296E-1,-8.668993E-1,-1.7337666E-1,2.5093818E-1,7.2133374E-1,7.478935E-1,1.1852263E0,-1.4452903E-1,1.4561577E0,2.1929567E-1,-1.3369147E-1,-7.801973E-2,1.5191445E-1,-8.534342E-2,-4.1792832E-2,-3.670893E-2,-1.1660242E-1,-1.2951253E-1,-1.5298626E-2,-4.223103E-3,-1.22804105E-1,-6.3803904E-2,4.2907074E-3,1.2940404E-2,5.4917064E-2,-3.260262E-3,-1.07987456E-1,5.1499517E-3,-7.2113656E-2,2.6979258E-2,-1.3518165E-1,6.177876E-2,9.790027E-2,-2.0545033E-1,7.759603E-2,-1.483493E-1,1.1887475E-1,1.4601162E-1,-1.2862463E-1],"categories":[],"categories_nodes":[],"categories_segments":[],"categories_sizes":[],"default_left":[0,0,0,0,0,0,0,0,0,0,0,0,0,0,0,0,0,0,0,0,0,0,0,0,0,0,0,0,0,0,0,0,0,0,0,0,0,0,0,0,0,0,0,0,0,0,0,0,0,0,0,0,0,0,0,0,0,0,0,0,0],"id":3,"left_children":[1,3,5,7,9,11,13,15,17,19,21,23,25,27,29,31,33,35,37,39,41,43,45,47,49,51,53,55,57,-1,59,-1,-1,-1,-1,-1,-1,-1,-1,-1,-1,-1,-1,-1,-1,-1,-1,-1,-1,-1,-1,-1,-1,-1,-1,-1,-1,-1,-1,-1,-1],"loss_changes":[1.7112771E4,4.581737E3,2.3470273E3,1.0298291E3,1.3464381E3,2.3970981E3,1.5422656E2,3.888379E2,6.061709E2,2.1647083E2,7.217594E2,3.1669638E2,1.084769E3,1.6550928E2,2.2819824E1,1.5070068E2,2.7837653E2,1.8598926E2,6.2632544E2,3.2167578E2,2.0141516E2,2.6874637E2,3.1782202E2,1.8032343E2,2.3126407E2,2.3089236E2,3.6570068E2,9.73385E1,3.0564453E1,0E0,1.6474365E1,0E0,0E0,0E0,0E0,0E0,0E0,0E0,0E0,0E0,0E0,0E0,0E0,0E0,0E0,0E0,0E0,0E0,0E0,0E0,0E0,0E0,0E0,0E0,0E0,0E0,0E0,0E0,0E0,0E0,0E0],"parents":[2147483647,0,0,1,1,2,2,3,3,4,4,5,5,6,6,7,7,8,8,9,9,10,10,11,11,12,12,13,13,14,14,15,15,16,16,17,17,18,18,19,19,20,20,21,21,22,22,23,23,24,24,25,25,26,26,27,27,28,28,30,30],"right_children":[2,4,6,8,10,12,14,16,18,20,22,24,26,28,30,32,34,36,38,40,42,44,46,48,50,52,54,56,58,-1,60,-1,-1,-1,-1,-1,-1,-1,-1,-1,-1,-1,-1,-1,-1,-1,-1,-1,-1,-1,-1,-1,-1,-1,-1,-1,-1,-1,-1,-1,-1],"split_conditions":[3.0364387E-2,4.2176872E-2,8.6713284E-2,1.942502E-2,2.6318E0,3.7656903E-2,6.481481E-2,4.2268406E-3,1.1397013E1,6.5E-1,1.14256115E1,1.1859303E1,1.2862441E1,1E0,8.132859E0,-1E-1,5.3380784E-2,2.4494072E-2,3.78051E1,7.008484E-3,3.1767957E-2,6.7164177E-1,7.8890584E-2,3.147864E-2,5.652174E-1,9.876543E-1,1.0526316E-2,7.600918E-2,1.8588E0,-1.4452903E-1,1.6840538E1,2.1929567E-1,-1.3369147E-1,-7.801973E-2,1.5191445E-1,-8.534342E-2,-4.1792832E-2,-3.670893E-2,-1.1660242E-1,-1.2951253E-1,-1.5298626E-2,-4.223103E-3,-1.22804105E-1,-6.3803904E-2,4.2907074E-3,1.2940404E-2,5.4917064E-2,-3.260262E-3,-1.07987456E-1,5.1499517E-3,-7.2113656E-2,2.6979258E-2,-1.3518165E-1,6.177876E-2,9.790027E-2,-2.0545033E-1,7.759603E-2,-1.483493E-1,1.1887475E-1,1.4601162E-1,-1.2862463E-1],"split_indices":[3,7,0,7,5,7,4,0,6,8,6,6,6,8,6,0,0,3,5,4,0,8,7,3,8,8,4,7,5,0,6,0,0,0,0,0,0,0,0,0,0,0,0,0,0,0,0,0,0,0,0,0,0,0,0,0,0,0,0,0,0],"split_type":[0,0,0,0,0,0,0,0,0,0,0,0,0,0,0,0,0,0,0,0,0,0,0,0,0,0,0,0,0,0,0,0,0,0,0,0,0,0,0,0,0,0,0,0,0,0,0,0,0,0,0,0,0,0,0,0,0,0,0,0,0],"sum_hessian":[7.013005E4,4.025821E4,2.987184E4,2.4427607E4,1.5830602E4,2.424609E4,5.625749E3,4.5550845E3,1.9872523E4,2.072001E3,1.3758601E4,2.8902249E3,2.1355865E4,4.280185E3,1.345564E3,3.1338635E3,1.4212208E3,8.716294E3,1.115623E4,1.304803E3,7.67198E2,2.4733206E3,1.1285279E4,1.0140497E3,1.8761752E3,7.6275728E3,1.3728293E4,1.2162827E3,3.0639026E3,1.967062E0,1.3435968E3,1.1283443E1,3.12258E3,1.3673624E3,5.3858326E1,7.5867163E3,1.1295774E3,1.0069675E4,1.0865552E3,9.7438245E2,3.304206E2,5.777002E2,1.8949783E2,1.5470815E3,9.262389E2,9.032139E3,2.2531409E3,2.064536E2,8.075961E2,1.3307555E3,5.454196E2,7.539709E3,8.786353E1,9.795356E3,3.9329373E3,1.1344663E1,1.2049381E3,3.4834201E0,3.060419E3,1.3421272E3,1.4697117E0],"tree_param":{"num_deleted":"0","num_feature":"10","num_nodes":"61","size_leaf_vector":"1"}},{"base_weights":[1.6031051E-2,-3.0565798E-1,6.204721E-1,-6.777157E-1,-1.0514262E-1,4.1896707E-1,9.472593E-1,-8.8084626E-1,-5.168209E-1,-6.436353E-1,-8.26076E-3,3.022462E-1,8.1854147E-1,8.269104E-1,1.1198112E0,-1.001253E0,-5.2696306E-1,-7.267193E-1,-3.1791508E-1,-7.9551214E-1,-2.4924226E-1,-5.3949945E-2,6.567271E-1,1.5022148E-1,5.44559E-1,1.0580146E0,5.740916E-1,-2.0600906E-1,8.383745E-1,1.3591083E0,1.0418179E0,-1.02727845E-1,7.6436296E-2,-6.743375E-2,3.4945484E-2,-8.086307E-2,2.2652014E-3,6.063469E-3,-4.5186277E-2,-9.743317E-2,-2.6973307E-2,-1.2235518E-2,-1.4272799E-1,-3.461214E-2,6.0866023E-3,-9.607606E-2,7.422381E-2,-3.7968617E-2,2.7510151E-2,5.6127608E-2,-2.1401596E-1,-3.8780954E-2,1.0977379E-1,-1.8032293E-1,6.02506E-2,7.722765E-2,1.1468029E-1,-1.5056928E-1,1.3682696E-1,-2.0242634E-1,1.0462929E-1],"categories":[],"categories_nodes":[],"categories_segments":[],"categories_sizes":[],"default_left":[0,0,0,0,0,0,0,0,0,0,0,0,0,0,0,0,0,0,0,0,0,0,0,0,0,0,0,0,0,0,0,0,0,0,0,0,0,0,0,0,0,0,0,0,0,0,0,0,0,0,0,0,0,0,0,0,0,0,0,0,0],"id":4,"left_children":[1,3,5,7,9,11,13,15,17,19,21,23,25,27,29,31,33,35,37,39,41,43,45,47,49,51,53,-1,55,57,59,-1,-1,-1,-1,-1,-1,-1,-1,-1,-1,-1,-1,-1,-1,-1,-1,-1,-1,-1,-1,-1,-1,-1,-1,-1,-1,-1,-1,-1,-1],"loss_changes":[1.3632688E4,3.4136772E3,1.6032412E3,5.2326855E2,1.5512831E3,7.024109E2,1.9195605E2,3.0120312E2,3.7319385E2,2.7138464E2,7.657463E2,4.2950122E2,1.9874463E2,1.8295264E2,6.975879E1,2.4351807E2,2.3270114E2,2.6709863E2,2.329794E2,3.0746143E2,1.8846988E2,7.911299E2,2.2482373E2,4.7439203E2,2.0295642E2,9.915564E1,1.1507019E2,0E0,1.1031592E2,2.6576416E1,4.1639893E1,0E0,0E0,0E0,0E0,0E0,0E0,0E0,0E0,0E0,0E0,0E0,0E0,0E0,0E0,0E0,0E0,0E0,0E0,0E0,0E0,0E0,0E0,0E0,0E0,0E0,0E0,0E0,0E0,0E0,0E0],"parents":[2147483647,0,0,1,1,2,2,3,3,4,4,5,5,6,6,7,7,8,8,9,9,10,10,11,11,12,12,13,13,14,14,15,15,16,16,17,17,18,18,19,19,20,20,21,21,22,22,23,23,24,24,25,25,26,26,28,28,29,29,30,30],"right_children":[2,4,6,8,10,12,14,16,18,20,22,24,26,28,30,32,34,36,38,40,42,44,46,48,50,52,54,-1,56,58,60,-1,-1,-1,-1,-1,-1,-1,-1,-1,-1,-1,-1,-1,-1,-1,-1,-1,-1,-1,-1,-1,-1,-1,-1,-1,-1,-1,-1,-1,-1],"split_conditions":[3.4871344E-2,1.14256115E1,1.1614701E-1,1.5807878E-2,2.4278E0,1.438849E-2,1.0244989E-2,1.1182953E0,3.4234E0,2.1582734E-2,1.548644E-1,4.991526E-2,4.4247788E-1,1.720734E0,6.849317E-1,8.72954E-2,9.217391E-1,1.3339175E0,7.352004E-1,2.3118692E-2,8.947368E-1,1.7107312E-2,4.1093E0,1.1827956E1,1.6370283E1,1.1107879E1,1.720734E0,-2.0600906E-1,1E0,3.081E-1,7.0167375E-1,-1.02727845E-1,7.6436296E-2,-6.743375E-2,3.4945484E-2,-8.086307E-2,2.2652014E-3,6.063469E-3,-4.5186277E-2,-9.743317E-2,-2.6973307E-2,-1.2235518E-2,-1.4272799E-1,-3.461214E-2,6.0866023E-3,-9.607606E-2,7.422381E-2,-3.7968617E-2,2.7510151E-2,5.6127608E-2,-2.1401596E-1,-3.8780954E-2,1.0977379E-1,-1.8032293E-1,6.02506E-2,7.722765E-2,1.1468029E-1,-1.5056928E-1,1.3682696E-1,-2.0242634E-1,1.0462929E-1],"split_indices":[3,6,9,3,5,4,4,2,5,1,9,3,8,5,2,1,8,2,2,3,8,3,5,6,6,6,5,0,8,5,2,0,0,0,0,0,0,0,0,0,0,0,0,0,0,0,0,0,0,0,0,0,0,0,0,0,0,0,0,0,0],"split_type":[0,0,0,0,0,0,0,0,0,0,0,0,0,0,0,0,0,0,0,0,0,0,0,0,0,0,0,0,0,0,0,0,0,0,0,0,0,0,0,0,0,0,0,0,0,0,0,0,0,0,0,0,0,0,0,0,0,0,0,0,0],"sum_hessian":[7.010986E4,4.5757688E4,2.4352166E4,1.602353E4,2.9734158E4,1.5065002E4,9.287165E3,7.0802295E3,8.943301E3,4.533002E3,2.5201156E4,1.1660558E4,3.404444E3,5.4746074E3,3.8125574E3,5.281426E3,1.7988036E3,4.350118E3,4.593183E3,3.2719783E3,1.2610239E3,2.3581842E4,1.6193141E3,7.1661836E3,4.4943745E3,1.7180469E3,1.6863972E3,2.0946629E1,5.453661E3,9.3312823E2,2.8794292E3,5.2051196E3,7.630626E1,1.540064E3,2.5873965E2,3.9214033E3,4.2871497E2,1.2006294E3,3.3925535E3,2.4409485E3,8.3102966E2,1.1394022E3,1.2162179E2,6.652148E3,1.6929693E4,8.079513E1,1.5385189E3,1.3663337E3,5.79985E3,4.467348E3,2.7026114E1,4.5706047E1,1.6723408E3,1.918045E1,1.6672168E3,4.4940615E3,9.595994E2,2.4537766E0,9.3067444E2,3.5386581E0,2.8758904E3],"tree_param":{"num_deleted":"0","num_feature":"10","num_nodes":"61","size_leaf_vector":"1"}},{"base_weights":[4.9230764E-3,-1.9939536E-1,5.8563113E-1,-6.2064666E-1,-5.5285464E-3,3.4696737E-1,8.766278E-1,-6.425189E-1,1.2240794E0,-8.54282E-2,5.649279E-1,2.4947582E-1,1.0129524E0,7.3088366E-1,1.0736078E0,-8.983813E-1,-5.261761E-1,8.6061317E-1,1.3549373E0,-1.1288662E0,-5.0191533E-2,9.6266633E-1,2.4628253E-1,-2.4661984E-1,3.4723756E-1,4.5215067E-1,1.077681E0,5.672127E-1,8.743776E-1,9.773529E-1,1.328099E0,-6.3250035E-2,-1.1605378E-1,-1.3557608E-1,-4.971107E-2,1.1655503E-1,-2.1593256E-1,-1.8128547E-1,1.4237072E-1,1.08246505E-1,-1.2735248E-1,-8.8645E-3,5.773864E-2,1.0996443E-1,3.7175976E-2,-3.653296E-2,3.766768E-2,1.3621649E-1,-3.299052E-2,9.365349E-2,3.007375E-2,7.802213E-2,-2.4530117E-1,1.16310954E-1,7.533771E-2,6.029902E-2,-7.998142E-2,-1.0313503E-1,9.097033E-2,-2.0892803E-1,9.821586E-2,1.3451415E-1,9.001286E-2],"categories":[],"categories_nodes":[],"categories_segments":[],"categories_sizes":[],"default_left":[0,0,0,0,0,0,0,0,0,0,0,0,0,0,0,0,0,0,0,0,0,0,0,0,0,0,0,0,0,0,0,0,0,0,0,0,0,0,0,0,0,0,0,0,0,0,0,0,0,0,0,0,0,0,0,0,0,0,0,0,0,0,0],"id":5,"left_children":[1,3,5,7,9,11,13,15,17,19,21,23,25,27,29,31,33,35,37,39,41,43,45,47,49,51,53,55,57,59,61,-1,-1,-1,-1,-1,-1,-1,-1,-1,-1,-1,-1,-1,-1,-1,-1,-1,-1,-1,-1,-1,-1,-1,-1,-1,-1,-1,-1,-1,-1,-1,-1],"loss_changes":[8.210247E3,4.180314E3,1.250498E3,6.5171484E2,1.5978656E3,6.422997E2,2.321753E2,4.7415576E2,7.8414307E0,1.1305322E3,5.456111E2,4.18828E2,4.5373657E1,1.0911206E2,8.317969E1,3.4655396E2,2.63667E2,5.12085E1,3.2536865E1,3.2268958E2,7.179081E2,1.5462268E2,1.9094583E2,1.9097113E2,1.9737384E2,1.2815688E2,3.048352E1,1.07253174E2,1.6822656E2,3.89834E1,5.671509E0,0E0,0E0,0E0,0E0,0E0,0E0,0E0,0E0,0E0,0E0,0E0,0E0,0E0,0E0,0E0,0E0,0E0,0E0,0E0,0E0,0E0,0E0,0E0,0E0,0E0,0E0,0E0,0E0,0E0,0E0,0E0,0E0],"parents":[2147483647,0,0,1,1,2,2,3,3,4,4,5,5,6,6,7,7,8,8,9,9,10,10,11,11,12,12,13,13,14,14,15,15,16,16,17,17,18,18,19,19,20,20,21,21,22,22,23,23,24,24,25,25,26,26,27,27,28,28,29,29,30,30],"right_children":[2,4,6,8,10,12,14,16,18,20,22,24,26,28,30,32,34,36,38,40,42,44,46,48,50,52,54,56,58,60,62,-1,-1,-1,-1,-1,-1,-1,-1,-1,-1,-1,-1,-1,-1,-1,-1,-1,-1,-1,-1,-1,-1,-1,-1,-1,-1,-1,-1,-1,-1,-1,-1],"split_conditions":[6.899236E-2,1.1411568E1,1.6186884E-1,7.8393884E-2,1.438849E-2,9.939759E-2,6.775701E-2,1.0484208E1,8.529729E0,1.1614E0,2.345679E-1,4.0554E0,8.581023E-2,2.2139812E-1,6.481481E-2,9.9843445E0,8.2854E-1,4.0061E0,9.718315E0,-1.1656442E-2,5E-2,1.3436742E0,4.0061E0,-5.811138E-2,-3.9130434E-2,2.5335615E0,1.008547E-1,5.818182E-2,2.8486E0,-1.369863E-2,1.4991362E1,-6.3250035E-2,-1.1605378E-1,-1.3557608E-1,-4.971107E-2,1.1655503E-1,-2.1593256E-1,-1.8128547E-1,1.4237072E-1,1.08246505E-1,-1.2735248E-1,-8.8645E-3,5.773864E-2,1.0996443E-1,3.7175976E-2,-3.653296E-2,3.766768E-2,1.3621649E-1,-3.299052E-2,9.365349E-2,3.007375E-2,7.802213E-2,-2.4530117E-1,1.16310954E-1,7.533771E-2,6.029902E-2,-7.998142E-2,-1.0313503E-1,9.097033E-2,-2.0892803E-1,9.821586E-2,1.3451415E-1,9.001286E-2],"split_indices":[9,6,9,0,4,0,0,6,5,5,8,5,9,9,4,6,5,5,6,4,0,2,5,1,1,2,0,0,5,1,6,0,0,0,0,0,0,0,0,0,0,0,0,0,0,0,0,0,0,0,0,0,0,0,0,0,0,0,0,0,0,0,0],"split_type":[0,0,0,0,0,0,0,0,0,0,0,0,0,0,0,0,0,0,0,0,0,0,0,0,0,0,0,0,0,0,0,0,0,0,0,0,0,0,0,0,0,0,0,0,0,0,0,0,0,0,0,0,0,0,0,0,0,0,0,0,0,0,0],"sum_hessian":[6.9195586E4,5.1186574E4,1.8009014E4,1.613178E4,3.5054793E4,9.895398E3,8.113615E3,1.5943397E4,1.883827E2,3.0748873E4,4.305919E3,8.633012E3,1.262386E3,4.665991E3,3.447624E3,4.9814375E3,1.096196E4,5.187455E1,1.3650815E2,1.0034481E3,2.9745424E4,1.9143606E3,2.3915586E3,1.4209293E3,7.2120825E3,1.3145535E2,1.1309305E3,2.1820596E3,2.4839316E3,2.505008E3,9.426159E2,2.4748457E3,2.5065918E3,3.6951834E2,1.0592442E4,4.7674667E1,4.19988E0,2.3616242E0,1.3414653E2,6.1213997E1,9.4223413E2,2.8028875E4,1.7165492E3,1.553405E3,3.609556E2,4.1995673E2,1.9716018E3,6.918374E1,1.3517456E3,5.2606726E2,6.6860156E3,1.1877403E2,1.268133E1,8.930861E2,2.3784448E2,2.1269524E3,5.5107216E1,4.4692486E1,2.4392393E3,3.2407475E0,2.5017673E3,9.044559E2,3.8160065E1],"tree_param":{"num_deleted":"0","num_feature":"10","num_nodes":"63","size_leaf_vector":"1"}},{"base_weights":[1.5377827E-2,-3.849653E-1,4.1249558E-1,-4.3342337E-1,1.2602879E0,2.1583617E-1,6.8051744E-1,-7.331138E-1,-2.4674967E-1,1.2698195E0,-2.0069487E-1,1.3205518E-1,5.361828E-1,6.279666E-1,9.440121E-1,-4.9427215E-2,-8.025295E-1,8.1558295E-2,-3.686499E-1,1.336944E0,1.1316357E0,2.5223732E-1,-6.4363286E-2,-9.778103E-1,5.680507E-1,5.557856E-1,9.22743E-1,-1.9339141E-1,9.785133E-1,-6.508521E-2,3.9457068E-2,-1.3441576E-1,-7.49827E-2,2.6318308E-3,1.1171029E-1,-4.1056544E-2,3.328475E-2,1.02809526E-1,1.3461213E-1,-2.4914646E-1,1.18594766E-1,1.12964455E-2,4.936796E-2,-6.850151E-2,-1.3699781E-3,3.7121106E-2,-1.9871446E-1,5.001968E-2,1.1334784E-1,9.118671E-2,4.8277907E-2,1.0789632E-1,7.335405E-2,1.2534802E-1,9.373667E-2],"categories":[],"categories_nodes":[],"categories_segments":[],"categories_sizes":[],"default_left":[0,0,0,0,0,0,0,0,0,0,0,0,0,0,0,0,0,0,0,0,0,0,0,0,0,0,0,0,0,0,0,0,0,0,0,0,0,0,0,0,0,0,0,0,0,0,0,0,0,0,0,0,0,0,0],"id":6,"left_children":[1,3,5,7,9,11,13,15,17,19,-1,21,23,25,27,29,31,33,35,37,39,41,43,45,47,49,51,-1,53,-1,-1,-1,-1,-1,-1,-1,-1,-1,-1,-1,-1,-1,-1,-1,-1,-1,-1,-1,-1,-1,-1,-1,-1,-1,-1],"loss_changes":[1.0945544E4,2.733893E3,1.8216226E3,1.863E3,3.3103638E1,5.350121E2,2.0194531E2,6.0658203E2,8.213799E2,7.5671387E0,0E0,3.73108E2,1.9995532E2,2.5902344E2,2.4318481E2,3.1514896E2,3.3022656E2,3.178919E2,4.4020142E2,4.678955E-1,6.721469E1,3.2967004E2,1.8866919E2,1.1724502E2,1.5475085E2,2.5434985E2,7.008142E1,0E0,2.600122E1,0E0,0E0,0E0,0E0,0E0,0E0,0E0,0E0,0E0,0E0,0E0,0E0,0E0,0E0,0E0,0E0,0E0,0E0,0E0,0E0,0E0,0E0,0E0,0E0,0E0,0E0],"parents":[2147483647,0,0,1,1,2,2,3,3,4,4,5,5,6,6,7,7,8,8,9,9,11,11,12,12,13,13,14,14,15,15,16,16,17,17,18,18,19,19,20,20,21,21,22,22,23,23,24,24,25,25,26,26,28,28],"right_children":[2,4,6,8,10,12,14,16,18,20,-1,22,24,26,28,30,32,34,36,38,40,42,44,46,48,50,52,-1,54,-1,-1,-1,-1,-1,-1,-1,-1,-1,-1,-1,-1,-1,-1,-1,-1,-1,-1,-1,-1,-1,-1,-1,-1,-1,-1],"split_conditions":[4.7817048E-2,8.6713284E-2,7.8890584E-2,2.8118081E-2,4.6955127E-2,1.05575845E-1,1E0,-8.8390134E-2,7.4112403E-1,5.7670125E-3,-2.0069487E-1,1.1138227E0,2.4278E0,1.8937329E-2,8.6713284E-2,-5.376344E-3,8.6046E-1,1.7657733E-1,1.1174785E-1,2.3317656E-2,1.4285714E-2,1.3911425E1,8.3333336E-2,1.6087E0,8.6713284E-2,-2.3162136E-2,2.9032257E-1,-1.9339141E-1,6.512564E-1,-6.508521E-2,3.9457068E-2,-1.3441576E-1,-7.49827E-2,2.6318308E-3,1.1171029E-1,-4.1056544E-2,3.328475E-2,1.02809526E-1,1.3461213E-1,-2.4914646E-1,1.18594766E-1,1.12964455E-2,4.936796E-2,-6.850151E-2,-1.3699781E-3,3.7121106E-2,-1.9871446E-1,5.001968E-2,1.1334784E-1,9.118671E-2,4.8277907E-2,1.0789632E-1,7.335405E-2,1.2534802E-1,9.373667E-2],"split_indices":[7,0,7,7,7,9,8,9,2,7,0,2,5,4,0,0,5,9,1,9,7,5,8,5,0,4,8,0,2,0,0,0,0,0,0,0,0,0,0,0,0,0,0,0,0,0,0,0,0,0,0,0,0,0,0],"split_type":[0,0,0,0,0,0,0,0,0,0,0,0,0,0,0,0,0,0,0,0,0,0,0,0,0,0,0,0,0,0,0,0,0,0,0,0,0,0,0,0,0,0,0,0,0,0,0,0,0,0,0,0,0,0,0],"sum_hessian":[6.884511E4,3.4283344E4,3.456176E4,3.330319E4,9.8015106E2,1.9935799E4,1.4625965E4,1.2781132E4,2.0522062E4,9.779095E2,2.2415566E0,1.5803964E4,4.131834E3,1.2196835E4,2.4291301E3,1.1782328E3,1.1602898E4,5.5567275E3,1.4965334E4,6.523484E2,3.2556113E2,9.804576E3,5.999388E3,8.456567E1,4.0472683E3,9.8000205E3,2.3968142E3,2.8123821E1,2.4010063E3,5.0020532E2,6.7802747E2,1.0267189E3,1.057618E4,5.276295E3,2.804327E2,1.4121941E4,8.433927E2,2.208652E1,6.3026184E2,4.145502E0,3.2141562E2,6.218806E3,3.58577E3,4.5182297E2,5.547565E3,3.646318E1,4.8102486E1,3.6153005E3,4.3196762E2,1.6654552E3,8.1345654E3,1.3102601E3,1.086554E3,3.086896E2,2.0923167E3],"tree_param":{"num_deleted":"0","num_feature":"10","num_nodes":"55","size_leaf_vector":"1"}},{"base_weights":[2.791665E-3,-3.5573345E-1,3.6493185E-1,-4.1790533E-1,7.342122E-1,1.8390088E-1,6.0235703E-1,-7.696095E-1,-3.1871635E-1,4.350402E-1,1.2137775E0,-2.119374E-2,3.6356366E-1,5.484936E-1,8.7914926E-1,-8.1718016E-1,1.178312E0,-5.89724E-1,-2.2897963E-1,4.9834874E-1,-1.8084578E-1,1.2229767E0,-1.365149E-1,2.3720023E-1,-1.39122E-1,2.8155127E-1,6.3235396E-1,4.7129983E-1,8.4684694E-1,-1.7777035E-1,9.1058296E-1,-2.9972885E-2,-8.842328E-2,1.2442634E-1,-2.1202068E-1,-4.8515078E-2,-8.514722E-2,-5.1213114E-4,-3.4873735E-2,-3.8699612E-2,6.0893934E-2,1.2338692E-1,4.658901E-2,6.1235963E-3,6.6481315E-2,-3.8236506E-2,7.4400357E-3,3.7783768E-2,2.611188E-3,5.785766E-2,1.0756836E-1,9.3342684E-2,4.2436495E-2,9.8187305E-2,6.944986E-2,9.7791195E-2,2.9954035E-2],"categories":[],"categories_nodes":[],"categories_segments":[],"categories_sizes":[],"default_left":[0,0,0,0,0,0,0,0,0,0,0,0,0,0,0,0,0,0,0,0,0,0,0,0,0,0,0,0,0,0,0,0,0,0,0,0,0,0,0,0,0,0,0,0,0,0,0,0,0,0,0,0,0,0,0,0,0],"id":7,"left_children":[1,3,5,7,9,11,13,15,17,19,21,23,25,27,29,31,33,35,37,39,-1,41,-1,43,45,47,49,51,53,-1,55,-1,-1,-1,-1,-1,-1,-1,-1,-1,-1,-1,-1,-1,-1,-1,-1,-1,-1,-1,-1,-1,-1,-1,-1,-1,-1],"loss_changes":[8.801016E3,2.3085337E3,1.4493359E3,1.123938E3,2.6324536E2,7.050975E2,2.1701855E2,6.5779346E2,6.112031E2,1.6193044E2,1.841272E1,2.72334E2,2.246731E2,2.8091895E2,1.9994934E2,2.3983203E2,3.9487198E1,1.7073022E2,5.0631927E2,1.08272156E2,0E0,5.2286377E0,0E0,2.1069577E2,3.187416E2,1.9225739E2,5.6210266E1,2.1013135E2,5.0940674E1,0E0,9.629321E1,0E0,0E0,0E0,0E0,0E0,0E0,0E0,0E0,0E0,0E0,0E0,0E0,0E0,0E0,0E0,0E0,0E0,0E0,0E0,0E0,0E0,0E0,0E0,0E0,0E0,0E0],"parents":[2147483647,0,0,1,1,2,2,3,3,4,4,5,5,6,6,7,7,8,8,9,9,10,10,11,11,12,12,13,13,14,14,15,15,16,16,17,17,18,18,19,19,21,21,23,23,24,24,25,25,26,26,27,27,28,28,30,30],"right_children":[2,4,6,8,10,12,14,16,18,20,22,24,26,28,30,32,34,36,38,40,-1,42,-1,44,46,48,50,52,54,-1,56,-1,-1,-1,-1,-1,-1,-1,-1,-1,-1,-1,-1,-1,-1,-1,-1,-1,-1,-1,-1,-1,-1,-1,-1,-1,-1],"split_conditions":[4.8076924E-2,1.2834561E-1,7.7935226E-2,2.247191E-2,6.1085973E-2,1.2677509E1,1E0,5.818182E-2,2.4613E0,3.885135E-2,1.5767365E1,8.5383606E-1,1.3298804E-1,1.8132366E-2,8.6713284E-2,-7.022901E-2,1.8872968E0,2.9677686E-3,7.8542465E-1,1.198414E1,-1.8084578E-1,5.829E1,-1.365149E-1,1.41633E1,5.1111114E-1,1.2131902E0,9.939759E-2,-3.581943E-2,2.9032257E-1,-1.7777035E-1,1.4361491E1,-2.9972885E-2,-8.842328E-2,1.2442634E-1,-2.1202068E-1,-4.8515078E-2,-8.514722E-2,-5.1213114E-4,-3.4873735E-2,-3.8699612E-2,6.0893934E-2,1.2338692E-1,4.658901E-2,6.1235963E-3,6.6481315E-2,-3.8236506E-2,7.4400357E-3,3.7783768E-2,2.611188E-3,5.785766E-2,1.0756836E-1,9.3342684E-2,4.2436495E-2,9.8187305E-2,6.944986E-2,9.7791195E-2,2.9954035E-2],"split_indices":[7,9,7,7,0,6,8,0,5,0,6,2,9,4,0,9,2,9,2,6,0,5,0,5,8,2,0,4,8,0,6,0,0,0,0,0,0,0,0,0,0,0,0,0,0,0,0,0,0,0,0,0,0,0,0,0,0],"split_type":[0,0,0,0,0,0,0,0,0,0,0,0,0,0,0,0,0,0,0,0,0,0,0,0,0,0,0,0,0,0,0,0,0,0,0,0,0,0,0,0,0,0,0,0,0,0,0,0,0,0,0,0,0,0,0,0,0],"sum_hessian":[6.778345E4,3.4061746E4,3.372171E4,3.2224252E4,1.8374948E3,1.9134154E4,1.4587554E4,7.0873115E3,2.513694E4,1.1327483E3,7.047465E2,8.935121E3,1.0199034E4,1.2213753E4,2.3738008E3,6.9189233E3,1.6838823E2,6.2515356E3,1.8885404E4,1.1024174E3,3.0330887E1,7.027655E2,1.9810319E0,2.7996858E3,6.1354355E3,7.816222E3,2.3828118E3,9.705264E3,2.5084895E3,2.7106846E1,2.3466938E3,7.9434686E2,6.124576E3,1.65698E2,2.6902306E0,4.468958E3,1.7825778E3,6.5823403E3,1.2303063E4,1.2213704E2,9.8028033E2,6.921772E2,1.0588323E1,1.9842876E3,8.153983E2,2.8677385E3,3.2676968E3,5.6761504E3,2.1400718E3,2.1270933E3,2.5571863E2,8.930717E2,8.812192E3,1.3269614E3,1.1815282E3,2.1132415E3,2.3345238E2],"tree_param":{"num_deleted":"0","num_feature":"10","num_nodes":"57","size_leaf_vector":"1"}},{"base_weights":[9.833948E-3,-2.2323182E-1,4.3044767E-1,-5.016884E-1,-1.2341587E-1,3.4451285E-1,7.995765E-1,-1.0210648E0,-4.3446487E-1,-4.0454403E-1,-3.8080707E-2,2.0140423E-1,5.653535E-1,1.0741137E0,7.1817476E-1,-1.103275E0,8.721165E-1,-5.464157E-1,-1.7075801E-1,-4.9887347E-1,4.310452E-1,-6.13881E-2,6.3489634E-1,-1.4750624E-1,2.8544128E-1,4.7592634E-1,8.325694E-1,-2.57908E-1,1.0994394E0,4.8325953E-1,8.3174336E-1,-8.708183E-2,-1.3187169E-1,-1.4727251E-1,1.22321226E-1,-6.711018E-2,-3.185825E-2,2.1034585E-2,-5.758837E-2,-1.4478824E-2,-6.5322965E-2,-1.4343015E-2,7.480752E-2,-2.5366887E-3,-5.8212865E-2,-2.1349557E-1,6.9773406E-2,4.2502984E-2,-2.8932203E-2,5.8342917E-3,4.368971E-2,3.8392063E-2,7.618625E-2,1.1090624E-1,6.822815E-2,-1.5857022E-1,1.1074159E-1,5.541451E-2,-1.5310904E-1,6.9216125E-2,9.042366E-2],"categories":[],"categories_nodes":[],"categories_segments":[],"categories_sizes":[],"default_left":[0,0,0,0,0,0,0,0,0,0,0,0,0,0,0,0,0,0,0,0,0,0,0,0,0,0,0,0,0,0,0,0,0,0,0,0,0,0,0,0,0,0,0,0,0,0,0,0,0,0,0,0,0,0,0,0,0,0,0,0,0],"id":8,"left_children":[1,3,5,7,9,11,13,15,17,19,21,23,25,27,29,31,33,35,37,39,41,43,45,47,49,51,53,-1,55,57,59,-1,-1,-1,-1,-1,-1,-1,-1,-1,-1,-1,-1,-1,-1,-1,-1,-1,-1,-1,-1,-1,-1,-1,-1,-1,-1,-1,-1,-1,-1],"loss_changes":[6.589262E3,1.2020671E3,7.599375E2,3.980122E2,7.6381494E2,6.143247E2,1.00351074E2,2.0439807E2,2.9826624E2,5.845958E2,3.8317407E2,3.4599234E2,1.8227026E2,9.839111E1,9.279089E1,6.1610474E1,4.7045082E1,2.0131079E2,4.6535272E2,3.6404333E2,1.371764E2,4.4284677E2,1.4381705E2,1.8612463E2,3.2703125E2,1.5044324E2,7.883508E1,0E0,2.3740112E1,1.637374E2,2.3187256E1,0E0,0E0,0E0,0E0,0E0,0E0,0E0,0E0,0E0,0E0,0E0,0E0,0E0,0E0,0E0,0E0,0E0,0E0,0E0,0E0,0E0,0E0,0E0,0E0,0E0,0E0,0E0,0E0,0E0,0E0],"parents":[2147483647,0,0,1,1,2,2,3,3,4,4,5,5,6,6,7,7,8,8,9,9,10,10,11,11,12,12,13,13,14,14,15,15,16,16,17,17,18,18,19,19,20,20,21,21,22,22,23,23,24,24,25,25,26,26,28,28,29,29,30,30],"right_children":[2,4,6,8,10,12,14,16,18,20,22,24,26,28,30,32,34,36,38,40,42,44,46,48,50,52,54,-1,56,58,60,-1,-1,-1,-1,-1,-1,-1,-1,-1,-1,-1,-1,-1,-1,-1,-1,-1,-1,-1,-1,-1,-1,-1,-1,-1,-1,-1,-1,-1,-1],"split_conditions":[3.373774E-2,2.668175E0,8.6713284E-2,8.2854E-1,1.4542428E-2,4.991526E-2,8.405351E-1,7.280646E-2,2.2470133E-2,5.91133E-2,1.9636275E-1,4.39066E0,1.1969532E-2,-2.6756564E-2,9.876543E-1,-3.2258064E-3,1.776199E-3,4.6948357E-3,8.326183E-1,4.6206E0,6.944444E-1,9.032258E-1,3.901E0,-9.6601754E-2,-2.5125628E-3,1.7657733E-1,1.21212125E-1,-2.57908E-1,4.085E-1,9.6363634E-1,1.0445063E-1,-8.708183E-2,-1.3187169E-1,-1.4727251E-1,1.22321226E-1,-6.711018E-2,-3.185825E-2,2.1034585E-2,-5.758837E-2,-1.4478824E-2,-6.5322965E-2,-1.4343015E-2,7.480752E-2,-2.5366887E-3,-5.8212865E-2,-2.1349557E-1,6.9773406E-2,4.2502984E-2,-2.8932203E-2,5.8342917E-3,4.368971E-2,3.8392063E-2,7.618625E-2,1.1090624E-1,6.822815E-2,-1.5857022E-1,1.1074159E-1,5.541451E-2,-1.5310904E-1,6.9216125E-2,9.042366E-2],"split_indices":[3,5,0,5,3,3,2,9,3,1,9,5,4,9,8,0,4,0,2,5,8,8,5,9,4,9,8,0,5,8,1,0,0,0,0,0,0,0,0,0,0,0,0,0,0,0,0,0,0,0,0,0,0,0,0,0,0,0,0,0,0],"split_type":[0,0,0,0,0,0,0,0,0,0,0,0,0,0,0,0,0,0,0,0,0,0,0,0,0,0,0,0,0,0,0,0,0,0,0,0,0,0,0,0,0,0,0,0,0,0,0,0,0,0,0,0,0,0,0,0,0,0,0,0,0],"sum_hessian":[6.721436E4,4.3249754E4,2.3964602E4,1.1411385E4,3.1838371E4,1.9440664E4,4.5239375E3,1.3061033E3,1.0105281E4,7.4130566E3,2.4425314E4,1.1797554E4,7.6431104E3,1.0318173E3,3.4921204E3,1.2521469E3,5.3956417E1,7.0930244E3,3.0122568E3,6.66145E3,7.516063E2,2.3608582E4,8.1673346E2,2.2898118E3,9.507742E3,5.7287065E3,1.9144034E3,6.409555E0,1.0254077E3,1.139772E3,2.3523484E3,6.0471545E2,6.474314E2,6.6107755E0,4.734564E1,4.5829634E3,2.5100608E3,1.5523931E3,1.4598636E3,2.0229175E3,4.6385327E3,2.6747495E2,4.841314E2,2.208214E4,1.5264404E3,1.7386137E1,7.993473E2,4.541855E2,1.8356262E3,3.8045085E3,5.703234E3,4.3358896E3,1.3928171E3,6.718972E2,1.2425062E3,2.451266E0,1.0229564E3,1.1017268E3,3.804519E1,8.0770325E2,1.5446451E3],"tree_param":{"num_deleted":"0","num_feature":"10","num_nodes":"61","size_leaf_vector":"1"}},{"base_weights":[5.579202E-3,-2.7690965E-1,3.2106054E-1,-3.4521046E-1,4.4906577E-1,1.04289174E-1,4.9264133E-1,-5.8352363E-1,-1.8922527E-1,2.2649385E-1,1.1461859E0,-2.954055E-2,3.2264337E-1,4.183188E-1,6.7030466E-1,-1.0125324E0,-4.8963693E-1,-5.5191857E-1,-1.1045493E-1,3.289103E-1,-7.508569E-1,1.1525826E0,-1.7185284E-1,-7.0447195E-1,3.811353E-2,1.0423826E0,2.696405E-1,2.8574276E-1,6.1543113E-1,7.80392E-1,5.0263196E-1,-1.0767647E-1,5.1760186E-2,-2.011296E-2,-5.8296114E-2,-7.233127E-2,-1.4859574E-2,-1.6036322E-2,2.5834901E-2,-2.0482678E-2,4.828991E-2,-3.3695903E-2,-2.0928739E-1,1.1580012E-1,-1.1387433E-1,-1.088089E-4,-1.1678417E-1,-8.234275E-3,3.071954E-2,1.1003693E-1,-2.0185082E-1,-8.11465E-3,3.6388222E-2,-4.210656E-3,3.7775744E-2,3.428207E-2,7.068009E-2,5.2330043E-2,8.452826E-2,1.2379958E-2,6.030443E-2],"categories":[],"categories_nodes":[],"categories_segments":[],"categories_sizes":[],"default_left":[0,0,0,0,0,0,0,0,0,0,0,0,0,0,0,0,0,0,0,0,0,0,0,0,0,0,0,0,0,0,0,0,0,0,0,0,0,0,0,0,0,0,0,0,0,0,0,0,0,0,0,0,0,0,0,0,0,0,0,0,0],"id":9,"left_children":[1,3,5,7,9,11,13,15,17,19,21,23,25,27,29,31,33,35,37,39,41,43,-1,45,47,49,51,53,55,57,59,-1,-1,-1,-1,-1,-1,-1,-1,-1,-1,-1,-1,-1,-1,-1,-1,-1,-1,-1,-1,-1,-1,-1,-1,-1,-1,-1,-1,-1,-1],"loss_changes":[5.9330977E3,1.7417559E3,1.1697148E3,1.1933008E3,4.6844128E2,4.06102E2,2.3152051E2,5.1103418E2,5.5433124E2,2.2956558E2,1.5372681E1,3.9348868E2,2.011726E2,3.2333716E2,9.515161E1,2.2458179E2,2.8048047E2,2.3922424E2,2.9351013E2,1.7059004E2,1.20164734E2,1.0379272E1,0E0,2.5588385E2,2.5390538E2,6.6449036E1,1.6267697E2,2.2335443E2,1.2373523E2,5.1654907E1,7.806995E1,0E0,0E0,0E0,0E0,0E0,0E0,0E0,0E0,0E0,0E0,0E0,0E0,0E0,0E0,0E0,0E0,0E0,0E0,0E0,0E0,0E0,0E0,0E0,0E0,0E0,0E0,0E0,0E0,0E0,0E0],"parents":[2147483647,0,0,1,1,2,2,3,3,4,4,5,5,6,6,7,7,8,8,9,9,10,10,11,11,12,12,13,13,14,14,15,15,16,16,17,17,18,18,19,19,20,20,21,21,23,23,24,24,25,25,26,26,27,27,28,28,29,29,30,30],"right_children":[2,4,6,8,10,12,14,16,18,20,22,24,26,28,30,32,34,36,38,40,42,44,-1,46,48,50,52,54,56,58,60,-1,-1,-1,-1,-1,-1,-1,-1,-1,-1,-1,-1,-1,-1,-1,-1,-1,-1,-1,-1,-1,-1,-1,-1,-1,-1,-1,-1,-1,-1],"split_conditions":[4.9586777E-2,8.72954E-2,3.4600288E-2,1.14256115E1,8.6713284E-2,7.1174376E-2,1.1612903E-2,1.942502E-2,1.2824425E-2,1.3942001E0,4.7817048E-2,-4.1745406E-2,7.1721363E-1,9.52381E-2,1.2836171E0,1.3626363E0,7.233453E-1,1.4588602E-2,1.1612903E-2,3.219178E-2,4.4444446E-2,1.5506465E1,-1.7185284E-1,9.069461E-1,1.3215875E1,1.4573055E1,1.2015713E1,1.2362695E1,2.8896896E-2,4.2333983E-2,7.340532E-2,-1.0767647E-1,5.1760186E-2,-2.011296E-2,-5.8296114E-2,-7.233127E-2,-1.4859574E-2,-1.6036322E-2,2.5834901E-2,-2.0482678E-2,4.828991E-2,-3.3695903E-2,-2.0928739E-1,1.1580012E-1,-1.1387433E-1,-1.088089E-4,-1.1678417E-1,-8.234275E-3,3.071954E-2,1.1003693E-1,-2.0185082E-1,-8.11465E-3,3.6388222E-2,-4.210656E-3,3.7775744E-2,3.428207E-2,7.068009E-2,5.2330043E-2,8.452826E-2,1.2379958E-2,6.030443E-2],"split_indices":[7,1,3,6,0,7,4,7,3,2,7,0,2,7,2,2,2,1,4,7,7,6,0,2,6,6,6,6,9,3,7,0,0,0,0,0,0,0,0,0,0,0,0,0,0,0,0,0,0,0,0,0,0,0,0,0,0,0,0,0,0],"split_type":[0,0,0,0,0,0,0,0,0,0,0,0,0,0,0,0,0,0,0,0,0,0,0,0,0,0,0,0,0,0,0,0,0,0,0,0,0,0,0,0,0,0,0,0,0,0,0,0,0,0,0,0,0,0,0,0,0,0,0,0,0],"sum_hessian":[6.657229E4,3.5122742E4,3.1449547E4,3.2102973E4,3.0197705E3,1.3895673E4,1.7553873E4,1.2698915E4,1.9404059E4,2.289969E3,7.2980133E2,8.615859E3,5.2798135E3,1.2378773E4,5.175101E3,2.2783538E3,1.0420562E4,3.4611938E3,1.5942864E4,2.073365E3,2.1660417E2,7.2877167E2,1.029654E0,7.841E2,7.83176E3,3.6086526E2,4.918948E3,7.402419E3,4.976354E3,3.1217974E3,2.0533037E3,2.1868499E3,9.15039E1,2.5476824E3,7.872879E3,2.4284272E3,1.0327666E3,1.4043058E4,1.8998073E3,4.6417352E2,1.6091913E3,1.665032E2,5.010096E1,7.275458E2,1.2259003E0,3.1179904E2,4.723009E2,5.410436E3,2.4213235E3,3.5478458E2,6.080683E0,1.0416926E3,3.8772554E3,1.6223853E3,5.7800337E3,1.2504042E3,3.72595E3,6.3097766E2,2.4908196E3,4.306802E2,1.6226235E3],"tree_param":{"num_deleted":"0","num_feature":"10","num_nodes":"61","size_leaf_vector":"1"}},{"base_weights":[4.320362E-3,-3.425948E-1,2.4798696E-1,-3.8171947E-1,1.1058538E0,9.2079744E-2,4.297309E-1,-4.5813093E-1,-3.756178E-2,3.3205852E-1,1.1199859E0,-2.0229262E-1,2.1995457E-1,3.839313E-1,7.2778714E-1,-9.043963E-1,-4.0491253E-1,1.214179E0,-8.0196574E-2,1.1870598E-1,-2.4204786E-1,1.1440809E0,8.174455E-1,-3.8201797E-1,-1.2920991E-3,2.760806E-1,-1.7622171E-1,3.262726E-1,6.604052E-1,-9.697624E-1,7.670603E-1,-9.6112095E-2,3.5101995E-2,-2.0415947E-2,-4.9822044E-2,-1.4602607E-1,1.3078754E-1,-3.2342877E-2,1.40861785E-2,1.18498445E-1,1.04807355E-1,-2.3805137E-1,1.04493536E-1,-2.278186E-2,-8.062768E-2,2.108879E-2,-3.2520335E-2,2.0486264E-2,5.8850806E-2,-6.394886E-2,7.772012E-3,1.14732385E-2,3.9543718E-2,8.248797E-2,5.0938267E-2,1.0347867E-1,-1.741118E-1,8.334787E-2,4.1865874E-2],"categories":[],"categories_nodes":[],"categories_segments":[],"categories_sizes":[],"default_left":[0,0,0,0,0,0,0,0,0,0,0,0,0,0,0,0,0,0,0,0,0,0,0,0,0,0,0,0,0,0,0,0,0,0,0,0,0,0,0,0,0,0,0,0,0,0,0,0,0,0,0,0,0,0,0,0,0,0,0],"id":10,"left_children":[1,3,5,7,9,11,13,15,17,19,21,23,25,27,29,31,33,35,37,-1,-1,39,41,43,45,47,49,51,53,55,57,-1,-1,-1,-1,-1,-1,-1,-1,-1,-1,-1,-1,-1,-1,-1,-1,-1,-1,-1,-1,-1,-1,-1,-1,-1,-1,-1,-1],"loss_changes":[5.5681963E3,1.5405789E3,1.0963491E3,6.9591113E2,7.44751E0,7.8408527E2,2.4360815E2,5.1393945E2,2.567504E2,3.6401306E1,4.180664E0,2.2788525E2,3.229383E2,2.4668945E2,1.5931702E2,1.6459058E2,3.6235767E2,4.161949E1,2.5015921E2,0E0,0E0,1.3010254E0,4.269881E1,2.1769199E2,2.0479994E2,2.8289655E2,2.1210507E2,1.874928E2,6.59447E1,8.564615E1,5.3459595E1,0E0,0E0,0E0,0E0,0E0,0E0,0E0,0E0,0E0,0E0,0E0,0E0,0E0,0E0,0E0,0E0,0E0,0E0,0E0,0E0,0E0,0E0,0E0,0E0,0E0,0E0,0E0,0E0],"parents":[2147483647,0,0,1,1,2,2,3,3,4,4,5,5,6,6,7,7,8,8,9,9,10,10,11,11,12,12,13,13,14,14,15,15,16,16,17,17,18,18,21,21,22,22,23,23,24,24,25,25,26,26,27,27,28,28,29,29,30,30],"right_children":[2,4,6,8,10,12,14,16,18,20,22,24,26,28,30,32,34,36,38,-1,-1,40,42,44,46,48,50,52,54,56,58,-1,-1,-1,-1,-1,-1,-1,-1,-1,-1,-1,-1,-1,-1,-1,-1,-1,-1,-1,-1,-1,-1,-1,-1,-1,-1,-1,-1],"split_conditions":[4.1933604E-2,8.6713284E-2,6.896552E-2,3.81113E-2,1.9989146E-2,1.1903604E1,1E0,1.6806724E-2,-6.0672514E-2,-4.293994E-2,1.8872968E0,5.16129E-1,1.4696076E0,1.8937329E-2,7.8393884E-2,1.3626363E0,7.524569E-1,4.4042207E-2,1.238078E1,1.1870598E-1,-2.4204786E-1,8.235294E-1,1.07899025E-1,3.2E-1,2.2727273E-2,9.795918E-2,5.4761904E-1,-3.9068773E-2,2.3809524E-1,7.0387244E-2,1.414583E1,-9.6112095E-2,3.5101995E-2,-2.0415947E-2,-4.9822044E-2,-1.4602607E-1,1.3078754E-1,-3.2342877E-2,1.40861785E-2,1.18498445E-1,1.04807355E-1,-2.3805137E-1,1.04493536E-1,-2.278186E-2,-8.062768E-2,2.108879E-2,-3.2520335E-2,2.0486264E-2,5.8850806E-2,-6.394886E-2,7.772012E-3,1.14732385E-2,3.9543718E-2,8.248797E-2,5.0938267E-2,1.0347867E-1,-1.741118E-1,8.334787E-2,4.1865874E-2],"split_indices":[7,0,7,9,9,6,8,7,1,9,2,8,2,4,0,2,2,9,6,0,0,8,1,8,0,1,8,9,8,7,6,0,0,0,0,0,0,0,0,0,0,0,0,0,0,0,0,0,0,0,0,0,0,0,0,0,0,0,0],"split_type":[0,0,0,0,0,0,0,0,0,0,0,0,0,0,0,0,0,0,0,0,0,0,0,0,0,0,0,0,0,0,0,0,0,0,0,0,0,0,0,0,0,0,0,0,0,0,0,0,0,0,0,0,0,0,0,0,0,0,0],"sum_hessian":[6.586914E4,2.7176611E4,3.869253E4,2.6462557E4,7.140551E2,2.0827432E4,1.7865098E4,2.1654412E4,4.8081436E3,1.3246508E1,7.008086E2,6.3072764E3,1.4520156E4,1.5487555E4,2.3775435E3,2.305505E3,1.9348908E4,1.5746794E2,4.650676E3,1.0540978E1,2.7055297E0,6.465356E2,5.4273052E1,3.32939E3,2.9778865E3,1.2718621E4,1.8015354E3,1.281679E4,2.6707644E3,5.3225433E1,2.3243179E3,2.2060608E3,9.944407E1,6.140576E3,1.3208332E4,4.836318E0,1.5263162E2,2.2140627E3,2.4366128E3,4.4542242E2,2.0111314E2,2.975827E0,5.1297222E1,2.443003E3,8.863869E2,1.7994772E3,1.1784094E3,1.035895E4,2.3596707E3,6.373314E2,1.164204E3,3.158662E3,9.658128E3,1.2763094E3,1.3944548E3,1.4695139E1,3.8530296E1,1.9509929E3,3.7332495E2],"tree_param":{"num_deleted":"0","num_feature":"10","num_nodes":"59","size_leaf_vector":"1"}},{"base_weights":[6.6425437E-3,-1.7270122E-1,3.724902E-1,-4.698515E-1,-3.6573187E-2,2.3096234E-1,5.7057905E-1,-8.717379E-1,-3.8955286E-1,-3.6607277E-1,3.4436494E-2,5.8489636E-2,4.1482544E-1,4.9542454E-1,7.67462E-1,-1.0298471E0,-4.8972094E-1,-2.8391516E-2,-4.5584977E-1,-4.0042123E-1,6.552775E-1,-2.4571668E-2,2.9778513E-1,-6.707666E-1,1.1620925E-1,4.298434E-1,-2.586922E-1,3.6831528E-1,6.486354E-1,1.1335734E0,7.066212E-1,2.1204415E-1,-1.0537048E-1,-5.208503E-3,-8.3862066E-2,-5.7987045E-2,2.4767952E-2,-3.7891243E-2,-8.4738664E-2,-5.338685E-2,-1.8719252E-2,-1.5724985E-1,9.260906E-2,-1.25102205E-2,1.236258E-2,-9.104457E-2,3.2300357E-2,-1.2177359E-1,6.288519E-2,7.542047E-3,7.41073E-2,-3.0827133E-2,4.605089E-2,2.5429746E-2,6.567802E-2,7.0649676E-2,2.2358214E-2,-1.0305897E-1,1.146523E-1,6.0034867E-2,8.5424505E-2],"categories":[],"categories_nodes":[],"categories_segments":[],"categories_sizes":[],"default_left":[0,0,0,0,0,0,0,0,0,0,0,0,0,0,0,0,0,0,0,0,0,0,0,0,0,0,0,0,0,0,0,0,0,0,0,0,0,0,0,0,0,0,0,0,0,0,0,0,0,0,0,0,0,0,0,0,0,0,0,0,0],"id":11,"left_children":[1,3,5,7,9,11,13,15,17,19,21,23,25,27,29,31,33,35,37,39,41,43,45,47,49,51,-1,53,55,57,59,-1,-1,-1,-1,-1,-1,-1,-1,-1,-1,-1,-1,-1,-1,-1,-1,-1,-1,-1,-1,-1,-1,-1,-1,-1,-1,-1,-1,-1,-1],"loss_changes":[4.286789E3,1.7734404E3,6.024065E2,4.4417554E2,7.035616E2,3.975578E2,1.3213525E2,1.379978E2,2.749204E2,1.8729443E2,3.8444278E2,2.7242883E2,2.7466785E2,1.2604199E2,5.4269287E1,1.24060425E2,1.0273996E2,2.71439E2,2.919242E2,1.4668329E2,1.0633587E2,3.01131E2,1.3827881E2,3.3820935E2,1.5278223E2,1.3682983E2,0E0,1.1647513E2,7.212427E1,1.1008728E1,3.2788696E1,0E0,0E0,0E0,0E0,0E0,0E0,0E0,0E0,0E0,0E0,0E0,0E0,0E0,0E0,0E0,0E0,0E0,0E0,0E0,0E0,0E0,0E0,0E0,0E0,0E0,0E0,0E0,0E0,0E0,0E0],"parents":[2147483647,0,0,1,1,2,2,3,3,4,4,5,5,6,6,7,7,8,8,9,9,10,10,11,11,12,12,13,13,14,14,15,15,16,16,17,17,18,18,19,19,20,20,21,21,22,22,23,23,24,24,25,25,27,27,28,28,29,29,30,30],"right_children":[2,4,6,8,10,12,14,16,18,20,22,24,26,28,30,32,34,36,38,40,42,44,46,48,50,52,-1,54,56,58,60,-1,-1,-1,-1,-1,-1,-1,-1,-1,-1,-1,-1,-1,-1,-1,-1,-1,-1,-1,-1,-1,-1,-1,-1,-1,-1,-1,-1,-1,-1],"split_conditions":[3.5438165E-2,3.0597014E-2,9.641397E-2,1.6806724E-2,2.702591E0,6.896552E-2,1.8132366E-2,4.2268406E-3,-7.7075504E-2,3.4297276E-2,7.427717E-2,1.1107879E1,1.6568499E1,9.52381E-2,9.84252E-3,-1E-1,1.6941E0,1.612976E-2,1.44138E1,6.9444445E-3,4.072165E-2,3.73413E-4,-6.9392264E-2,5.3326316E-2,3.4522112E-2,3.1648E0,-2.586922E-1,2.2139812E-1,1.008547E-1,5.132592E-2,2.2464058E1,2.1204415E-1,-1.0537048E-1,-5.208503E-3,-8.3862066E-2,-5.7987045E-2,2.4767952E-2,-3.7891243E-2,-8.4738664E-2,-5.338685E-2,-1.8719252E-2,-1.5724985E-1,9.260906E-2,-1.25102205E-2,1.236258E-2,-9.104457E-2,3.2300357E-2,-1.2177359E-1,6.288519E-2,7.542047E-3,7.41073E-2,-3.0827133E-2,4.605089E-2,2.5429746E-2,6.567802E-2,7.0649676E-2,2.2358214E-2,-1.0305897E-1,1.146523E-1,6.0034867E-2,8.5424505E-2],"split_indices":[3,7,9,7,5,7,4,0,9,3,7,6,6,7,7,0,5,3,5,0,7,4,0,3,4,5,0,9,0,0,5,0,0,0,0,0,0,0,0,0,0,0,0,0,0,0,0,0,0,0,0,0,0,0,0,0,0,0,0,0,0],"split_type":[0,0,0,0,0,0,0,0,0,0,0,0,0,0,0,0,0,0,0,0,0,0,0,0,0,0,0,0,0,0,0,0,0,0,0,0,0,0,0,0,0,0,0,0,0,0,0,0,0,0,0,0,0,0,0,0,0,0,0,0,0],"sum_hessian":[6.533297E4,4.384168E4,2.1491293E4,1.3773475E4,3.0068203E4,1.2536528E4,8.954764E3,2.292066E3,1.1481409E4,5.33031E3,2.4737895E4,6.4693115E3,6.067217E3,6.4834175E3,2.4713462E3,1.6199182E3,6.7214764E2,1.7809379E3,9.700471E3,5.1574697E3,1.7284006E2,2.0210305E4,4.5275884E3,4.7370343E2,5.9956084E3,6.0378657E3,2.935108E1,3.5454167E3,2.9380007E3,3.4965494E2,2.1216912E3,1.1515202E1,1.608403E3,2.9866812E2,3.7347952E2,5.937545E2,1.1871832E3,8.109011E3,1.5914601E3,3.171261E3,1.9862087E3,1.8212547E1,1.5462752E2,1.2041825E4,8.1684805E3,9.185098E1,4.4357373E3,3.3343427E2,1.4026917E2,5.629271E3,3.6633722E2,2.4048053E2,5.7973853E3,2.5423975E3,1.0030193E3,2.5853958E3,3.5260498E2,1.6123425E0,3.480426E2,1.236568E3,8.851233E2],"tree_param":{"num_deleted":"0","num_feature":"10","num_nodes":"61","size_leaf_vector":"1"}},{"base_weights":[-4.784884E-3,-3.320549E-1,1.8277334E-1,-3.699321E-1,1.0550117E0,2.4735566E-2,3.8475937E-1,-7.6608473E-1,-2.917791E-1,1.1189647E0,8.6035097E-1,-1.653091E-1,1.3218582E-1,2.8819948E-1,5.492938E-1,8.411321E-1,-7.9310507E-1,-1.93264E-1,-4.719231E-1,1.156543E0,8.950395E-1,-1.8125576E-1,9.026814E-1,-2.4425264E-1,1.6390933E-1,-1.1992246E0,1.4783493E-1,1.9512291E-1,4.8670614E-1,5.026021E-1,6.891577E-1,-1.300398E-1,3.0266243E-1,-1.2308194E-1,-6.974798E-2,-4.7785427E-2,-1.1736601E-2,-7.5779736E-2,-2.8948912E-2,1.18116036E-1,9.774259E-2,-2.580892E-1,1.0383525E-1,5.725872E-2,1.0880226E-1,1.1401308E-2,-3.0248204E-2,2.1292156E-2,-2.1726334E-1,-2.6079476E-2,-1.7137896E-1,8.396199E-3,3.5981223E-2,7.8896776E-2,1.5936572E-2,3.1605672E-2,7.108456E-2,5.260819E-2,7.498175E-3,-2.4448307E-1,7.13575E-2],"categories":[],"categories_nodes":[],"categories_segments":[],"categories_sizes":[],"default_left":[0,0,0,0,0,0,0,0,0,0,0,0,0,0,0,0,0,0,0,0,0,0,0,0,0,0,0,0,0,0,0,0,0,0,0,0,0,0,0,0,0,0,0,0,0,0,0,0,0,0,0,0,0,0,0,0,0,0,0,0,0],"id":12,"left_children":[1,3,5,7,9,11,13,15,17,19,21,23,25,27,29,31,33,35,37,39,41,-1,43,45,47,49,51,53,55,57,59,-1,-1,-1,-1,-1,-1,-1,-1,-1,-1,-1,-1,-1,-1,-1,-1,-1,-1,-1,-1,-1,-1,-1,-1,-1,-1,-1,-1,-1,-1],"loss_changes":[3.9551084E3,1.233678E3,1.3074928E3,7.072517E2,6.8084106E0,4.6930344E2,2.8549658E2,1.6415454E2,3.386493E2,2.890686E0,1.9591843E1,2.1577588E2,3.0606705E2,2.09289E2,4.307068E1,2.9752612E2,1.541311E2,2.6650754E2,3.5167322E2,5.9198E-1,3.8279964E1,0E0,8.975479E0,1.3971854E2,1.8438959E2,8.196449E1,1.9645102E2,1.6373358E2,1.3811566E2,5.0043213E1,1.2887164E2,0E0,0E0,0E0,0E0,0E0,0E0,0E0,0E0,0E0,0E0,0E0,0E0,0E0,0E0,0E0,0E0,0E0,0E0,0E0,0E0,0E0,0E0,0E0,0E0,0E0,0E0,0E0,0E0,0E0,0E0],"parents":[2147483647,0,0,1,1,2,2,3,3,4,4,5,5,6,6,7,7,8,8,9,9,10,10,11,11,12,12,13,13,14,14,15,15,16,16,17,17,18,18,19,19,20,20,22,22,23,23,24,24,25,25,26,26,27,27,28,28,29,29,30,30],"right_children":[2,4,6,8,10,12,14,16,18,20,22,24,26,28,30,32,34,36,38,40,42,-1,44,46,48,50,52,54,56,58,60,-1,-1,-1,-1,-1,-1,-1,-1,-1,-1,-1,-1,-1,-1,-1,-1,-1,-1,-1,-1,-1,-1,-1,-1,-1,-1,-1,-1,-1,-1],"split_conditions":[3.8961038E-2,6.481481E-2,3.63842E-2,1.942502E-2,9.84252E-3,1.1967825E1,1.1988544E-1,7.7468734E0,9.4683695E-1,7.8542465E-1,1.5869237E-2,6.827363E-2,1.579882E0,5.5393685E-2,2.842452E-1,2.2477843E-2,1.0343E0,1.9419E0,1.1455643E1,1.4672817E1,8.72954E-2,-1.8125576E-1,2.842452E-1,7.0809937E-1,1.1920258E1,-6.563841E-2,7.8890584E-2,-3.581943E-2,3.4013605E-3,8.2272574E-2,2.8486E0,-1.300398E-1,3.0266243E-1,-1.2308194E-1,-6.974798E-2,-4.7785427E-2,-1.1736601E-2,-7.5779736E-2,-2.8948912E-2,1.18116036E-1,9.774259E-2,-2.580892E-1,1.0383525E-1,5.725872E-2,1.0880226E-1,1.1401308E-2,-3.0248204E-2,2.1292156E-2,-2.1726334E-1,-2.6079476E-2,-1.7137896E-1,8.396199E-3,3.5981223E-2,7.8896776E-2,1.5936572E-2,3.1605672E-2,7.108456E-2,5.260819E-2,7.498175E-3,-2.4448307E-1,7.13575E-2],"split_indices":[7,4,3,7,7,6,9,6,2,2,9,7,5,3,9,9,5,5,6,5,1,0,9,2,6,9,7,4,4,3,5,0,0,0,0,0,0,0,0,0,0,0,0,0,0,0,0,0,0,0,0,0,0,0,0,0,0,0,0,0,0],"split_type":[0,0,0,0,0,0,0,0,0,0,0,0,0,0,0,0,0,0,0,0,0,0,0,0,0,0,0,0,0,0,0,0,0,0,0,0,0,0,0,0,0,0,0,0,0,0,0,0,0,0,0,0,0,0,0,0,0,0,0,0,0],"sum_hessian":[6.4432152E4,2.3473139E4,4.0959016E4,2.2849902E4,6.232376E2,2.298008E4,1.7978934E4,3.7636062E3,1.9086295E4,4.6554208E2,1.5769556E2,8.299831E3,1.468025E4,1.1331562E4,6.6473716E3,6.1728992E1,3.7018772E3,1.2340005E4,6.7462905E3,3.9507693E2,7.046516E1,1.8065069E0,1.5588905E2,6.6947495E3,1.6050809E3,1.6966544E2,1.4510584E4,7.7157524E3,3.6158096E3,4.98709E3,1.6602819E3,3.1382626E1,3.0346367E1,6.616007E2,3.0402764E3,2.5969766E3,9.743028E3,2.626854E3,4.1194365E3,3.4242126E2,5.265565E1,2.116738E0,6.834842E1,5.7525314E1,9.836374E1,9.358463E2,5.7589033E3,1.5729941E3,3.2086857E1,6.0619114E1,1.0904632E2,1.115174E4,3.358844E3,4.370071E2,7.2787456E3,2.0542266E3,1.561583E3,4.7272935E3,2.5979626E2,1.2069121E1,1.6482128E3],"tree_param":{"num_deleted":"0","num_feature":"10","num_nodes":"61","size_leaf_vector":"1"}},{"base_weights":[1.223675E-3,-1.877592E-1,2.8471392E-1,-2.11267E-1,9.757241E-1,1.2792341E-1,4.0604904E-1,-4.3123442E-1,-9.772425E-2,9.8714226E-1,-1.6507266E-1,-4.2246976E-1,1.7271376E-1,3.3435616E-1,5.707444E-1,-6.237783E-1,-3.33598E-1,-3.8180685E-1,-3.5367034E-2,1.0901576E0,8.665538E-1,-1.105119E0,-3.9070256E-2,6.376626E-2,3.3750275E-1,2.5513813E-1,5.6402475E-1,6.6294605E-1,3.0016345E-1,1.1718742E-1,-6.465982E-2,-2.9281408E-2,-1.0226835E-1,-3.4885626E-2,-1.6164412E-1,-3.0907152E-2,2.6828395E-3,1.09848395E-1,5.17873E-2,-2.3042463E-1,8.955313E-2,-1.3325813E-1,-5.9123696E-3,-1.788046E-1,7.2613354E-3,3.240243E-2,-7.5355484E-3,6.620047E-2,1.7641367E-2,7.468055E-2,1.808322E-2,-2.5573522E-1,5.8594406E-2,4.179051E-2,7.103478E-2,-2.7993676E-1,3.1975597E-2],"categories":[],"categories_nodes":[],"categories_segments":[],"categories_sizes":[],"default_left":[0,0,0,0,0,0,0,0,0,0,0,0,0,0,0,0,0,0,0,0,0,0,0,0,0,0,0,0,0,0,0,0,0,0,0,0,0,0,0,0,0,0,0,0,0,0,0,0,0,0,0,0,0,0,0,0,0],"id":13,"left_children":[1,3,5,7,9,11,13,15,17,19,-1,21,23,25,27,29,31,33,35,37,39,41,43,45,47,49,51,53,55,-1,-1,-1,-1,-1,-1,-1,-1,-1,-1,-1,-1,-1,-1,-1,-1,-1,-1,-1,-1,-1,-1,-1,-1,-1,-1,-1,-1],"loss_changes":[3.4311003E3,1.0512136E3,4.8727954E2,9.4070703E2,2.4457275E1,2.7560858E2,1.7031543E2,2.4085913E2,4.4009454E2,8.47821E0,0E0,2.201748E2,1.8555283E2,1.8294775E2,1.0902771E2,1.775083E2,2.3888324E2,1.8135535E2,3.4683188E2,1.361908E0,3.4620453E1,7.190997E1,1.0557635E2,2.2537209E2,2.1492142E2,2.7329498E2,1.7802136E2,3.7622925E1,6.857881E1,0E0,0E0,0E0,0E0,0E0,0E0,0E0,0E0,0E0,0E0,0E0,0E0,0E0,0E0,0E0,0E0,0E0,0E0,0E0,0E0,0E0,0E0,0E0,0E0,0E0,0E0,0E0,0E0],"parents":[2147483647,0,0,1,1,2,2,3,3,4,4,5,5,6,6,7,7,8,8,9,9,11,11,12,12,13,13,14,14,15,15,16,16,17,17,18,18,19,19,20,20,21,21,22,22,23,23,24,24,25,25,26,26,27,27,28,28],"right_children":[2,4,6,8,10,12,14,16,18,20,-1,22,24,26,28,30,32,34,36,38,40,42,44,46,48,50,52,54,56,-1,-1,-1,-1,-1,-1,-1,-1,-1,-1,-1,-1,-1,-1,-1,-1,-1,-1,-1,-1,-1,-1,-1,-1,-1,-1,-1,-1],"split_conditions":[5.5979643E-2,9.939759E-2,3.6094856E-2,2.952756E-2,1.5506465E1,2.561E0,1.1612903E-2,1.2594486E-2,2.4952E0,5.7670125E-3,-1.6507266E-1,2.3118692E-2,1.4138818E-3,8.666667E-1,1.5491393E0,7.7468734E0,9.217391E-1,3.6707453E-2,1.126786E1,5.829E1,1.0524944E1,2.395682E0,7.5E-2,-1.0534846E-2,1.4285715E-1,-3.581943E-2,1.0416667E-2,1.2619456E1,1.5691878E0,1.1718742E-1,-6.465982E-2,-2.9281408E-2,-1.0226835E-1,-3.4885626E-2,-1.6164412E-1,-3.0907152E-2,2.6828395E-3,1.09848395E-1,5.17873E-2,-2.3042463E-1,8.955313E-2,-1.3325813E-1,-5.9123696E-3,-1.788046E-1,7.2613354E-3,3.240243E-2,-7.5355484E-3,6.620047E-2,1.7641367E-2,7.468055E-2,1.808322E-2,-2.5573522E-1,5.8594406E-2,4.179051E-2,7.103478E-2,-2.7993676E-1,3.1975597E-2],"split_indices":[7,0,3,7,6,5,4,3,5,7,0,3,4,8,2,6,8,0,6,5,6,5,8,4,8,4,0,6,2,0,0,0,0,0,0,0,0,0,0,0,0,0,0,0,0,0,0,0,0,0,0,0,0,0,0,0,0],"split_type":[0,0,0,0,0,0,0,0,0,0,0,0,0,0,0,0,0,0,0,0,0,0,0,0,0,0,0,0,0,0,0,0,0,0,0,0,0,0,0,0,0,0,0,0,0,0,0,0,0,0,0,0,0,0,0,0,0],"sum_hessian":[6.4041176E4,3.842577E4,2.5615404E4,3.766557E4,7.6020184E2,1.1175875E4,1.4439528E4,1.2822201E4,2.4843367E4,7.575327E2,2.6691196E0,8.404023E2,1.0335474E4,1.0062355E4,4.3771733E3,4.31245E3,8.509751E3,4.470744E3,2.0372623E4,4.041976E2,3.533351E2,3.015698E2,5.388325E2,6.222776E3,4.1126973E3,7.4833013E3,2.579054E3,3.2636274E3,1.1135458E3,5.3484756E1,4.2589653E3,8.0355854E3,4.7416562E2,4.3557773E3,1.14966805E2,3.7714722E3,1.660115E4,3.9749484E2,6.702746E0,2.4887652E0,3.5084637E2,2.4747899E2,5.409079E1,3.1441757E1,5.0739075E2,2.1672068E3,4.055569E3,1.363307E3,2.7493904E3,9.81285E2,6.5020166E3,1.7178015E1,2.561876E3,5.3058923E2,2.7330383E3,6.1034393E0,1.1074423E3],"tree_param":{"num_deleted":"0","num_feature":"10","num_nodes":"57","size_leaf_vector":"1"}},{"base_weights":[3.3843585E-3,-1.3116772E-1,2.351665E-1,-2.6950735E-1,2.5983106E-2,1.3581976E-1,5.0483227E-1,-2.8108355E-1,8.3264184E-1,-6.070449E-1,7.914847E-2,9.611266E-2,5.302279E-1,4.6843842E-1,8.651354E-1,-2.0599882E-1,-4.5359927E-1,9.967064E-1,3.0130234E-1,-3.9897954E-1,-1.3474948E0,2.1904306E-2,4.8634335E-1,7.822918E-1,7.325253E-2,6.400974E-1,5.4051355E-2,7.6056665E-1,4.3415776E-1,9.511488E-1,-2.3706187E-1,-8.177239E-2,-1.841252E-2,-4.2796295E-2,-1.5621488E-1,-1.973416E-1,1.0295286E-1,9.9922545E-2,-3.1450835E-1,-9.119895E-2,-1.4085725E-2,-1.4865057E-1,-7.457343E-2,1.6664105E-2,-1.2836851E-2,7.855937E-2,-6.444654E-3,8.457037E-2,-2.5277603E-1,-2.6667869E-2,1.2224055E-2,6.498643E-2,-2.099049E-1,1.8334545E-2,-1.6347358E-1,1.315067E-1,6.2913075E-2,2.0897506E-2,5.134931E-2,1.3479183E-2,9.8554365E-2,-3.3955178E-1,4.847692E-2],"categories":[],"categories_nodes":[],"categories_segments":[],"categories_sizes":[],"default_left":[0,0,0,0,0,0,0,0,0,0,0,0,0,0,0,0,0,0,0,0,0,0,0,0,0,0,0,0,0,0,0,0,0,0,0,0,0,0,0,0,0,0,0,0,0,0,0,0,0,0,0,0,0,0,0,0,0,0,0,0,0,0,0],"id":14,"left_children":[1,3,5,7,9,11,13,15,17,19,21,23,25,27,29,31,33,35,37,39,41,43,45,47,49,51,53,55,57,59,61,-1,-1,-1,-1,-1,-1,-1,-1,-1,-1,-1,-1,-1,-1,-1,-1,-1,-1,-1,-1,-1,-1,-1,-1,-1,-1,-1,-1,-1,-1,-1,-1],"loss_changes":[1.97498E3,8.7108734E2,6.2306995E2,2.721139E2,6.31399E2,2.6616797E2,8.170325E1,2.7307324E2,1.9030045E1,2.2340222E2,4.0340372E2,2.4222192E2,8.1299286E1,5.664563E1,5.4574707E1,1.9648248E2,1.8105139E2,1.8506409E1,1.3242526E2,1.5031804E2,2.552887E1,3.3007202E2,3.5163635E2,1.0663956E2,2.4896434E2,3.5154907E1,6.417747E1,4.2623962E1,9.0900635E1,1.4804382E1,9.808413E1,0E0,0E0,0E0,0E0,0E0,0E0,0E0,0E0,0E0,0E0,0E0,0E0,0E0,0E0,0E0,0E0,0E0,0E0,0E0,0E0,0E0,0E0,0E0,0E0,0E0,0E0,0E0,0E0,0E0,0E0,0E0,0E0],"parents":[2147483647,0,0,1,1,2,2,3,3,4,4,5,5,6,6,7,7,8,8,9,9,10,10,11,11,12,12,13,13,14,14,15,15,16,16,17,17,18,18,19,19,20,20,21,21,22,22,23,23,24,24,25,25,26,26,27,27,28,28,29,29,30,30],"right_children":[2,4,6,8,10,12,14,16,18,20,22,24,26,28,30,32,34,36,38,40,42,44,46,48,50,52,54,56,58,60,62,-1,-1,-1,-1,-1,-1,-1,-1,-1,-1,-1,-1,-1,-1,-1,-1,-1,-1,-1,-1,-1,-1,-1,-1,-1,-1,-1,-1,-1,-1,-1,-1],"split_conditions":[3.183862E-2,1.2147294E1,1.6889672E-1,9.939759E-2,2.0005E0,8.6713284E-2,6.481481E-2,-6.066734E-3,1.001001E-1,7.618284E-3,1.6804164E-2,-3.1778228E-2,1.008547E-1,3.4331337E-2,1.4517759E1,8.2854E-1,1.2079534E1,-3.6764706E-3,-4.293994E-2,2.682927E-1,1.414583E1,1.11715E1,4.1666666E-1,2.284449E0,1.1455643E1,1.6840538E1,1.4342779E-1,3.7971E0,8.287942E0,5.5699963E-2,9.9989876E-2,-8.177239E-2,-1.841252E-2,-4.2796295E-2,-1.5621488E-1,-1.973416E-1,1.0295286E-1,9.9922545E-2,-3.1450835E-1,-9.119895E-2,-1.4085725E-2,-1.4865057E-1,-7.457343E-2,1.6664105E-2,-1.2836851E-2,7.855937E-2,-6.444654E-3,8.457037E-2,-2.5277603E-1,-2.6667869E-2,1.2224055E-2,6.498643E-2,-2.099049E-1,1.8334545E-2,-1.6347358E-1,1.315067E-1,6.2913075E-2,2.0897506E-2,5.134931E-2,1.3479183E-2,9.8554365E-2,-3.3955178E-1,4.847692E-2],"split_indices":[9,6,9,0,5,0,4,1,0,1,4,4,0,1,6,5,6,4,9,8,6,5,8,2,6,6,9,5,5,0,0,0,0,0,0,0,0,0,0,0,0,0,0,0,0,0,0,0,0,0,0,0,0,0,0,0,0,0,0,0,0,0,0],"split_type":[0,0,0,0,0,0,0,0,0,0,0,0,0,0,0,0,0,0,0,0,0,0,0,0,0,0,0,0,0,0,0,0,0,0,0,0,0,0,0,0,0,0,0,0,0,0,0,0,0,0,0,0,0,0,0,0,0,0,0,0,0,0,0],"sum_hessian":[6.3325508E4,4.006675E4,2.3258756E4,2.130834E4,1.875841E4,1.6998059E4,6.2606978E3,2.1087594E4,2.2074455E2,1.4525701E3,1.7305842E4,1.5444431E4,1.553627E3,5.6884165E3,5.7228143E2,1.4694319E4,6.393276E3,1.6799576E2,5.2748795E1,1.1351371E3,3.1743295E2,1.5173743E4,2.1320974E3,4.9687265E2,1.4947559E4,1.2620797E3,2.9154724E2,5.951931E2,5.093223E3,5.309817E2,4.1299786E1,5.0603403E2,1.4188285E4,6.2501216E3,1.4315439E2,1.189964E0,1.6680579E2,4.4456112E1,8.292683E0,3.791183E2,7.5601886E2,2.5667007E2,6.0762867E1,7.7291895E3,7.4445537E3,1.3812322E3,7.508653E2,4.882633E2,8.609334E0,1.8822251E3,1.3065333E4,1.2583557E3,3.7241135E0,2.716417E2,1.9905544E1,1.1232262E2,4.828705E2,1.3278713E3,3.765352E3,2.166582E1,5.0931586E2,6.9937563E0,3.430603E1],"tree_param":{"num_deleted":"0","num_feature":"10","num_nodes":"63","size_leaf_vector":"1"}},{"base_weights":[6.063883E-3,-2.639222E-1,1.5115076E-1,-2.951468E-1,9.19652E-1,4.170443E-2,3.6705267E-1,-6.640781E-1,-2.2387828E-1,-1.5050025E-1,9.845901E-1,-1.200118E-1,1.3616168E-1,2.821923E-1,4.9445894E-1,-7.983593E-1,-3.566528E-1,-1.7893106E-1,-5.486693E-1,1.8252226E0,9.420396E-1,-1.6878563E-1,4.4126087E-1,-5.730844E-1,1.5822633E-1,2.8956854E-1,-1.6148815E0,-1.2224101E0,5.001964E-1,-5.5844117E-2,-9.788946E-2,-1.680891E-2,-9.7107284E-2,-9.836022E-3,-3.613405E-2,7.2612755E-2,-6.524323E-2,-9.386395E-2,2.0425625E-1,-1.4775725E-1,9.774039E-2,-3.3759102E-2,-3.0731438E-3,5.9562422E-2,-1.391487E-1,4.2753845E-2,-7.900923E-2,7.2059156E-3,3.0774144E-2,2.0973342E-2,4.3582886E-2,9.2903525E-2,-2.652696E-1,-2.912477E-1,3.9778E-2,7.1172096E-2,4.556926E-2],"categories":[],"categories_nodes":[],"categories_segments":[],"categories_sizes":[],"default_left":[0,0,0,0,0,0,0,0,0,0,0,0,0,0,0,0,0,0,0,0,0,0,0,0,0,0,0,0,0,0,0,0,0,0,0,0,0,0,0,0,0,0,0,0,0,0,0,0,0,0,0,0,0,0,0,0,0],"id":15,"left_children":[1,3,5,7,9,11,13,15,17,-1,19,21,23,25,27,29,31,33,35,37,39,41,43,45,47,49,51,53,55,-1,-1,-1,-1,-1,-1,-1,-1,-1,-1,-1,-1,-1,-1,-1,-1,-1,-1,-1,-1,-1,-1,-1,-1,-1,-1,-1,-1],"loss_changes":[2.4691677E3,8.145574E2,9.6883234E2,5.6431323E2,9.069174E1,4.156519E2,1.4898254E2,1.4317505E2,2.625838E2,0E0,1.8039917E1,2.7474286E2,2.6890274E2,1.1634448E2,5.4914307E1,1.0418103E2,1.2244591E2,2.3229105E2,2.897544E2,1.7263641E1,4.6612152E1,2.1513342E2,2.2785107E2,1.1292186E2,2.1461127E2,9.623773E1,8.754294E1,5.223069E1,5.1404175E1,0E0,0E0,0E0,0E0,0E0,0E0,0E0,0E0,0E0,0E0,0E0,0E0,0E0,0E0,0E0,0E0,0E0,0E0,0E0,0E0,0E0,0E0,0E0,0E0,0E0,0E0,0E0,0E0],"parents":[2147483647,0,0,1,1,2,2,3,3,4,4,5,5,6,6,7,7,8,8,10,10,11,11,12,12,13,13,14,14,15,15,16,16,17,17,18,18,19,19,20,20,21,21,22,22,23,23,24,24,25,25,26,26,27,27,28,28],"right_children":[2,4,6,8,10,12,14,16,18,-1,20,22,24,26,28,30,32,34,36,38,40,42,44,46,48,50,52,54,56,-1,-1,-1,-1,-1,-1,-1,-1,-1,-1,-1,-1,-1,-1,-1,-1,-1,-1,-1,-1,-1,-1,-1,-1,-1,-1,-1,-1],"split_conditions":[3.8304094E-2,5.5699963E-2,4.135745E-2,1.942502E-2,3.0492572E-2,-3.9068773E-2,4.878049E-3,7.4549406E-3,2.3018E1,-1.5050025E-1,5.818182E-2,1.6804164E-2,1.6941E0,4.457652E-3,-1E-1,2.0306E0,7.516779E-1,6.363636E-1,2.0689655E-2,3.5017222E-2,4.9568966E-2,2.3118692E-2,6.666667E-1,-2.8072838E-2,6.896552E-2,9.7222224E-2,4.1809298E-2,2.5641026E-2,1.14285715E-1,-5.5844117E-2,-9.788946E-2,-1.680891E-2,-9.7107284E-2,-9.836022E-3,-3.613405E-2,7.2612755E-2,-6.524323E-2,-9.386395E-2,2.0425625E-1,-1.4775725E-1,9.774039E-2,-3.3759102E-2,-3.0731438E-3,5.9562422E-2,-1.391487E-1,4.2753845E-2,-7.900923E-2,7.2059156E-3,3.0774144E-2,2.0973342E-2,4.3582886E-2,9.2903525E-2,-2.652696E-1,-2.912477E-1,3.9778E-2,7.1172096E-2,4.556926E-2],"split_indices":[7,0,3,7,4,9,4,9,5,0,0,4,5,4,0,5,8,8,7,7,4,3,8,0,7,7,3,4,8,0,0,0,0,0,0,0,0,0,0,0,0,0,0,0,0,0,0,0,0,0,0,0,0,0,0,0,0],"split_type":[0,0,0,0,0,0,0,0,0,0,0,0,0,0,0,0,0,0,0,0,0,0,0,0,0,0,0,0,0,0,0,0,0,0,0,0,0,0,0,0,0,0,0,0,0,0,0,0,0,0,0,0,0,0,0,0,0],"sum_hessian":[6.3032883E4,2.2032572E4,4.100031E4,2.146699E4,5.655829E2,2.72087E4,1.3791609E4,3.4741667E3,1.7992822E4,1.41741495E1,5.5140875E2,1.0032395E4,1.7176305E4,8.279901E3,5.5117075E3,2.41689E3,1.057277E3,1.5806888E4,2.185935E3,2.4547647E1,5.268611E2,9.230938E3,8.014567E2,5.174789E2,1.6658826E4,8.248677E3,3.1225307E1,1.7651525E1,5.494056E3,1.0395278E3,1.377362E3,8.099724E2,2.4730457E2,1.0965105E4,4.8417827E3,1.6408194E2,2.021853E3,1.5476582E0,2.2999989E1,7.0020456E0,5.19859E2,4.1522905E3,5.0786475E3,7.398203E2,6.1636406E1,9.20529E1,4.25426E2,1.0569177E4,6.089649E3,5.3376133E3,2.9110632E3,9.077973E0,2.2147335E1,8.249069E0,9.402457E0,9.5239154E2,4.5416646E3],"tree_param":{"num_deleted":"0","num_feature":"10","num_nodes":"57","size_leaf_vector":"1"}},{"base_weights":[1.7041488E-2,-7.629988E-2,3.0833665E-1,-2.7801064E-1,9.648062E-3,2.5223908E-1,4.7772434E-1,-6.87069E-1,-2.1506801E-1,-3.7917234E-2,2.7793846E-1,-9.0384424E-2,2.8831968E-1,8.084256E-1,3.8857278E-1,-8.270137E-1,-5.5414952E-2,4.4854462E-2,-2.8838003E-1,-5.3469306E-1,-1.3894993E-2,2.8907266E-1,-2.610177E-1,-2.4846531E-1,8.855562E-1,8.745509E-1,2.7299953E-1,-1.8831404E-1,8.2611763E-1,-3.113721E-1,3.988842E-1,2.0701993E-1,-8.504407E-2,2.6028356E-1,-2.4029473E-2,-1.4102581E-1,9.624488E-3,-3.829662E-2,5.8941217E-3,-9.693089E-2,-1.7206272E-2,2.3068413E-3,-3.5383306E-2,-1.920921E-1,2.9731473E-2,-1.0753977E-2,-1.7635931E-1,9.3078986E-2,-1.9829354E-1,-3.6313143E-2,1.0397382E-1,-1.1004683E-1,2.7943132E-2,9.411817E-2,7.129984E-2,4.301453E-2,-1.9175915E-2],"categories":[],"categories_nodes":[],"categories_segments":[],"categories_sizes":[],"default_left":[0,0,0,0,0,0,0,0,0,0,0,0,0,0,0,0,0,0,0,0,0,0,0,0,0,0,0,0,0,0,0,0,0,0,0,0,0,0,0,0,0,0,0,0,0,0,0,0,0,0,0,0,0,0,0,0,0],"id":16,"left_children":[1,3,5,7,9,11,13,15,17,19,21,23,25,27,29,31,33,35,37,39,41,43,-1,45,47,49,51,-1,53,-1,55,-1,-1,-1,-1,-1,-1,-1,-1,-1,-1,-1,-1,-1,-1,-1,-1,-1,-1,-1,-1,-1,-1,-1,-1,-1,-1],"loss_changes":[1.7026488E3,8.221814E2,1.4427954E2,3.646825E2,4.2439667E2,1.4117456E2,1.1111603E2,1.6694537E2,2.3404407E2,3.3710114E2,1.6180115E2,1.6816452E2,9.2539E1,3.9728333E1,1.0882138E2,1.0672046E2,1.69539E2,2.0225032E2,3.1473468E2,2.0518616E2,3.38599E2,9.146057E1,0E0,2.0001122E2,2.1563667E1,5.407315E1,8.925238E1,0E0,9.703735E0,0E0,5.494055E1,0E0,0E0,0E0,0E0,0E0,0E0,0E0,0E0,0E0,0E0,0E0,0E0,0E0,0E0,0E0,0E0,0E0,0E0,0E0,0E0,0E0,0E0,0E0,0E0,0E0,0E0],"parents":[2147483647,0,0,1,1,2,2,3,3,4,4,5,5,6,6,7,7,8,8,9,9,10,10,11,11,12,12,13,13,14,14,15,15,16,16,17,17,18,18,19,19,20,20,21,21,23,23,24,24,25,25,26,26,28,28,30,30],"right_children":[2,4,6,8,10,12,14,16,18,20,22,24,26,28,30,32,34,36,38,40,42,44,-1,46,48,50,52,-1,54,-1,56,-1,-1,-1,-1,-1,-1,-1,-1,-1,-1,-1,-1,-1,-1,-1,-1,-1,-1,-1,-1,-1,-1,-1,-1,-1,-1],"split_conditions":[4.0927254E-2,1.1411568E1,1.6889672E-1,1.9657258E-2,7.8890584E-2,3.8523275E-2,7.110848E-1,2.2477843E-2,7.233453E-1,9.020925E-3,8.99675E1,8.6713284E-2,9.931015E0,4.085E-1,7.266406E-1,-1E-1,6.31582E-2,2.0689655E-2,1.2609081E0,-3.7401575E-3,1.4696076E0,1.7498E0,-2.610177E-1,6.3366E-2,2.5335615E0,4.656161E-2,1.5529E0,-1.8831404E-1,6.9303E0,-3.113721E-1,1.606307E1,2.0701993E-1,-8.504407E-2,2.6028356E-1,-2.4029473E-2,-1.4102581E-1,9.624488E-3,-3.829662E-2,5.8941217E-3,-9.693089E-2,-1.7206272E-2,2.3068413E-3,-3.5383306E-2,-1.920921E-1,2.9731473E-2,-1.0753977E-2,-1.7635931E-1,9.3078986E-2,-1.9829354E-1,-3.6313143E-2,1.0397382E-1,-1.1004683E-1,2.7943132E-2,9.411817E-2,7.129984E-2,4.301453E-2,-1.9175915E-2],"split_indices":[3,6,9,7,7,7,2,9,2,3,5,0,6,5,2,0,2,7,2,9,2,5,0,3,2,3,5,0,5,0,6,0,0,0,0,0,0,0,0,0,0,0,0,0,0,0,0,0,0,0,0,0,0,0,0,0,0],"split_type":[0,0,0,0,0,0,0,0,0,0,0,0,0,0,0,0,0,0,0,0,0,0,0,0,0,0,0,0,0,0,0,0,0,0,0,0,0,0,0,0,0,0,0,0,0,0,0,0,0,0,0,0,0,0,0,0,0],"sum_hessian":[6.2618797E4,4.7423387E4,1.519541E4,1.4168704E4,3.3254684E4,1.1416875E4,3.7785344E3,1.8881129E3,1.2280591E4,2.824753E4,5.007156E3,1.0875864E3,1.0329289E4,8.0062103E2,2.9779133E3,1.5454132E3,3.426997E2,2.7018315E3,9.57876E3,1.3019601E3,2.6945568E4,4.9888228E3,1.8332901E1,9.3662006E2,1.5096642E2,2.616351E2,1.0067653E4,4.539678E0,7.9608136E2,7.858307E0,2.9700552E3,1.1695284E1,1.5337179E3,2.1434223E1,3.2126547E2,9.126393E1,2.6105674E3,7.528435E3,2.0503245E3,5.9144025E2,7.105198E2,2.4303809E4,2.64176E3,1.7674242E1,4.9711484E3,8.578961E2,7.872393E1,1.492878E2,1.678626E0,3.0666315E1,2.3096878E2,4.613299E1,1.00215205E4,3.910193E2,4.0506204E2,2.8210183E3,1.490368E2],"tree_param":{"num_deleted":"0","num_feature":"10","num_nodes":"57","size_leaf_vector":"1"}},{"base_weights":[8.365922E-4,-2.3042686E-1,1.2381873E-1,-2.5695637E-1,8.15914E-1,-2.3035754E-2,2.3441696E-1,-7.653162E-1,-2.2253798E-1,-7.755621E-1,8.8933736E-1,-2.3800555E-1,5.2752033E-2,1.0863795E-1,3.140756E-1,-8.705134E-1,1.3917564E0,-1.6224796E-1,-4.6169826E-1,7.156992E-2,-1.5613796E-1,1.0370755E0,6.193796E-1,-6.394908E-1,-1.1805744E-1,3.5332778E-1,-2.4679145E-2,1.356542E-2,2.7554423E-1,-2.057435E-1,3.1848672E-1,-1.1286607E-1,-4.9733546E-2,6.9505246E-3,2.3614739E-1,-5.2935567E-2,-1.05631035E-2,2.7194822E-2,-5.5294048E-2,1.0558482E-1,-1.541291E-1,-1.7523307E-1,7.4510425E-2,8.428504E-2,-8.057543E-2,-2.3790894E-2,2.4601733E-2,-8.502342E-2,4.1068148E-2,-1.4166127E-1,-1.4151727E-3,1.8998783E-2,-1.4620262E-2,5.9251178E-2,1.280721E-2,2.7083699E-2,4.380551E-2],"categories":[],"categories_nodes":[],"categories_segments":[],"categories_sizes":[],"default_left":[0,0,0,0,0,0,0,0,0,0,0,0,0,0,0,0,0,0,0,0,0,0,0,0,0,0,0,0,0,0,0,0,0,0,0,0,0,0,0,0,0,0,0,0,0,0,0,0,0,0,0,0,0,0,0,0,0],"id":17,"left_children":[1,3,5,7,9,11,13,15,17,19,21,23,25,27,29,31,33,35,37,-1,-1,39,41,43,45,47,49,51,53,-1,55,-1,-1,-1,-1,-1,-1,-1,-1,-1,-1,-1,-1,-1,-1,-1,-1,-1,-1,-1,-1,-1,-1,-1,-1,-1,-1],"loss_changes":[1.761714E3,5.971437E2,6.5679193E2,3.66797E2,6.2853302E1,2.8304678E2,2.3107727E2,3.0290692E2,2.831817E2,2.923653E1,1.9657806E1,2.1800204E2,2.9896396E2,1.419461E2,1.483844E2,1.2162274E2,7.960108E1,3.2607535E2,2.6487207E2,0E0,0E0,1.7478333E1,5.5727646E1,2.5735992E2,1.5225531E2,1.8198157E2,1.4966235E2,1.6069882E2,1.5166902E2,0E0,8.0194824E1,0E0,0E0,0E0,0E0,0E0,0E0,0E0,0E0,0E0,0E0,0E0,0E0,0E0,0E0,0E0,0E0,0E0,0E0,0E0,0E0,0E0,0E0,0E0,0E0,0E0,0E0],"parents":[2147483647,0,0,1,1,2,2,3,3,4,4,5,5,6,6,7,7,8,8,9,9,10,10,11,11,12,12,13,13,14,14,15,15,16,16,17,17,18,18,21,21,22,22,23,23,24,24,25,25,26,26,27,27,28,28,30,30],"right_children":[2,4,6,8,10,12,14,16,18,20,22,24,26,28,30,32,34,36,38,-1,-1,40,42,44,46,48,50,52,54,-1,56,-1,-1,-1,-1,-1,-1,-1,-1,-1,-1,-1,-1,-1,-1,-1,-1,-1,-1,-1,-1,-1,-1,-1,-1,-1,-1],"split_conditions":[3.8304094E-2,5.5699963E-2,2.9730715E-2,9.675E-1,-2.2259748E-3,-7.311991E-2,1.2923832E1,7.280646E-2,1.44138E1,6.9843596E-1,8.947368E-1,3.376068E0,8.116367E-1,1.19111E1,1.7755E0,2.4193548E-2,8.013406E-1,1.0442646E1,-1.08169876E-1,7.156992E-2,-1.5613796E-1,2.3991075E0,9.939759E-2,3.508772E-2,5.9090906E-1,1.720734E0,1.0022E0,8.961492E-1,1.164804E1,-2.057435E-1,1.6186884E-1,-1.1286607E-1,-4.9733546E-2,6.9505246E-3,2.3614739E-1,-5.2935567E-2,-1.05631035E-2,2.7194822E-2,-5.5294048E-2,1.0558482E-1,-1.541291E-1,-1.7523307E-1,7.4510425E-2,8.428504E-2,-8.057543E-2,-2.3790894E-2,2.4601733E-2,-8.502342E-2,4.1068148E-2,-1.4166127E-1,-1.4151727E-3,1.8998783E-2,-1.4620262E-2,5.9251178E-2,1.280721E-2,2.7083699E-2,4.380551E-2],"split_indices":[7,0,3,5,9,9,6,9,5,2,8,5,2,5,5,7,2,6,9,0,0,2,0,8,8,5,5,2,6,0,9,0,0,0,0,0,0,0,0,0,0,0,0,0,0,0,0,0,0,0,0,0,0,0,0,0,0],"split_type":[0,0,0,0,0,0,0,0,0,0,0,0,0,0,0,0,0,0,0,0,0,0,0,0,0,0,0,0,0,0,0,0,0,0,0,0,0,0,0,0,0,0,0,0,0,0,0,0,0,0,0,0,0,0,0,0,0],"sum_hessian":[6.1940156E4,2.1503232E4,4.043692E4,2.0972244E4,5.309875E2,1.73715E4,2.3065424E4,1.3285353E3,1.9643709E4,2.2995245E1,5.0799222E2,4.5274326E3,1.2844067E4,8.944555E3,1.4120868E4,1.2673262E3,6.1209167E1,1.5690071E4,3.9536384E3,7.966428E0,1.5028817E1,3.2647992E2,1.8151231E2,1.0404733E3,3.4869592E3,2.630257E3,1.0213811E4,5.6992505E3,3.2453044E3,2.5352606E1,1.4095516E4,7.4792303E2,5.1940314E2,2.6350634E1,3.4858536E1,2.0953489E3,1.3594723E4,4.370991E2,3.5165393E3,3.2470627E2,1.7736357E0,8.486295E0,1.7302602E2,1.0452244E2,9.3595087E2,2.6236228E3,8.633363E2,1.1901043E2,2.5112466E3,7.566625E1,1.0138145E4,2.7083691E3,2.990881E3,1.0295134E3,2.215791E3,1.0081255E4,4.014261E3],"tree_param":{"num_deleted":"0","num_feature":"10","num_nodes":"57","size_leaf_vector":"1"}},{"base_weights":[1.1028745E-2,-1.0960237E-1,1.9380537E-1,-2.206249E-1,2.5082478E-2,1.627145E-1,4.9982357E-1,-2.6993E-1,1.5503798E-1,6.5884355E-4,7.9326165E-1,8.7722726E-2,2.642095E-1,-1.1085953E0,5.821389E-1,-5.439688E-1,-2.2368288E-1,-4.1290006E-1,3.2334006E-1,2.6837697E-2,-4.6539554E-1,8.19416E-1,-2.1397021E-1,7.6378506E-1,7.021555E-2,-2.229162E-1,2.6927912E-1,5.852534E-1,-1.8019462E-1,6.059599E-1,-3.4928474E-1,-9.974546E-2,-4.4271093E-2,-1.7530834E-3,-2.7984759E-2,-1.3505802E-1,1.0017524E-2,3.5039183E-2,-2.0188473E-1,-1.173444E-2,1.1577942E-2,1.8776832E-3,-9.762683E-2,-2.108325E-1,8.315181E-2,-1.8252955E-1,8.475255E-2,6.507533E-2,5.300469E-3,3.5402562E-2,1.3618459E-2,-1.5200756E-1,1.1563486E-1,1.15126215E-1,5.7362534E-2,-3.7262112E-1,2.7573664E-2],"categories":[],"categories_nodes":[],"categories_segments":[],"categories_sizes":[],"default_left":[0,0,0,0,0,0,0,0,0,0,0,0,0,0,0,0,0,0,0,0,0,0,0,0,0,0,0,0,0,0,0,0,0,0,0,0,0,0,0,0,0,0,0,0,0,0,0,0,0,0,0,0,0,0,0,0,0],"id":18,"left_children":[1,3,5,7,9,11,13,15,17,19,21,23,25,27,29,31,33,35,37,39,41,43,-1,45,47,-1,49,51,-1,53,55,-1,-1,-1,-1,-1,-1,-1,-1,-1,-1,-1,-1,-1,-1,-1,-1,-1,-1,-1,-1,-1,-1,-1,-1,-1,-1],"loss_changes":[1.3568176E3,5.543325E2,2.3270306E2,3.7642407E2,3.1428558E2,1.690357E2,2.993371E2,2.2753833E2,2.2554816E2,1.9810738E2,4.1349762E1,1.5115118E2,1.1989484E2,1.3045503E2,4.7844604E1,1.1863104E2,1.7797186E2,2.597033E2,1.1600601E2,1.971629E2,2.1362059E2,1.9906555E1,0E0,7.1439926E1,1.2439728E2,0E0,1.0619452E2,4.114229E1,0E0,3.625537E1,1.1536195E2,0E0,0E0,0E0,0E0,0E0,0E0,0E0,0E0,0E0,0E0,0E0,0E0,0E0,0E0,0E0,0E0,0E0,0E0,0E0,0E0,0E0,0E0,0E0,0E0,0E0,0E0],"parents":[2147483647,0,0,1,1,2,2,3,3,4,4,5,5,6,6,7,7,8,8,9,9,10,10,11,11,12,12,13,13,14,14,15,15,16,16,17,17,18,18,19,19,20,20,21,21,23,23,24,24,26,26,27,27,29,29,30,30],"right_children":[2,4,6,8,10,12,14,16,18,20,22,24,26,28,30,32,34,36,38,40,42,44,-1,46,48,-1,50,52,-1,54,56,-1,-1,-1,-1,-1,-1,-1,-1,-1,-1,-1,-1,-1,-1,-1,-1,-1,-1,-1,-1,-1,-1,-1,-1,-1,-1],"split_conditions":[5.5979643E-2,2.2470133E-2,1E0,5.605029E-2,9.939759E-2,1.3446066E1,7.8393884E-2,1.942502E-2,3.205887E0,1.4696076E0,1.5275102E1,8.610031E0,9.777964E-3,5.8451816E-2,1.5767365E1,1.065638E0,7.4407655E-1,1.1514486E1,5.4838218E-2,1.198414E1,2.9937327E-2,-5.0881673E-2,-2.1397021E-1,6.338503E-2,-2.4008055E-1,-2.229162E-1,1.2197648E0,9.5734E0,-1.8019462E-1,6.0344826E-2,4.8484355E-2,-9.974546E-2,-4.4271093E-2,-1.7530834E-3,-2.7984759E-2,-1.3505802E-1,1.0017524E-2,3.5039183E-2,-2.0188473E-1,-1.173444E-2,1.1577942E-2,1.8776832E-3,-9.762683E-2,-2.108325E-1,8.315181E-2,-1.8252955E-1,8.475255E-2,6.507533E-2,5.300469E-3,3.5402562E-2,1.3618459E-2,-1.5200756E-1,1.1563486E-1,1.15126215E-1,5.7362534E-2,-3.7262112E-1,2.7573664E-2],"split_indices":[7,3,8,9,0,6,0,7,5,2,6,6,3,7,6,5,2,6,7,6,3,9,0,7,9,0,2,5,0,7,3,0,0,0,0,0,0,0,0,0,0,0,0,0,0,0,0,0,0,0,0,0,0,0,0,0,0],"split_type":[0,0,0,0,0,0,0,0,0,0,0,0,0,0,0,0,0,0,0,0,0,0,0,0,0,0,0,0,0,0,0,0,0,0,0,0,0,0,0,0,0,0,0,0,0,0,0,0,0,0,0,0,0,0,0,0,0],"sum_hessian":[6.153577E4,3.707016E4,2.446561E4,2.031971E4,1.6750447E4,2.2210586E4,2.255022E3,1.7962451E4,2.35726E3,1.6235262E4,5.1518616E2,1.277406E4,9.436526E3,1.0918134E2,2.1458408E3,2.5921035E3,1.5370348E4,5.385297E2,1.8187303E3,1.5372701E4,8.625613E2,5.113469E2,3.8392518E0,3.2136844E2,1.2452691E4,1.8257595E1,9.418269E3,3.1756487E1,7.742485E1,2.0926704E3,5.317025E1,4.715234E2,2.12058E3,3.2912312E3,1.2079116E4,1.8987956E2,3.4865015E2,1.7988049E3,1.9925407E1,5.8648926E3,9.507809E3,4.4334784E2,4.1921344E2,1.3919702E0,5.0995493E2,9.417009E0,3.1195142E2,3.5748816E2,1.2095203E4,5.7532734E3,3.6649954E3,6.4216266E0,2.533486E1,1.1520495E2,1.9774655E3,7.529172E0,4.564108E1],"tree_param":{"num_deleted":"0","num_feature":"10","num_nodes":"57","size_leaf_vector":"1"}},{"base_weights":[5.8678756E-3,-1.2792449E-1,1.3878703E-1,-1.4446568E-1,8.5744065E-1,8.493469E-2,3.226876E-1,-4.5218232E-1,-1.00001246E-1,-1.2409308E-1,8.6705184E-1,2.122308E-2,2.3610215E-1,3.5238534E-1,-1.2435857E-1,-4.996733E-1,1.0183938E0,-1.7879003E0,-9.361567E-2,5.709298E-1,9.1413915E-1,-1.0217782E-1,1.2481826E-1,3.5490057E-1,3.7124597E-2,3.8980252E-1,2.0738889E-2,-3.20595E-1,-5.1288635E-2,-2.4914289E-2,-7.2198816E-2,1.3781498E-1,-1.3606988E-1,-1.5198007E-1,-1.9752346E-1,1.8113488E-2,-1.3232074E-2,7.726788E-2,-3.0137366E-1,9.228865E-2,-1.2612598E-1,4.2598143E-2,-2.1498078E-2,2.0362126E-2,-1.7115273E-2,-2.5335839E-2,4.059718E-2,-1.1153369E-2,3.1610947E-2,5.1858615E-2,3.075912E-2,-3.734737E-1,1.3581625E-2,7.914438E-2,-2.2769118E-2],"categories":[],"categories_nodes":[],"categories_segments":[],"categories_sizes":[],"default_left":[0,0,0,0,0,0,0,0,0,0,0,0,0,0,0,0,0,0,0,0,0,0,0,0,0,0,0,0,0,0,0,0,0,0,0,0,0,0,0,0,0,0,0,0,0,0,0,0,0,0,0,0,0,0,0],"id":19,"left_children":[1,3,5,7,9,11,13,15,17,-1,19,21,23,25,27,29,31,33,35,37,39,41,43,45,47,49,51,-1,53,-1,-1,-1,-1,-1,-1,-1,-1,-1,-1,-1,-1,-1,-1,-1,-1,-1,-1,-1,-1,-1,-1,-1,-1,-1,-1],"loss_changes":[1.0872816E3,4.967545E2,3.037113E2,4.0998468E2,1.1224243E1,2.284872E2,9.2268005E1,2.6472827E2,2.8206326E2,0E0,6.4705505E0,2.1338855E2,1.6626205E2,8.0826904E1,9.743833E1,2.0398022E2,1.0345607E2,1.9518738E0,2.7744672E2,5.4013016E1,9.365906E0,4.5395496E2,2.1167627E2,1.3692285E2,1.0914326E2,6.181537E1,2.8637943E2,0E0,6.3276844E1,0E0,0E0,0E0,0E0,0E0,0E0,0E0,0E0,0E0,0E0,0E0,0E0,0E0,0E0,0E0,0E0,0E0,0E0,0E0,0E0,0E0,0E0,0E0,0E0,0E0,0E0],"parents":[2147483647,0,0,1,1,2,2,3,3,4,4,5,5,6,6,7,7,8,8,10,10,11,11,12,12,13,13,14,14,15,15,16,16,17,17,18,18,19,19,20,20,21,21,22,22,23,23,24,24,25,25,26,26,28,28],"right_children":[2,4,6,8,10,12,14,16,18,-1,20,22,24,26,28,30,32,34,36,38,40,42,44,46,48,50,52,-1,54,-1,-1,-1,-1,-1,-1,-1,-1,-1,-1,-1,-1,-1,-1,-1,-1,-1,-1,-1,-1,-1,-1,-1,-1,-1,-1],"split_conditions":[4.8076924E-2,6.481481E-2,9.7222224E-2,1.0524944E1,6.1085973E-2,6.0975607E-3,1.5275102E1,9.236363E-2,-4.969697E-2,-1.2409308E-1,9.236363E-2,-1E-2,1.2131902E0,1.008547E-1,3.508772E-2,9.9843445E0,3.5580523E-2,3.809524E-2,6.205047E-1,7.235339E-2,1.5506465E1,-2.6819924E-2,3.885135E-2,1.1224674E1,1.1174785E-1,1.1370239E0,7.181818E-1,-3.20595E-1,9.929502E-2,-2.4914289E-2,-7.2198816E-2,1.3781498E-1,-1.3606988E-1,-1.5198007E-1,-1.9752346E-1,1.8113488E-2,-1.3232074E-2,7.726788E-2,-3.0137366E-1,9.228865E-2,-1.2612598E-1,4.2598143E-2,-2.1498078E-2,2.0362126E-2,-1.7115273E-2,-2.5335839E-2,4.059718E-2,-1.1153369E-2,3.1610947E-2,5.1858615E-2,3.075912E-2,-3.734737E-1,1.3581625E-2,7.914438E-2,-2.2769118E-2],"split_indices":[7,4,7,6,0,4,6,1,0,0,1,0,2,0,8,6,0,7,2,1,6,4,0,6,1,2,8,0,7,0,0,0,0,0,0,0,0,0,0,0,0,0,0,0,0,0,0,0,0,0,0,0,0,0,0],"split_type":[0,0,0,0,0,0,0,0,0,0,0,0,0,0,0,0,0,0,0,0,0,0,0,0,0,0,0,0,0,0,0,0,0,0,0,0,0,0,0,0,0,0,0,0,0,0,0,0,0,0,0,0,0,0,0],"sum_hessian":[6.1137684E4,3.0468781E4,3.0668904E4,2.9966588E4,5.0219186E2,2.372336E4,6.945545E3,3.7822578E3,2.618433E4,1.7055771E0,5.0048627E2,1.669019E4,7.03317E3,6.5130854E3,4.3245926E2,3.6645737E3,1.1768403E2,9.763433E1,2.6086697E4,7.0465965E1,4.3002032E2,7.6169795E3,9.073209E3,4.403376E3,2.629794E3,5.852605E3,6.604806E2,9.023754E0,4.234355E2,1.7239479E3,1.9406259E3,1.0259134E2,1.5092693E1,4.390842E1,5.3725914E1,3.220694E3,2.2866002E4,6.7454025E1,3.011937E0,4.2887158E2,1.1487451E0,1.3400239E3,6.2769556E3,7.16565E3,1.9075596E3,3.4077567E2,4.0626003E3,1.7160105E3,9.1378345E2,2.2783193E3,3.5742856E3,1.87019E1,6.417787E2,7.268915E1,3.5074634E2],"tree_param":{"num_deleted":"0","num_feature":"10","num_nodes":"55","size_leaf_vector":"1"}},{"base_weights":[3.8625274E-3,-1.3480322E-1,1.3851354E-1,-1.8665084E-1,9.237456E-2,8.6381964E-2,3.9782917E-1,-2.5198317E-1,6.340736E-2,-6.177655E-1,1.4053726E-1,3.8918924E-2,2.713902E-1,8.082838E-1,3.4513065E-1,1.8920217E-1,-2.8094092E-1,-1.0517697E-1,2.695238E-1,5.2503157E-1,-9.712031E-1,3.1129283E-1,-3.580888E-2,-1.8211403E-1,9.0241045E-2,4.239879E-1,5.2435424E-2,-2.0706056E-1,8.338271E-1,-2.7038094E-1,3.5246575E-1,5.3818624E-2,-3.000249E-2,1.1295247E-2,-3.0964365E-2,-9.7730234E-2,-4.319891E-3,1.2768361E-2,6.7495696E-2,-1.4331156E-1,1.22878455E-1,-1.22261E-1,7.954678E-2,3.717216E-2,-1.0445255E-1,-2.0750618E-1,-1.598617E-3,1.0259501E-2,-4.7505178E-2,9.511872E-3,-1.8858013E-1,5.1429685E-2,2.5419227E-3,-4.029302E-2,2.838721E-2,-1.8259124E-1,8.521386E-2,-2.1620074E-1,3.5694733E-2],"categories":[],"categories_nodes":[],"categories_segments":[],"categories_sizes":[],"default_left":[0,0,0,0,0,0,0,0,0,0,0,0,0,0,0,0,0,0,0,0,0,0,0,0,0,0,0,0,0,0,0,0,0,0,0,0,0,0,0,0,0,0,0,0,0,0,0,0,0,0,0,0,0,0,0,0,0,0,0],"id":20,"left_children":[1,3,5,7,9,11,13,15,17,19,21,23,25,27,29,31,33,35,37,39,41,43,45,47,49,51,53,-1,55,-1,57,-1,-1,-1,-1,-1,-1,-1,-1,-1,-1,-1,-1,-1,-1,-1,-1,-1,-1,-1,-1,-1,-1,-1,-1,-1,-1,-1,-1],"loss_changes":[1.1336208E3,3.5232928E2,4.1637585E2,3.9787555E2,1.902055E2,2.2520807E2,1.1123987E2,2.467384E2,1.7535127E2,1.4318495E2,1.5678737E2,2.315777E2,1.7493524E2,4.4809814E1,1.03175354E2,2.0331593E2,2.0489648E2,1.5001828E2,1.3047488E2,1.176414E2,1.2095917E2,2.1711414E2,1.0353915E2,3.208879E2,1.5986014E2,1.11052185E2,2.2688184E2,0E0,2.9874176E1,0E0,5.2165466E1,0E0,0E0,0E0,0E0,0E0,0E0,0E0,0E0,0E0,0E0,0E0,0E0,0E0,0E0,0E0,0E0,0E0,0E0,0E0,0E0,0E0,0E0,0E0,0E0,0E0,0E0,0E0,0E0],"parents":[2147483647,0,0,1,1,2,2,3,3,4,4,5,5,6,6,7,7,8,8,9,9,10,10,11,11,12,12,13,13,14,14,15,15,16,16,17,17,18,18,19,19,20,20,21,21,22,22,23,23,24,24,25,25,26,26,28,28,30,30],"right_children":[2,4,6,8,10,12,14,16,18,20,22,24,26,28,30,32,34,36,38,40,42,44,46,48,50,52,54,-1,56,-1,58,-1,-1,-1,-1,-1,-1,-1,-1,-1,-1,-1,-1,-1,-1,-1,-1,-1,-1,-1,-1,-1,-1,-1,-1,-1,-1,-1,-1],"split_conditions":[2.6297707E-2,5.6816086E-2,1.6889672E-1,3.3819884E-2,2.395682E0,1.1969532E-2,4.2944785E-2,5.8125603E-1,3.73413E-4,-9.852217E-3,-1.7383348E-2,3.8732395E-2,6.2068963E-1,-2.5022341E-2,4.4444446E-2,4.282187E0,-1.2351171E-1,8.7108025E-3,1.2947903E1,5.4347825E-1,2.0089813E-2,1.7703563E0,-1.5322581E-2,3.6842105E-1,9.47642E1,1.4696076E0,3.9289616E-2,-2.0706056E-1,2.7842013E-2,-2.7038094E-1,6.077E-1,5.3818624E-2,-3.000249E-2,1.1295247E-2,-3.0964365E-2,-9.7730234E-2,-4.319891E-3,1.2768361E-2,6.7495696E-2,-1.4331156E-1,1.22878455E-1,-1.22261E-1,7.954678E-2,3.717216E-2,-1.0445255E-1,-2.0750618E-1,-1.598617E-3,1.0259501E-2,-4.7505178E-2,9.511872E-3,-1.8858013E-1,5.1429685E-2,2.5419227E-3,-4.029302E-2,2.838721E-2,-1.8259124E-1,8.521386E-2,-2.1620074E-1,3.5694733E-2],"split_indices":[3,7,9,9,5,4,7,2,4,4,1,7,8,4,7,5,9,3,5,8,4,2,1,8,5,2,3,0,3,0,5,0,0,0,0,0,0,0,0,0,0,0,0,0,0,0,0,0,0,0,0,0,0,0,0,0,0,0,0],"split_type":[0,0,0,0,0,0,0,0,0,0,0,0,0,0,0,0,0,0,0,0,0,0,0,0,0,0,0,0,0,0,0,0,0,0,0,0,0,0,0,0,0,0,0,0,0,0,0,0,0,0,0,0,0,0,0,0,0,0,0],"sum_hessian":[6.0712027E4,2.9910115E4,3.0801912E4,2.4352455E4,5.5576587E3,2.5647246E4,5.1546655E3,1.9307902E4,5.0445537E3,3.522369E2,5.205422E3,2.0411879E4,5.2353667E3,5.848773E2,4.5697886E3,1.1888995E3,1.8119002E4,2.7751917E3,2.269362E3,8.309003E1,2.6914688E2,2.6442424E3,2.5611794E3,3.8458994E3,1.656598E4,3.0846343E3,2.1507327E3,4.439639E0,5.804377E2,1.0085278E1,4.559703E3,6.938501E2,4.9504944E2,1.2304443E3,1.6888559E4,1.8315495E2,2.5920366E3,1.6821718E3,5.8719037E2,2.1693336E1,6.1396694E1,2.3588686E2,3.3260036E1,2.532112E3,1.12130295E2,2.3658327E1,2.537521E3,1.950672E3,1.8952273E3,1.6526139E4,3.984137E1,2.514582E3,5.700521E2,7.2449805E2,1.4262346E3,3.2938476E0,5.7714386E2,7.25584E0,4.5524473E3],"tree_param":{"num_deleted":"0","num_feature":"10","num_nodes":"59","size_leaf_vector":"1"}},{"base_weights":[3.3748623E-3,-7.6248236E-2,1.8752232E-1,-1.362268E-1,1.17237754E-1,1.5323761E-1,4.675116E-1,-3.0300653E-1,-6.909497E-2,8.7115735E-2,7.6977545E-1,2.3545872E-1,1.385631E-2,8.6713356E-1,4.0037116E-1,-1.3079667E-1,-4.7089443E-1,-4.476684E-2,-5.342361E-1,-3.3128282E-1,1.2823579E-1,7.953965E-1,-2.6403618E-1,8.314724E-2,3.1837022E-1,-2.1954115E-1,2.6603157E-2,-1.2522891E-1,8.81928E-1,-5.208708E-1,4.3834132E-1,-4.322573E-3,-7.2113685E-2,-3.767158E-2,-1.07315995E-1,-7.343353E-3,3.6514368E-2,-4.312577E-2,-1.726626E-1,-9.013615E-2,1.8546924E-2,1.4622106E-2,-5.5276424E-2,8.04735E-2,-1.1935975E-1,-2.9188642E-2,1.9884499E-2,7.0966706E-2,2.8101763E-2,-6.354133E-3,2.4558645E-2,6.9670506E-2,1.0158085E-1,1.4620686E-2,-2.7439108E-1,5.1166307E-2,5.0415387E-3],"categories":[],"categories_nodes":[],"categories_segments":[],"categories_sizes":[],"default_left":[0,0,0,0,0,0,0,0,0,0,0,0,0,0,0,0,0,0,0,0,0,0,0,0,0,0,0,0,0,0,0,0,0,0,0,0,0,0,0,0,0,0,0,0,0,0,0,0,0,0,0,0,0,0,0,0,0],"id":21,"left_children":[1,3,5,7,9,11,13,15,17,19,21,23,25,27,29,31,33,35,37,39,41,43,-1,45,47,-1,49,-1,51,53,55,-1,-1,-1,-1,-1,-1,-1,-1,-1,-1,-1,-1,-1,-1,-1,-1,-1,-1,-1,-1,-1,-1,-1,-1,-1,-1],"loss_changes":[8.84792E2,4.889179E2,1.7478857E2,3.6004865E2,1.9589323E2,1.8599533E2,5.2957794E1,2.6678094E2,2.5946823E2,1.6401645E2,4.0524017E1,1.2888641E2,1.6967108E2,1.0038208E1,5.9791504E1,2.3557544E2,2.6465088E2,2.5610846E2,1.3919589E2,2.5149506E2,1.0637721E2,9.082336E0,0E0,1.5624423E2,9.640692E1,0E0,1.1824636E2,0E0,6.3231354E0,1.0103589E2,4.6505676E1,0E0,0E0,0E0,0E0,0E0,0E0,0E0,0E0,0E0,0E0,0E0,0E0,0E0,0E0,0E0,0E0,0E0,0E0,0E0,0E0,0E0,0E0,0E0,0E0,0E0,0E0],"parents":[2147483647,0,0,1,1,2,2,3,3,4,4,5,5,6,6,7,7,8,8,9,9,10,10,11,11,12,12,13,13,14,14,15,15,16,16,17,17,18,18,19,19,20,20,21,21,23,23,24,24,26,26,28,28,29,29,30,30],"right_children":[2,4,6,8,10,12,14,16,18,20,22,24,26,28,30,32,34,36,38,40,42,44,-1,46,48,-1,50,-1,52,54,56,-1,-1,-1,-1,-1,-1,-1,-1,-1,-1,-1,-1,-1,-1,-1,-1,-1,-1,-1,-1,-1,-1,-1,-1,-1,-1],"split_conditions":[6.508876E-2,4.4042207E-2,1E0,2.8301887E-2,6.481481E-2,6.2857145E-1,6.512564E-1,-1.3132296E-2,1.6085446E0,1.1209707E1,5.9850372E-2,1.2777114E1,1.2480747E-2,-2.9092157E-1,1.1224674E1,7.5757575E-1,7.008484E-3,4.9160838E-2,9.411765E-1,2.9134698E-4,2.1130738E0,1.5767365E1,-2.6403618E-1,-7.973422E-2,-3.581943E-2,-2.1954115E-1,1.6889672E-1,-1.2522891E-1,1.2944427E1,1.0464497E1,1.4412096E1,-4.322573E-3,-7.2113685E-2,-3.767158E-2,-1.07315995E-1,-7.343353E-3,3.6514368E-2,-4.312577E-2,-1.726626E-1,-9.013615E-2,1.8546924E-2,1.4622106E-2,-5.5276424E-2,8.04735E-2,-1.1935975E-1,-2.9188642E-2,1.9884499E-2,7.0966706E-2,2.8101763E-2,-6.354133E-3,2.4558645E-2,6.9670506E-2,1.0158085E-1,1.4620686E-2,-2.7439108E-1,5.1166307E-2,5.0415387E-3],"split_indices":[7,9,8,7,4,8,2,1,2,6,7,6,3,9,6,8,4,3,8,4,2,6,0,1,4,0,9,0,6,6,6,0,0,0,0,0,0,0,0,0,0,0,0,0,0,0,0,0,0,0,0,0,0,0,0,0,0],"split_type":[0,0,0,0,0,0,0,0,0,0,0,0,0,0,0,0,0,0,0,0,0,0,0,0,0,0,0,0,0,0,0,0,0,0,0,0,0,0,0,0,0,0,0,0,0,0,0,0,0,0,0,0,0,0,0,0,0],"sum_hessian":[6.0342344E4,4.212751E4,1.8214832E4,3.2158896E4,9.968614E3,1.6229121E4,1.9857103E3,9.228487E3,2.2930408E4,9.529838E3,4.387767E2,1.0207199E4,6.021922E3,2.8391626E2,1.7017941E3,4.556484E3,4.672003E3,2.1791738E4,1.1386703E3,8.5214667E2,8.677691E3,4.362657E2,2.5109973E0,3.5985442E3,6.6086553E3,3.356317E1,5.988359E3,1.3882864E0,2.8252798E2,6.68616E1,1.6349325E3,3.9688228E3,5.8766113E2,4.041624E3,6.3037915E2,2.0368135E4,1.4236046E3,1.0494025E3,8.9267876E1,4.0481366E2,4.47333E2,8.455175E3,2.2251674E2,4.348196E2,1.4460955E0,8.480551E2,2.7504893E3,5.74311E2,6.034344E3,4.2426016E3,1.7457574E3,1.2113801E2,1.6138997E2,5.2147655E1,1.4713951E1,1.3747689E3,2.6016357E2],"tree_param":{"num_deleted":"0","num_feature":"10","num_nodes":"57","size_leaf_vector":"1"}},{"base_weights":[2.7290857E-3,-1.6332203E-1,8.854991E-2,-1.8023576E-1,7.304819E-1,4.6624407E-2,2.7540615E-1,2.1111189E-1,-2.0845872E-1,1.0149279E0,9.2875056E-2,1.1868916E-2,2.8313556E-1,-1.5414234E-3,3.538569E-1,-5.903197E-1,4.0024608E-1,-1.6887338E-1,-5.3193575E-1,8.7782E-1,1.6529877E0,-7.153247E-1,6.901777E-1,-2.4883933E-1,3.9114326E-2,8.1953543E-1,2.2460447E-1,8.42098E-2,-1.3501351E0,1.4917461E0,3.3866608E-1,3.363107E-2,-9.559736E-2,5.829037E-2,-3.5774183E-2,-7.241171E-2,-1.4795153E-2,-6.495753E-2,2.293694E-2,-1.2450778E-1,9.0894185E-2,1.7736357E-1,1.0748853E-1,7.695847E-2,-1.437811E-1,2.351773E-2,9.538391E-2,-5.6581553E-2,7.860265E-5,6.053698E-2,2.626482E-3,-1.207484E-1,9.314336E-2,-1.9863052E-2,2.8180111E-2,4.41785E-2,-9.971734E-3,-1.7479722E-1,1.3515078E-1,-4.6370953E-2,1.7507443E-1,2.6831597E-2,5.526222E-2],"categories":[],"categories_nodes":[],"categories_segments":[],"categories_sizes":[],"default_left":[0,0,0,0,0,0,0,0,0,0,0,0,0,0,0,0,0,0,0,0,0,0,0,0,0,0,0,0,0,0,0,0,0,0,0,0,0,0,0,0,0,0,0,0,0,0,0,0,0,0,0,0,0,0,0,0,0,0,0,0,0,0,0],"id":22,"left_children":[1,3,5,7,9,11,13,15,17,19,21,23,25,27,29,31,33,35,37,39,41,43,45,47,49,51,53,55,57,59,61,-1,-1,-1,-1,-1,-1,-1,-1,-1,-1,-1,-1,-1,-1,-1,-1,-1,-1,-1,-1,-1,-1,-1,-1,-1,-1,-1,-1,-1,-1,-1,-1],"loss_changes":[8.5509424E2,3.0921405E2,3.098912E2,2.2167657E2,6.880699E1,2.6559094E2,1.5750049E2,2.0491003E2,2.395813E2,2.1522583E1,5.760097E1,2.0011713E2,1.2978543E2,1.8527884E2,9.713959E1,8.781368E1,1.5154573E2,1.9363406E2,1.828764E2,1.5553818E1,1.2541962E0,5.556832E1,7.997368E0,2.1092311E2,1.8557675E2,9.341669E1,9.04418E1,9.911583E1,1.053118E2,3.8353806E1,8.377832E1,0E0,0E0,0E0,0E0,0E0,0E0,0E0,0E0,0E0,0E0,0E0,0E0,0E0,0E0,0E0,0E0,0E0,0E0,0E0,0E0,0E0,0E0,0E0,0E0,0E0,0E0,0E0,0E0,0E0,0E0,0E0,0E0],"parents":[2147483647,0,0,1,1,2,2,3,3,4,4,5,5,6,6,7,7,8,8,9,9,10,10,11,11,12,12,13,13,14,14,15,15,16,16,17,17,18,18,19,19,20,20,21,21,22,22,23,23,24,24,25,25,26,26,27,27,28,28,29,29,30,30],"right_children":[2,4,6,8,10,12,14,16,18,20,22,24,26,28,30,32,34,36,38,40,42,44,46,48,50,52,54,56,58,60,62,-1,-1,-1,-1,-1,-1,-1,-1,-1,-1,-1,-1,-1,-1,-1,-1,-1,-1,-1,-1,-1,-1,-1,-1,-1,-1,-1,-1,-1,-1,-1,-1],"split_conditions":[3.8304094E-2,5.5699963E-2,1.1174785E-1,-8.420677E-2,8.947368E-1,5.3326316E-2,7.950028E-3,1.1166241E1,2.479687E1,3.5017222E-2,2.0797011E-1,1.0931604E1,1.1297365E1,3.2722512E-3,3.9170507E-2,9.607872E0,5.9090906E-1,7.509E-1,3.4034222E-2,9.939759E-2,9.5734E0,5.7670125E-3,3.5267857E-1,-3.6E-2,-4.170616E-2,6.666667E-2,-1.4104141E-1,-3.6363635E-2,9.217391E-1,1.27401E1,1E0,3.363107E-2,-9.559736E-2,5.829037E-2,-3.5774183E-2,-7.241171E-2,-1.4795153E-2,-6.495753E-2,2.293694E-2,-1.2450778E-1,9.0894185E-2,1.7736357E-1,1.0748853E-1,7.695847E-2,-1.437811E-1,2.351773E-2,9.538391E-2,-5.6581553E-2,7.860265E-5,6.053698E-2,2.626482E-3,-1.207484E-1,9.314336E-2,-1.9863052E-2,2.8180111E-2,4.41785E-2,-9.971734E-3,-1.7479722E-1,1.3515078E-1,-4.6370953E-2,1.7507443E-1,2.6831597E-2,5.526222E-2],"split_indices":[7,0,1,1,8,3,0,6,5,7,1,6,6,0,7,6,8,5,3,0,5,7,1,1,4,8,1,0,8,5,8,0,0,0,0,0,0,0,0,0,0,0,0,0,0,0,0,0,0,0,0,0,0,0,0,0,0,0,0,0,0,0,0],"split_type":[0,0,0,0,0,0,0,0,0,0,0,0,0,0,0,0,0,0,0,0,0,0,0,0,0,0,0,0,0,0,0,0,0,0,0,0,0,0,0,0,0,0,0,0,0,0,0,0,0,0,0,0,0,0,0,0,0,0,0,0,0,0,0],"sum_hessian":[6.000189E4,2.0444256E4,3.9557633E4,2.006535E4,3.789045E2,3.2309502E4,7.248132E3,1.3492858E3,1.8716064E4,2.6160626E2,1.1729824E2,2.8170828E4,4.138674E3,1.6001711E3,5.647961E3,2.5722156E2,1.0920642E3,1.6676775E4,2.0392896E3,2.1729019E2,4.4316086E1,4.9764786E1,6.7533455E1,2.6646792E3,2.5506148E4,4.0589594E2,3.732778E3,1.5053876E3,9.4783516E1,7.3126305E1,5.5748345E3,7.280395E1,1.844176E2,8.801897E2,2.1187448E2,6.043505E2,1.6072425E4,1.7664746E3,2.7281503E2,2.575893E0,2.147143E2,3.49534E1,9.362689E0,1.6266804E1,3.3497982E1,2.5470684E1,4.206277E1,1.1734089E3,1.4912703E3,5.6492163E2,2.4941227E4,2.0722357E1,3.8517358E2,4.4410248E2,3.2886755E3,5.1084503E2,9.945426E2,8.292516E1,1.1858351E1,8.460267E0,6.466604E1,4.197067E3,1.377768E3],"tree_param":{"num_deleted":"0","num_feature":"10","num_nodes":"63","size_leaf_vector":"1"}},{"base_weights":[9.3351066E-4,-1.3234319E-1,6.13847E-2,1.7563729E-1,-1.9172901E-1,7.994575E-3,1.9939929E-1,2.55476E-1,-7.5167483E-1,-2.7326366E-1,9.746332E-2,-1.3480845E-1,7.4941136E-2,3.974152E-1,7.2691016E-2,-1.0492724E0,3.0963692E-1,-1.02544E0,3.8262588E-1,-3.1419063E-1,1.1939189E-1,-9.612814E-2,4.422306E-1,-3.0257487E-1,-5.080377E-2,5.262553E-1,5.488646E-2,2.2358386E-1,4.9595475E-1,-7.817559E-2,2.63338E-1,-1.4324227E-1,1.4139435E-1,5.4945666E-2,6.689567E-3,1.21104956E-1,-1.2540774E-1,1.6478732E-1,-1.4766861E-1,-6.829767E-2,-2.4683446E-2,3.133865E-2,-7.307919E-2,-3.3061203E-2,2.5823236E-2,1.7768688E-1,3.6429454E-2,1.85756E-2,-3.7674513E-2,-4.0276046E-3,-2.1747771E-1,6.3687585E-2,-2.4296258E-2,2.4587646E-2,1.8802931E-3,2.9547477E-2,-1.2248262E-1,6.2392455E-2,1.5581461E-2,8.832062E-3,-2.7640466E-2,5.932155E-2,1.9674605E-2],"categories":[],"categories_nodes":[],"categories_segments":[],"categories_sizes":[],"default_left":[0,0,0,0,0,0,0,0,0,0,0,0,0,0,0,0,0,0,0,0,0,0,0,0,0,0,0,0,0,0,0,0,0,0,0,0,0,0,0,0,0,0,0,0,0,0,0,0,0,0,0,0,0,0,0,0,0,0,0,0,0,0,0],"id":23,"left_children":[1,3,5,7,9,11,13,15,17,19,21,23,25,27,29,31,33,35,37,39,41,43,45,47,49,51,53,55,57,59,61,-1,-1,-1,-1,-1,-1,-1,-1,-1,-1,-1,-1,-1,-1,-1,-1,-1,-1,-1,-1,-1,-1,-1,-1,-1,-1,-1,-1,-1,-1,-1,-1],"loss_changes":[4.7745795E2,3.3825012E2,3.00415E2,2.2154605E2,3.6558362E2,2.8106516E2,2.8530258E2,1.9491023E2,7.407034E1,1.9438953E2,2.2766762E2,1.3222925E2,1.8113455E2,7.5895874E1,1.9951459E2,1.05817665E2,1.5391646E2,9.939285E1,1.1266775E2,2.7189514E2,1.8863025E2,1.8163016E2,1.26934235E2,1.1346207E2,1.3975377E2,7.260776E1,1.3207597E2,1.6771008E2,1.2313367E2,1.2784091E2,6.719624E1,0E0,0E0,0E0,0E0,0E0,0E0,0E0,0E0,0E0,0E0,0E0,0E0,0E0,0E0,0E0,0E0,0E0,0E0,0E0,0E0,0E0,0E0,0E0,0E0,0E0,0E0,0E0,0E0,0E0,0E0,0E0,0E0],"parents":[2147483647,0,0,1,1,2,2,3,3,4,4,5,5,6,6,7,7,8,8,9,9,10,10,11,11,12,12,13,13,14,14,15,15,16,16,17,17,18,18,19,19,20,20,21,21,22,22,23,23,24,24,25,25,26,26,27,27,28,28,29,29,30,30],"right_children":[2,4,6,8,10,12,14,16,18,20,22,24,26,28,30,32,34,36,38,40,42,44,46,48,50,52,54,56,58,60,62,-1,-1,-1,-1,-1,-1,-1,-1,-1,-1,-1,-1,-1,-1,-1,-1,-1,-1,-1,-1,-1,-1,-1,-1,-1,-1,-1,-1,-1,-1,-1,-1],"split_conditions":[3.6214646E-2,-8.101406E-2,6.0975607E-3,3.482587E-2,3.81113E-2,-4.605263E-2,3.0555555E-1,-1.734104E-2,1.1914218E-2,1.403284E1,3.4013605E-3,4.8076924E-2,-3.581943E-2,-2.5949366E-2,4.1809298E-2,4.202792E0,7.5796074E-1,9.9843445E0,1.0428616E-4,-5.8139535E-3,3.1823747E-2,6.7164177E-1,3.6546777E-3,9.677419E-2,1.6568499E1,2.0812891E-1,7.294079E-1,1.5275102E1,1.2537628E0,1.1625847E0,7.4407655E-1,-1.4324227E-1,1.4139435E-1,5.4945666E-2,6.689567E-3,1.21104956E-1,-1.2540774E-1,1.6478732E-1,-1.4766861E-1,-6.829767E-2,-2.4683446E-2,3.133865E-2,-7.307919E-2,-3.3061203E-2,2.5823236E-2,1.7768688E-1,3.6429454E-2,1.85756E-2,-3.7674513E-2,-4.0276046E-3,-2.1747771E-1,6.3687585E-2,-2.4296258E-2,2.4587646E-2,1.8802931E-3,2.9547477E-2,-1.2248262E-1,6.2392455E-2,1.5581461E-2,8.832062E-3,-2.7640466E-2,5.932155E-2,1.9674605E-2],"split_indices":[7,9,4,7,9,9,8,4,0,6,4,7,4,0,3,2,2,6,4,4,7,8,4,8,6,9,2,6,2,2,2,0,0,0,0,0,0,0,0,0,0,0,0,0,0,0,0,0,0,0,0,0,0,0,0,0,0,0,0,0,0,0,0],"split_type":[0,0,0,0,0,0,0,0,0,0,0,0,0,0,0,0,0,0,0,0,0,0,0,0,0,0,0,0,0,0,0,0,0,0,0,0,0,0,0,0,0,0,0,0,0,0,0,0,0,0,0,0,0,0,0,0,0,0,0,0,0,0,0],"sum_hessian":[5.925995E4,1.8491207E4,4.0768742E4,2.9888403E3,1.5502367E4,2.939754E4,1.1371205E4,2.7525767E3,2.3626381E2,1.2092946E4,3.4094204E3,9.382599E3,2.001494E4,4.436242E3,6.934963E3,1.089749E2,2.6436016E3,1.9040521E2,4.5858604E1,1.0951644E4,1.1413029E3,2.1838696E3,1.2255509E3,3.1296826E3,6.252916E3,8.504738E2,1.9164467E4,1.6061465E3,2.8300957E3,3.871712E3,3.063251E3,9.466789E1,1.4307E1,1.3291677E3,1.314434E3,1.7261312E1,1.7314389E2,2.7356464E1,1.850214E1,1.689919E3,9.261725E3,9.297779E2,2.1152496E2,1.3142708E3,8.6959894E2,6.641472E1,1.1591361E3,4.1247507E2,2.7172075E3,6.2230894E3,2.9826519E1,7.436957E2,1.0677814E2,3.0444402E3,1.6120026E4,1.5309546E3,7.519196E1,2.0558108E3,7.742851E2,2.1045862E3,1.7671257E3,5.131828E2,2.5500684E3],"tree_param":{"num_deleted":"0","num_feature":"10","num_nodes":"63","size_leaf_vector":"1"}},{"base_weights":[9.7839255E-3,-1.9819794E-2,2.9974797E-1,-4.348143E-1,-5.6173983E-3,6.789169E-1,2.5049704E-1,-7.51771E-1,-4.943793E-2,-3.9980944E-2,1.10577784E-1,-1.1406317E0,7.5302446E-1,-2.3916726E-1,2.5872287E-1,-4.0319848E-1,-1.0338674E0,4.4776168E-1,-5.609774E-1,8.766466E-1,-4.382679E-2,1.842492E-1,3.8753217E-3,1.01040356E-1,-2.1563685E-1,-1.9159566E-1,7.740126E-1,5.21294E-1,2.2874513E-1,-5.7325136E-2,2.3857057E-1,-1.11210026E-1,1.6611934E-2,1.8916197E-1,1.644336E-3,1.0523963E-1,-7.314662E-2,-7.233148E-2,2.3231547E-1,1.8986909E-3,-1.024419E-2,6.458974E-3,3.1215444E-2,-3.9243724E-2,1.6210597E-2,1.1457516E-1,6.407122E-2,6.2209745E-3,6.6930726E-2,1.7493687E-3,2.747855E-2],"categories":[],"categories_nodes":[],"categories_segments":[],"categories_sizes":[],"default_left":[0,0,0,0,0,0,0,0,0,0,0,0,0,0,0,0,0,0,0,0,0,0,0,0,0,0,0,0,0,0,0,0,0,0,0,0,0,0,0,0,0,0,0,0,0,0,0,0,0,0,0],"id":24,"left_children":[1,3,5,7,9,11,13,15,17,19,21,23,25,-1,27,29,31,33,35,37,39,41,43,-1,-1,-1,45,47,49,-1,-1,-1,-1,-1,-1,-1,-1,-1,-1,-1,-1,-1,-1,-1,-1,-1,-1,-1,-1,-1,-1],"loss_changes":[5.0924072E2,3.1726123E2,1.02457245E2,2.1753488E2,2.0782887E2,8.5969696E1,1.0636383E2,9.568231E1,2.0497241E2,1.4164569E2,9.338617E1,5.7017155E1,3.5490265E1,0E0,3.806613E1,2.0946576E2,5.0833923E1,2.5451524E2,1.1001973E2,3.9021967E2,1.4728632E2,1.07538956E2,3.0440262E2,0E0,0E0,0E0,2.9149506E1,3.3684067E1,4.236107E1,0E0,0E0,0E0,0E0,0E0,0E0,0E0,0E0,0E0,0E0,0E0,0E0,0E0,0E0,0E0,0E0,0E0,0E0,0E0,0E0,0E0,0E0],"parents":[2147483647,0,0,1,1,2,2,3,3,4,4,5,5,6,6,7,7,8,8,9,9,10,10,11,11,12,12,14,14,15,15,16,16,17,17,18,18,19,19,20,20,21,21,22,22,26,26,27,27,28,28],"right_children":[2,4,6,8,10,12,14,16,18,20,22,24,26,-1,28,30,32,34,36,38,40,42,44,-1,-1,-1,46,48,50,-1,-1,-1,-1,-1,-1,-1,-1,-1,-1,-1,-1,-1,-1,-1,-1,-1,-1,-1,-1,-1,-1],"split_conditions":[1.6889672E-1,1.6806724E-2,4.2944785E-2,-4.390948E-3,6.968839E-2,5.91133E-2,4.4444446E-2,-3.6103897E-2,1.3513514E-2,1.7087063E-2,6.1538464E-1,-9.31677E-2,-2.5022341E-2,-2.3916726E-1,1.4814815E-1,-3.6808927E-2,1.6528925E-2,1.3999067E-3,-1.1486001E-2,1.6605167E-2,8.9366615E-1,-3.1127313E-2,3.4297276E-2,1.01040356E-1,-2.1563685E-1,-1.9159566E-1,1.0445063E-1,-2.8571428E-3,2.8169013E-3,-5.7325136E-2,2.3857057E-1,-1.11210026E-1,1.6611934E-2,1.8916197E-1,1.644336E-3,1.0523963E-1,-7.314662E-2,-7.233148E-2,2.3231547E-1,1.8986909E-3,-1.024419E-2,6.458974E-3,3.1215444E-2,-3.9243724E-2,1.6210597E-2,1.1457516E-1,6.407122E-2,6.2209745E-3,6.6930726E-2,1.7493687E-3,2.747855E-2],"split_indices":[9,7,7,9,7,1,7,9,7,7,8,1,4,0,8,9,7,9,0,1,2,0,3,0,0,0,1,4,0,0,0,0,0,0,0,0,0,0,0,0,0,0,0,0,0,0,0,0,0,0,0],"split_type":[0,0,0,0,0,0,0,0,0,0,0,0,0,0,0,0,0,0,0,0,0,0,0,0,0,0,0,0,0,0,0,0,0,0,0,0,0,0,0,0,0,0,0,0,0,0,0,0,0,0,0],"sum_hessian":[5.9322617E4,5.3828008E4,5.4946094E3,1.7802228E3,5.2047785E4,6.301875E2,4.864422E3,9.7630237E2,8.039204E2,4.01689E4,1.1878888E4,2.4098957E1,6.0608856E2,1.4198027E1,4.850224E3,4.3778384E2,5.385185E2,4.0773752E2,3.9618286E2,1.6688217E2,4.0002016E4,7.0266772E3,4.852211E3,7.7313843E0,1.6367573E1,4.0244784E0,6.020641E2,4.953272E2,4.354897E3,4.13373E2,2.4410883E1,5.0562744E2,3.2891075E1,9.300692E1,3.147306E2,3.7369938E1,3.5881293E2,7.947548E1,8.74067E1,1.9309768E4,2.0692248E4,3.6311367E3,3.3955403E3,1.3840839E3,3.4681272E3,1.569045E2,4.4515958E2,1.2110938E2,3.7421783E2,7.795218E2,3.575375E3],"tree_param":{"num_deleted":"0","num_feature":"10","num_nodes":"51","size_leaf_vector":"1"}},{"base_weights":[1.7309365E-3,-5.6983374E-2,1.3566293E-1,-2.007055E-1,6.1771516E-3,2.5916192E-1,5.906958E-2,-4.949598E-1,-1.4233106E-1,3.0813467E-2,-3.1902874E-1,1.6335027E-1,4.5629922E-1,1.0292421E-2,3.0250573E-1,-5.505927E-1,8.8563216E-1,2.3546086E-1,-1.9670281E-1,-5.274345E-1,4.4539846E-2,-7.1020633E-1,-1.0460232E-1,-1.2946265E0,1.8173817E-1,-3.7784904E-1,5.054704E-1,6.508678E-1,-1.02937E-2,4.5417282E-1,1.68936E-2,-9.6568994E-2,-3.5803396E-2,9.801888E-2,6.3941455E-3,3.156979E-2,-1.6196582E-1,-5.7581395E-2,-1.1799658E-2,-1.2190916E-1,-1.7415298E-2,1.1345574E-2,-7.677493E-3,-1.1855717E-1,4.2146547E-3,-1.7960452E-1,-2.109828E-3,-1.7526294E-1,8.0023356E-2,1.8769015E-2,-2.802514E-1,-1.3442518E-1,5.5110242E-2,6.2180966E-2,9.318405E-3,1.0012453E-1,2.7335042E-3,-2.7329138E-2,4.6257847E-3,-9.584185E-2,4.7682818E-2,-6.1198145E-2,2.7006228E-2],"categories":[],"categories_nodes":[],"categories_segments":[],"categories_sizes":[],"default_left":[0,0,0,0,0,0,0,0,0,0,0,0,0,0,0,0,0,0,0,0,0,0,0,0,0,0,0,0,0,0,0,0,0,0,0,0,0,0,0,0,0,0,0,0,0,0,0,0,0,0,0,0,0,0,0,0,0,0,0,0,0,0,0],"id":25,"left_children":[1,3,5,7,9,11,13,15,17,19,21,23,25,27,29,31,33,35,37,39,41,43,45,47,49,51,53,55,57,59,61,-1,-1,-1,-1,-1,-1,-1,-1,-1,-1,-1,-1,-1,-1,-1,-1,-1,-1,-1,-1,-1,-1,-1,-1,-1,-1,-1,-1,-1,-1,-1,-1],"loss_changes":[4.6365234E2,3.720993E2,1.6996628E2,2.148888E2,2.2816826E2,1.2984555E2,1.3171109E2,1.5957233E2,2.145823E2,2.0287895E2,1.6814558E2,1.2437047E2,9.244E1,1.21880264E2,8.0198364E1,1.5884637E2,6.200737E0,1.9616867E2,2.723779E2,1.5504352E2,2.1603305E2,2.5394724E2,1.8309572E2,5.6852318E1,8.176198E1,1.1365082E2,1.0183557E2,6.2843666E1,1.3320262E2,3.9158737E1,1.02576584E2,0E0,0E0,0E0,0E0,0E0,0E0,0E0,0E0,0E0,0E0,0E0,0E0,0E0,0E0,0E0,0E0,0E0,0E0,0E0,0E0,0E0,0E0,0E0,0E0,0E0,0E0,0E0,0E0,0E0,0E0,0E0,0E0],"parents":[2147483647,0,0,1,1,2,2,3,3,4,4,5,5,6,6,7,7,8,8,9,9,10,10,11,11,12,12,13,13,14,14,15,15,16,16,17,17,18,18,19,19,20,20,21,21,22,22,23,23,24,24,25,25,26,26,27,27,28,28,29,29,30,30],"right_children":[2,4,6,8,10,12,14,16,18,20,22,24,26,28,30,32,34,36,38,40,42,44,46,48,50,52,54,56,58,60,62,-1,-1,-1,-1,-1,-1,-1,-1,-1,-1,-1,-1,-1,-1,-1,-1,-1,-1,-1,-1,-1,-1,-1,-1,-1,-1,-1,-1,-1,-1,-1,-1],"split_conditions":[6.451613E-2,1.14256115E1,3.3628318E-1,2.1072797E-2,1.5312452E0,-2.905983E-2,9.876543E-1,5.3380784E-2,9.869197E0,7.807672E-3,6.3954E0,1.7498E0,1.5807878E-2,1.0154786E1,1.3418308E1,7.233453E-1,7.8542465E-1,2.9535865E-2,1.0464497E1,2.0280812E-2,1.08205E1,5.3672317E-2,-5.9850372E-2,1.5347986E-1,-2.9557522E-2,8.4545456E-2,8.053303E-2,8.264463E-2,5.4674E0,6.761566E-2,1.2931761E-1,-9.6568994E-2,-3.5803396E-2,