{"learner":{"attributes":{"scikit_learn":"{\"_estimator_type\": \"ranker\"}"},"feature_names":[],"feature_types":[],"gradient_booster":{"model":{"cats":{"enc":[],"feature_segments":[],"sorted_idx":[]},"gbtree_model_param":{"num_parallel_tree":"1","num_trees":"200"},"iteration_indptr":[0,1,2,3,4,5,6,7,8,9,10,11,12,13,14,15,16,17,18,19,20,21,22,23,24,25,26,27,28,29,30,31,32,33,34,35,36,37,38,39,40,41,42,43,44,45,46,47,48,49,50,51,52,53,54,55,56,57,58,59,60,61,62,63,64,65,66,67,68,69,70,71,72,73,74,75,76,77,78,79,80,81,82,83,84,85,86,87,88,89,90,91,92,93,94,95,96,97,98,99,100,101,102,103,104,105,106,107,108,109,110,111,112,113,114,115,116,117,118,119,120,121,122,123,124,125,126,127,128,129,130,131,132,133,134,135,136,137,138,139,140,141,142,143,144,145,146,147,148,149,150,151,152,153,154,155,156,157,158,159,160,161,162,163,164,165,166,167,168,169,170,171,172,173,174,175,176,177,178,179,180,181,182,183,184,185,186,187,188,189,190,191,192,193,194,195,196,197,198,199,200],"tree_info":[0,0,0,0,0,0,0,0,0,0,0,0,0,0,0,0,0,0,0,0,0,0,0,0,0,0,0,0,0,0,0,0,0,0,0,0,0,0,0,0,0,0,0,0,0,0,0,0,0,0,0,0,0,0,0,0,0,0,0,0,0,0,0,0,0,0,0,0,0,0,0,0,0,0,0,0,0,0,0,0,0,0,0,0,0,0,0,0,0,0,0,0,0,0,0,0,0,0,0,0,0,0,0,0,0,0,0,0,0,0,0,0,0,0,0,0,0,0,0,0,0,0,0,0,0,0,0,0,0,0,0,0,0,0,0,0,0,0,0,0,0,0,0,0,0,0,0,0,0,0,0,0,0,0,0,0,0,0,0,0,0,0,0,0,0,0,0,0,0,0,0,0,0,0,0,0,0,0,0,0,0,0,0,0,0,0,0,0,0,0,0,0,0,0,0,0,0,0,0,0],"trees":[{"base_weights":[5.0165197E-3,-1.6248131E-2,1.02836244E-1,-7.600404E-2,8.842671E-3,-1.8604116E-1,1.1134405E-1,-1.4697054E-1,-4.436559E-2,-7.724343E-2,2.885613E-2,2.0626304E-1,-2.7241245E-1,2.6349828E-2,1.3656975E-1,-1.5866864E-1,1.5097687E-1,-2.4280864E-1,-3.686344E-2,-4.1680425E-2,-2.7291152E-1,2.1117913E-2,2.0713295E-1,1.6112683E-2,1.6824239E-5,1.0746914E-2,-3.3923498E-1,-4.643353E-2,1.015629E-1,-2.7933556E-1,1.4226615E-1,-4.5007384E-1,-1.4877322E-1,2.8375706E-1,-9.508085E-2,-2.3054285E-2,-1.1655384E-1,-3.1166214E-2,-2.844358E-1,4.704445E-2,-7.023022E-2,-4.1656175E-1,-1.8425885E-1,2.5009343E-2,-1.8099634E-1,3.6197577E-2,4.339587E-1,-4.240908E-1,-5.6105997E-2,3.6150653E-2,-1.5917931E-1,3.8914835E-1,6.766249E-2,4.0792055E-2,-2.4334444E-2,9.2792414E-2,1.8938914E-1,-2.8145289E-2,3.7573401E-3,-5.64707E-3,-1.0680518E-2,1.7365063E-2,3.1908203E-3,7.671881E-4,-7.9883905E-3,-1.3643605E-2,-9.6927845E-4,-2.4333035E-3,1.2526448E-3,-1.731264E-2,-1.1573947E-3,1.3793659E-2,1.0065984E-3,-4.4112146E-4,-6.5578558E-3,3.3854307E-3,-2.2947818E-2,-1.4958936E-2,-3.5788359E-3,5.514114E-4,3.0225287E-3,-1.3869393E-3,-1.2857894E-2,1.4640862E-2,-1.2819004E-3,1.1619125E-2,2.585854E-2,-2.451559E-2,-3.0559625E-3,-1.0745204E-2,7.8977775E-3,4.918313E-3,-1.3739887E-2,-1.7631074E-2,-1.9133441E-3,4.186537E-3,2.204933E-2,-1.1222496E-3,9.910599E-3,-7.04202E-3,1.0459739E-2,-1.838417E-2,5.202223E-3,5.404615E-3,1.2525568E-2],"categories":[],"categories_nodes":[],"categories_segments":[],"categories_sizes":[],"default_left":[0,0,0,0,0,0,0,0,0,0,0,0,0,0,0,0,0,0,0,0,0,0,0,0,0,0,0,0,0,0,0,0,0,0,0,0,0,0,0,0,0,0,0,0,0,0,0,0,0,0,0,0,0,0,0,0,0,0,0,0,0,0,0,0,0,0,0,0,0,0,0,0,0,0,0,0,0,0,0,0,0,0,0,0,0,0,0,0,0,0,0,0,0,0,0,0,0,0,0,0,0,0,0,0,0],"id":0,"left_children":[1,3,5,7,9,11,13,15,17,19,21,23,25,27,29,31,33,35,37,39,41,43,45,-1,-1,-1,47,49,51,53,55,57,59,61,63,-1,65,67,69,71,73,75,77,79,81,83,85,87,89,91,93,95,97,99,-1,101,103,-1,-1,-1,-1,-1,-1,-1,-1,-1,-1,-1,-1,-1,-1,-1,-1,-1,-1,-1,-1,-1,-1,-1,-1,-1,-1,-1,-1,-1,-1,-1,-1,-1,-1,-1,-1,-1,-1,-1,-1,-1,-1,-1,-1,-1,-1,-1,-1],"loss_changes":[6.3227816E0,3.7445874E0,1.354703E0,1.6516914E0,3.0336955E0,5.9502757E-1,1.1281853E0,8.161783E-1,7.536448E-1,2.3000531E0,1.9661163E0,8.202253E-2,5.113841E-1,6.7286074E-1,1.0035696E0,5.651121E-1,3.2427356E-1,4.55562E-1,6.8897927E-1,7.183002E-1,5.715468E-1,1.0820944E0,2.283748E0,0E0,0E0,0E0,2.699945E-1,5.8968735E-1,5.6191957E-1,4.0712193E-1,9.1960144E-1,4.3965995E-1,4.7186613E-1,6.394419E-2,3.058298E-2,0E0,1.9287942E-1,4.781307E-1,1.6976029E-1,4.2130765E-1,7.9931104E-1,4.1364527E-1,4.0945053E-1,6.658187E-1,2.9636675E-1,5.6147957E-1,3.0579233E-1,1.9251513E-1,1.689734E-1,7.430975E-1,6.110125E-1,6.0477972E-2,6.536261E-1,1.2783462E-1,0E0,1.0644796E0,9.912014E-1,0E0,0E0,0E0,0E0,0E0,0E0,0E0,0E0,0E0,0E0,0E0,0E0,0E0,0E0,0E0,0E0,0E0,0E0,0E0,0E0,0E0,0E0,0E0,0E0,0E0,0E0,0E0,0E0,0E0,0E0,0E0,0E0,0E0,0E0,0E0,0E0,0E0,0E0,0E0,0E0,0E0,0E0,0E0,0E0,0E0,0E0,0E0,0E0],"parents":[2147483647,0,0,1,1,2,2,3,3,4,4,5,5,6,6,7,7,8,8,9,9,10,10,11,11,12,12,13,13,14,14,15,15,16,16,17,17,18,18,19,19,20,20,21,21,22,22,26,26,27,27,28,28,29,29,30,30,31,31,32,32,33,33,34,34,36,36,37,37,38,38,39,39,40,40,41,41,42,42,43,43,44,44,45,45,46,46,47,47,48,48,49,49,50,50,51,51,52,52,53,53,55,55,56,56],"right_children":[2,4,6,8,10,12,14,16,18,20,22,24,26,28,30,32,34,36,38,40,42,44,46,-1,-1,-1,48,50,52,54,56,58,60,62,64,-1,66,68,70,72,74,76,78,80,82,84,86,88,90,92,94,96,98,100,-1,102,104,-1,-1,-1,-1,-1,-1,-1,-1,-1,-1,-1,-1,-1,-1,-1,-1,-1,-1,-1,-1,-1,-1,-1,-1,-1,-1,-1,-1,-1,-1,-1,-1,-1,-1,-1,-1,-1,-1,-1,-1,-1,-1,-1,-1,-1,-1,-1,-1],"split_conditions":[5.597723E-2,2.1231422E-2,5.07E-4,7.901309E-3,1.239E-3,-1.0238908E-2,-3.36E-2,7.3E-2,9.230769E-3,1.06E-2,1.11E-2,-2.48E-2,2.6246719E-2,2.586207E-2,8.136405E0,1.633E-1,1.6528925E-1,-2.8070176E-2,1.3217936E0,8.247054E-1,1.6196663E-2,1.8863416E0,3.1106565E-2,1.6112683E-2,1.6824239E-5,1.0746914E-2,9.2E-3,9E-3,2.8901733E-2,8.4E-3,8.2E-3,1.202E0,8.9E-3,6.030943E-3,1.2135922E-2,-2.3054285E-2,-7.3394494E-4,1.5873017E-2,1.9986216E-2,1.0469802E-2,7.9E-3,2.324263E-2,6.63E-4,2.375297E-3,-5.7142857E-4,-1.3793103E-1,-5.29E-2,1.24087594E-1,4.7619048E-1,4.6484932E-2,-9.354997E-3,3.923E-1,1.3513514E-3,2.4205914E-1,-2.4334444E-2,-7.9325594E-2,2.6905632E-2,-2.8145289E-2,3.7573401E-3,-5.64707E-3,-1.0680518E-2,1.7365063E-2,3.1908203E-3,7.671881E-4,-7.9883905E-3,-1.3643605E-2,-9.6927845E-4,-2.4333035E-3,1.2526448E-3,-1.731264E-2,-1.1573947E-3,1.3793659E-2,1.0065984E-3,-4.4112146E-4,-6.5578558E-3,3.3854307E-3,-2.2947818E-2,-1.4958936E-2,-3.5788359E-3,5.514114E-4,3.0225287E-3,-1.3869393E-3,-1.2857894E-2,1.4640862E-2,-1.2819004E-3,1.1619125E-2,2.585854E-2,-2.451559E-2,-3.0559625E-3,-1.0745204E-2,7.8977775E-3,4.918313E-3,-1.3739887E-2,-1.7631074E-2,-1.9133441E-3,4.186537E-3,2.204933E-2,-1.1222496E-3,9.910599E-3,-7.04202E-3,1.0459739E-2,-1.838417E-2,5.202223E-3,5.404615E-3,1.2525568E-2],"split_indices":[10,8,6,4,6,5,27,27,8,28,28,27,8,1,7,29,9,2,3,3,4,3,4,0,0,0,28,28,1,28,28,6,28,4,8,0,0,2,8,4,28,8,6,5,5,10,27,2,9,4,0,29,5,10,0,0,4,0,0,0,0,0,0,0,0,0,0,0,0,0,0,0,0,0,0,0,0,0,0,0,0,0,0,0,0,0,0,0,0,0,0,0,0,0,0,0,0,0,0,0,0,0,0,0,0],"split_type":[0,0,0,0,0,0,0,0,0,0,0,0,0,0,0,0,0,0,0,0,0,0,0,0,0,0,0,0,0,0,0,0,0,0,0,0,0,0,0,0,0,0,0,0,0,0,0,0,0,0,0,0,0,0,0,0,0,0,0,0,0,0,0,0,0,0,0,0,0,0,0,0,0,0,0,0,0,0,0,0,0,0,0,0,0,0,0,0,0,0,0,0,0,0,0,0,0,0,0,0,0,0,0,0,0],"sum_hessian":[3.0378462E3,2.4960693E3,5.417769E2,7.375355E2,1.7585337E3,1.4902546E1,5.268744E2,2.2629662E2,5.1123895E2,3.311711E2,1.4273625E3,2.4385216E0,1.2464025E1,1.2105208E2,4.058223E2,2.1819716E2,8.099455E0,1.748079E1,4.9375815E2,2.8126392E2,4.9907185E1,1.3690563E3,5.8306297E1,1.1985358E0,1.2399858E0,1.2356454E0,1.1228379E1,6.1714184E1,5.93379E1,4.8341618E0,4.0098813E2,5.705168E0,2.1249199E2,5.1611357E0,2.9383187E0,5.4340477E0,1.20467415E1,4.8375177E2,1.0006378E1,6.831427E1,2.1294966E2,1.7634287E1,3.2272896E1,1.3440546E3,2.5001654E1,3.391079E1,2.439551E1,8.256095E0,2.9722836E0,3.6013977E1,2.5700207E1,5.152112E0,5.4185783E1,2.2160811E0,2.6180804E0,1.9706334E2,2.0392479E2,4.6372147E0,1.067953E0,1.3862415E2,7.386784E1,3.5549808E0,1.6061552E0,1.367209E0,1.5711098E0,3.9246948E0,8.122046E0,3.690183E2,1.1473346E2,7.828977E0,2.1774013E0,6.2154474E0,6.2098827E1,1.0662643E2,1.06323235E2,1.3714304E0,1.6262857E1,1.5158401E1,1.7114496E1,9.6477454E2,3.792801E2,8.752824E0,1.6248829E1,5.8592596E0,2.805153E1,8.236278E0,1.6159231E1,6.6855483E0,1.5705469E0,1.704151E0,1.2681327E0,3.0579237E1,5.4347405E0,9.148156E0,1.655205E1,1.1270503E0,4.025062E0,3.2548397E1,2.1637386E1,1.1449032E0,1.071178E0,3.9449306E0,1.9311841E2,8.870686E1,1.15217926E2],"tree_param":{"num_deleted":"0","num_feature":"30","num_nodes":"105","size_leaf_vector":"1"}},{"base_weights":[7.6072384E-4,-5.3337555E-2,7.811341E-2,-1.0824675E-1,-1.2791606E-2,4.743055E-1,7.10237E-2,-3.9250484E-1,-1.0540657E-1,-2.0146761E-2,2.090717E-1,-1.333191E-1,5.320829E-1,-7.18381E-2,8.5252516E-2,-7.312797E-2,-4.7253287E-1,-1.11548334E-1,6.0768803E-3,-3.6599433E-1,-1.7140415E-2,-6.294207E-2,3.1033632E-1,-1.3713154E-2,4.5409347E-3,2.1605796E-1,6.7602026E-1,9.424545E-2,-1.6033384E-1,9.5314175E-2,-1.05724186E-1,-7.4748497E-4,-4.7212173E-3,-8.98327E-3,-5.390446E-1,-8.38433E-2,-1.5089771E-1,1.7160675E-1,-7.532301E-2,-5.115853E-1,-6.91527E-2,-5.199339E-2,6.285487E-3,6.2791253E-3,-1.7964484E-2,1.6220467E-1,4.3411598E-1,4.9703944E-1,-4.232846E-1,3.3838832E-1,7.385539E-1,2.8881967E-1,-1.4294568E-1,-2.586782E-1,2.1107793E-2,7.833266E-2,1.5712339E-1,-2.0525931E-1,4.8378237E-2,-5.313139E-3,-3.0874783E-2,3.5776528E-5,-5.4574064E-3,-5.919972E-3,-1.2001267E-2,-8.362739E-3,1.175833E-2,-1.6456265E-2,-2.0482484E-3,-9.312244E-3,-2.9966956E-2,1.673502E-2,-2.018637E-2,-1.203728E-4,-5.8531566E-3,-4.26497E-4,9.851887E-3,-2.6179738E-3,1.3972046E-2,-1.8240408E-3,1.8457724E-2,2.3728194E-2,6.2053115E-3,-3.4049363E-3,3.3612516E-2,-6.826076E-3,-2.5707474E-2,2.2260172E-2,-3.3706418E-4,1.5842723E-2,3.9911333E-2,9.433035E-3,2.806021E-2,-2.5488501E-2,-1.8323176E-4,-7.940728E-4,-1.6238548E-2,4.5519066E-3,-1.7798416E-2,-1.3587247E-3,4.45737E-3,2.4835492E-2,6.8295435E-3,1.4310017E-2,-1.2844945E-2,2.1764409E-2,-5.690343E-3],"categories":[],"categories_nodes":[],"categories_segments":[],"categories_sizes":[],"default_left":[0,0,0,0,0,0,0,0,0,0,0,0,0,0,0,0,0,0,0,0,0,0,0,0,0,0,0,0,0,0,0,0,0,0,0,0,0,0,0,0,0,0,0,0,0,0,0,0,0,0,0,0,0,0,0,0,0,0,0,0,0,0,0,0,0,0,0,0,0,0,0,0,0,0,0,0,0,0,0,0,0,0,0,0,0,0,0,0,0,0,0,0,0,0,0,0,0,0,0,0,0,0,0,0,0,0,0],"id":1,"left_children":[1,3,5,7,9,11,13,15,17,19,21,23,25,27,29,31,33,35,37,39,41,43,45,-1,-1,47,49,51,53,55,57,-1,-1,-1,59,61,63,65,67,69,71,73,75,77,-1,79,81,83,85,87,89,91,93,95,97,99,101,103,105,-1,-1,-1,-1,-1,-1,-1,-1,-1,-1,-1,-1,-1,-1,-1,-1,-1,-1,-1,-1,-1,-1,-1,-1,-1,-1,-1,-1,-1,-1,-1,-1,-1,-1,-1,-1,-1,-1,-1,-1,-1,-1,-1,-1,-1,-1,-1,-1],"loss_changes":[1.6872627E1,5.280995E0,4.627287E0,7.721834E-1,2.2332668E0,1.0888844E0,3.322301E0,2.1085513E-1,6.8476105E-1,1.3693593E0,1.2293078E0,1.297063E-1,1.0674748E0,2.194889E0,2.8617697E0,2.437869E-3,4.9143076E-2,1.0197153E0,7.2861075E-1,4.5525658E-1,1.0721012E0,2.6372182E-1,5.195041E-1,0E0,0E0,1.9741708E0,1.271677E-1,2.4496365E0,1.7385135E0,1.4679775E0,1.1564788E0,0E0,0E0,0E0,1.247772E-1,1.1939726E0,1.1012526E0,4.2302054E-1,3.0306816E-1,1.0137427E-1,7.9614604E-1,1.7025772E0,2.2228055E0,1.9587873E-1,0E0,6.8132484E-1,1.5340304E-1,7.666912E-1,2.1986902E-2,1.7392963E-1,1.0499573E-1,6.8524885E-1,1.2338082E0,1.0067782E0,9.5699596E-1,1.2670822E0,2.0446072E0,1.230951E0,1.9410518E0,0E0,0E0,0E0,0E0,0E0,0E0,0E0,0E0,0E0,0E0,0E0,0E0,0E0,0E0,0E0,0E0,0E0,0E0,0E0,0E0,0E0,0E0,0E0,0E0,0E0,0E0,0E0,0E0,0E0,0E0,0E0,0E0,0E0,0E0,0E0,0E0,0E0,0E0,0E0,0E0,0E0,0E0,0E0,0E0,0E0,0E0,0E0,0E0],"parents":[2147483647,0,0,1,1,2,2,3,3,4,4,5,5,6,6,7,7,8,8,9,9,10,10,11,11,12,12,13,13,14,14,15,15,16,16,17,17,18,18,19,19,20,20,21,21,22,22,25,25,26,26,27,27,28,28,29,29,30,30,34,34,35,35,36,36,37,37,38,38,39,39,40,40,41,41,42,42,43,43,45,45,46,46,47,47,48,48,49,49,50,50,51,51,52,52,53,53,54,54,55,55,56,56,57,57,58,58],"right_children":[2,4,6,8,10,12,14,16,18,20,22,24,26,28,30,32,34,36,38,40,42,44,46,-1,-1,48,50,52,54,56,58,-1,-1,-1,60,62,64,66,68,70,72,74,76,78,-1,80,82,84,86,88,90,92,94,96,98,100,102,104,106,-1,-1,-1,-1,-1,-1,-1,-1,-1,-1,-1,-1,-1,-1,-1,-1,-1,-1,-1,-1,-1,-1,-1,-1,-1,-1,-1,-1,-1,-1,-1,-1,-1,-1,-1,-1,-1,-1,-1,-1,-1,-1,-1,-1,-1,-1,-1,-1],"split_conditions":[6.5717414E-2,2.690583E-2,1.2406948E-2,1.5940958E-1,5.9042264E-2,-6.510417E-4,-2.2435898E-2,-1.2886598E-3,7.3E-2,1.5940958E-1,-5.633803E-1,4.44662E-1,6.5E-3,8.606271E-1,2.2317104E0,2.27704E-2,2.27704E-2,8.1E-3,1.487E-3,2.8903589E-2,2.303E-3,1.7284596E-1,9.3E-3,-1.3713154E-2,4.5409347E-3,5.718032E-1,8.380358E0,3.742204E-2,1.2819625E0,1.9061583E-1,1.8099548E-2,-7.4748497E-4,-4.7212173E-3,-8.98327E-3,9E0,-2.73E-2,1.66E-2,-1.144678E-2,3.3250216E-3,-4.914005E-4,3.6216028E-2,8.4E-3,1.12E-2,5.721828E-2,-1.7964484E-2,5.721828E-2,1.2166995E0,3.2002896E-2,1.8357E0,3.0254863E-2,1.1534669E-1,8.3548E0,1.218E-3,-3.48E-2,9.974093E-2,9.18E-4,8.25E-4,-2.4691358E-1,6.4E-3,-5.313139E-3,-3.0874783E-2,3.5776528E-5,-5.4574064E-3,-5.919972E-3,-1.2001267E-2,-8.362739E-3,1.175833E-2,-1.6456265E-2,-2.0482484E-3,-9.312244E-3,-2.9966956E-2,1.673502E-2,-2.018637E-2,-1.203728E-4,-5.8531566E-3,-4.26497E-4,9.851887E-3,-2.6179738E-3,1.3972046E-2,-1.8240408E-3,1.8457724E-2,2.3728194E-2,6.2053115E-3,-3.4049363E-3,3.3612516E-2,-6.826076E-3,-2.5707474E-2,2.2260172E-2,-3.3706418E-4,1.5842723E-2,3.9911333E-2,9.433035E-3,2.806021E-2,-2.5488501E-2,-1.8323176E-4,-7.940728E-4,-1.6238548E-2,4.5519066E-3,-1.7798416E-2,-1.3587247E-3,4.45737E-3,2.4835492E-2,6.8295435E-3,1.4310017E-2,-1.2844945E-2,2.1764409E-2,-5.690343E-3],"split_indices":[10,8,8,3,4,5,5,5,27,3,9,3,28,3,3,8,8,28,6,10,6,8,28,0,0,3,7,1,3,10,5,0,0,0,25,27,27,10,4,5,10,28,28,10,0,10,3,4,6,4,10,6,6,27,1,6,6,9,28,0,0,0,0,0,0,0,0,0,0,0,0,0,0,0,0,0,0,0,0,0,0,0,0,0,0,0,0,0,0,0,0,0,0,0,0,0,0,0,0,0,0,0,0,0,0,0,0],"split_type":[0,0,0,0,0,0,0,0,0,0,0,0,0,0,0,0,0,0,0,0,0,0,0,0,0,0,0,0,0,0,0,0,0,0,0,0,0,0,0,0,0,0,0,0,0,0,0,0,0,0,0,0,0,0,0,0,0,0,0,0,0,0,0,0,0,0,0,0,0,0,0,0,0,0,0,0,0,0,0,0,0,0,0,0,0,0,0,0,0,0,0,0,0,0,0,0,0,0,0,0,0,0,0,0,0,0,0],"sum_hessian":[4.0300354E3,2.3716682E3,1.6583672E3,1.00669104E3,1.3649772E3,2.7995613E1,1.6303716E3,8.6016865E0,9.9808936E2,1.3220579E3,4.291933E1,2.3173535E0,2.5678259E1,1.4730759E2,1.4830641E3,2.1069646E0,6.494722E0,9.459738E2,5.2115547E1,1.0352683E1,1.3117052E3,1.1746013E1,3.1173317E1,1.285414E0,1.0319395E0,8.818236E0,1.6860023E1,5.1183838E1,9.612376E1,1.4093148E3,7.374922E1,1.0206624E0,1.0863023E0,1.887011E0,4.607711E0,5.569607E2,3.8901312E2,1.681447E1,3.530108E1,6.4605637E0,3.8921194E0,5.267657E2,7.849395E2,1.0315353E1,1.4306598E0,1.5242495E1,1.5930823E1,6.2805886E0,2.5376475E0,3.6365957E0,1.3223427E1,2.7998363E1,2.3185472E1,6.206034E1,3.406341E1,1.1073484E3,3.0196637E2,4.460608E1,2.914314E1,1.0683846E0,3.539326E0,1.285082E2,4.2845248E2,2.867756E2,1.0223752E2,2.3980591E0,1.441641E1,3.1861033E0,3.2114975E1,2.0357046E0,4.424859E0,1.7633126E0,2.1288068E0,2.995402E2,2.2722548E2,7.2925476E2,5.5684788E1,9.157803E0,1.1575501E0,8.196773E0,7.045721E0,1.3622635E1,2.3081887E0,1.6310407E0,4.649548E0,1.212753E0,1.3248944E0,2.5556731E0,1.0809226E0,2.4214234E0,1.0802004E1,2.1708515E1,6.2898483E0,5.648641E0,1.753683E1,1.354437E1,4.8515972E1,2.937438E1,4.6890326E0,1.0281226E2,1.0045362E3,1.589462E1,2.8607175E2,3.8093944E0,4.0796684E1,8.110581E0,2.1032558E1],"tree_param":{"num_deleted":"0","num_feature":"30","num_nodes":"107","size_leaf_vector":"1"}},{"base_weights":[-3.5778263E-3,-4.4315733E-2,3.8361987E-1,-9.161344E-2,1.0077712E-1,4.9027517E-2,4.6684325E-1,-1.2253732E-1,5.4844514E-2,1.7279708E-1,6.4235225E-2,3.216769E-1,-1.4190454E-2,5.772789E-1,2.3701032E-1,-1.4904572E-1,-4.2055503E-2,-5.2246875E-1,6.9188125E-2,2.2204238E-1,4.9579702E-2,3.5911478E-2,2.127591E-1,-1.7729579E-2,4.6692356E-1,-4.4127792E-1,2.1904048E-2,6.0710365E-1,1.019877E-2,-2.0972607E-1,2.949778E-1,-1.2642016E-1,-2.0654671E-1,6.9774605E-2,-6.890729E-2,-6.058564E-3,-5.8379036E-1,-1.3060762E-2,1.2888321E-1,3.171267E-1,3.468736E-2,-9.487228E-2,1.9561559E-1,7.6087825E-2,-7.4651904E-2,8.052284E-2,4.1513488E-1,6.054306E-1,-3.8001537E-2,-3.2160547E-2,-1.1625191E-1,-1.31051E-1,1.2915395E-1,6.915622E-1,4.7326428E-1,5.0769293E-1,-3.0138302E-1,-6.047693E-1,1.3757874E-1,4.2963555E-1,5.6864403E-2,-4.248911E-3,-7.5007E-3,-7.6967576E-3,-1.640389E-2,8.107428E-3,-9.777701E-4,-1.4237608E-3,-6.5142973E-3,-3.343434E-2,-1.1305135E-2,-3.3497326E-3,1.5045094E-2,1.1484127E-2,2.9416874E-3,7.3020905E-3,2.071873E-2,4.1093114E-3,-2.2990774E-2,1.3011772E-3,-1.8939966E-2,-2.369642E-4,1.875523E-2,-4.019966E-4,7.3669734E-3,-1.5783245E-2,1.4275715E-3,-5.912361E-4,2.3865944E-2,1.1483583E-2,3.3372443E-2,3.3464123E-2,1.1653258E-2,9.580149E-3,-1.1761226E-2,1.7214973E-2,-2.5364095E-2,-1.1686247E-2,2.0172253E-2,1.0985204E-2,-8.909202E-3,3.492376E-2,-2.2241508E-3,2.159706E-2,3.4133997E-2,4.2669955E-3,3.0743433E-2,-2.4452379E-2,2.0612521E-2,-3.772169E-2,-7.914457E-3,-1.5724294E-2,2.4757732E-2,-1.0501417E-2,2.34167E-2,-3.8294129E-3,9.753606E-3],"categories":[],"categories_nodes":[],"categories_segments":[],"categories_sizes":[],"default_left":[0,0,0,0,0,0,0,0,0,0,0,0,0,0,0,0,0,0,0,0,0,0,0,0,0,0,0,0,0,0,0,0,0,0,0,0,0,0,0,0,0,0,0,0,0,0,0,0,0,0,0,0,0,0,0,0,0,0,0,0,0,0,0,0,0,0,0,0,0,0,0,0,0,0,0,0,0,0,0,0,0,0,0,0,0,0,0,0,0,0,0,0,0,0,0,0,0,0,0,0,0,0,0,0,0,0,0,0,0,0,0,0,0,0,0,0,0],"id":2,"left_children":[1,3,5,7,9,11,13,15,17,19,21,23,25,27,29,31,33,35,37,39,41,43,45,-1,47,49,51,53,55,57,59,61,63,65,67,-1,69,71,73,75,77,79,81,83,85,87,89,91,93,-1,95,97,99,101,103,105,107,109,111,113,115,-1,-1,-1,-1,-1,-1,-1,-1,-1,-1,-1,-1,-1,-1,-1,-1,-1,-1,-1,-1,-1,-1,-1,-1,-1,-1,-1,-1,-1,-1,-1,-1,-1,-1,-1,-1,-1,-1,-1,-1,-1,-1,-1,-1,-1,-1,-1,-1,-1,-1,-1,-1,-1,-1,-1,-1],"loss_changes":[6.175338E1,2.4317837E1,1.0355068E1,1.21079235E1,2.2819405E0,1.3033708E0,7.43557E0,4.700981E0,3.899106E0,1.7649822E0,2.4306457E0,1.5628653E0,9.6739113E-1,3.390213E0,2.6132612E0,2.1326828E0,1.650553E0,2.1044254E-1,2.2409296E0,3.7091293E0,1.8087378E0,2.1733265E0,2.4454045E0,0E0,8.721607E-1,2.4608827E-1,9.722972E-1,1.8290863E0,1.8660238E0,1.7159404E0,2.7851167E0,1.1541004E0,2.935316E0,8.829218E-1,1.0943022E0,0E0,1.418376E-1,3.283374E0,1.8531237E0,2.2421474E0,1.7154388E0,1.497384E0,1.5310851E0,2.1496327E0,3.256637E0,2.1039102E0,1.5484009E0,7.196236E-2,2.0603563E-1,0E0,7.3185045E-1,1.4388738E0,1.0058837E0,6.151581E-1,3.71233E-1,1.5703273E-1,1.1956794E0,2.6500154E-1,1.3110942E0,1.4800911E0,6.2000567E-1,0E0,0E0,0E0,0E0,0E0,0E0,0E0,0E0,0E0,0E0,0E0,0E0,0E0,0E0,0E0,0E0,0E0,0E0,0E0,0E0,0E0,0E0,0E0,0E0,0E0,0E0,0E0,0E0,0E0,0E0,0E0,0E0,0E0,0E0,0E0,0E0,0E0,0E0,0E0,0E0,0E0,0E0,0E0,0E0,0E0,0E0,0E0,0E0,0E0,0E0,0E0,0E0,0E0,0E0,0E0,0E0],"parents":[2147483647,0,0,1,1,2,2,3,3,4,4,5,5,6,6,7,7,8,8,9,9,10,10,11,11,12,12,13,13,14,14,15,15,16,16,17,17,18,18,19,19,20,20,21,21,22,22,24,24,25,25,26,26,27,27,28,28,29,29,30,30,31,31,32,32,33,33,34,34,36,36,37,37,38,38,39,39,40,40,41,41,42,42,43,43,44,44,45,45,46,46,47,47,48,48,50,50,51,51,52,52,53,53,54,54,55,55,56,56,57,57,58,58,59,59,60,60],"right_children":[2,4,6,8,10,12,14,16,18,20,22,24,26,28,30,32,34,36,38,40,42,44,46,-1,48,50,52,54,56,58,60,62,64,66,68,-1,70,72,74,76,78,80,82,84,86,88,90,92,94,-1,96,98,100,102,104,106,108,110,112,114,116,-1,-1,-1,-1,-1,-1,-1,-1,-1,-1,-1,-1,-1,-1,-1,-1,-1,-1,-1,-1,-1,-1,-1,-1,-1,-1,-1,-1,-1,-1,-1,-1,-1,-1,-1,-1,-1,-1,-1,-1,-1,-1,-1,-1,-1,-1,-1,-1,-1,-1,-1,-1,-1,-1,-1,-1],"split_conditions":[4.9479168E-2,1.6035861E-1,-3.021148E-2,5.2898247E-2,8.3666784E-1,-3.77E-2,6.2111802E-2,6.5717414E-2,4.8358834E-1,6.400206E-2,8.6656034E-1,9.919606E0,-4.383117E-2,8.8514E0,8.731401E0,1E1,1.0997644E-2,-4.670913E-1,-1.8832392E-1,8.3E-3,-5.5E-3,5.1576E0,1.3110846E-2,-1.7729579E-2,-3.7974682E-1,7.8995767E0,1.9061583E-1,5.0731474E-1,9.974093E-2,1E-1,2.1154983E0,8.247054E-1,-6.5E-3,-9.487666E-3,1.5172E0,-6.058564E-3,6.421939E-2,1.2048192E-2,8E0,9.680004E0,8.396947E-1,-1.82E-2,2.3391813E-1,3.32E-3,-3.3500837E-3,6.1304E0,2.7069014E-1,4.936709E-2,8.068783E-2,-3.2160547E-2,2.1154983E0,5.5633772E-2,1.05E-2,5.5071E0,6.1295275E-2,3.763778E-2,2.39675E0,8.02593E0,3.8509324E-1,5.7198443E-2,5.0643828E-2,-4.248911E-3,-7.5007E-3,-7.6967576E-3,-1.640389E-2,8.107428E-3,-9.777701E-4,-1.4237608E-3,-6.5142973E-3,-3.343434E-2,-1.1305135E-2,-3.3497326E-3,1.5045094E-2,1.1484127E-2,2.9416874E-3,7.3020905E-3,2.071873E-2,4.1093114E-3,-2.2990774E-2,1.3011772E-3,-1.8939966E-2,-2.369642E-4,1.875523E-2,-4.019966E-4,7.3669734E-3,-1.5783245E-2,1.4275715E-3,-5.912361E-4,2.3865944E-2,1.1483583E-2,3.3372443E-2,3.3464123E-2,1.1653258E-2,9.580149E-3,-1.1761226E-2,1.7214973E-2,-2.5364095E-2,-1.1686247E-2,2.0172253E-2,1.0985204E-2,-8.909202E-3,3.492376E-2,-2.2241508E-3,2.159706E-2,3.4133997E-2,4.2669955E-3,3.0743433E-2,-2.4452379E-2,2.0612521E-2,-3.772169E-2,-7.914457E-3,-1.5724294E-2,2.4757732E-2,-1.0501417E-2,2.34167E-2,-3.8294129E-3,9.753606E-3],"split_indices":[5,10,9,4,3,27,9,10,3,4,9,7,0,6,7,20,2,9,9,27,27,6,5,0,9,7,10,3,1,0,3,3,27,5,6,0,10,5,25,7,9,27,9,6,5,6,10,1,2,0,3,4,27,6,4,4,3,7,10,2,4,0,0,0,0,0,0,0,0,0,0,0,0,0,0,0,0,0,0,0,0,0,0,0,0,0,0,0,0,0,0,0,0,0,0,0,0,0,0,0,0,0,0,0,0,0,0,0,0,0,0,0,0,0,0,0,0],"split_type":[0,0,0,0,0,0,0,0,0,0,0,0,0,0,0,0,0,0,0,0,0,0,0,0,0,0,0,0,0,0,0,0,0,0,0,0,0,0,0,0,0,0,0,0,0,0,0,0,0,0,0,0,0,0,0,0,0,0,0,0,0,0,0,0,0,0,0,0,0,0,0,0,0,0,0,0,0,0,0,0,0,0,0,0,0,0,0,0,0,0,0,0,0,0,0,0,0,0,0,0,0,0,0,0,0,0,0,0,0,0,0,0,0,0,0,0,0],"sum_hessian":[3.9128997E3,3.5412073E3,3.7169254E2,2.6709072E3,8.702999E2,7.435277E1,2.9733975E2,2.2054092E3,4.654981E2,2.9168762E2,5.786123E2,1.3225377E1,6.112739E1,1.9981573E2,9.752401E1,1.6583458E3,5.470633E2,1.0426311E1,4.550718E2,2.078256E2,8.386202E1,4.8698523E2,9.162709E1,2.083464E0,1.1141913E1,3.888708E0,5.7238686E1,1.8976476E2,1.005098E1,1.0900381E1,8.662363E1,1.1923694E3,4.6597647E2,1.0561366E2,4.4144962E2,1.7765174E0,8.649793E0,1.9171075E2,2.6336102E2,1.3740083E2,7.0424774E1,4.2335773E1,4.152625E1,3.5741876E2,1.2956647E2,5.6262177E1,3.5364914E1,8.587271E0,2.5546424E0,1.794725E0,2.0939832E0,2.3500868E1,3.3737816E1,1.1379072E2,7.5974045E1,3.6283255E0,6.422654E0,4.752879E0,6.147502E0,5.481842E1,3.1805208E1,4.3424023E2,7.581291E2,3.267786E2,1.3919788E2,5.1521442E1,5.4092216E1,2.6701938E2,1.7443024E2,6.287902E0,2.3618913E0,1.6427713E2,2.7433636E1,1.0704595E2,1.563151E2,5.070282E1,8.669801E1,6.501376E1,5.411017E0,3.0329746E1,1.2006028E1,2.0082605E1,2.1443645E1,1.6430676E2,1.9311201E2,3.8229534E1,9.133693E1,4.6427223E1,9.834952E0,2.148364E1,1.3881274E1,6.6496363E0,1.9376348E0,1.1935834E0,1.3610592E0,1.0163924E0,1.0775907E0,2.0185966E1,3.314901E0,2.6280117E1,7.4576993E0,1.127825E2,1.0082209E0,6.601097E1,9.963068E0,1.097927E0,2.5303986E0,5.334536E0,1.0881182E0,3.043074E0,1.709805E0,2.7682514E0,3.3792505E0,2.8746533E0,5.1943768E1,1.6407784E1,1.5397425E1],"tree_param":{"num_deleted":"0","num_feature":"30","num_nodes":"117","size_leaf_vector":"1"}},{"base_weights":[3.4622129E-3,-1.4046195E-1,2.8377125E-1,-2.58706E-1,4.5281436E-2,5.969557E-1,2.2845519E-1,-2.949905E-1,-1.7925064E-1,1.6724427E-5,1.4322591E-1,6.261518E-1,4.5155153E-1,1.2631695E-1,2.77181E-1,-1.8394819E-1,-3.0879033E-1,-6.402055E-2,-2.1746321E-1,-6.125844E-2,1.100522E-1,2.0385696E-1,3.3712342E-2,6.304569E-1,3.3944452E-3,-4.2451983E-3,4.8548076E-1,2.9708016E-1,6.545745E-2,3.5323152E-1,1.9293258E-1,-3.0687815E-1,-1.5276268E-1,-3.0392212E-1,-2.9322235E-2,-1.365637E-1,1.2983483E-1,-2.3914586E-1,6.92196E-2,-1.573116E-1,7.152184E-4,-1.777562E-1,1.5078692E-1,2.5607565E-1,9.548104E-2,-3.3497814E-2,3.2899514E-1,5.30236E-3,6.3404846E-1,1.3735783E-1,5.3782463E-1,3.274809E-1,-3.237356E-1,4.4165644E-1,2.6336972E-2,5.330446E-1,3.0768496E-1,2.0933151E-1,-1.4048587E-1,-7.831617E-3,-1.836523E-2,1.0946858E-2,-8.350912E-3,-1.5687708E-2,-3.94092E-3,1.2032997E-2,-1.0240375E-2,1.7405465E-2,-2.6400048E-2,-6.4943144E-3,-1.3608746E-2,-3.4603383E-3,1.660361E-2,3.659907E-3,-9.239483E-3,4.828883E-3,-7.0677283E-3,1.7578576E-3,-2.8224722E-2,3.530627E-3,1.3974507E-2,9.352233E-3,2.0459296E-2,2.2739705E-3,2.1624047E-2,2.3918461E-2,-3.3001774E-3,2.3681747E-2,3.405992E-3,1.4966405E-2,3.2056015E-2,2.1046324E-2,-2.010252E-2,2.8653076E-2,3.4558922E-3,-1.727986E-2,1.7428877E-2,-3.291969E-2,8.248785E-3,2.883762E-2,6.7185746E-3,-2.7435755E-3,9.311115E-3,-1.0850056E-2,2.7707098E-2,1.8157087E-3,1.6817637E-2,-1.1746611E-2,1.103519E-2,6.7473794E-3,-1.1798366E-2],"categories":[],"categories_nodes":[],"categories_segments":[],"categories_sizes":[],"default_left":[0,0,0,0,0,0,0,0,0,0,0,0,0,0,0,0,0,0,0,0,0,0,0,0,0,0,0,0,0,0,0,0,0,0,0,0,0,0,0,0,0,0,0,0,0,0,0,0,0,0,0,0,0,0,0,0,0,0,0,0,0,0,0,0,0,0,0,0,0,0,0,0,0,0,0,0,0,0,0,0,0,0,0,0,0,0,0,0,0,0,0,0,0,0,0,0,0,0,0,0,0,0,0,0,0,0,0,0,0,0,0],"id":3,"left_children":[1,3,5,7,9,11,13,15,17,19,21,23,25,27,29,31,33,35,37,39,41,43,45,47,-1,-1,49,51,53,55,57,59,61,63,-1,65,67,69,71,73,75,77,79,81,83,85,87,-1,89,91,93,95,97,99,101,103,105,107,109,-1,-1,-1,-1,-1,-1,-1,-1,-1,-1,-1,-1,-1,-1,-1,-1,-1,-1,-1,-1,-1,-1,-1,-1,-1,-1,-1,-1,-1,-1,-1,-1,-1,-1,-1,-1,-1,-1,-1,-1,-1,-1,-1,-1,-1,-1,-1,-1,-1,-1,-1,-1],"loss_changes":[1.5360127E2,5.526421E1,2.2240685E1,4.379158E0,4.3421006E0,5.3775024E-1,5.4364243E0,1.5580215E0,2.1194172E0,4.529825E0,2.048602E0,3.3782578E-1,6.947427E-1,3.6898503E0,4.6954193E0,4.091673E-1,1.0867157E0,1.7344286E0,2.2755947E0,2.5689201E0,2.8440993E0,1.1020355E0,2.2240672E0,2.2852707E-1,0E0,0E0,5.4418135E-1,1.8706436E0,3.8798544E0,3.0263214E0,1.970068E0,1.5201092E-1,5.4990697E-1,2.0154114E0,0E0,2.3486323E0,5.030555E0,1.1847305E0,9.8099476E-1,1.0854802E0,3.5994759E0,2.510971E0,2.158051E0,1.3369465E0,1.097826E0,1.5580533E0,7.513647E-1,0E0,1.768074E-1,1.0527735E0,4.4168758E-1,1.3931971E0,9.047337E-1,9.5381737E-1,3.1338732E0,1.3444633E0,2.4242172E0,1.763032E0,4.8515722E-1,0E0,0E0,0E0,0E0,0E0,0E0,0E0,0E0,0E0,0E0,0E0,0E0,0E0,0E0,0E0,0E0,0E0,0E0,0E0,0E0,0E0,0E0,0E0,0E0,0E0,0E0,0E0,0E0,0E0,0E0,0E0,0E0,0E0,0E0,0E0,0E0,0E0,0E0,0E0,0E0,0E0,0E0,0E0,0E0,0E0,0E0,0E0,0E0,0E0,0E0,0E0,0E0],"parents":[2147483647,0,0,1,1,2,2,3,3,4,4,5,5,6,6,7,7,8,8,9,9,10,10,11,11,12,12,13,13,14,14,15,15,16,16,17,17,18,18,19,19,20,20,21,21,22,22,23,23,26,26,27,27,28,28,29,29,30,30,31,31,32,32,33,33,35,35,36,36,37,37,38,38,39,39,40,40,41,41,42,42,43,43,44,44,45,45,46,46,48,48,49,49,50,50,51,51,52,52,53,53,54,54,55,55,56,56,57,57,58,58],"right_children":[2,4,6,8,10,12,14,16,18,20,22,24,26,28,30,32,34,36,38,40,42,44,46,48,-1,-1,50,52,54,56,58,60,62,64,-1,66,68,70,72,74,76,78,80,82,84,86,88,-1,90,92,94,96,98,100,102,104,106,108,110,-1,-1,-1,-1,-1,-1,-1,-1,-1,-1,-1,-1,-1,-1,-1,-1,-1,-1,-1,-1,-1,-1,-1,-1,-1,-1,-1,-1,-1,-1,-1,-1,-1,-1,-1,-1,-1,-1,-1,-1,-1,-1,-1,-1,-1,-1,-1,-1,-1,-1,-1,-1],"split_conditions":[4.8571866E-2,3.1406138E-2,1.0141988E-2,3.8709678E-2,1.1378002E-1,2.0046E0,9.974093E-2,2.579E-1,8.342971E-1,5.9042264E-2,2.8268551E-2,9.392265E-1,3.5131834E-2,2.2675736E-1,1.00307696E-1,1.287E-1,1.13E-2,6.313646E-2,3.9306358E-2,5.0251257E-2,2.34E-1,8.70242E-1,2.6934096E-1,2.2727273E-2,3.3944452E-3,-4.2451983E-3,1.1378002E-1,9.9E-3,6.1E-4,7.1450835E-1,1.04E-2,8E0,1.482E-1,1.04E-2,-2.9322235E-2,-1.9855596E-2,7.8600116E-2,2.579E-1,9.267044E-2,2.34E-1,8.534672E-1,-6.329114E-3,1E1,7.8246033E-1,2.6143791E-2,-1.6224779E-1,6.700721E-2,5.30236E-3,4.9479168E-2,5.5071E0,1.04E-2,-1.6366612E-2,4.9E-3,1.2893105E0,5.0643828E-2,5.6E-4,-7.1174377E-3,1.112E-1,4.492E-1,-7.831617E-3,-1.836523E-2,1.0946858E-2,-8.350912E-3,-1.5687708E-2,-3.94092E-3,1.2032997E-2,-1.0240375E-2,1.7405465E-2,-2.6400048E-2,-6.4943144E-3,-1.3608746E-2,-3.4603383E-3,1.660361E-2,3.659907E-3,-9.239483E-3,4.828883E-3,-7.0677283E-3,1.7578576E-3,-2.8224722E-2,3.530627E-3,1.3974507E-2,9.352233E-3,2.0459296E-2,2.2739705E-3,2.1624047E-2,2.3918461E-2,-3.3001774E-3,2.3681747E-2,3.405992E-3,1.4966405E-2,3.2056015E-2,2.1046324E-2,-2.010252E-2,2.8653076E-2,3.4558922E-3,-1.727986E-2,1.7428877E-2,-3.291969E-2,8.248785E-3,2.883762E-2,6.7185746E-3,-2.7435755E-3,9.311115E-3,-1.0850056E-2,2.7707098E-2,1.8157087E-3,1.6817637E-2,-1.1746611E-2,1.103519E-2,6.7473794E-3,-1.1798366E-2],"split_indices":[0,4,8,8,2,6,1,29,3,4,1,9,4,9,0,29,28,2,5,8,29,3,2,2,0,0,2,28,6,3,28,25,29,28,0,5,8,29,8,29,3,0,19,3,1,18,4,0,5,6,28,2,6,3,4,6,5,29,29,0,0,0,0,0,0,0,0,0,0,0,0,0,0,0,0,0,0,0,0,0,0,0,0,0,0,0,0,0,0,0,0,0,0,0,0,0,0,0,0,0,0,0,0,0,0,0,0,0,0,0,0],"split_type":[0,0,0,0,0,0,0,0,0,0,0,0,0,0,0,0,0,0,0,0,0,0,0,0,0,0,0,0,0,0,0,0,0,0,0,0,0,0,0,0,0,0,0,0,0,0,0,0,0,0,0,0,0,0,0,0,0,0,0,0,0,0,0,0,0,0,0,0,0,0,0,0,0,0,0,0,0,0,0,0,0,0,0,0,0,0,0,0,0,0,0,0,0,0,0,0,0,0,0,0,0,0,0,0,0,0,0,0,0,0,0],"sum_hessian":[3.8053726E3,2.5147021E3,1.2906703E3,1.5363014E3,9.784007E2,1.9227423E2,1.0983961E3,1.0528079E3,4.834936E2,6.6983765E2,3.0856305E2,1.5736935E2,3.4904873E1,3.5591833E2,7.424778E2,1.1795938E2,9.3484845E2,1.2107299E2,3.624206E2,4.3053183E2,2.3930583E2,1.980521E2,1.1051095E2,1.5603673E2,1.332621E0,1.986942E0,3.291793E1,9.249867E1,2.6341965E2,3.885465E2,3.5393124E2,2.2080393E1,9.587898E1,9.2079846E2,1.4050025E1,8.831859E1,3.2754402E1,3.3709122E2,2.5329365E1,1.6823912E2,2.622927E2,2.925349E1,2.1005234E2,1.3273407E2,6.531803E1,9.074319E1,1.976776E1,1.2690334E0,1.547677E2,4.7763085E0,2.8141623E1,8.863099E1,3.867679E0,2.384325E1,2.3957642E2,7.636443E1,3.121821E2,3.3769418E2,1.6237068E1,7.3635635E0,1.4716829E1,3.0110343E0,9.286795E1,8.818859E2,3.8912533E1,1.3143001E1,7.517559E1,2.4947481E1,7.8069205E0,7.939299E1,2.5769824E2,1.7074244E1,8.25512E0,1.7741785E1,1.5049733E2,1.5680667E2,1.0548603E2,1.9453003E1,9.8004875E0,1.3038129E2,7.967105E1,9.301785E1,3.9716217E1,5.786708E1,7.450949E0,4.599441E0,8.6143745E1,1.2192297E1,7.5754623E0,4.0986657E0,1.5066904E2,3.2745292E0,1.5017792E0,2.596682E1,2.1748025E0,2.2261145E0,8.640488E1,2.0895796E0,1.7780995E0,1.595278E1,7.8904715E0,1.5931462E2,8.0261795E1,1.8351774E0,7.452925E1,3.004464E1,2.8213745E2,7.9378977E0,3.297563E2,4.0733676E0,1.21637E1],"tree_param":{"num_deleted":"0","num_feature":"30","num_nodes":"111","size_leaf_vector":"1"}},{"base_weights":[-2.735197E-3,-1.9607161E-1,2.3115672E-1,-2.812466E-1,4.7179867E-2,5.539132E-1,1.9084138E-1,2.301588E-1,-2.906105E-1,5.741679E-1,5.0645233E-3,4.0786946E-1,6.126594E-1,1.0018806E-1,2.735252E-1,-2.0186149E-2,4.7883117E-1,-1.4033622E-1,-3.1246507E-1,4.33038E-3,5.9088755E-1,-1.5149951E-1,1.3703044E-1,2.0805202E-2,4.5759976E-1,6.225487E-1,-8.491865E-3,-6.9939815E-2,1.297896E-1,3.708269E-1,2.2356239E-1,6.584671E-1,2.6303935E-1,-1.6997784E-3,-1.6594328E-1,-3.075778E-1,-5.7574517E-1,6.052485E-1,7.677211E-3,-1.9435602E-1,3.3658434E-2,2.3434573E-1,2.3205398E-2,-1.5960192E-2,2.0953538E-1,5.570239E-1,1.6419247E-1,6.611108E-1,3.9260435E-1,-1.3323605E-1,1.8075053E-1,1.5741093E-1,-7.319439E-3,2.2053757E-1,4.728485E-1,5.4687306E-2,2.5715274E-1,3.6866084E-2,1.6628532E-2,2.8024608E-2,1.0438889E-3,-1.9265468E-3,2.4009766E-2,-2.0090384E-2,-7.616973E-3,-1.41399605E-2,-1.7893437E-2,-2.9877264E-2,-1.1102457E-2,1.5782706E-2,3.2083787E-2,-1.4756071E-4,-1.1706444E-2,-1.3068425E-2,7.693201E-3,2.83657E-3,1.8630607E-2,-2.765141E-3,7.2233314E-3,1.9513344E-2,-5.8481316E-3,2.9584605E-2,-2.3478353E-3,-2.6166786E-3,1.9044638E-2,3.3458564E-2,6.0426593E-3,-9.955857E-4,2.5168642E-2,-8.000797E-3,2.1855257E-2,1.970419E-2,-4.4391556E-3,9.362496E-3,3.121697E-3,2.5596961E-2,-2.2344983E-3,2.5405904E-2,8.241582E-3,1.9766223E-2,3.181432E-2,2.7487969E-2,5.496707E-4,8.672716E-3,1.5950425E-2],"categories":[],"categories_nodes":[],"categories_segments":[],"categories_sizes":[],"default_left":[0,0,0,0,0,0,0,0,0,0,0,0,0,0,0,0,0,0,0,0,0,0,0,0,0,0,0,0,0,0,0,0,0,0,0,0,0,0,0,0,0,0,0,0,0,0,0,0,0,0,0,0,0,0,0,0,0,0,0,0,0,0,0,0,0,0,0,0,0,0,0,0,0,0,0,0,0,0,0,0,0,0,0,0,0,0,0,0,0,0,0,0,0,0,0,0,0,0,0,0,0,0,0,0,0],"id":4,"left_children":[1,3,5,7,9,11,13,15,17,19,21,23,25,27,29,-1,31,33,35,-1,37,39,41,43,45,47,-1,49,51,53,55,57,59,61,63,65,67,69,-1,71,73,75,77,-1,79,81,83,85,87,89,91,93,95,97,99,101,103,-1,-1,-1,-1,-1,-1,-1,-1,-1,-1,-1,-1,-1,-1,-1,-1,-1,-1,-1,-1,-1,-1,-1,-1,-1,-1,-1,-1,-1,-1,-1,-1,-1,-1,-1,-1,-1,-1,-1,-1,-1,-1,-1,-1,-1,-1,-1,-1],"loss_changes":[1.6797862E2,4.214859E1,2.1768143E1,7.2806015E0,1.1721698E1,1.347084E0,1.1185299E1,4.55085E0,4.8159027E0,2.6743793E-1,1.0148565E1,1.0758657E0,1.1175194E0,3.6105819E0,3.7176247E0,0E0,6.14192E-1,6.731429E-1,1.4841537E0,0E0,1.4332962E-1,1.7893734E0,2.9467092E0,5.4607177E-1,1.3647861E0,8.872566E-1,0E0,1.7162225E0,2.3094273E0,3.9391785E0,2.9302979E0,2.2558212E-2,7.729271E-1,5.613531E-1,4.5252132E-1,1.4809799E0,3.9895535E-2,1.7807674E-1,0E0,1.3893337E0,1.5680308E0,3.5045834E0,1.1879638E0,0E0,3.6462927E-1,7.997446E-1,6.7929226E-1,3.9508057E-1,9.712615E-1,1.3791773E0,1.2955033E0,1.4261484E0,2.024595E0,1.6545124E0,1.727665E0,1.8842211E0,2.1846886E0,0E0,0E0,0E0,0E0,0E0,0E0,0E0,0E0,0E0,0E0,0E0,0E0,0E0,0E0,0E0,0E0,0E0,0E0,0E0,0E0,0E0,0E0,0E0,0E0,0E0,0E0,0E0,0E0,0E0,0E0,0E0,0E0,0E0,0E0,0E0,0E0,0E0,0E0,0E0,0E0,0E0,0E0,0E0,0E0,0E0,0E0,0E0,0E0],"parents":[2147483647,0,0,1,1,2,2,3,3,4,4,5,5,6,6,7,7,8,8,9,9,10,10,11,11,12,12,13,13,14,14,16,16,17,17,18,18,20,20,21,21,22,22,23,23,24,24,25,25,27,27,28,28,29,29,30,30,31,31,32,32,33,33,34,34,35,35,36,36,37,37,39,39,40,40,41,41,42,42,44,44,45,45,46,46,47,47,48,48,49,49,50,50,51,51,52,52,53,53,54,54,55,55,56,56],"right_children":[2,4,6,8,10,12,14,16,18,20,22,24,26,28,30,-1,32,34,36,-1,38,40,42,44,46,48,-1,50,52,54,56,58,60,62,64,66,68,70,-1,72,74,76,78,-1,80,82,84,86,88,90,92,94,96,98,100,102,104,-1,-1,-1,-1,-1,-1,-1,-1,-1,-1,-1,-1,-1,-1,-1,-1,-1,-1,-1,-1,-1,-1,-1,-1,-1,-1,-1,-1,-1,-1,-1,-1,-1,-1,-1,-1,-1,-1,-1,-1,-1,-1,-1,-1,-1,-1,-1,-1],"split_conditions":[1.1948926E-1,3.633692E-2,1.0141988E-2,6.8426197E-3,1.1560693E-2,2.0442441E-1,9.302868E-2,4.936709E-2,2.378E-1,2.2119816E-2,5.417996E-2,8.380358E0,8.6656034E-1,1.6035861E-1,7.368421E-2,-2.0186149E-2,9.489817E0,1.086E-1,1.15E-2,4.33038E-3,4.0939E0,9.975669E-2,7E0,3.868E-1,1.3996E0,9.7E-3,-8.491865E-3,5.4488488E-2,5.249344E-1,2.4205914E-1,3.022E-1,8.703535E-2,5E-2,4.8571866E-2,6.1E-3,6.182E-1,4.9E-3,6.3E-3,7.677211E-3,2.248E-1,2.491E-3,5.401E-3,2.586207E-2,-1.5960192E-2,9E-3,1.04E-2,2.9405E0,8.4674E-3,4.0992834E-2,1.2441111E-1,2.0618556E-1,6.1304E0,4.87E-4,1.175E-3,6.242E-1,8.168651E0,7.6E-3,3.6866084E-2,1.6628532E-2,2.8024608E-2,1.0438889E-3,-1.9265468E-3,2.4009766E-2,-2.0090384E-2,-7.616973E-3,-1.41399605E-2,-1.7893437E-2,-2.9877264E-2,-1.1102457E-2,1.5782706E-2,3.2083787E-2,-1.4756071E-4,-1.1706444E-2,-1.3068425E-2,7.693201E-3,2.83657E-3,1.8630607E-2,-2.765141E-3,7.2233314E-3,1.9513344E-2,-5.8481316E-3,2.9584605E-2,-2.3478353E-3,-2.6166786E-3,1.9044638E-2,3.3458564E-2,6.0426593E-3,-9.955857E-4,2.5168642E-2,-8.000797E-3,2.1855257E-2,1.970419E-2,-4.4391556E-3,9.362496E-3,3.121697E-3,2.5596961E-2,-2.2344983E-3,2.5405904E-2,8.241582E-3,1.9766223E-2,3.181432E-2,2.7487969E-2,5.496707E-4,8.672716E-3,1.5950425E-2],"split_indices":[10,4,8,8,8,10,1,1,29,2,4,7,9,10,8,0,7,29,28,0,6,0,25,29,6,28,0,1,9,10,29,10,1,0,28,29,6,28,0,29,6,6,0,0,28,28,6,9,4,8,9,6,6,6,29,7,28,0,0,0,0,0,0,0,0,0,0,0,0,0,0,0,0,0,0,0,0,0,0,0,0,0,0,0,0,0,0,0,0,0,0,0,0,0,0,0,0,0,0,0,0,0,0,0,0],"split_type":[0,0,0,0,0,0,0,0,0,0,0,0,0,0,0,0,0,0,0,0,0,0,0,0,0,0,0,0,0,0,0,0,0,0,0,0,0,0,0,0,0,0,0,0,0,0,0,0,0,0,0,0,0,0,0,0,0,0,0,0,0,0,0,0,0,0,0,0,0,0,0,0,0,0,0,0,0,0,0,0,0,0,0,0,0,0,0,0,0,0,0,0,0,0,0,0,0,0,0,0,0,0,0,0,0],"sum_hessian":[3.71271E3,2.0326616E3,1.6800482E3,1.5053901E3,5.272715E2,1.8513725E2,1.494911E3,2.6644268E1,1.4787458E3,3.8084763E1,4.8918674E2,5.5387157E1,1.2975009E2,7.141449E2,7.807661E2,7.3317227E0,1.9312544E1,1.8869342E2,1.2900525E3,1.4676199E0,3.661714E1,2.2367326E2,2.6551346E2,6.4674697E0,4.8919685E1,1.2833261E2,1.4174813E0,1.05640175E2,6.085047E2,2.6271378E2,5.180523E2,9.419707E0,9.892838E0,2.9585289E1,1.5910814E2,1.2686703E3,2.138221E1,3.5081264E1,1.5358772E0,1.8159238E2,4.2080894E1,1.4256659E2,1.2294688E2,2.0617592E0,4.40571E0,3.586723E1,1.3052455E1,1.0829608E2,2.0036537E1,8.471835E1,2.0921822E1,5.0634985E2,1.02154854E2,1.0750641E2,1.5520737E2,8.6384315E1,4.3166803E2,6.568048E0,2.8516595E0,3.8496644E0,6.0431724E0,2.833936E1,1.2459295E0,7.120242E0,1.5198788E2,8.5435077E2,4.1431946E2,1.9491425E1,1.8907857E0,4.999645E0,3.008162E1,3.14268E1,1.5016557E2,1.1842028E1,3.0238865E1,6.302114E1,7.954544E1,7.495965E1,4.798723E1,2.710187E0,1.6955234E0,3.393947E1,1.9277627E0,6.9082537E0,6.1442013E0,1.0646899E2,1.827095E0,4.414948E0,1.5621589E1,8.160605E1,3.1123028E0,1.14205065E1,9.501314E0,3.845606E2,1.2178923E2,6.0058155E0,9.614904E1,1.6127447E1,9.137896E1,1.0759178E2,4.7615585E1,6.066458E0,8.0317856E1,1.8506143E2,2.466066E2],"tree_param":{"num_deleted":"0","num_feature":"30","num_nodes":"105","size_leaf_vector":"1"}},{"base_weights":[3.374411E-4,-2.1094342E-1,2.2069517E-1,-2.9494315E-1,8.889097E-2,1.393223E-1,3.6183858E-1,-3.0949685E-1,3.7543374E-1,-1.3987869E-5,2.8580782E-1,-1.09677285E-1,1.8505737E-1,5.4692477E-1,2.9042324E-1,-1.5891787E-1,-3.3152366E-1,7.316836E-1,8.382362E-2,-2.0606841E-1,1.3708659E-1,5.821386E-1,1.9761352E-1,-2.190144E-1,-1.1355998E-3,1.3465732E-1,2.6188207E-1,6.05587E-1,2.784595E-1,3.6582583E-1,2.217724E-1,-1.0504711E-1,-2.723835E-1,-3.2464716E-1,-3.3939447E-2,3.9713223E-2,3.006599E-1,-1.0143307E-1,3.247383E-1,-2.2727868E-1,1.960992E-1,5.3299725E-2,4.2038313E-1,6.2111235E-1,9.0178065E-2,2.796486E-2,3.0508843E-1,-2.2981125E-1,1.3927202E-2,5.3845026E-2,-3.4977248E-1,1.7104493E-1,2.0392183E-3,1.7049909E-1,3.3360058E-1,5.7442486E-1,7.3759073E-1,1.3200884E-1,5.281529E-1,1.1969842E-1,4.0070692E-1,2.3238775E-1,-2.554124E-1,-2.0209035E-2,-3.183977E-3,-1.6554518E-2,-8.607177E-3,-1.502037E-2,-1.866564E-2,1.8786412E-3,1.9983178E-2,-1.0125791E-2,2.2167249E-2,3.236492E-2,4.5648585E-3,8.962601E-3,-1.2016944E-2,-3.4618832E-3,2.03381E-2,-8.372562E-3,5.0524026E-3,-2.3097927E-2,2.3258682E-2,6.427878E-3,3.2929227E-2,-1.0035474E-2,1.7214132E-2,-4.1031647E-3,1.1981066E-2,1.9665383E-2,-1.2672364E-3,-1.0086542E-2,-1.8408276E-2,4.227412E-4,2.7222607E-2,-2.1220654E-2,8.362727E-3,9.528969E-3,2.4336095E-3,-2.6085123E-3,1.0734054E-2,1.3444847E-2,-1.1069739E-3,1.3003378E-2,2.259103E-2,2.8999016E-2,2.78812E-3,3.149444E-3,3.853233E-2,1.4878407E-2,-6.0464605E-3,1.15970695E-4,3.1514507E-2,1.1875401E-2,-1.54106235E-2,1.6589455E-2,2.490869E-2,1.43298E-2,7.541229E-3,1.6302839E-2,-2.6105827E-2],"categories":[],"categories_nodes":[],"categories_segments":[],"categories_sizes":[],"default_left":[0,0,0,0,0,0,0,0,0,0,0,0,0,0,0,0,0,0,0,0,0,0,0,0,0,0,0,0,0,0,0,0,0,0,0,0,0,0,0,0,0,0,0,0,0,0,0,0,0,0,0,0,0,0,0,0,0,0,0,0,0,0,0,0,0,0,0,0,0,0,0,0,0,0,0,0,0,0,0,0,0,0,0,0,0,0,0,0,0,0,0,0,0,0,0,0,0,0,0,0,0,0,0,0,0,0,0,0,0,0,0,0,0,0,0,0,0,0,0,0,0],"id":5,"left_children":[1,3,5,7,9,11,13,15,17,19,21,23,25,27,29,31,33,35,37,39,41,43,45,47,49,51,53,55,57,59,61,63,65,67,-1,-1,69,71,73,75,77,79,81,83,85,87,89,91,-1,93,95,97,99,101,103,105,107,109,111,113,115,117,119,-1,-1,-1,-1,-1,-1,-1,-1,-1,-1,-1,-1,-1,-1,-1,-1,-1,-1,-1,-1,-1,-1,-1,-1,-1,-1,-1,-1,-1,-1,-1,-1,-1,-1,-1,-1,-1,-1,-1,-1,-1,-1,-1,-1,-1,-1,-1,-1,-1,-1,-1,-1,-1,-1,-1,-1,-1,-1],"loss_changes":[1.7093153E2,4.7232666E1,2.0589783E1,1.4403198E1,7.1944604E0,1.302018E1,8.519615E0,4.702896E0,3.21807E0,8.054801E0,3.2256594E0,2.1094022E0,3.7003136E0,2.6924362E0,2.3823204E0,1.1015353E0,2.7643585E0,1.4097309E-1,8.580709E-1,1.0162773E0,4.0414896E0,4.9626732E-1,1.8151667E0,5.397234E-1,1.7480459E0,2.8209133E0,2.441042E0,1.8609619E-1,1.1892731E0,1.8858986E0,1.334032E0,1.5457803E0,2.8958654E-1,1.3359222E0,0E0,0E0,7.33895E-2,7.0726705E-1,5.639762E-1,6.20059E-1,3.7716615E-1,1.4217079E0,1.753551E0,4.0481472E-1,3.1185886E-1,9.4867015E-1,1.7919502E0,2.645831E-1,0E0,1.749955E0,5.503684E-1,1.0873632E0,1.4738523E0,3.2214775E0,1.7297649E0,3.2624817E-1,5.0428677E-1,1.0005708E0,6.6423106E-1,1.5546386E0,1.1571217E0,1.0474777E0,1.0933561E0,0E0,0E0,0E0,0E0,0E0,0E0,0E0,0E0,0E0,0E0,0E0,0E0,0E0,0E0,0E0,0E0,0E0,0E0,0E0,0E0,0E0,0E0,0E0,0E0,0E0,0E0,0E0,0E0,0E0,0E0,0E0,0E0,0E0,0E0,0E0,0E0,0E0,0E0,0E0,0E0,0E0,0E0,0E0,0E0,0E0,0E0,0E0,0E0,0E0,0E0,0E0,0E0,0E0,0E0,0E0,0E0,0E0,0E0],"parents":[2147483647,0,0,1,1,2,2,3,3,4,4,5,5,6,6,7,7,8,8,9,9,10,10,11,11,12,12,13,13,14,14,15,15,16,16,17,17,18,18,19,19,20,20,21,21,22,22,23,23,24,24,25,25,26,26,27,27,28,28,29,29,30,30,31,31,32,32,33,33,36,36,37,37,38,38,39,39,40,40,41,41,42,42,43,43,44,44,45,45,46,46,47,47,49,49,50,50,51,51,52,52,53,53,54,54,55,55,56,56,57,57,58,58,59,59,60,60,61,61,62,62],"right_children":[2,4,6,8,10,12,14,16,18,20,22,24,26,28,30,32,34,36,38,40,42,44,46,48,50,52,54,56,58,60,62,64,66,68,-1,-1,70,72,74,76,78,80,82,84,86,88,90,92,-1,94,96,98,100,102,104,106,108,110,112,114,116,118,120,-1,-1,-1,-1,-1,-1,-1,-1,-1,-1,-1,-1,-1,-1,-1,-1,-1,-1,-1,-1,-1,-1,-1,-1,-1,-1,-1,-1,-1,-1,-1,-1,-1,-1,-1,-1,-1,-1,-1,-1,-1,-1,-1,-1,-1,-1,-1,-1,-1,-1,-1,-1,-1,-1,-1,-1,-1,-1],"split_conditions":[1.04406744E-1,3.9486412E-2,4.9479168E-2,4.9479168E-2,1.6483517E-2,1.6035861E-1,8.645534E-3,2.378E-1,9.733184E0,5.7225276E-2,1.1848342E-2,5.17271E-2,5.363E-1,1.8357E0,1.2675345E0,8.7E-3,1.15E-2,8.703535E-2,5.26E-1,1.367154E-1,1.13E-2,1.7469124E0,5.9042264E-2,2.328E-1,9.6E-3,6.400206E-2,9.974093E-2,5.7225276E-2,4.9702205E-2,9.467819E0,2.0865352E-1,6.2E-3,1E1,6.182E-1,-3.3939447E-2,3.9713223E-2,8.895851E0,9.498183E-2,6.367264E-1,1.083E-1,5.0643828E-2,3.26E-3,-1.5215757E-1,8.455193E0,2.569E-3,6.767E-1,7.9331E0,1.7469124E0,1.3927202E-2,9.4E-3,1.00137174E-1,4.938E-1,1E1,8.43885E-1,3.1126067E-1,1E1,2.523E-1,7.875923E-1,1.0933527E-1,8.419595E0,8.8E-3,1.00137174E-1,4.284E-1,-2.0209035E-2,-3.183977E-3,-1.6554518E-2,-8.607177E-3,-1.502037E-2,-1.866564E-2,1.8786412E-3,1.9983178E-2,-1.0125791E-2,2.2167249E-2,3.236492E-2,4.5648585E-3,8.962601E-3,-1.2016944E-2,-3.4618832E-3,2.03381E-2,-8.372562E-3,5.0524026E-3,-2.3097927E-2,2.3258682E-2,6.427878E-3,3.2929227E-2,-1.0035474E-2,1.7214132E-2,-4.1031647E-3,1.1981066E-2,1.9665383E-2,-1.2672364E-3,-1.0086542E-2,-1.8408276E-2,4.227412E-4,2.7222607E-2,-2.1220654E-2,8.362727E-3,9.528969E-3,2.4336095E-3,-2.6085123E-3,1.0734054E-2,1.3444847E-2,-1.1069739E-3,1.3003378E-2,2.259103E-2,2.8999016E-2,2.78812E-3,3.149444E-3,3.853233E-2,1.4878407E-2,-6.0464605E-3,1.15970695E-4,3.1514507E-2,1.1875401E-2,-1.54106235E-2,1.6589455E-2,2.490869E-2,1.43298E-2,7.541229E-3,1.6302839E-2,-2.6105827E-2],"split_indices":[10,4,5,5,5,10,8,29,7,4,8,4,29,6,3,28,28,10,29,2,28,3,4,2,28,4,1,4,4,7,18,28,20,29,0,0,7,10,3,29,4,6,18,7,6,29,6,3,0,28,1,29,21,3,10,19,29,3,2,7,28,1,29,0,0,0,0,0,0,0,0,0,0,0,0,0,0,0,0,0,0,0,0,0,0,0,0,0,0,0,0,0,0,0,0,0,0,0,0,0,0,0,0,0,0,0,0,0,0,0,0,0,0,0,0,0,0,0,0,0,0],"split_type":[0,0,0,0,0,0,0,0,0,0,0,0,0,0,0,0,0,0,0,0,0,0,0,0,0,0,0,0,0,0,0,0,0,0,0,0,0,0,0,0,0,0,0,0,0,0,0,0,0,0,0,0,0,0,0,0,0,0,0,0,0,0,0,0,0,0,0,0,0,0,0,0,0,0,0,0,0,0,0,0,0,0,0,0,0,0,0,0,0,0,0,0,0,0,0,0,0,0,0,0,0,0,0,0,0,0,0,0,0,0,0,0,0,0,0,0,0,0,0,0,0],"sum_hessian":[3.6694172E3,1.8733124E3,1.796105E3,1.4633622E3,4.0995013E2,1.1405405E3,6.555644E2,1.4327949E3,3.0567297E1,2.8312393E2,1.2682621E2,1.7676503E2,9.637755E2,1.8066893E2,4.7489548E2,1.8389192E2,1.248903E3,1.3079461E1,1.7487837E1,1.12915405E2,1.7020853E2,2.780418E1,9.9022026E1,8.75528E1,8.921222E1,5.836383E2,3.8013724E2,1.4723985E2,3.342907E1,2.2425569E2,2.5063979E2,1.2599726E2,5.789466E1,1.2265499E3,2.2353043E1,1.068531E1,2.3941505E0,1.0213163E1,7.2746725E0,1.0767168E2,5.2437234E0,1.3227534E2,3.793318E1,2.5519932E1,2.2842488E0,3.8891758E1,6.0130272E1,8.6219986E1,1.3328209E0,7.779014E1,1.142208E1,4.5775125E2,1.2588703E2,1.6863794E2,2.114993E2,1.2344884E2,2.379102E1,2.2034206E1,1.1394862E1,2.8386559E1,1.9586914E2,2.4568729E2,4.952508E0,1.4241911E1,1.1175535E2,3.5058956E1,2.2835705E1,8.235312E2,4.0301877E2,1.0318024E0,1.3623482E0,9.144648E0,1.0685157E0,2.3099778E0,4.964695E0,2.955309E0,1.0471637E2,2.6178222E0,2.6259012E0,2.3077244E1,1.091981E2,1.382627E0,3.6550552E1,2.1174715E0,2.340246E1,1.1630136E0,1.1212353E0,2.5992182E1,1.2899576E1,4.7309322E1,1.28209505E1,7.371653E1,1.2503453E1,7.2133675E1,5.6564617E0,1.0137681E1,1.2843986E0,3.9425812E2,6.3493134E1,1.00915085E2,2.4971945E1,1.1136033E2,5.727761E1,1.323668E2,7.913251E1,1.220236E2,1.4252392E0,1.2470416E0,2.2543978E1,1.3210738E1,8.823468E0,2.019675E0,9.375188E0,2.2607397E1,5.779161E0,1.1731852E2,7.855061E1,1.4608377E2,9.9603516E1,1.4873161E0,3.4651918E0],"tree_param":{"num_deleted":"0","num_feature":"30","num_nodes":"121","size_leaf_vector":"1"}},{"base_weights":[-1.4218028E-3,-1.8274873E-1,2.6119635E-1,-2.6152506E-1,1.2061101E-1,5.407573E-1,2.0683196E-1,-3.1535268E-1,-1.3481085E-1,1.8590292E-1,-5.2212287E-2,5.6725764E-1,4.210542E-1,6.475336E-2,2.4200846E-1,-2.8670523E-1,-3.7864792E-1,-1.8126425E-1,4.292206E-2,2.587642E-1,9.012131E-2,-2.4764042E-2,-3.257024E-1,5.009368E-1,6.2588084E-1,5.4753816E-1,3.0783677E-1,-1.2509297E-1,1.3701382E-1,3.572081E-1,2.0602997E-1,-2.3776719E-1,-3.4129673E-1,-4.6115172E-1,-3.1955913E-1,-2.9837307E-1,-1.267253E-1,2.4580087E-1,-1.4873011E-1,2.7814507E-1,-3.2615784E-1,-4.9916998E-1,1.5012878E-1,-3.1590384E-1,5.143435E-3,-9.2900405E-3,-3.947794E-1,2.6125088E-1,5.5533344E-1,6.450053E-1,3.473277E-1,5.900995E-1,-3.2384768E-3,-1.7088702E-2,3.7077865E-1,-2.2905216E-1,6.410438E-2,6.2059525E-2,3.2338828E-1,-2.9238078E-1,3.721771E-1,-2.263208E-1,2.1206346E-1,-1.2180025E-2,8.404828E-3,-9.741143E-3,-1.8205127E-2,-2.5045527E-2,-1.7357169E-2,-1.0972091E-2,-1.948655E-2,-1.1090325E-2,-1.875931E-2,-8.7672975E-3,1.5587374E-2,1.7427761E-2,-2.2981155E-3,-9.677814E-3,7.5635486E-3,2.7467215E-2,1.2334273E-2,-2.3778344E-2,-1.03661E-3,-2.8802028E-2,9.1339106E-4,5.101666E-3,1.7515851E-2,-2.1752952E-2,9.241707E-3,1.2572705E-2,-1.4020267E-3,-2.1341085E-2,-5.991355E-3,-1.3680409E-2,1.813065E-2,2.8334135E-2,-1.5351285E-4,2.6850576E-2,3.501671E-2,2.7979234E-2,2.5463526E-3,3.2532748E-2,1.5550531E-2,2.0769281E-2,-1.68807E-2,-4.0336433E-3,-1.5107793E-2,-1.26721505E-2,8.052699E-3,-3.0134415E-2,3.9797127E-3,1.2712447E-3,2.0816363E-2,1.737493E-3,-2.4455575E-2,-1.1766931E-2,1.9211227E-2,-2.8972631E-2,2.0389312E-3,9.301074E-3,1.6838185E-2],"categories":[],"categories_nodes":[],"categories_segments":[],"categories_sizes":[],"default_left":[0,0,0,0,0,0,0,0,0,0,0,0,0,0,0,0,0,0,0,0,0,0,0,0,0,0,0,0,0,0,0,0,0,0,0,0,0,0,0,0,0,0,0,0,0,0,0,0,0,0,0,0,0,0,0,0,0,0,0,0,0,0,0,0,0,0,0,0,0,0,0,0,0,0,0,0,0,0,0,0,0,0,0,0,0,0,0,0,0,0,0,0,0,0,0,0,0,0,0,0,0,0,0,0,0,0,0,0,0,0,0,0,0,0,0,0,0,0,0,0,0],"id":6,"left_children":[1,3,5,7,9,11,13,15,17,19,21,23,25,27,29,31,33,35,37,39,41,43,45,47,49,51,53,55,57,59,61,63,65,67,69,71,73,75,77,79,81,83,85,87,89,-1,91,93,95,97,99,101,-1,-1,103,105,107,109,111,113,115,117,119,-1,-1,-1,-1,-1,-1,-1,-1,-1,-1,-1,-1,-1,-1,-1,-1,-1,-1,-1,-1,-1,-1,-1,-1,-1,-1,-1,-1,-1,-1,-1,-1,-1,-1,-1,-1,-1,-1,-1,-1,-1,-1,-1,-1,-1,-1,-1,-1,-1,-1,-1,-1,-1,-1,-1,-1,-1,-1],"loss_changes":[1.7318063E2,5.1443085E1,2.2463638E1,1.160833E1,5.0217633E0,5.263138E-1,6.207615E0,2.063942E0,4.226945E0,2.228033E0,9.1208255E-1,4.431038E-1,5.1310253E-1,3.4258327E0,4.0616684E0,2.133438E0,1.6573524E0,2.5510063E0,4.1851773E0,2.161726E0,5.0578585E0,9.809934E-1,3.389716E-2,1.1107407E0,3.0491257E-1,5.906801E-1,1.2471285E0,1.3723302E0,2.5007517E0,2.4044037E0,2.037407E0,1.083601E0,1.2302971E0,5.161476E-1,1.4527836E0,6.6987896E-1,5.9872108E0,1.5811982E0,7.7549946E-1,1.3777628E0,2.7851337E-1,5.3771734E-1,1.2029943E0,7.065408E-1,8.487918E-1,0E0,6.4754486E-3,1.1674898E0,4.9362373E-1,1.7210388E-1,5.091429E-1,1.3429642E-1,0E0,0E0,9.447944E-1,4.6120763E-1,8.184477E-1,1.5624743E0,1.4161124E0,3.952672E-1,1.7826195E0,1.0592747E0,2.381569E0,0E0,0E0,0E0,0E0,0E0,0E0,0E0,0E0,0E0,0E0,0E0,0E0,0E0,0E0,0E0,0E0,0E0,0E0,0E0,0E0,0E0,0E0,0E0,0E0,0E0,0E0,0E0,0E0,0E0,0E0,0E0,0E0,0E0,0E0,0E0,0E0,0E0,0E0,0E0,0E0,0E0,0E0,0E0,0E0,0E0,0E0,0E0,0E0,0E0,0E0,0E0,0E0,0E0,0E0,0E0,0E0,0E0,0E0],"parents":[2147483647,0,0,1,1,2,2,3,3,4,4,5,5,6,6,7,7,8,8,9,9,10,10,11,11,12,12,13,13,14,14,15,15,16,16,17,17,18,18,19,19,20,20,21,21,22,22,23,23,24,24,25,25,26,26,27,27,28,28,29,29,30,30,31,31,32,32,33,33,34,34,35,35,36,36,37,37,38,38,39,39,40,40,41,41,42,42,43,43,44,44,46,46,47,47,48,48,49,49,50,50,51,51,54,54,55,55,56,56,57,57,58,58,59,59,60,60,61,61,62,62],"right_children":[2,4,6,8,10,12,14,16,18,20,22,24,26,28,30,32,34,36,38,40,42,44,46,48,50,52,54,56,58,60,62,64,66,68,70,72,74,76,78,80,82,84,86,88,90,-1,92,94,96,98,100,102,-1,-1,104,106,108,110,112,114,116,118,120,-1,-1,-1,-1,-1,-1,-1,-1,-1,-1,-1,-1,-1,-1,-1,-1,-1,-1,-1,-1,-1,-1,-1,-1,-1,-1,-1,-1,-1,-1,-1,-1,-1,-1,-1,-1,-1,-1,-1,-1,-1,-1,-1,-1,-1,-1,-1,-1,-1,-1,-1,-1,-1,-1,-1,-1,-1,-1],"split_conditions":[4.8571866E-2,1.5273584E-1,1.0899182E-2,4.5212764E-2,8.892578E-1,1.8357E0,1.5273584E-1,6.138E-1,1.1143211E-2,-1.09E-2,4.5643154E-1,3.378E-3,5.8828294E-1,7.7328645E-3,6.1643835E-2,8.2E-3,7.2E-3,2.969E-3,7E0,6.326148E-2,-7.8E-3,-8.487085E-1,1.6226819E-1,-5.872056E-1,3.01E-2,5.5071E0,2.1369E0,1.1278736E-1,9.3E-3,8.431443E0,-2.8901733E-2,8.1E-3,2.34E-1,7.331E-1,8.5E-3,8.7E-3,1.13E-2,3.514E-1,1.3333334E-1,2.8653296E-3,8.471392E-2,1.5082956E-2,8.198421E-1,9.3E-3,-6.8078667E-1,-9.2900405E-3,9.738418E-2,8.380358E0,9.230769E-3,2.0442441E-1,2.328E-1,3.367647E-1,-3.2384768E-3,-1.7088702E-2,1.04E-2,1.1244048E0,5.954466E-1,-4.4930625E-1,2.923E-3,6.7961164E-2,1.083E-1,-1.37E-2,9.9502486E-1,-1.2180025E-2,8.404828E-3,-9.741143E-3,-1.8205127E-2,-2.5045527E-2,-1.7357169E-2,-1.0972091E-2,-1.948655E-2,-1.1090325E-2,-1.875931E-2,-8.7672975E-3,1.5587374E-2,1.7427761E-2,-2.2981155E-3,-9.677814E-3,7.5635486E-3,2.7467215E-2,1.2334273E-2,-2.3778344E-2,-1.03661E-3,-2.8802028E-2,9.1339106E-4,5.101666E-3,1.7515851E-2,-2.1752952E-2,9.241707E-3,1.2572705E-2,-1.4020267E-3,-2.1341085E-2,-5.991355E-3,-1.3680409E-2,1.813065E-2,2.8334135E-2,-1.5351285E-4,2.6850576E-2,3.501671E-2,2.7979234E-2,2.5463526E-3,3.2532748E-2,1.5550531E-2,2.0769281E-2,-1.68807E-2,-4.0336433E-3,-1.5107793E-2,-1.26721505E-2,8.052699E-3,-3.0134415E-2,3.9797127E-3,1.2712447E-3,2.0816363E-2,1.737493E-3,-2.4455575E-2,-1.1766931E-2,1.9211227E-2,-2.8972631E-2,2.0389312E-3,9.301074E-3,1.6838185E-2],"split_indices":[0,10,8,8,3,6,10,29,5,27,9,6,3,5,8,28,28,6,25,1,27,9,2,18,27,6,6,8,28,7,5,28,29,29,28,28,28,6,8,1,1,0,3,28,9,0,8,7,8,10,2,2,0,0,28,3,9,18,6,5,29,27,9,0,0,0,0,0,0,0,0,0,0,0,0,0,0,0,0,0,0,0,0,0,0,0,0,0,0,0,0,0,0,0,0,0,0,0,0,0,0,0,0,0,0,0,0,0,0,0,0,0,0,0,0,0,0,0,0,0,0],"split_type":[0,0,0,0,0,0,0,0,0,0,0,0,0,0,0,0,0,0,0,0,0,0,0,0,0,0,0,0,0,0,0,0,0,0,0,0,0,0,0,0,0,0,0,0,0,0,0,0,0,0,0,0,0,0,0,0,0,0,0,0,0,0,0,0,0,0,0,0,0,0,0,0,0,0,0,0,0,0,0,0,0,0,0,0,0,0,0,0,0,0,0,0,0,0,0,0,0,0,0,0,0,0,0,0,0,0,0,0,0,0,0,0,0,0,0,0,0,0,0,0,0],"sum_hessian":[3.6347378E3,2.150329E3,1.4844088E3,1.7071539E3,4.4317517E2,2.4021114E2,1.2441976E3,1.19713E3,5.1002386E2,3.2160028E2,1.21574905E2,1.9361012E2,4.6601013E1,2.474763E2,9.967213E2,8.279356E2,3.6919446E2,4.0432663E2,1.05697235E2,1.8168813E2,1.3991214E2,1.1147728E2,1.0097629E1,9.531954E1,9.829059E1,2.0198996E1,2.6402018E1,6.80254E1,1.794509E2,2.3508229E2,7.6163904E2,4.3939746E2,3.8853812E2,1.5123102E2,2.1796344E2,1.2704923E2,2.772774E2,5.1207527E1,5.4489708E1,1.7636877E2,5.319347E0,1.2254162E1,1.2765798E2,9.493953E0,1.0198332E2,4.557365E0,5.5402637E0,1.8704632E1,7.6614914E1,9.074481E1,7.545769E0,1.8920132E1,1.2788637E0,1.9408531E0,2.4461164E1,4.3766277E1,2.4259123E1,1.2893146E2,5.051944E1,4.8777256E0,2.3020457E2,9.979972E0,7.5165906E2,4.335658E2,5.831645E0,5.363047E1,3.3490765E2,1.0961183E2,4.1619186E1,9.151794E1,1.2644551E2,6.557366E1,6.147557E1,2.5014035E2,2.7137045E1,3.772628E1,1.3481245E1,4.771495E1,6.774754E0,1.6621386E1,1.5974739E2,3.1979175E0,2.1214294E0,1.0570545E1,1.6836166E0,1.0414638E2,2.3511604E1,7.774988E0,1.7189652E0,1.1327379E1,9.0655945E1,4.4673066E0,1.0729573E0,2.7092695E0,1.5995361E1,7.507424E1,1.5406758E0,3.4368496E1,5.637632E1,3.8795977E0,3.6661716E0,1.4452862E1,4.4672694E0,2.3401228E1,1.0599374E0,1.5140006E1,2.8626272E1,5.296586E0,1.8962536E1,2.4559107E0,1.2647555E2,1.2314046E1,3.8205395E1,2.140985E0,2.7367406E0,4.1159444E0,2.2608862E2,3.7942162E0,6.1857557E0,6.23865E2,1.2779411E2],"tree_param":{"num_deleted":"0","num_feature":"30","num_nodes":"121","size_leaf_vector":"1"}},{"base_weights":[4.6656686E-3,-1.7317885E-1,2.5226182E-1,-2.9393262E-1,2.8737666E-2,5.003889E-1,2.0282207E-1,-3.1042215E-1,5.5448588E-2,-8.4722936E-2,1.0690502E-1,4.630954E-1,6.163769E-1,1.4652331E-1,2.753345E-1,-1.9820115E-1,-3.2998425E-1,2.5452048E-1,-2.2703162E-1,-1.6681325E-1,1.12558074E-1,7.068834E-2,2.386821E-1,4.7936672E-1,1.2713857E-1,2.5445884E-1,6.4250404E-1,2.2548518E-1,8.077162E-2,3.2509822E-1,1.8817806E-1,3.9544636E-3,-2.179777E-1,-3.0053484E-1,-3.643847E-1,4.4043362E-1,8.378459E-2,2.0724205E-2,-2.9171705E-1,-2.4984378E-1,-9.823669E-2,1.3347395E-1,-2.314469E-2,1.2123631E-1,-6.0556162E-2,6.515607E-3,3.2045773E-1,-3.4575113E-3,4.8325983E-1,-2.3957284E-1,3.731753E-1,-6.3986205E-3,4.2072E-1,3.2860365E-2,4.028875E-3,1.0925607E-1,2.747955E-1,2.6187263E-2,2.1641478E-1,8.201463E-3,3.420191E-1,-1.5849832E-1,2.2351183E-1,-3.827917E-3,8.839047E-3,-1.1120295E-2,1.2664161E-2,-1.6170247E-2,-8.256108E-3,-1.9505529E-2,-1.5081917E-2,-5.651423E-3,2.9503172E-2,-1.0429777E-2,1.23211285E-2,2.4656565E-5,-1.5427156E-2,-1.3089107E-3,-1.3609721E-2,1.1066318E-3,-1.186237E-2,2.7434045E-2,5.435175E-3,1.0338484E-3,1.0018825E-2,-9.642008E-3,2.4216736E-3,1.6229302E-2,-9.902363E-3,5.5815554E-3,1.9453164E-2,2.2589503E-2,2.9083231E-2,7.1665547E-3,-2.624659E-2,2.2849843E-2,-2.121032E-3,2.4958963E-2,5.608279E-3,-3.3201256E-3,9.083743E-3,2.6342664E-3,1.5027851E-2,-4.4586095E-3,8.440511E-3,-8.0867365E-5,1.3982181E-2,2.3068754E-2,-5.0271433E-3,1.819748E-2,1.0428297E-2,-1.2031695E-2,1.2691039E-2,1.23818545E-2,-1.3052168E-3],"categories":[],"categories_nodes":[],"categories_segments":[],"categories_sizes":[],"default_left":[0,0,0,0,0,0,0,0,0,0,0,0,0,0,0,0,0,0,0,0,0,0,0,0,0,0,0,0,0,0,0,0,0,0,0,0,0,0,0,0,0,0,0,0,0,0,0,0,0,0,0,0,0,0,0,0,0,0,0,0,0,0,0,0,0,0,0,0,0,0,0,0,0,0,0,0,0,0,0,0,0,0,0,0,0,0,0,0,0,0,0,0,0,0,0,0,0,0,0,0,0,0,0,0,0,0,0,0,0,0,0,0,0,0,0],"id":7,"left_children":[1,3,5,7,9,11,13,15,17,19,21,23,25,27,29,31,33,35,37,39,41,43,45,47,49,51,53,55,57,59,61,63,65,67,69,71,73,-1,75,77,79,81,-1,83,85,87,89,-1,91,93,95,-1,97,-1,-1,99,101,103,105,107,109,111,113,-1,-1,-1,-1,-1,-1,-1,-1,-1,-1,-1,-1,-1,-1,-1,-1,-1,-1,-1,-1,-1,-1,-1,-1,-1,-1,-1,-1,-1,-1,-1,-1,-1,-1,-1,-1,-1,-1,-1,-1,-1,-1,-1,-1,-1,-1,-1,-1,-1,-1,-1,-1],"loss_changes":[1.5879866E2,5.1181698E1,1.8391716E1,7.5841675E0,6.9831243E0,7.9504013E-1,5.098236E0,2.6883545E0,3.43433E0,5.222497E0,2.2072697E0,9.9427414E-1,3.826084E-1,3.6717625E0,2.3199997E0,7.5531197E-1,9.7112274E-1,1.096096E0,1.1728873E0,1.2697244E0,1.2053726E0,2.441956E0,1.8973732E0,4.258194E-1,1.0167556E0,4.0636045E-1,3.866558E-1,1.8175354E0,2.8771338E0,1.8637466E0,2.508717E0,2.6119205E-1,4.1508198E-1,1.744072E0,6.6890717E-1,1.462328E0,9.949007E-1,0E0,1.1626458E-1,5.036278E-1,2.1158438E0,8.9126694E-1,0E0,2.10699E0,1.4901345E0,1.826329E0,1.0162601E0,0E0,3.02639E-1,5.927248E-1,2.4729043E-1,0E0,4.3204784E-2,0E0,0E0,1.2547066E0,1.2754745E0,4.601663E0,1.5387616E0,9.664087E-1,8.911476E-1,7.1336395E-1,1.1124201E0,0E0,0E0,0E0,0E0,0E0,0E0,0E0,0E0,0E0,0E0,0E0,0E0,0E0,0E0,0E0,0E0,0E0,0E0,0E0,0E0,0E0,0E0,0E0,0E0,0E0,0E0,0E0,0E0,0E0,0E0,0E0,0E0,0E0,0E0,0E0,0E0,0E0,0E0,0E0,0E0,0E0,0E0,0E0,0E0,0E0,0E0,0E0,0E0,0E0,0E0,0E0,0E0],"parents":[2147483647,0,0,1,1,2,2,3,3,4,4,5,5,6,6,7,7,8,8,9,9,10,10,11,11,12,12,13,13,14,14,15,15,16,16,17,17,18,18,19,19,20,20,21,21,22,22,23,23,24,24,25,25,26,26,27,27,28,28,29,29,30,30,31,31,32,32,33,33,34,34,35,35,36,36,38,38,39,39,40,40,41,41,43,43,44,44,45,45,46,46,48,48,49,49,50,50,52,52,55,55,56,56,57,57,58,58,59,59,60,60,61,61,62,62],"right_children":[2,4,6,8,10,12,14,16,18,20,22,24,26,28,30,32,34,36,38,40,42,44,46,48,50,52,54,56,58,60,62,64,66,68,70,72,74,-1,76,78,80,82,-1,84,86,88,90,-1,92,94,96,-1,98,-1,-1,100,102,104,106,108,110,112,114,-1,-1,-1,-1,-1,-1,-1,-1,-1,-1,-1,-1,-1,-1,-1,-1,-1,-1,-1,-1,-1,-1,-1,-1,-1,-1,-1,-1,-1,-1,-1,-1,-1,-1,-1,-1,-1,-1,-1,-1,-1,-1,-1,-1,-1,-1,-1,-1,-1,-1,-1,-1],"split_conditions":[4.8571866E-2,2.9717032E-2,1.2919896E-2,9.456265E-2,4.2686064E-2,5.0643828E-2,2.328E-1,2.579E-1,8.342971E-1,1.2998523E-1,1.732337E-2,4.7024E0,2.523E-1,1.1892254E0,1.1278736E-1,1.083E-1,5.363E-1,3.846E-1,-5.4989815E-1,4.725537E-2,7.284768E-1,8.773149E-1,5.5633772E-2,-5.3265695E-2,5.088E-1,2.414E-3,9.392265E-1,6.586169E-3,9.182644E-1,1.896E-1,8.7673895E-2,1.048E-1,1.1278736E-1,4.953E-1,7.331E-1,-1.8018018E-1,-3.4364262E-3,2.0724205E-2,-5.098371E-2,1.896E-1,8.606271E-1,-6.873614E-1,-2.314469E-2,7.389387E-1,-1.8832392E-1,-7.017544E-1,2.528E-1,-3.4575113E-3,6.757E-1,9.035741E-1,7.685E-1,-6.3986205E-3,5.718032E-1,3.2860365E-2,4.028875E-3,9.975669E-2,-5.8953114E-2,4.9479168E-2,1.3400114E0,6.95E-4,6.700721E-2,3.0256454E-2,2.1154983E0,-3.827917E-3,8.839047E-3,-1.1120295E-2,1.2664161E-2,-1.6170247E-2,-8.256108E-3,-1.9505529E-2,-1.5081917E-2,-5.651423E-3,2.9503172E-2,-1.0429777E-2,1.23211285E-2,2.4656565E-5,-1.5427156E-2,-1.3089107E-3,-1.3609721E-2,1.1066318E-3,-1.186237E-2,2.7434045E-2,5.435175E-3,1.0338484E-3,1.0018825E-2,-9.642008E-3,2.4216736E-3,1.6229302E-2,-9.902363E-3,5.5815554E-3,1.9453164E-2,2.2589503E-2,2.9083231E-2,7.1665547E-3,-2.624659E-2,2.2849843E-2,-2.121032E-3,2.4958963E-2,5.608279E-3,-3.3201256E-3,9.083743E-3,2.6342664E-3,1.5027851E-2,-4.4586095E-3,8.440511E-3,-8.0867365E-5,1.3982181E-2,2.3068754E-2,-5.0271433E-3,1.819748E-2,1.0428297E-2,-1.2031695E-2,1.2691039E-2,1.23818545E-2,-1.3052168E-3],"split_indices":[0,4,8,2,4,4,2,29,3,2,5,6,29,3,8,29,29,29,9,8,9,3,4,2,29,6,9,5,9,29,0,29,8,29,29,9,5,0,18,29,3,9,0,3,9,9,29,0,29,3,29,0,3,0,0,0,18,5,3,6,4,18,3,0,0,0,0,0,0,0,0,0,0,0,0,0,0,0,0,0,0,0,0,0,0,0,0,0,0,0,0,0,0,0,0,0,0,0,0,0,0,0,0,0,0,0,0,0,0,0,0,0,0,0,0],"split_type":[0,0,0,0,0,0,0,0,0,0,0,0,0,0,0,0,0,0,0,0,0,0,0,0,0,0,0,0,0,0,0,0,0,0,0,0,0,0,0,0,0,0,0,0,0,0,0,0,0,0,0,0,0,0,0,0,0,0,0,0,0,0,0,0,0,0,0,0,0,0,0,0,0,0,0,0,0,0,0,0,0,0,0,0,0,0,0,0,0,0,0,0,0,0,0,0,0,0,0,0,0,0,0,0,0,0,0,0,0,0,0,0,0,0,0],"sum_hessian":[3.6043127E3,2.0977974E3,1.5065154E3,1.312448E3,7.853495E2,2.4878702E2,1.2577284E3,1.2534033E3,5.90447E1,3.203193E2,4.6503015E2,1.920348E2,5.6752213E1,7.097208E2,5.480075E2,1.8770961E2,1.0656937E3,3.4693897E1,2.4350803E1,2.2630592E2,9.401339E1,3.659825E2,9.904762E1,1.8275652E2,9.278285E0,4.544208E0,5.2208004E1,3.2136325E2,3.8835757E2,3.4709604E2,2.0091147E2,1.6798246E1,1.7091136E2,5.794104E2,4.8628333E2,1.5852548E1,1.884135E1,1.7351195E0,2.2615683E1,1.0116952E2,1.251364E2,9.145726E1,2.5561302E0,2.64275E2,1.0170754E2,2.608115E1,7.296647E1,1.1698444E0,1.8158667E2,3.7360582E0,5.542227E0,1.4467379E0,3.0974703E0,5.0711536E1,1.4964694E0,9.668449E1,2.2467877E2,2.7777203E2,1.1058555E2,1.7669228E1,3.2942682E2,1.8260757E1,1.8265071E2,1.1839656E1,4.958591E0,1.6984349E2,1.0678674E0,4.9450436E2,8.490601E1,3.4118207E2,1.4510126E2,3.4257479E0,1.24268E1,6.6334977E0,1.2207853E1,1.2842058E0,2.1331478E1,9.388536E0,9.1780975E1,6.751552E1,5.7620884E1,3.9582195E0,8.749904E1,1.1694291E2,1.4733208E2,4.5596436E1,5.6111103E1,9.97872E0,1.610243E1,1.8693367E1,5.4273106E1,1.4182294E2,3.9763737E1,1.8078897E0,1.9281687E0,4.5291286E0,1.0130985E0,1.9769671E0,1.1205032E0,2.824841E1,6.843608E1,2.3667524E1,2.0101125E2,1.5377063E2,1.2400139E2,2.5079227E1,8.5506325E1,2.7918622E0,1.4877365E1,2.814489E2,4.7977905E1,1.5574622E1,2.6861358E0,1.6656064E2,1.609007E1],"tree_param":{"num_deleted":"0","num_feature":"30","num_nodes":"115","size_leaf_vector":"1"}},{"base_weights":[1.1275988E-3,-1.8117139E-1,2.3574537E-1,-2.5332946E-1,1.3145895E-1,3.861261E-1,1.6922365E-1,-2.9149988E-1,9.7141705E-2,1.0026154E-1,2.94762E-1,4.476327E-1,2.7763522E-1,2.387011E-2,1.9875671E-1,-2.8610027E-1,-5.975555E-1,-1.0367945E-1,2.3565698E-1,3.6506698E-1,7.9548344E-2,4.008489E-1,5.0114103E-2,5.114723E-1,3.3888653E-1,3.899822E-1,1.9584043E-1,2.0608464E-1,-9.501544E-2,2.7288055E-1,1.5283856E-1,-3.3065805E-1,-2.609341E-1,-3.0660829E-2,-7.6936483E-3,-1.4862919E-1,2.1099041E-1,1.7196808E-2,3.2519934E-1,5.949311E-1,1.6068907E-1,2.9467592E-1,5.1325727E-2,4.6536997E-1,-1.6958712E-1,-1.0253776E-1,3.2131535E-1,5.7314533E-1,4.2543077E-1,4.8614132E-1,1.786254E-1,4.410995E-1,-1.2835587E-2,1.1136021E-1,3.4793812E-1,-1.8561794E-1,2.3781784E-1,1.4909596E-2,-2.91442E-1,-5.5066204E-1,2.808904E-1,1.6675888E-1,-7.959377E-2,-1.6983645E-2,-1.1651766E-3,-1.1674513E-2,-1.5888222E-2,-9.2711365E-3,8.71078E-3,1.8317526E-2,-1.3117838E-2,8.961384E-3,-1.343699E-2,7.285682E-3,2.3511983E-2,8.977648E-3,3.189929E-2,2.1585412E-2,-2.2027807E-3,1.8991826E-2,8.983163E-4,4.8246738E-3,-2.9505014E-3,-8.616486E-3,2.667557E-2,-2.3267865E-2,2.2538183E-2,2.5466103E-2,-1.5440424E-2,-3.4909514E-3,2.4020327E-2,2.8967833E-2,3.05867E-4,1.7496618E-2,2.8671194E-2,2.6839305E-2,-2.9479626E-3,-3.0342038E-3,1.3241477E-2,-4.9665396E-4,2.397887E-2,1.9900223E-2,-1.0407506E-2,1.42375855E-2,-1.7920745E-3,8.771553E-3,2.4781743E-2,8.010197E-3,-2.6934395E-2,9.427879E-3,2.3399685E-2,-4.988028E-3,1.2112296E-2,-1.7112007E-2,-8.678982E-3,-9.1782715E-3,-3.1954885E-2,8.799792E-3,1.587659E-2,-2.5955949E-4,9.011345E-3,-1.5669681E-2,3.7068177E-3],"categories":[],"categories_nodes":[],"categories_segments":[],"categories_sizes":[],"default_left":[0,0,0,0,0,0,0,0,0,0,0,0,0,0,0,0,0,0,0,0,0,0,0,0,0,0,0,0,0,0,0,0,0,0,0,0,0,0,0,0,0,0,0,0,0,0,0,0,0,0,0,0,0,0,0,0,0,0,0,0,0,0,0,0,0,0,0,0,0,0,0,0,0,0,0,0,0,0,0,0,0,0,0,0,0,0,0,0,0,0,0,0,0,0,0,0,0,0,0,0,0,0,0,0,0,0,0,0,0,0,0,0,0,0,0,0,0,0,0,0,0,0,0],"id":8,"left_children":[1,3,5,7,9,11,13,15,17,19,21,23,25,27,29,31,33,35,37,39,41,43,45,47,49,51,53,55,57,59,61,63,65,-1,-1,67,69,71,73,75,77,79,81,83,85,87,89,91,93,95,97,99,101,103,105,107,109,111,113,115,117,119,121,-1,-1,-1,-1,-1,-1,-1,-1,-1,-1,-1,-1,-1,-1,-1,-1,-1,-1,-1,-1,-1,-1,-1,-1,-1,-1,-1,-1,-1,-1,-1,-1,-1,-1,-1,-1,-1,-1,-1,-1,-1,-1,-1,-1,-1,-1,-1,-1,-1,-1,-1,-1,-1,-1,-1,-1,-1,-1,-1,-1],"loss_changes":[1.5357216E2,4.561554E1,1.5640358E1,2.1994705E1,1.9042373E0,3.0835495E0,4.6755486E0,2.2765198E0,4.531346E0,1.7272825E0,1.5466809E0,1.9451904E0,1.5461407E0,4.0326385E0,3.04208E0,1.5477982E0,7.76701E-2,9.766342E-1,1.8760347E0,9.826226E-1,1.7957234E0,1.6234512E0,8.361862E-1,7.6607513E-1,2.6469622E0,1.5166264E0,1.2999334E0,9.5724964E-1,2.4397755E0,2.4324265E0,1.8307734E0,1.4390602E0,1.3856468E0,0E0,0E0,7.3390186E-1,7.4080575E-1,1.3926934E0,1.7061348E0,7.20129E-2,7.691898E-1,8.033173E-1,1.325736E0,1.7417889E0,1.1266575E0,1.8197718E0,4.8341566E-1,3.7675095E-1,7.305279E-1,1.6822491E0,1.1930338E0,1.1353455E0,8.2388943E-1,1.7573186E0,8.4894705E-1,8.2706356E-1,6.8723345E-1,1.9342567E0,1.8319917E-1,1.6286373E-3,1.2610245E0,1.2290487E0,1.1884009E0,0E0,0E0,0E0,0E0,0E0,0E0,0E0,0E0,0E0,0E0,0E0,0E0,0E0,0E0,0E0,0E0,0E0,0E0,0E0,0E0,0E0,0E0,0E0,0E0,0E0,0E0,0E0,0E0,0E0,0E0,0E0,0E0,0E0,0E0,0E0,0E0,0E0,0E0,0E0,0E0,0E0,0E0,0E0,0E0,0E0,0E0,0E0,0E0,0E0,0E0,0E0,0E0,0E0,0E0,0E0,0E0,0E0,0E0,0E0,0E0],"parents":[2147483647,0,0,1,1,2,2,3,3,4,4,5,5,6,6,7,7,8,8,9,9,10,10,11,11,12,12,13,13,14,14,15,15,16,16,17,17,18,18,19,19,20,20,21,21,22,22,23,23,24,24,25,25,26,26,27,27,28,28,29,29,30,30,31,31,32,32,35,35,36,36,37,37,38,38,39,39,40,40,41,41,42,42,43,43,44,44,45,45,46,46,47,47,48,48,49,49,50,50,51,51,52,52,53,53,54,54,55,55,56,56,57,57,58,58,59,59,60,60,61,61,62,62],"right_children":[2,4,6,8,10,12,14,16,18,20,22,24,26,28,30,32,34,36,38,40,42,44,46,48,50,52,54,56,58,60,62,64,66,-1,-1,68,70,72,74,76,78,80,82,84,86,88,90,92,94,96,98,100,102,104,106,108,110,112,114,116,118,120,122,-1,-1,-1,-1,-1,-1,-1,-1,-1,-1,-1,-1,-1,-1,-1,-1,-1,-1,-1,-1,-1,-1,-1,-1,-1,-1,-1,-1,-1,-1,-1,-1,-1,-1,-1,-1,-1,-1,-1,-1,-1,-1,-1,-1,-1,-1,-1,-1,-1,-1,-1,-1,-1,-1,-1,-1,-1,-1,-1,-1],"split_conditions":[4.8571866E-2,1.6035861E-1,4.9462367E-2,5.417996E-2,3.1126067E-1,1.36E0,8.471392E-2,1.15E-2,1E1,9.99E-4,5.5E-3,8.645534E-3,7.875923E-1,2.5974026E-1,9.267044E-2,2.4336284E-2,7.777E-3,1.13E-2,5.401E-3,-2.26E-2,2.7783042E-2,9.312734E-2,7.1039E-2,8.4E-3,-7.8E-3,9.3768E0,2.4205914E-1,9E-4,1.3799706E0,-1.525553E-2,2.1154983E0,7.3E-2,9.1E-3,-3.0660829E-2,-7.6936483E-3,1E1,-2.7745664E-2,-4.1322315E-1,9.3E-3,-2.0651335E-2,7.1450835E-1,8.342971E-1,-1.8E-3,5.2380953E-2,1.4688404E0,1.2307692E-2,1.48E-2,1E1,4.724518E-2,2.2317104E0,2.387268E-2,1.5949E0,3.474364E-2,1.4584616E-1,4.327877E-2,3.593094E-2,3.8509324E-1,9.5E-3,8.3E-3,7.9E-3,2.377E-3,1.02E-3,-1.18E-2,-1.6983645E-2,-1.1651766E-3,-1.1674513E-2,-1.5888222E-2,-9.2711365E-3,8.71078E-3,1.8317526E-2,-1.3117838E-2,8.961384E-3,-1.343699E-2,7.285682E-3,2.3511983E-2,8.977648E-3,3.189929E-2,2.1585412E-2,-2.2027807E-3,1.8991826E-2,8.983163E-4,4.8246738E-3,-2.9505014E-3,-8.616486E-3,2.667557E-2,-2.3267865E-2,2.2538183E-2,2.5466103E-2,-1.5440424E-2,-3.4909514E-3,2.4020327E-2,2.8967833E-2,3.05867E-4,1.7496618E-2,2.8671194E-2,2.6839305E-2,-2.9479626E-3,-3.0342038E-3,1.3241477E-2,-4.9665396E-4,2.397887E-2,1.9900223E-2,-1.0407506E-2,1.42375855E-2,-1.7920745E-3,8.771553E-3,2.4781743E-2,8.010197E-3,-2.6934395E-2,9.427879E-3,2.3399685E-2,-4.988028E-3,1.2112296E-2,-1.7112007E-2,-8.678982E-3,-9.1782715E-3,-3.1954885E-2,8.799792E-3,1.587659E-2,-2.5955949E-4,9.011345E-3,-1.5669681E-2,3.7068177E-3],"split_indices":[0,10,8,4,10,6,1,28,19,6,27,8,3,9,8,8,6,28,6,27,4,4,4,28,27,6,10,6,3,9,3,27,28,0,0,21,0,9,28,18,3,3,27,8,3,1,27,19,4,3,8,6,4,10,4,4,10,28,27,28,6,6,27,0,0,0,0,0,0,0,0,0,0,0,0,0,0,0,0,0,0,0,0,0,0,0,0,0,0,0,0,0,0,0,0,0,0,0,0,0,0,0,0,0,0,0,0,0,0,0,0,0,0,0,0,0,0,0,0,0,0,0,0],"split_type":[0,0,0,0,0,0,0,0,0,0,0,0,0,0,0,0,0,0,0,0,0,0,0,0,0,0,0,0,0,0,0,0,0,0,0,0,0,0,0,0,0,0,0,0,0,0,0,0,0,0,0,0,0,0,0,0,0,0,0,0,0,0,0,0,0,0,0,0,0,0,0,0,0,0,0,0,0,0,0,0,0,0,0,0,0,0,0,0,0,0,0,0,0,0,0,0,0,0,0,0,0,0,0,0,0,0,0,0,0,0,0,0,0,0,0,0,0,0,0,0,0,0,0],"sum_hessian":[3.5886035E3,2.0195966E3,1.5690071E3,1.6410226E3,3.7857397E2,4.7972467E2,1.0892825E3,1.4800012E3,1.6102129E2,3.1920667E2,5.9367302E1,3.04161E2,1.7556364E2,1.8425217E2,9.050302E2,1.456244E3,2.375719E1,6.583067E1,9.519062E1,2.1951061E1,2.972556E2,4.0965096E1,1.8402206E1,1.893182E2,1.1484281E2,7.238011E1,1.0318354E2,7.246003E1,1.11792145E2,3.4429907E2,5.607312E2,5.212348E2,9.350093E2,2.2578121E1,1.1790679E0,5.8064045E1,7.766625E0,2.8020329E1,6.7170296E1,9.4319725E0,1.2519089E1,3.3379375E1,2.6387625E2,3.6967903E1,3.997193E0,1.2172531E1,6.2296762E0,1.0697737E2,8.2340836E1,5.8790314E1,5.6052494E1,6.414511E1,8.235004E0,6.745108E1,3.573246E1,5.066894E0,6.7393135E1,7.2271416E1,3.9520725E1,2.6638505E0,3.4163522E2,5.293133E2,3.1417908E1,5.0628027E2,1.4954549E1,6.3396875E2,3.0104053E2,5.2505795E1,5.55825E0,6.0175962E0,1.7490286E0,1.8123518E1,9.896811E0,3.0916334E1,3.625396E1,1.3714074E0,8.060565E0,4.9105315E0,7.6085577E0,2.5239069E1,8.140307E0,1.8731943E2,7.6556816E1,3.4212494E0,3.3546654E1,2.8758814E0,1.1213117E0,2.6985734E0,9.473957E0,1.9634836E0,4.266193E0,1.05796715E2,1.1806602E0,5.6752945E1,2.558789E1,5.380646E1,4.983851E0,1.4922503E1,4.112999E1,5.1004333E0,5.9044674E1,2.3190885E0,5.9159164E0,3.0541393E1,3.6909683E1,1.7491034E1,1.8241425E1,2.8356807E0,2.2312136E0,5.7011265E1,1.0381873E1,4.8412807E1,2.385861E1,2.62873E1,1.3233427E1,1.114258E0,1.5495926E0,8.9946144E1,2.5168907E2,3.8491776E1,4.908215E2,1.2051237E1,1.936667E1],"tree_param":{"num_deleted":"0","num_feature":"30","num_nodes":"123","size_leaf_vector":"1"}},{"base_weights":[6.087621E-4,-1.8151347E-1,2.3171316E-1,-2.513934E-1,1.2437977E-1,3.9758134E-1,1.6914244E-1,-2.896661E-1,1.6529006E-1,1.679098E-1,3.3219296E-2,4.8904303E-1,3.3762014E-1,5.47055E-2,2.174612E-1,-2.796926E-1,-5.7110476E-1,3.532794E-2,4.9121568E-1,1.3236518E-1,4.6295244E-1,4.3382457E-1,-4.4795208E-2,3.4437135E-1,5.362013E-1,4.129652E-1,2.441351E-1,-1.8637972E-1,9.948907E-2,2.7914044E-1,1.7949364E-1,-3.1882918E-1,-2.4420066E-1,-3.61834E-1,-6.308172E-1,-1.5602687E-1,2.4267673E-1,-1.8591048E-2,5.6996834E-1,1.5666842E-1,-1.8347844E-1,1.807204E-1,6.107428E-1,4.7891444E-1,-2.6213136E-3,-6.8013735E-2,2.384541E-2,1.04435764E-1,5.12938E-1,5.515543E-1,2.3429719E-1,-7.36594E-2,4.377106E-1,2.8033423E-1,-1.3963556E-1,-3.0236968E-1,-5.5127736E-2,-5.76924E-2,1.5863165E-1,3.7732485E-1,1.8864776E-1,-1.653347E-1,1.8768638E-1,-1.643399E-2,-4.7383583E-3,-1.4036663E-2,-1.0223687E-2,2.7411964E-4,-1.9907296E-2,-3.2104786E-2,-5.6806025E-3,-1.3083036E-2,-5.722922E-4,2.138189E-2,5.632661E-3,3.1044383E-2,8.583582E-4,9.656963E-3,-2.7108837E-3,5.4826657E-3,-1.9132953E-2,-1.4636825E-2,1.9457376E-2,3.3679165E-2,1.3328388E-2,1.5239366E-3,2.65486E-2,-6.084594E-3,7.7632195E-3,1.4422541E-2,-6.51136E-3,4.7810358E-4,2.857109E-2,1.0382297E-2,2.8195186E-2,2.4703912E-2,-5.260413E-3,-1.0680421E-2,1.7321602E-2,2.2689918E-2,-5.6357454E-3,1.1220437E-2,2.4617631E-2,4.368718E-3,-3.3700015E-2,-7.0024147E-3,-1.5644431E-2,2.3987608E-3,-2.43704E-2,-1.30398795E-2,5.6855223E-4,1.0426517E-2,-3.6461873E-4,1.4866183E-2,2.6986336E-2,1.2532661E-2,-9.5728337E-4,-3.2099754E-2,7.9259435E-3,-6.2337134E-4,9.97126E-3],"categories":[],"categories_nodes":[],"categories_segments":[],"categories_sizes":[],"default_left":[0,0,0,0,0,0,0,0,0,0,0,0,0,0,0,0,0,0,0,0,0,0,0,0,0,0,0,0,0,0,0,0,0,0,0,0,0,0,0,0,0,0,0,0,0,0,0,0,0,0,0,0,0,0,0,0,0,0,0,0,0,0,0,0,0,0,0,0,0,0,0,0,0,0,0,0,0,0,0,0,0,0,0,0,0,0,0,0,0,0,0,0,0,0,0,0,0,0,0,0,0,0,0,0,0,0,0,0,0,0,0,0,0,0,0,0,0,0,0,0,0],"id":9,"left_children":[1,3,5,7,9,11,13,15,17,19,21,23,25,27,29,31,33,35,37,39,41,43,45,47,49,51,53,55,57,59,61,63,65,67,69,71,73,-1,75,77,79,81,83,85,-1,87,-1,89,91,93,95,97,99,101,103,105,107,109,111,113,115,117,119,-1,-1,-1,-1,-1,-1,-1,-1,-1,-1,-1,-1,-1,-1,-1,-1,-1,-1,-1,-1,-1,-1,-1,-1,-1,-1,-1,-1,-1,-1,-1,-1,-1,-1,-1,-1,-1,-1,-1,-1,-1,-1,-1,-1,-1,-1,-1,-1,-1,-1,-1,-1,-1,-1,-1,-1,-1,-1],"loss_changes":[1.4907564E2,4.2373924E1,1.6133835E1,2.576867E1,1.4588432E0,2.175705E0,6.265091E0,3.9875488E0,5.756646E0,2.5555153E0,3.785868E0,9.532738E-1,1.7378769E0,3.6715994E0,1.8182869E0,1.9069443E0,3.9165115E-1,3.9473388E0,2.8478222E0,1.7489038E0,9.919796E-1,4.5784736E-1,1.2652795E0,1.7178373E0,4.4548798E-1,1.7554073E0,1.6915312E0,7.9557693E-1,2.667818E0,2.6137943E0,1.4341049E0,1.461525E0,1.0363464E0,1.8034852E-1,1.4434242E-1,7.889072E-1,1.0985203E0,0E0,1.000823E0,1.6150312E0,1.0036974E0,1.1503803E0,1.8650341E-1,4.0777636E-1,0E0,1.1972214E0,0E0,8.722029E-1,7.4433184E-1,3.808937E-1,7.345259E-1,5.3143317E-1,1.2582645E0,1.1822348E0,1.3835317E0,4.160404E-3,1.1934583E0,1.1100503E0,1.7242379E0,1.7096081E0,2.0567064E0,1.9630818E0,1.1434155E0,0E0,0E0,0E0,0E0,0E0,0E0,0E0,0E0,0E0,0E0,0E0,0E0,0E0,0E0,0E0,0E0,0E0,0E0,0E0,0E0,0E0,0E0,0E0,0E0,0E0,0E0,0E0,0E0,0E0,0E0,0E0,0E0,0E0,0E0,0E0,0E0,0E0,0E0,0E0,0E0,0E0,0E0,0E0,0E0,0E0,0E0,0E0,0E0,0E0,0E0,0E0,0E0,0E0,0E0,0E0,0E0,0E0,0E0],"parents":[2147483647,0,0,1,1,2,2,3,3,4,4,5,5,6,6,7,7,8,8,9,9,10,10,11,11,12,12,13,13,14,14,15,15,16,16,17,17,18,18,19,19,20,20,21,21,22,22,23,23,24,24,25,25,26,26,27,27,28,28,29,29,30,30,31,31,32,32,33,33,34,34,35,35,36,36,38,38,39,39,40,40,41,41,42,42,43,43,45,45,47,47,48,48,49,49,50,50,51,51,52,52,53,53,54,54,55,55,56,56,57,57,58,58,59,59,60,60,61,61,62,62],"right_children":[2,4,6,8,10,12,14,16,18,20,22,24,26,28,30,32,34,36,38,40,42,44,46,48,50,52,54,56,58,60,62,64,66,68,70,72,74,-1,76,78,80,82,84,86,-1,88,-1,90,92,94,96,98,100,102,104,106,108,110,112,114,116,118,120,-1,-1,-1,-1,-1,-1,-1,-1,-1,-1,-1,-1,-1,-1,-1,-1,-1,-1,-1,-1,-1,-1,-1,-1,-1,-1,-1,-1,-1,-1,-1,-1,-1,-1,-1,-1,-1,-1,-1,-1,-1,-1,-1,-1,-1,-1,-1,-1,-1,-1,-1,-1,-1,-1,-1,-1,-1,-1],"split_conditions":[4.8571866E-2,1.6035861E-1,4.3644298E-2,5.7225276E-2,8.414717E-1,5.0731474E-1,1.9061583E-1,1.12E-2,1.13E-2,8.247054E-1,-7.2186834E-1,2.8476005E-2,5.994E-1,3.633692E-2,1.0415976E0,2.8735632E-2,-5.29E-2,1.6483517E-2,4.5E-3,2.04E-2,1.2965964E-2,3.01E-2,1.7284596E-1,2.0442441E-1,3.7025E0,3.9306358E-2,3.2E-2,1.2386609E-1,6.586169E-3,1.0342E-2,-6.1E-2,1.04E-2,-1.19E-2,-3.696498E-2,1.0342E-2,1E1,9.256947E-1,-1.8591048E-2,1.2166995E0,1.0555903E-1,2.2150032E-1,-3.984064E-2,3.529412E-2,1.898734E-2,-2.6213136E-3,1.38E-2,2.384541E-2,9E-3,6.95E-4,7.362295E0,-1.19E-2,2.4205914E-1,6.8922795E-2,1.7119693E0,1.7469124E0,5.1502146E-2,3.5131834E-2,8.52429E-1,1.00307696E-1,9.667674E-1,1.00307696E-1,4.390429E-2,1.0785531E0,-1.643399E-2,-4.7383583E-3,-1.4036663E-2,-1.0223687E-2,2.7411964E-4,-1.9907296E-2,-3.2104786E-2,-5.6806025E-3,-1.3083036E-2,-5.722922E-4,2.138189E-2,5.632661E-3,3.1044383E-2,8.583582E-4,9.656963E-3,-2.7108837E-3,5.4826657E-3,-1.9132953E-2,-1.4636825E-2,1.9457376E-2,3.3679165E-2,1.3328388E-2,1.5239366E-3,2.65486E-2,-6.084594E-3,7.7632195E-3,1.4422541E-2,-6.51136E-3,4.7810358E-4,2.857109E-2,1.0382297E-2,2.8195186E-2,2.4703912E-2,-5.260413E-3,-1.0680421E-2,1.7321602E-2,2.2689918E-2,-5.6357454E-3,1.1220437E-2,2.4617631E-2,4.368718E-3,-3.3700015E-2,-7.0024147E-3,-1.5644431E-2,2.3987608E-3,-2.43704E-2,-1.30398795E-2,5.6855223E-4,1.0426517E-2,-3.6461873E-4,1.4866183E-2,2.6986336E-2,1.2532661E-2,-9.5728337E-4,-3.2099754E-2,7.9259435E-3,-6.2337134E-4,9.97126E-3],"split_indices":[0,10,8,4,3,3,10,28,28,3,9,4,6,4,3,8,27,5,6,27,1,27,8,10,6,5,27,10,5,6,27,28,27,5,6,19,3,0,3,8,10,9,1,5,0,27,0,28,6,7,27,10,18,3,3,8,4,9,0,9,0,4,3,0,0,0,0,0,0,0,0,0,0,0,0,0,0,0,0,0,0,0,0,0,0,0,0,0,0,0,0,0,0,0,0,0,0,0,0,0,0,0,0,0,0,0,0,0,0,0,0,0,0,0,0,0,0,0,0,0,0],"split_type":[0,0,0,0,0,0,0,0,0,0,0,0,0,0,0,0,0,0,0,0,0,0,0,0,0,0,0,0,0,0,0,0,0,0,0,0,0,0,0,0,0,0,0,0,0,0,0,0,0,0,0,0,0,0,0,0,0,0,0,0,0,0,0,0,0,0,0,0,0,0,0,0,0,0,0,0,0,0,0,0,0,0,0,0,0,0,0,0,0,0,0,0,0,0,0,0,0,0,0,0,0,0,0,0,0,0,0,0,0,0,0,0,0,0,0,0,0,0,0,0,0],"sum_hessian":[3.539894E3,1.9798691E3,1.5600248E3,1.6118317E3,3.6803754E2,4.2583325E2,1.1341915E3,1.4765173E3,1.3531433E2,2.4852328E2,1.1951425E2,1.6578992E2,2.6004337E2,3.3735074E2,7.968408E2,1.4279095E3,4.860782E1,9.7532036E1,3.778229E1,2.2309503E2,2.5428255E1,1.8737284E1,1.0077697E2,4.2797764E1,1.2299215E2,1.4209953E2,1.1794382E2,5.2353294E1,2.8499744E2,3.0119308E2,4.9564777E2,6.752902E2,7.526193E2,1.2357786E1,3.625003E1,5.085099E1,4.668105E1,2.8481836E0,3.4934105E1,2.0762302E2,1.5472012E1,9.503138E0,1.59251175E1,1.7161036E1,1.5762491E0,9.731555E1,3.461419E0,1.832861E1,2.4469154E1,1.16253296E2,6.7388577E0,6.780603E0,1.3531892E2,1.08023994E2,9.919825E0,2.7100403E1,2.5252892E1,7.792445E1,2.0707297E2,1.42937E2,1.5825609E2,1.1057626E1,4.8459015E2,6.464049E2,2.8885292E1,3.88912E2,3.6370734E2,1.1881337E0,1.1169652E1,3.5240086E1,1.0099455E0,2.8915182E1,2.1935806E1,1.8324772E1,2.835628E1,3.1874899E1,3.0592082E0,1.7708238E2,3.0540642E1,6.441545E0,9.030467E0,2.781121E0,6.722017E0,1.2657059E1,3.2680585E0,1.9498713E0,1.5211164E1,7.882118E1,1.8494368E1,1.0144449E1,8.184159E0,2.6680934E0,2.180106E1,4.6473536E0,1.1160594E2,3.5597432E0,3.1791146E0,5.454885E0,1.3257182E0,1.3164674E2,3.672193E0,8.710593E1,2.091807E1,7.5492334E0,2.3705912E0,2.5204468E0,2.4579956E1,2.1107557E1,4.1453347E0,1.906905E1,5.8855408E1,1.5899985E2,4.8073124E1,9.765949E1,4.5277504E1,1.2172666E2,3.6529434E1,4.076019E0,6.981607E0,2.6842764E1,4.5774738E2],"tree_param":{"num_deleted":"0","num_feature":"30","num_nodes":"121","size_leaf_vector":"1"}},{"base_weights":[-1.0422181E-3,-2.0981936E-1,2.0178404E-1,-2.6365033E-1,2.1765937E-1,9.541042E-2,2.6349446E-1,-2.9781282E-1,-1.24750175E-1,3.8592052E-1,1.08270414E-1,-2.3184843E-1,1.366682E-1,3.8411245E-1,2.0969628E-1,-2.595759E-1,-3.537647E-1,-2.3920181E-1,-3.3400748E-2,5.2478594E-1,3.0164638E-1,-1.7454556E-1,1.8489811E-1,-2.0211709E-1,-3.427787E-1,1.0005437E-1,2.1520278E-1,4.4397217E-1,2.5955555E-1,-2.990856E-1,2.1491286E-1,-2.802805E-1,-1.4404489E-1,-3.640502E-1,4.0379744E-2,-9.626451E-3,-3.1299397E-1,1.6389407E-1,-1.964118E-1,1.0720693E-1,5.69816E-1,-1.616928E-1,3.2490262E-1,1.9549748E-1,-2.6293075E-1,3.0260745E-1,4.538371E-3,-2.2805727E-1,3.9549172E-2,-1.176693E-2,-2.5895962E-2,4.3155152E-1,8.502969E-2,2.7499521E-2,2.604808E-1,3.8854244E-1,5.201039E-1,-4.004607E-2,3.165746E-1,-4.8996237E-1,8.772653E-2,-1.4048603E-1,2.2191148E-1,-9.271984E-3,-1.5685886E-2,4.5845407E-4,-1.6009916E-2,-1.99398E-2,-1.4399295E-2,3.4053586E-3,-8.6419936E-4,-2.2060631E-3,2.2932615E-2,-1.6522462E-2,-5.1894835E-3,-4.788346E-4,1.6461967E-2,5.531525E-3,-1.1218588E-2,-1.8171882E-2,2.0765722E-2,3.04591E-2,3.1989738E-3,-1.4032009E-2,2.0395005E-3,2.705567E-2,1.2170972E-2,-3.0198942E-3,2.3201648E-2,-2.3258245E-2,-1.8459855E-3,2.1712275E-2,4.6536205E-3,-3.4385917E-3,2.070759E-2,-1.2487258E-2,-7.0883795E-3,-8.812777E-3,8.97723E-3,3.352259E-2,9.131409E-3,6.8278885E-3,-7.677169E-4,4.5483946E-3,-1.9129725E-2,-1.2807885E-2,1.395347E-2,-9.9011315E-3,1.9803824E-2,2.9638255E-2,1.9271703E-2,3.7944845E-3,-2.5769508E-2,1.1511451E-2,2.4238303E-2,-3.4537587E-2,-2.2209452E-3,-1.196271E-2,1.5877193E-2,-1.9849308E-2,1.1380098E-2,1.3526103E-2,8.163167E-3],"categories":[],"categories_nodes":[],"categories_segments":[],"categories_sizes":[],"default_left":[0,0,0,0,0,0,0,0,0,0,0,0,0,0,0,0,0,0,0,0,0,0,0,0,0,0,0,0,0,0,0,0,0,0,0,0,0,0,0,0,0,0,0,0,0,0,0,0,0,0,0,0,0,0,0,0,0,0,0,0,0,0,0,0,0,0,0,0,0,0,0,0,0,0,0,0,0,0,0,0,0,0,0,0,0,0,0,0,0,0,0,0,0,0,0,0,0,0,0,0,0,0,0,0,0,0,0,0,0,0,0,0,0,0,0,0,0,0,0,0,0,0,0],"id":10,"left_children":[1,3,5,7,9,11,13,15,17,19,21,23,25,27,29,31,33,35,37,39,41,43,45,47,49,51,53,55,57,59,61,63,65,67,69,71,73,75,77,79,81,83,85,87,89,91,93,95,97,-1,-1,99,101,103,105,107,109,111,113,115,117,119,121,-1,-1,-1,-1,-1,-1,-1,-1,-1,-1,-1,-1,-1,-1,-1,-1,-1,-1,-1,-1,-1,-1,-1,-1,-1,-1,-1,-1,-1,-1,-1,-1,-1,-1,-1,-1,-1,-1,-1,-1,-1,-1,-1,-1,-1,-1,-1,-1,-1,-1,-1,-1,-1,-1,-1,-1,-1,-1,-1,-1],"loss_changes":[1.494109E2,4.0067184E1,1.17230835E1,7.2926025E0,3.5474873E0,8.924597E0,7.265419E0,2.5589905E0,3.197949E0,7.3624706E-1,2.6234844E0,1.751399E-1,1.6621265E0,2.479271E0,2.1479683E0,1.7292328E0,2.0426712E0,2.3000336E0,5.55404E0,4.5633316E-1,5.9046745E-1,9.0190715E-1,2.0062058E0,3.9068127E-1,1.4583373E-1,1.961618E0,1.5677719E0,7.837906E-1,1.9833331E0,6.621447E-1,1.9655342E0,1.9279671E0,3.0928788E0,1.1738968E0,2.2957515E-2,5.710563E-1,3.412695E-1,2.2467897E0,8.358333E-1,7.1796274E-1,4.5101786E-1,8.4994E-2,7.116003E-1,4.1196135E-1,9.6174085E-1,1.5374389E0,1.1803529E0,6.776357E-2,2.356881E-1,0E0,0E0,8.974757E-1,1.9938858E0,1.0012732E0,1.5041504E0,6.933365E-1,7.057915E-1,1.1044829E0,1.2974577E0,4.852314E-1,3.479245E-1,1.5661685E0,2.1312714E0,0E0,0E0,0E0,0E0,0E0,0E0,0E0,0E0,0E0,0E0,0E0,0E0,0E0,0E0,0E0,0E0,0E0,0E0,0E0,0E0,0E0,0E0,0E0,0E0,0E0,0E0,0E0,0E0,0E0,0E0,0E0,0E0,0E0,0E0,0E0,0E0,0E0,0E0,0E0,0E0,0E0,0E0,0E0,0E0,0E0,0E0,0E0,0E0,0E0,0E0,0E0,0E0,0E0,0E0,0E0,0E0,0E0,0E0,0E0,0E0],"parents":[2147483647,0,0,1,1,2,2,3,3,4,4,5,5,6,6,7,7,8,8,9,9,10,10,11,11,12,12,13,13,14,14,15,15,16,16,17,17,18,18,19,19,20,20,21,21,22,22,23,23,24,24,25,25,26,26,27,27,28,28,29,29,30,30,31,31,32,32,33,33,34,34,35,35,36,36,37,37,38,38,39,39,40,40,41,41,42,42,43,43,44,44,45,45,46,46,47,47,48,48,51,51,52,52,53,53,54,54,55,55,56,56,57,57,58,58,59,59,60,60,61,61,62,62],"right_children":[2,4,6,8,10,12,14,16,18,20,22,24,26,28,30,32,34,36,38,40,42,44,46,48,50,52,54,56,58,60,62,64,66,68,70,72,74,76,78,80,82,84,86,88,90,92,94,96,98,-1,-1,100,102,104,106,108,110,112,114,116,118,120,122,-1,-1,-1,-1,-1,-1,-1,-1,-1,-1,-1,-1,-1,-1,-1,-1,-1,-1,-1,-1,-1,-1,-1,-1,-1,-1,-1,-1,-1,-1,-1,-1,-1,-1,-1,-1,-1,-1,-1,-1,-1,-1,-1,-1,-1,-1,-1,-1,-1,-1,-1,-1,-1,-1,-1,-1,-1,-1,-1,-1],"split_conditions":[1.04406744E-1,2.2201316E-2,1.2048192E-2,5.377891E-2,1.5837105E-2,1.6035861E-1,4.2154565E-2,5.363E-1,5.401E-3,9.788707E0,2.303E-3,8.3548E0,9.182644E-1,2.0046E0,1.083E-1,4.938E-1,7.3E-2,2.603E-1,1.993E-1,4.9479168E-2,-5.3265695E-2,8.3666784E-1,1.1944019E0,1E-1,8.826825E-1,5.6E-4,3.302E-1,4.59E-3,2.633E-1,1E-1,7.279867E0,2.579E-1,-7.8E-3,7.331E-1,6.993007E-3,8.826825E-1,9.975669E-2,1E1,1.098E-1,-3.678118E-2,2.55E-2,-1.46E-2,-3.25E-2,7.8600116E-2,5.1197965E-2,2.2612E-2,1.2998523E-1,1.56E-2,9.182644E-1,-1.176693E-2,-2.5895962E-2,-3.8610038E-3,8.629801E-1,2.24E-2,9.302868E-2,0E0,8.8E-3,1E1,3.1126067E-1,7.777E-3,7.83467E-1,5E-1,1.2675345E0,-9.271984E-3,-1.5685886E-2,4.5845407E-4,-1.6009916E-2,-1.99398E-2,-1.4399295E-2,3.4053586E-3,-8.6419936E-4,-2.2060631E-3,2.2932615E-2,-1.6522462E-2,-5.1894835E-3,-4.788346E-4,1.6461967E-2,5.531525E-3,-1.1218588E-2,-1.8171882E-2,2.0765722E-2,3.04591E-2,3.1989738E-3,-1.4032009E-2,2.0395005E-3,2.705567E-2,1.2170972E-2,-3.0198942E-3,2.3201648E-2,-2.3258245E-2,-1.8459855E-3,2.1712275E-2,4.6536205E-3,-3.4385917E-3,2.070759E-2,-1.2487258E-2,-7.0883795E-3,-8.812777E-3,8.97723E-3,3.352259E-2,9.131409E-3,6.8278885E-3,-7.677169E-4,4.5483946E-3,-1.9129725E-2,-1.2807885E-2,1.395347E-2,-9.9011315E-3,1.9803824E-2,2.9638255E-2,1.9271703E-2,3.7944845E-3,-2.5769508E-2,1.1511451E-2,2.4238303E-2,-3.4537587E-2,-2.2209452E-3,-1.196271E-2,1.5877193E-2,-1.9849308E-2,1.1380098E-2,1.3526103E-2,8.163167E-3],"split_indices":[10,5,5,8,8,10,8,29,6,7,6,6,9,6,29,29,27,29,6,5,2,3,3,0,9,6,29,6,29,0,7,29,27,29,0,9,0,19,29,10,27,27,27,8,10,6,2,27,9,0,0,5,3,27,1,9,27,19,10,6,9,22,3,0,0,0,0,0,0,0,0,0,0,0,0,0,0,0,0,0,0,0,0,0,0,0,0,0,0,0,0,0,0,0,0,0,0,0,0,0,0,0,0,0,0,0,0,0,0,0,0,0,0,0,0,0,0,0,0,0,0,0,0],"split_type":[0,0,0,0,0,0,0,0,0,0,0,0,0,0,0,0,0,0,0,0,0,0,0,0,0,0,0,0,0,0,0,0,0,0,0,0,0,0,0,0,0,0,0,0,0,0,0,0,0,0,0,0,0,0,0,0,0,0,0,0,0,0,0,0,0,0,0,0,0,0,0,0,0,0,0,0,0,0,0,0,0,0,0,0,0,0,0,0,0,0,0,0,0,0,0,0,0,0,0,0,0,0,0,0,0,0,0,0,0,0,0,0,0,0,0,0,0,0,0,0,0,0,0],"sum_hessian":[3.5263784E3,1.7376804E3,1.788698E3,1.543674E3,1.9400641E2,6.576378E2,1.1310602E3,1.238035E3,3.0563898E2,7.5438934E1,1.1856748E2,7.310955E1,5.8452826E2,3.469786E2,7.840816E2,7.3879193E2,4.992431E2,1.3494629E2,1.7069267E2,2.6517212E1,4.8921722E1,2.5004292E1,9.356319E1,5.9882076E1,1.3227476E1,4.0021625E2,1.8431198E2,2.326209E2,1.14357704E2,7.385927E0,7.766957E2,6.2530365E2,1.1348829E2,4.8662073E2,1.2622365E1,3.3099773E1,1.0184652E2,7.722302E1,9.346964E1,2.9102492E0,2.3606964E1,2.0536556E0,4.6868065E1,4.5871887E0,2.0417103E1,5.620437E1,3.735882E1,5.4128315E1,5.753761E0,9.650861E0,3.5766153E0,1.6150768E1,3.840655E2,3.6131912E1,1.4818007E2,1.3814458E2,9.4476326E1,1.8331919E1,9.602579E1,4.766953E0,2.6189742E0,1.4631202E1,7.620645E2,1.6469911E2,4.6060452E2,6.1203186E1,5.2285107E1,3.3112262E2,1.5549811E2,8.401445E0,4.220919E0,3.1672466E1,1.4273086E0,9.3468315E1,8.378205E0,3.8145267E1,3.9077755E1,7.554387E0,8.591526E1,1.0803689E0,1.8298805E0,2.1712883E1,1.8940799E0,1.0505316E0,1.003124E0,1.1284508E1,3.5583557E1,2.7457588E0,1.8414302E0,1.0216897E1,1.0200206E1,3.3859863E1,2.2344507E1,3.2393353E1,4.965466E0,4.1742554E1,1.2385761E1,2.1620002E0,3.5917604E0,7.3772044E0,8.773563E0,2.5355363E2,1.3051186E2,3.196328E1,4.168632E0,4.7024765E0,1.434776E2,1.4312347E0,1.3671333E2,5.915667E1,3.5319653E1,1.5413046E1,2.9188724E0,6.501661E1,3.1009176E1,2.9066703E0,1.8602827E0,1.064028E0,1.5549461E0,8.576326E0,6.054875E0,4.1471497E2,3.4734955E2],"tree_param":{"num_deleted":"0","num_feature":"30","num_nodes":"123","size_leaf_vector":"1"}},{"base_weights":[2.5949504E-3,-1.7785832E-1,2.2856262E-1,-2.6861995E-1,4.9902633E-2,4.3327236E-1,1.8888019E-1,-2.898302E-1,1.8847154E-2,4.5983624E-3,2.492405E-1,4.7536743E-1,2.9907355E-1,5.771492E-2,2.1716943E-1,-2.8049943E-1,-5.6541467E-1,7.955233E-2,-3.6021593E-1,-3.422725E-2,3.5658258E-1,3.0702043E-1,7.911666E-2,4.459284E-1,6.1308193E-1,2.1416736E-1,5.0712645E-1,-1.6263275E-1,1.6363226E-1,2.571793E-1,1.633597E-1,-3.4348577E-1,-2.6094854E-1,-2.108968E-2,-3.1651575E-2,1.5441865E-1,-1.8478888E-1,7.594646E-3,-4.2211178E-1,-8.998302E-2,1.2949485E-1,-2.191159E-2,5.0998455E-1,1.7845666E-1,4.337847E-1,1.472537E-1,-1.629915E-1,4.733428E-1,3.353381E-1,1.0441633E-2,3.1859208E-2,2.4563488E-1,-4.6045396E-2,6.080165E-1,-2.170388E-2,8.9924805E-2,-2.0597559E-1,2.1617392E-1,-5.64722E-2,2.9645532E-1,1.7926711E-1,8.623966E-2,2.1847557E-1,-1.5765755E-2,-2.3540488E-2,-1.1233862E-2,-1.5216223E-2,1.4969665E-2,3.4633506E-4,-1.5880171E-2,3.918446E-3,-2.3255251E-2,1.1052039E-3,-1.4478934E-2,-3.235462E-3,-9.557698E-3,9.425205E-3,-3.6824164E-3,2.6721833E-2,-2.0046863E-3,1.7562343E-2,1.7271226E-2,3.275092E-2,-1.6905315E-2,1.0685487E-2,-2.115066E-2,9.805687E-3,2.8669843E-2,2.188976E-2,5.2223126E-3,2.3819944E-2,-3.2705565E-3,1.4070903E-2,-1.8323636E-2,1.2489682E-2,3.310664E-2,9.320727E-3,-2.4697216E-2,2.4177678E-2,-9.544867E-3,1.6724655E-2,-1.3906412E-2,3.9234846E-3,1.5485379E-2,2.3472197E-3,-1.7136415E-2,1.6057E-2,8.2064625E-3,1.5812576E-2,-3.0707591E-3,1.1076032E-2,-1.5239412E-2,5.4614013E-3,2.1329725E-2,9.03014E-3],"categories":[],"categories_nodes":[],"categories_segments":[],"categories_sizes":[],"default_left":[0,0,0,0,0,0,0,0,0,0,0,0,0,0,0,0,0,0,0,0,0,0,0,0,0,0,0,0,0,0,0,0,0,0,0,0,0,0,0,0,0,0,0,0,0,0,0,0,0,0,0,0,0,0,0,0,0,0,0,0,0,0,0,0,0,0,0,0,0,0,0,0,0,0,0,0,0,0,0,0,0,0,0,0,0,0,0,0,0,0,0,0,0,0,0,0,0,0,0,0,0,0,0,0,0,0,0,0,0,0,0,0,0,0,0],"id":11,"left_children":[1,3,5,7,9,11,13,15,17,19,21,23,25,27,29,31,33,35,37,39,41,43,45,47,49,51,53,55,57,59,61,63,65,-1,-1,67,69,-1,71,73,75,-1,77,79,81,83,85,87,89,-1,-1,91,93,95,97,99,101,103,105,107,109,111,113,-1,-1,-1,-1,-1,-1,-1,-1,-1,-1,-1,-1,-1,-1,-1,-1,-1,-1,-1,-1,-1,-1,-1,-1,-1,-1,-1,-1,-1,-1,-1,-1,-1,-1,-1,-1,-1,-1,-1,-1,-1,-1,-1,-1,-1,-1,-1,-1,-1,-1,-1,-1],"loss_changes":[1.4322728E2,4.038429E1,1.2587051E1,8.520927E0,5.0319514E0,1.2839775E0,4.8412743E0,3.1860504E0,2.2585354E0,6.2320514E0,9.900346E-1,4.9884415E-1,1.0038829E0,5.4746914E0,2.2738113E0,1.4620895E0,1.3709927E-1,1.6977842E0,4.9385393E-1,3.7618885E0,5.747164E0,1.1722794E0,4.777965E-1,3.2816887E-1,1.6779995E-1,3.9170504E-1,9.480171E-1,8.535619E-1,1.8411899E0,1.829422E0,1.9426336E0,9.1080475E-1,1.4510727E0,0E0,0E0,1.4150707E0,6.914592E-1,0E0,2.4633932E-1,1.5302022E0,2.0185328E0,0E0,5.878897E-1,1.5158999E0,5.1484776E-1,7.816229E-1,6.9140494E-1,1.9805908E-1,1.1010201E0,0E0,0E0,4.8144817E-1,6.464709E-1,2.1306467E-1,1.1390202E0,8.790812E-1,1.3643341E0,2.0096664E0,3.4902122E0,1.0155258E0,2.136188E0,1.7770916E0,2.0390854E0,0E0,0E0,0E0,0E0,0E0,0E0,0E0,0E0,0E0,0E0,0E0,0E0,0E0,0E0,0E0,0E0,0E0,0E0,0E0,0E0,0E0,0E0,0E0,0E0,0E0,0E0,0E0,0E0,0E0,0E0,0E0,0E0,0E0,0E0,0E0,0E0,0E0,0E0,0E0,0E0,0E0,0E0,0E0,0E0,0E0,0E0,0E0,0E0,0E0,0E0,0E0,0E0],"parents":[2147483647,0,0,1,1,2,2,3,3,4,4,5,5,6,6,7,7,8,8,9,9,10,10,11,11,12,12,13,13,14,14,15,15,16,16,17,17,18,18,19,19,20,20,21,21,22,22,23,23,24,24,25,25,26,26,27,27,28,28,29,29,30,30,31,31,32,32,35,35,36,36,38,38,39,39,40,40,42,42,43,43,44,44,45,45,46,46,47,47,48,48,51,51,52,52,53,53,54,54,55,55,56,56,57,57,58,58,59,59,60,60,61,61,62,62],"right_children":[2,4,6,8,10,12,14,16,18,20,22,24,26,28,30,32,34,36,38,40,42,44,46,48,50,52,54,56,58,60,62,64,66,-1,-1,68,70,-1,72,74,76,-1,78,80,82,84,86,88,90,-1,-1,92,94,96,98,100,102,104,106,108,110,112,114,-1,-1,-1,-1,-1,-1,-1,-1,-1,-1,-1,-1,-1,-1,-1,-1,-1,-1,-1,-1,-1,-1,-1,-1,-1,-1,-1,-1,-1,-1,-1,-1,-1,-1,-1,-1,-1,-1,-1,-1,-1,-1,-1,-1,-1,-1,-1,-1,-1,-1,-1,-1],"split_conditions":[4.8571866E-2,3.593094E-2,8.645534E-3,9.456265E-2,2.0798533E-1,1.36E0,8.471392E-2,1.12E-2,5.954466E-1,1.13E-2,7.1039E-2,5.7225276E-2,5.0643828E-2,1.732337E-2,1.00137174E-1,6.4E-3,-4.47E-2,9.3E-3,3.567182E-3,1.732337E-2,5.401E-3,2.3733161E-2,9.6E-3,9.5E-3,-5.08E-2,1.6528925E-1,1.67E-2,6.1E-4,6.7961164E-2,9.4915256E-2,2.328E-1,-9E-4,8.8E-3,-2.108968E-2,-3.1651575E-2,-1.12E-2,1.5266359E-1,7.594646E-3,4.5616537E-2,3.416149E-2,9.52381E-3,-2.191159E-2,5.7225276E-2,-1.94E-2,1.4746478E-1,1.894E-3,4.7490347E-2,1.3012442E-2,9.974093E-2,1.0441633E-2,3.1859208E-2,-4.2E-2,9.667674E-1,9.2E-3,2.3258E0,-2.26E-2,5.5633772E-2,3.4188035E-1,7.8E-3,8.4674E-3,1.709E-3,-1.0759579E-1,1.533E-3,-1.5765755E-2,-2.3540488E-2,-1.1233862E-2,-1.5216223E-2,1.4969665E-2,3.4633506E-4,-1.5880171E-2,3.918446E-3,-2.3255251E-2,1.1052039E-3,-1.4478934E-2,-3.235462E-3,-9.557698E-3,9.425205E-3,-3.6824164E-3,2.6721833E-2,-2.0046863E-3,1.7562343E-2,1.7271226E-2,3.275092E-2,-1.6905315E-2,1.0685487E-2,-2.115066E-2,9.805687E-3,2.8669843E-2,2.188976E-2,5.2223126E-3,2.3819944E-2,-3.2705565E-3,1.4070903E-2,-1.8323636E-2,1.2489682E-2,3.310664E-2,9.320727E-3,-2.4697216E-2,2.4177678E-2,-9.544867E-3,1.6724655E-2,-1.3906412E-2,3.9234846E-3,1.5485379E-2,2.3472197E-3,-1.7136415E-2,1.6057E-2,8.2064625E-3,1.5812576E-2,-3.0707591E-3,1.1076032E-2,-1.5239412E-2,5.4614013E-3,2.1329725E-2,9.03014E-3],"split_indices":[0,4,8,2,2,6,1,28,9,28,4,4,4,5,1,28,27,28,0,5,6,1,28,28,27,9,27,6,5,8,2,27,28,0,0,27,2,0,1,8,1,0,4,27,8,6,1,4,1,0,0,27,9,28,6,27,4,9,28,9,6,18,6,0,0,0,0,0,0,0,0,0,0,0,0,0,0,0,0,0,0,0,0,0,0,0,0,0,0,0,0,0,0,0,0,0,0,0,0,0,0,0,0,0,0,0,0,0,0,0,0,0,0,0,0],"split_type":[0,0,0,0,0,0,0,0,0,0,0,0,0,0,0,0,0,0,0,0,0,0,0,0,0,0,0,0,0,0,0,0,0,0,0,0,0,0,0,0,0,0,0,0,0,0,0,0,0,0,0,0,0,0,0,0,0,0,0,0,0,0,0,0,0,0,0,0,0,0,0,0,0,0,0,0,0,0,0,0,0,0,0,0,0,0,0,0,0,0,0,0,0,0,0,0,0,0,0,0,0,0,0,0,0,0,0,0,0,0,0,0,0,0,0],"sum_hessian":[3.5104895E3,1.9519299E3,1.5585594E3,1.3956078E3,5.5632227E2,2.5145584E2,1.3071036E3,1.2997032E3,9.590455E1,4.541328E2,1.02189415E2,1.8947855E2,6.1977295E1,2.3243605E2,1.0746676E3,1.2590906E3,4.0612644E1,8.3347046E1,1.2557505E1,4.0982938E2,4.430346E1,7.5680885E1,2.6508528E1,1.595993E2,2.9879236E1,4.5456097E1,1.65212E1,7.528326E1,1.5715279E2,6.142023E2,4.6046533E2,2.943206E2,9.6476996E2,1.5316901E1,2.5295746E1,6.527562E1,1.8071428E1,1.1973078E0,1.1360196E1,3.06053E2,1.0377636E2,6.867007E0,3.7436455E1,3.8769157E1,3.691173E1,2.099238E1,5.5161476E0,1.2526661E2,3.433269E1,2.225017E0,2.765422E1,4.0602104E1,4.8539896E0,1.3748525E1,2.7726758E0,1.08699045E1,6.441335E1,1.2688228E2,3.0270515E1,4.0648532E2,2.0771696E2,1.9299066E2,2.6747467E2,2.4384572E2,5.0474865E1,5.287795E2,4.3599045E2,3.239935E1,3.287627E1,1.1872525E1,6.198902E0,1.0314853E1,1.0453435E0,3.322289E1,2.728301E2,1.5781626E1,8.7994736E1,1.4244789E0,3.6011974E1,1.7456985E1,2.1312172E1,2.8207205E1,8.704527E0,2.0358593E0,1.895652E1,3.0962465E0,2.4199014E0,2.8871935E1,9.639468E1,1.3680514E1,2.0652174E1,4.1035886E0,3.6498516E1,2.2155452E0,2.6384444E0,1.1678917E1,2.0696077E0,1.4447378E0,1.3279378E0,5.1620755E0,5.707829E0,5.139792E1,1.3015433E1,8.118241E1,4.5699867E1,1.7270594E1,1.2999922E1,5.4106342E1,3.5237897E2,3.0952656E1,1.7676431E2,1.0035212E1,1.8295544E2,3.9600056E1,2.278746E2],"tree_param":{"num_deleted":"0","num_feature":"30","num_nodes":"115","size_leaf_vector":"1"}},{"base_weights":[2.4646102E-3,-2.0356926E-1,1.9484675E-1,-2.6388362E-1,1.7601705E-1,3.9745513E-1,1.698253E-1,-2.857023E-1,1.17232695E-1,-4.6436336E-2,2.6746687E-1,4.5574808E-1,1.9728224E-1,2.1920516E-3,1.9390033E-1,-1.5710488E-1,-3.087526E-1,-1.3604891E-1,4.0650606E-1,3.545021E-1,-2.6678362E-1,1.8432616E-1,3.7520796E-1,-1.4551522E-2,4.6270517E-1,1.0354552E-1,5.385067E-1,-1.9664615E-1,1.4912383E-1,1.6657756E-1,2.8803387E-1,-4.141131E-1,-1.3649741E-1,-2.975012E-1,-5.6127185E-1,-2.1938993E-1,1.7964798E-1,-1.725178E-2,4.6094272E-1,4.0985525E-1,-1.4628151E-1,-2.9291925E-1,1.5332843E-1,3.6964864E-1,7.851764E-2,4.4645527E-1,9.891477E-2,3.678323E-1,5.285397E-1,2.875395E-1,-9.3604125E-2,6.394106E-1,3.6532615E-4,-2.1036622E-1,7.2654285E-2,2.9051903E-1,4.9223762E-2,5.492328E-3,1.77586E-1,4.593824E-1,2.6054296E-1,-2.718784E-2,-1.1483217E-2,-1.1716845E-2,-4.6262583E-3,-1.3568965E-2,-1.727291E-2,-5.123665E-3,-2.858824E-2,-1.4870534E-2,-2.8178128E-3,2.2053119E-2,-1.361717E-2,1.5896237E-2,3.0649513E-2,2.6897727E-2,7.881556E-3,6.643335E-3,-1.8883016E-2,-1.0485846E-2,-1.834975E-2,-9.478119E-3,2.2577588E-2,3.0269658E-2,1.1892621E-2,-1.7123073E-2,7.6488676E-3,1.6680844E-2,2.9566426E-2,3.115558E-2,-9.222884E-3,7.3781046E-3,2.1590415E-2,2.7573302E-2,1.6160238E-3,2.4035992E-2,2.9655236E-3,-1.8376922E-2,1.2636654E-2,2.8505283E-3,3.6156047E-2,6.2565133E-3,-1.09597165E-2,-1.0116376E-2,1.8959066E-2,1.6266545E-2,-1.3360023E-2,-1.3608943E-2,7.933119E-3,5.9376764E-3,-8.926767E-3,1.1334672E-2,6.229648E-3,-3.9180475E-3,2.4690045E-2,1.886475E-2,1.0675785E-2],"categories":[],"categories_nodes":[],"categories_segments":[],"categories_sizes":[],"default_left":[0,0,0,0,0,0,0,0,0,0,0,0,0,0,0,0,0,0,0,0,0,0,0,0,0,0,0,0,0,0,0,0,0,0,0,0,0,0,0,0,0,0,0,0,0,0,0,0,0,0,0,0,0,0,0,0,0,0,0,0,0,0,0,0,0,0,0,0,0,0,0,0,0,0,0,0,0,0,0,0,0,0,0,0,0,0,0,0,0,0,0,0,0,0,0,0,0,0,0,0,0,0,0,0,0,0,0,0,0,0,0,0,0,0,0,0,0],"id":12,"left_children":[1,3,5,7,9,11,13,15,17,19,21,23,25,27,29,31,33,35,37,39,41,43,45,-1,47,49,51,53,55,57,59,61,63,65,67,69,71,-1,73,75,77,79,81,83,85,87,89,91,93,95,97,99,-1,101,103,105,107,109,111,113,115,-1,-1,-1,-1,-1,-1,-1,-1,-1,-1,-1,-1,-1,-1,-1,-1,-1,-1,-1,-1,-1,-1,-1,-1,-1,-1,-1,-1,-1,-1,-1,-1,-1,-1,-1,-1,-1,-1,-1,-1,-1,-1,-1,-1,-1,-1,-1,-1,-1,-1,-1,-1,-1,-1,-1,-1],"loss_changes":[1.3925723E2,3.888607E1,9.143028E0,1.2209488E1,4.7564826E0,2.2317219E0,6.532959E0,4.057701E0,5.916558E0,6.171921E0,1.4125223E0,9.3125534E-1,1.4359154E0,5.9984193E0,3.5928192E0,1.0694375E0,3.1676254E0,1.181331E0,1.6971579E0,7.481537E-1,5.386088E-1,1.8402572E0,1.3550644E0,0E0,7.568245E-1,1.3989551E0,5.212717E-1,3.3766317E-1,1.653342E0,1.9487381E0,1.3738861E0,2.407248E-1,8.3147144E-1,1.3164902E0,1.7699528E-1,4.2573202E-1,1.2561336E0,0E0,5.7675695E-1,6.460104E-1,2.5738144E-1,1.8604517E-1,4.2200708E-1,9.2409706E-1,1.99435E0,7.218294E-1,2.4702911E0,8.618212E-1,9.789772E-1,8.449137E-1,1.8967817E0,3.6022687E-1,0E0,2.7408195E-1,4.9589083E-1,1.0319595E0,2.5189054E0,1.5086448E0,2.6498947E0,8.2579803E-1,1.4323254E0,0E0,0E0,0E0,0E0,0E0,0E0,0E0,0E0,0E0,0E0,0E0,0E0,0E0,0E0,0E0,0E0,0E0,0E0,0E0,0E0,0E0,0E0,0E0,0E0,0E0,0E0,0E0,0E0,0E0,0E0,0E0,0E0,0E0,0E0,0E0,0E0,0E0,0E0,0E0,0E0,0E0,0E0,0E0,0E0,0E0,0E0,0E0,0E0,0E0,0E0,0E0,0E0,0E0,0E0,0E0,0E0],"parents":[2147483647,0,0,1,1,2,2,3,3,4,4,5,5,6,6,7,7,8,8,9,9,10,10,11,11,12,12,13,13,14,14,15,15,16,16,17,17,18,18,19,19,20,20,21,21,22,22,24,24,25,25,26,26,27,27,28,28,29,29,30,30,31,31,32,32,33,33,34,34,35,35,36,36,38,38,39,39,40,40,41,41,42,42,43,43,44,44,45,45,46,46,47,47,48,48,49,49,50,50,51,51,53,53,54,54,55,55,56,56,57,57,58,58,59,59,60,60],"right_children":[2,4,6,8,10,12,14,16,18,20,22,24,26,28,30,32,34,36,38,40,42,44,46,-1,48,50,52,54,56,58,60,62,64,66,68,70,72,-1,74,76,78,80,82,84,86,88,90,92,94,96,98,100,-1,102,104,106,108,110,112,114,116,-1,-1,-1,-1,-1,-1,-1,-1,-1,-1,-1,-1,-1,-1,-1,-1,-1,-1,-1,-1,-1,-1,-1,-1,-1,-1,-1,-1,-1,-1,-1,-1,-1,-1,-1,-1,-1,-1,-1,-1,-1,-1,-1,-1,-1,-1,-1,-1,-1,-1,-1,-1,-1,-1,-1,-1],"split_conditions":[1.0106944E-1,1.732337E-2,1.0141988E-2,5.7225276E-2,3.8093634E-2,1.8357E0,1.6035861E-1,2.579E-1,1.13E-2,1.3384321E-2,6.1295275E-2,-4.7347404E-2,7.072E-1,1.732337E-2,3.8509324E-1,6.2E-3,1.12E-2,3.0256454E-2,5.401E-3,9.984E-1,8.396947E-1,8.645534E-3,6.5717414E-2,-1.4551522E-2,7E0,7.0805293E-1,5.5071E0,9.9502486E-1,1.1998596E0,1.5940958E-1,1.84E-3,-1.19E-2,-3.08E-2,6.176E-1,-3.696498E-2,8.842975E-2,-2.38E-2,-1.725178E-2,2.4691358E-1,7.9E-3,-7.8E-3,8E-3,9.975669E-2,-2.73E-2,1.787E-3,9.3E-3,6.303152E-2,1.7897514E-1,1.06E-2,-1.19E-2,-1.7E-3,3.0810194E-2,3.6532615E-4,-8.89371E-2,5.7225276E-2,8.443E-1,4.9479168E-2,9E0,1.1506225E0,2.690583E-2,-2.91E-2,-2.718784E-2,-1.1483217E-2,-1.1716845E-2,-4.6262583E-3,-1.3568965E-2,-1.727291E-2,-5.123665E-3,-2.858824E-2,-1.4870534E-2,-2.8178128E-3,2.2053119E-2,-1.361717E-2,1.5896237E-2,3.0649513E-2,2.6897727E-2,7.881556E-3,6.643335E-3,-1.8883016E-2,-1.0485846E-2,-1.834975E-2,-9.478119E-3,2.2577588E-2,3.0269658E-2,1.1892621E-2,-1.7123073E-2,7.6488676E-3,1.6680844E-2,2.9566426E-2,3.115558E-2,-9.222884E-3,7.3781046E-3,2.1590415E-2,2.7573302E-2,1.6160238E-3,2.4035992E-2,2.9655236E-3,-1.8376922E-2,1.2636654E-2,2.8505283E-3,3.6156047E-2,6.2565133E-3,-1.09597165E-2,-1.0116376E-2,1.8959066E-2,1.6266545E-2,-1.3360023E-2,-1.3608943E-2,7.933119E-3,5.9376764E-3,-8.926767E-3,1.1334672E-2,6.229648E-3,-3.9180475E-3,2.4690045E-2,1.886475E-2,1.0675785E-2],"split_indices":[10,5,8,4,4,6,10,29,28,8,4,0,29,5,10,28,28,18,6,6,9,8,10,0,25,3,6,9,3,3,6,27,27,29,5,8,27,0,9,27,27,28,0,27,6,28,8,10,28,27,27,4,0,2,4,29,5,25,3,8,27,0,0,0,0,0,0,0,0,0,0,0,0,0,0,0,0,0,0,0,0,0,0,0,0,0,0,0,0,0,0,0,0,0,0,0,0,0,0,0,0,0,0,0,0,0,0,0,0,0,0,0,0,0,0,0,0],"split_type":[0,0,0,0,0,0,0,0,0,0,0,0,0,0,0,0,0,0,0,0,0,0,0,0,0,0,0,0,0,0,0,0,0,0,0,0,0,0,0,0,0,0,0,0,0,0,0,0,0,0,0,0,0,0,0,0,0,0,0,0,0,0,0,0,0,0,0,0,0,0,0,0,0,0,0,0,0,0,0,0,0,0,0,0,0,0,0,0,0,0,0,0,0,0,0,0,0,0,0,0,0,0,0,0,0,0,0,0,0,0,0,0,0,0,0,0,0],"sum_hessian":[3.5112922E3,1.6954608E3,1.8158314E3,1.4632609E3,2.3219995E2,1.9796309E2,1.6178684E3,1.384263E3,7.899786E1,6.7790504E1,1.6440944E2,1.5232677E2,4.563633E1,2.0331154E2,1.4145569E3,2.1159453E2,1.1726685E3,4.2401608E1,3.6596256E1,2.3826878E1,4.3963627E1,9.432916E1,7.0080284E1,1.0291094E0,1.5129765E2,3.682398E1,8.812351E0,8.6251595E1,1.17059944E2,1.0984852E3,3.1607166E2,1.4289268E1,1.9730527E2,1.1247324E3,4.7936035E1,3.378717E1,8.614435E0,2.1111958E0,3.4485058E1,2.1618853E1,2.2080245E0,4.1673813E1,2.2898135E0,3.337669E1,6.0952473E1,5.52239E1,1.485638E1,6.467827E1,8.6619385E1,1.8810347E1,1.8013632E1,7.234428E0,1.5779229E0,8.227858E1,3.9730117E0,4.767469E1,6.9385254E1,7.0363495E1,1.0281217E3,4.1527008E1,2.7454465E2,7.247325E0,7.0419426E0,5.983701E1,1.3746826E2,7.324368E2,3.922956E2,1.3125212E0,4.6623512E1,2.2294012E1,1.1493158E1,5.473154E0,3.1412814E0,1.9362953E1,1.5122107E1,1.35859785E1,8.032874E0,1.1936727E0,1.0143518E0,2.1432173E1,2.0241642E1,1.2346268E0,1.0551867E0,1.0679972E1,2.2696718E1,8.619635E0,5.2332836E1,3.2900944E1,2.2322958E1,4.792344E0,1.0064036E1,1.5301505E1,4.9376762E1,8.2687706E1,3.93168E0,9.588246E0,9.222101E0,1.002398E1,7.989651E0,1.1204108E0,6.1140175E0,1.7717634E0,8.050682E1,2.2734563E0,1.6995553E0,4.526595E1,2.4087422E0,1.7246923E1,5.2138332E1,4.3775955E1,2.6587538E1,5.3192303E2,4.9619864E2,2.4212623E0,3.9105743E1,7.681563E1,1.9772902E2],"tree_param":{"num_deleted":"0","num_feature":"30","num_nodes":"117","size_leaf_vector":"1"}},{"base_weights":[5.9159775E-4,-2.0339423E-1,1.8990004E-1,-2.621598E-1,1.6255549E-1,1.4097404E-1,2.6903334E-1,-2.844685E-1,2.934513E-1,8.22975E-2,4.3971682E-1,-8.9768514E-2,1.6809721E-1,3.795633E-1,2.2996548E-1,-1.7039007E-1,-3.0464032E-1,-1.2011786E-2,3.2453763E-1,-1.8883182E-1,2.3027298E-1,-2.2120953E-1,5.223355E-1,-2.1818809E-1,1.5253642E-1,1.307402E-1,2.109452E-1,3.9252216E-1,-1.8322848E-1,1.1238487E-1,2.6513302E-1,-4.0789536E-1,-1.5096916E-1,-2.9565904E-1,-5.723639E-1,4.377699E-1,1.5156385E-1,4.649316E-3,-2.4625234E-1,5.56456E-1,1.6344848E-1,-2.0663632E-2,1.4938033E-2,3.091913E-1,6.0392517E-1,-2.3555516E-1,6.1760102E-3,-1.2355579E-1,3.2899716E-1,1.6058432E-1,2.0612767E-2,1.5721373E-1,2.5783297E-1,3.4964687E-1,5.2641684E-1,-4.1829002E-1,1.239411E-2,3.960112E-2,2.51505E-1,2.9089314E-1,1.1266214E-1,-2.155714E-2,-4.643606E-3,-5.0336123E-3,-1.2144654E-2,-1.329809E-2,-1.6415112E-2,-2.9140307E-2,-5.6346613E-3,2.3380661E-2,-8.775673E-3,-4.5946907E-4,2.218574E-2,-6.8911747E-3,1.3748825E-2,-1.3320525E-2,-4.5872325E-4,3.0332282E-2,2.6174285E-3,-8.662695E-4,1.3064563E-2,2.0221071E-2,-9.681344E-3,3.184366E-2,1.5836269E-2,4.5390832E-4,-1.1980984E-2,1.13296015E-2,-5.2702758E-3,5.1453165E-3,-1.8424084E-2,2.4794606E-2,2.5067898E-4,1.5360177E-2,6.2318714E-3,-4.5369705E-3,5.624486E-3,9.028456E-3,-1.7126994E-2,2.1537853E-2,1.07928645E-2,1.799749E-2,-4.011713E-3,6.4974786E-3,2.8430346E-2,-2.5093436E-2,-6.1525074E-3,8.4202755E-3,-3.359895E-3,1.6858885E-2,-6.154519E-3,1.5123347E-2,-1.6448768E-3,-9.249905E-3,9.49367E-3],"categories":[],"categories_nodes":[],"categories_segments":[],"categories_sizes":[],"default_left":[0,0,0,0,0,0,0,0,0,0,0,0,0,0,0,0,0,0,0,0,0,0,0,0,0,0,0,0,0,0,0,0,0,0,0,0,0,0,0,0,0,0,0,0,0,0,0,0,0,0,0,0,0,0,0,0,0,0,0,0,0,0,0,0,0,0,0,0,0,0,0,0,0,0,0,0,0,0,0,0,0,0,0,0,0,0,0,0,0,0,0,0,0,0,0,0,0,0,0,0,0,0,0,0,0,0,0,0,0,0,0,0,0,0,0],"id":13,"left_children":[1,3,5,7,9,11,13,15,17,19,21,23,25,27,29,31,33,-1,35,37,39,41,43,45,47,49,51,53,55,57,59,61,63,65,67,69,71,73,75,77,79,-1,-1,81,83,85,87,89,91,93,95,97,99,101,103,105,-1,107,109,111,113,-1,-1,-1,-1,-1,-1,-1,-1,-1,-1,-1,-1,-1,-1,-1,-1,-1,-1,-1,-1,-1,-1,-1,-1,-1,-1,-1,-1,-1,-1,-1,-1,-1,-1,-1,-1,-1,-1,-1,-1,-1,-1,-1,-1,-1,-1,-1,-1,-1,-1,-1,-1,-1,-1],"loss_changes":[1.3467874E2,3.6144196E1,6.9654846E0,1.801699E1,5.144415E0,7.0238743E0,2.8922386E0,3.150154E0,1.0127115E0,7.33854E0,2.9585981E0,3.7189112E0,1.5770054E0,1.3748951E0,2.0887394E0,9.132819E-1,2.670845E0,0E0,9.847803E-1,7.204883E-1,2.48284E0,7.713851E-1,6.232834E-1,3.0471206E-1,2.068266E0,1.7654562E0,1.1316624E0,8.203125E-1,5.802706E-1,1.2020121E0,1.5133438E0,7.265353E-2,8.861942E-1,1.0225449E0,1.1321354E-1,6.660104E-1,1.0730715E0,6.4640933E-1,2.3626494E-1,4.65703E-1,1.7629814E0,0E0,0E0,7.938304E-1,1.0709953E-1,7.4026585E-2,1.8536831E-1,9.7834563E-1,1.3851626E0,2.1925735E0,1.19587E0,2.622414E0,1.6991596E0,6.290016E-1,6.028309E-1,2.2527158E-2,0E0,1.1086221E0,1.3548818E0,1.2695541E0,1.3802307E0,0E0,0E0,0E0,0E0,0E0,0E0,0E0,0E0,0E0,0E0,0E0,0E0,0E0,0E0,0E0,0E0,0E0,0E0,0E0,0E0,0E0,0E0,0E0,0E0,0E0,0E0,0E0,0E0,0E0,0E0,0E0,0E0,0E0,0E0,0E0,0E0,0E0,0E0,0E0,0E0,0E0,0E0,0E0,0E0,0E0,0E0,0E0,0E0,0E0,0E0,0E0,0E0,0E0,0E0],"parents":[2147483647,0,0,1,1,2,2,3,3,4,4,5,5,6,6,7,7,8,8,9,9,10,10,11,11,12,12,13,13,14,14,15,15,16,16,18,18,19,19,20,20,21,21,22,22,23,23,24,24,25,25,26,26,27,27,28,28,29,29,30,30,31,31,32,32,33,33,34,34,35,35,36,36,37,37,38,38,39,39,40,40,43,43,44,44,45,45,46,46,47,47,48,48,49,49,50,50,51,51,52,52,53,53,54,54,55,55,57,57,58,58,59,59,60,60],"right_children":[2,4,6,8,10,12,14,16,18,20,22,24,26,28,30,32,34,-1,36,38,40,42,44,46,48,50,52,54,56,58,60,62,64,66,68,70,72,74,76,78,80,-1,-1,82,84,86,88,90,92,94,96,98,100,102,104,106,-1,108,110,112,114,-1,-1,-1,-1,-1,-1,-1,-1,-1,-1,-1,-1,-1,-1,-1,-1,-1,-1,-1,-1,-1,-1,-1,-1,-1,-1,-1,-1,-1,-1,-1,-1,-1,-1,-1,-1,-1,-1,-1,-1,-1,-1,-1,-1,-1,-1,-1,-1,-1,-1,-1,-1,-1,-1],"split_conditions":[1.0106944E-1,4.8013292E-2,4.9479168E-2,4.9479168E-2,1.13E-2,1.6035861E-1,6.8426197E-3,2.579E-1,0E0,1.3110846E-2,5.401E-3,1.6483517E-2,8.52429E-1,1E1,1.9061583E-1,6.2E-3,